{"learner":{"attributes":{"scikit_learn":"{\"_estimator_type\": \"regressor\"}"},"feature_names":[],"feature_types":[],"gradient_booster":{"model":{"gbtree_model_param":{"num_parallel_tree":"1","num_trees":"400"},"iteration_indptr":[0,4,8,12,16,20,24,28,32,36,40,44,48,52,56,60,64,68,72,76,80,84,88,92,96,100,104,108,112,116,120,124,128,132,136,140,144,148,152,156,160,164,168,172,176,180,184,188,192,196,200,204,208,212,216,220,224,228,232,236,240,244,248,252,256,260,264,268,272,276,280,284,288,292,296,300,304,308,312,316,320,324,328,332,336,340,344,348,352,356,360,364,368,372,376,380,384,388,392,396,400],"tree_info":[0,1,2,3,0,1,2,3,0,1,2,3,0,1,2,3,0,1,2,3,0,1,2,3,0,1,2,3,0,1,2,3,0,1,2,3,0,1,2,3,0,1,2,3,0,1,2,3,0,1,2,3,0,1,2,3,0,1,2,3,0,1,2,3,0,1,2,3,0,1,2,3,0,1,2,3,0,1,2,3,0,1,2,3,0,1,2,3,0,1,2,3,0,1,2,3,0,1,2,3,0,1,2,3,0,1,2,3,0,1,2,3,0,1,2,3,0,1,2,3,0,1,2,3,0,1,2,3,0,1,2,3,0,1,2,3,0,1,2,3,0,1,2,3,0,1,2,3,0,1,2,3,0,1,2,3,0,1,2,3,0,1,2,3,0,1,2,3,0,1,2,3,0,1,2,3,0,1,2,3,0,1,2,3,0,1,2,3,0,1,2,3,0,1,2,3,0,1,2,3,0,1,2,3,0,1,2,3,0,1,2,3,0,1,2,3,0,1,2,3,0,1,2,3,0,1,2,3,0,1,2,3,0,1,2,3,0,1,2,3,0,1,2,3,0,1,2,3,0,1,2,3,0,1,2,3,0,1,2,3,0,1,2,3,0,1,2,3,0,1,2,3,0,1,2,3,0,1,2,3,0,1,2,3,0,1,2,3,0,1,2,3,0,1,2,3,0,1,2,3,0,1,2,3,0,1,2,3,0,1,2,3,0,1,2,3,0,1,2,3,0,1,2,3,0,1,2,3,0,1,2,3,0,1,2,3,0,1,2,3,0,1,2,3,0,1,2,3,0,1,2,3,0,1,2,3,0,1,2,3,0,1,2,3,0,1,2,3,0,1,2,3,0,1,2,3,0,1,2,3,0,1,2,3,0,1,2,3,0,1,2,3,0,1,2,3,0,1,2,3],"trees":[{"base_weights":[-3.635933E-3,-2.229103E-1,3.344373E-1,-3.08584E-1,-9.6186794E-2,2.0330669E-1,4.205102E-1,-3.520071E-2,-2.5840933E-2,-1.2808411E-1,-3.0318327E-2,1.4713334E-1,2.3762176E-2,3.619915E-2,4.8490245E-2,-1.717316E-2,-1.0424997E-2,-5.936064E-2,6.1887875E-4,7.2206124E-3,1.579668E-2,-6.426321E-3,-2.8587133E-3,-1.3325455E-3,2.0450947E-3],"categories":[],"categories_nodes":[],"categories_segments":[],"categories_sizes":[],"default_left":[0,0,0,0,0,0,0,0,0,0,0,0,0,0,0,0,0,0,0,0,0,0,0,0,0],"id":0,"left_children":[1,3,5,7,9,11,13,-1,-1,15,17,19,-1,-1,-1,-1,-1,21,23,-1,-1,-1,-1,-1,-1],"loss_changes":[2.713229E1,2.3805437E0,1.5398045E0,1.9663143E-1,1.873101E-1,7.876587E-2,1.4853E-1,0E0,0E0,4.5555353E-2,2.788986E-2,8.886874E-3,0E0,0E0,0E0,0E0,0E0,5.7680905E-4,4.6972376E-3,0E0,0E0,0E0,0E0,0E0,0E0],"parents":[2147483647,0,0,1,1,2,2,3,3,4,4,5,5,6,6,9,9,10,10,11,11,17,17,18,18],"right_children":[2,4,6,8,10,12,14,-1,-1,16,18,20,-1,-1,-1,-1,-1,22,24,-1,-1,-1,-1,-1,-1],"split_conditions":[4.4334957E-1,1.913016E-1,7.043413E-1,8.9872964E-2,3.1386283E-1,5.8407533E-1,8.241719E-1,-3.520071E-2,-2.5840933E-2,2.5901303E-1,3.6736712E-1,5.090031E-1,2.3762176E-2,3.619915E-2,4.8490245E-2,-1.717316E-2,-1.0424997E-2,3.4845066E-1,3.913095E-1,7.2206124E-3,1.579668E-2,-6.426321E-3,-2.8587133E-3,-1.3325455E-3,2.0450947E-3],"split_indices":[1,1,1,1,1,1,1,0,0,1,1,1,0,0,0,0,0,1,1,0,0,0,0,0,0],"split_type":[0,0,0,0,0,0,0,0,0,0,0,0,0,0,0,0,0,0,0,0,0,0,0,0,0],"sum_hessian":[3.64E2,2.21E2,1.43E2,1.31E2,9E1,5.8E1,8.5E1,6.7E1,6.4E1,6E1,3E1,2.4E1,3.4E1,4.8E1,3.7E1,1.9E1,4.1E1,1.5E1,1.5E1,4E0,2E1,1.2E1,3E0,9E0,6E0],"tree_param":{"num_deleted":"0","num_feature":"2","num_nodes":"25","size_leaf_vector":"1"}},{"base_weights":[7.5333174E-3,-2.1918184E-1,3.5302654E-1,-3.0596364E-1,-8.703397E-2,2.2196503E-1,4.3784955E-1,-3.5121318E-2,-2.5470708E-2,-1.1673047E-1,-1.4518674E-2,1.6617307E-1,2.6699735E-2,3.7341602E-2,4.9233194E-2,-1.6769718E-2,-9.424935E-3,-3.3714503E-2,2.1485683E-2,8.388177E-3,1.7982204E-2,-4.326058E-3,-1.9361696E-3,1.1681722E-3,3.3271194E-3],"categories":[],"categories_nodes":[],"categories_segments":[],"categories_sizes":[],"default_left":[0,0,0,0,0,0,0,0,0,0,0,0,0,0,0,0,0,0,0,0,0,0,0,0,0],"id":1,"left_children":[1,3,5,7,9,11,13,-1,-1,15,17,19,-1,-1,-1,-1,-1,21,23,-1,-1,-1,-1,-1,-1],"loss_changes":[2.8667297E1,2.507804E0,1.514782E0,2.1901512E-1,1.8996227E-1,1.0386634E-1,1.2156868E-1,0E0,0E0,5.637932E-2,1.9384984E-2,1.7488658E-2,0E0,0E0,0E0,0E0,0E0,1.6286355E-3,7.667821E-4,0E0,0E0,0E0,0E0,0E0,0E0],"parents":[2147483647,0,0,1,1,2,2,3,3,4,4,5,5,6,6,9,9,10,10,11,11,17,17,18,18],"right_children":[2,4,6,8,10,12,14,-1,-1,16,18,20,-1,-1,-1,-1,-1,22,24,-1,-1,-1,-1,-1,-1],"split_conditions":[4.3618664E-1,1.9324073E-1,7.015315E-1,8.9872964E-2,3.1877002E-1,6.008548E-1,7.9927975E-1,-3.5121318E-2,-2.5470708E-2,2.524437E-1,3.8050577E-1,5.090031E-1,2.6699735E-2,3.7341602E-2,4.9233194E-2,-1.6769718E-2,-9.424935E-3,3.4845066E-1,4.1362935E-1,8.388177E-3,1.7982204E-2,-4.326058E-3,-1.9361696E-3,1.1681722E-3,3.3271194E-3],"split_indices":[1,1,1,1,1,1,1,0,0,1,1,1,0,0,0,0,0,1,1,0,0,0,0,0,0],"split_type":[0,0,0,0,0,0,0,0,0,0,0,0,0,0,0,0,0,0,0,0,0,0,0,0,0],"sum_hessian":[3.64E2,2.2E2,1.44E2,1.32E2,8.8E1,5.8E1,8.6E1,6.7E1,6.5E1,6.2E1,2.6E1,2.8E1,3E1,4.3E1,4.3E1,1.7E1,4.5E1,1.7E1,9E0,5E0,2.3E1,9E0,8E0,6E0,3E0],"tree_param":{"num_deleted":"0","num_feature":"2","num_nodes":"25","size_leaf_vector":"1"}},{"base_weights":[-1.2764212E-3,-2.2234698E-1,3.356744E-1,-3.0630437E-1,-9.43843E-2,2.0075281E-1,4.2331463E-1,-3.5181582E-2,-2.5477279E-2,-1.1845139E-1,-1.0812248E-2,9.336125E-2,2.1341395E-1,3.701485E-2,4.9530458E-2,-1.7273786E-2,-9.880381E-2,-3.6498194E-3,4.6377373E-3,9.937366E-3,2.5637224E-3,1.7616939E-2,2.4137488E-2,-9.968517E-3,-2.648665E-3,7.0834656E-5,1.8809388E-3],"categories":[],"categories_nodes":[],"categories_segments":[],"categories_sizes":[],"default_left":[0,0,0,0,0,0,0,0,0,0,0,0,0,0,0,0,0,0,0,0,0,0,0,0,0,0,0],"id":2,"left_children":[1,3,5,7,9,11,13,-1,-1,15,17,19,21,-1,-1,-1,23,-1,25,-1,-1,-1,-1,-1,-1,-1,-1],"loss_changes":[2.7263454E1,2.3453846E0,1.6295776E0,2.2228813E-1,1.7772812E-1,6.0297728E-2,1.4964962E-1,0E0,0E0,5.652803E-2,8.503066E-3,7.098019E-4,1.1629581E-2,0E0,0E0,0E0,7.377267E-4,0E0,7.662797E-4,0E0,0E0,0E0,0E0,0E0,0E0,0E0,0E0],"parents":[2147483647,0,0,1,1,2,2,3,3,4,4,5,5,6,6,9,9,10,10,11,11,12,12,16,16,18,18],"right_children":[2,4,6,8,10,12,14,-1,-1,16,18,20,22,-1,-1,-1,24,-1,26,-1,-1,-1,-1,-1,-1,-1,-1],"split_conditions":[4.3618664E-1,1.9324073E-1,7.015315E-1,8.9872964E-2,3.2427084E-1,5.3088766E-1,8.39962E-1,-3.5181582E-2,-2.5477279E-2,2.4781352E-1,3.684752E-1,5.301876E-1,6.0599947E-1,3.701485E-2,4.9530458E-2,-1.7273786E-2,5.230246E-1,-3.6498194E-3,4.441557E-1,9.937366E-3,2.5637224E-3,1.7616939E-2,2.4137488E-2,-9.968517E-3,-2.648665E-3,7.0834656E-5,1.8809388E-3],"split_indices":[1,1,1,1,1,1,1,0,0,1,1,0,1,0,0,0,0,0,0,0,0,0,0,0,0,0,0],"split_type":[0,0,0,0,0,0,0,0,0,0,0,0,0,0,0,0,0,0,0,0,0,0,0,0,0,0,0],"sum_hessian":[3.64E2,2.2E2,1.44E2,1.32E2,8.8E1,5.8E1,8.6E1,6.7E1,6.5E1,6.8E1,2E1,7E0,5.1E1,5.3E1,3.3E1,1.6E1,5.2E1,7E0,1.3E1,6E0,1E0,2.5E1,2.6E1,5.1E1,1E0,1.1E1,2E0],"tree_param":{"num_deleted":"0","num_feature":"2","num_nodes":"27","size_leaf_vector":"1"}},{"base_weights":[-2.6209184E-3,-2.2280131E-1,3.3298245E-1,-3.0654952E-1,-9.514613E-2,2.0647416E-1,4.1494805E-1,-3.5158824E-2,-2.5550127E-2,-1.1695827E-1,-1.4046301E-2,1.637433E-1,2.4793535E-2,3.6465768E-2,4.826166E-2,-1.7683651E-2,-9.5941825E-3,-3.8379934E-2,2.008727E-3,8.334614E-2,1.7554477E-2,-7.885382E-4,-4.1609816E-3,-1.0611169E-3,6.855813E-4,9.116272E-3,2.2131638E-3],"categories":[],"categories_nodes":[],"categories_segments":[],"categories_sizes":[],"default_left":[0,0,0,0,0,0,0,0,0,0,0,0,0,0,0,0,0,0,0,0,0,0,0,0,0,0,0],"id":3,"left_children":[1,3,5,7,9,11,13,-1,-1,15,17,19,-1,-1,-1,-1,-1,21,23,25,-1,-1,-1,-1,-1,-1,-1],"loss_changes":[2.7045237E1,2.333519E0,1.4178772E0,2.1595573E-1,1.5579462E-1,6.393099E-2,1.2007809E-1,0E0,0E0,7.112402E-2,7.890638E-3,1.5730739E-2,0E0,0E0,0E0,0E0,0E0,4.5984052E-4,8.679546E-4,8.533485E-4,0E0,0E0,0E0,0E0,0E0,0E0,0E0],"parents":[2147483647,0,0,1,1,2,2,3,3,4,4,5,5,6,6,9,9,10,10,11,11,17,17,18,18,19,19],"right_children":[2,4,6,8,10,12,14,-1,-1,16,18,20,-1,-1,-1,-1,-1,22,24,26,-1,-1,-1,-1,-1,-1,-1],"split_conditions":[4.3618664E-1,1.9324073E-1,7.015315E-1,8.9872964E-2,3.2961336E-1,6.0413945E-1,8.39962E-1,-3.5158824E-2,-2.5550127E-2,2.4781352E-1,3.6883137E-1,5.090031E-1,2.4793535E-2,3.6465768E-2,4.826166E-2,-1.7683651E-2,-9.5941825E-3,2.6866916E-1,3.8050577E-1,5.301876E-1,1.7554477E-2,-7.885382E-4,-4.1609816E-3,-1.0611169E-3,6.855813E-4,9.116272E-3,2.2131638E-3],"split_indices":[1,1,1,1,1,1,1,0,0,1,1,1,0,0,0,0,0,0,1,0,0,0,0,0,0,0,0],"split_type":[0,0,0,0,0,0,0,0,0,0,0,0,0,0,0,0,0,0,0,0,0,0,0,0,0,0,0],"sum_hessian":[3.64E2,2.2E2,1.44E2,1.32E2,8.8E1,5.8E1,8.6E1,6.7E1,6.5E1,6.9E1,1.9E1,3.1E1,2.7E1,5.3E1,3.3E1,1.6E1,5.3E1,7E0,1.2E1,5E0,2.6E1,1E0,6E0,3E0,9E0,4E0,1E0],"tree_param":{"num_deleted":"0","num_feature":"2","num_nodes":"27","size_leaf_vector":"1"}},{"base_weights":[-3.1784836E-3,-2.0105717E-1,3.0190656E-1,-2.7969834E-1,-8.89667E-2,1.9433267E-1,3.8795677E-1,-3.1672467E-2,-2.339804E-2,-1.2714542E-1,-4.1615963E-2,1.4377438E-1,2.3500506E-2,3.3609565E-2,4.4056606E-2,-1.6098531E-2,-1.020222E-2,-6.6686906E-3,-3.0903849E-3,7.9644375E-2,1.5551037E-2,-1.5542748E-3,1.8698007E-3,8.530387E-3,2.2843704E-3],"categories":[],"categories_nodes":[],"categories_segments":[],"categories_sizes":[],"default_left":[0,0,0,0,0,0,0,0,0,0,0,0,0,0,0,0,0,0,0,0,0,0,0,0,0],"id":4,"left_children":[1,3,5,7,9,11,13,-1,-1,15,17,19,-1,-1,-1,-1,-1,-1,21,23,-1,-1,-1,-1,-1],"loss_changes":[2.2095686E1,1.9320307E0,1.2575808E0,1.4595222E-1,1.6283327E-1,1.01929665E-1,6.74696E-2,0E0,0E0,2.6934505E-2,4.1326426E-2,1.1698544E-2,0E0,0E0,0E0,0E0,0E0,0E0,5.174324E-3,3.0159205E-4,0E0,0E0,0E0,0E0,0E0],"parents":[2147483647,0,0,1,1,2,2,3,3,4,4,5,5,6,6,9,9,10,10,11,11,18,18,19,19],"right_children":[2,4,6,8,10,12,14,-1,-1,16,18,20,-1,-1,-1,-1,-1,-1,22,24,-1,-1,-1,-1,-1],"split_conditions":[4.4334957E-1,1.840991E-1,7.240492E-1,9.3830384E-2,2.977957E-1,6.0599947E-1,8.321659E-1,-3.1672467E-2,-2.339804E-2,2.4781352E-1,3.5007322E-1,5.3088766E-1,2.3500506E-2,3.3609565E-2,4.4056606E-2,-1.6098531E-2,-1.020222E-2,-6.6686906E-3,3.913095E-1,5.301876E-1,1.5551037E-2,-1.5542748E-3,1.8698007E-3,8.530387E-3,2.2843704E-3],"split_indices":[1,1,1,1,1,1,1,0,0,1,1,1,0,0,0,0,0,0,1,0,0,0,0,0,0],"split_type":[0,0,0,0,0,0,0,0,0,0,0,0,0,0,0,0,0,0,0,0,0,0,0,0,0],"sum_hessian":[3.64E2,2.21E2,1.43E2,1.29E2,9.2E1,6.5E1,7.8E1,6.8E1,6.1E1,5E1,4.2E1,3.1E1,3.4E1,4.3E1,3.5E1,1.9E1,3.1E1,2.5E1,1.7E1,6E0,2.5E1,1.1E1,6E0,5E0,1E0],"tree_param":{"num_deleted":"0","num_feature":"2","num_nodes":"25","size_leaf_vector":"1"}},{"base_weights":[6.919961E-3,-1.9766435E-1,3.1868693E-1,-2.7898088E-1,-8.2745016E-2,2.0066802E-1,3.950597E-1,-3.1660832E-2,-2.332124E-2,-1.09562926E-1,-1.3132253E-2,1.5046509E-1,2.4115888E-2,3.3692308E-2,4.442177E-2,-1.5778039E-2,-8.568782E-3,-3.069096E-2,1.9786647E-2,7.689163E-2,1.6258908E-2,-3.936714E-3,-1.7640658E-3,1.0680442E-3,3.0775846E-3,8.351528E-3,2.1886693E-3],"categories":[],"categories_nodes":[],"categories_segments":[],"categories_sizes":[],"default_left":[0,0,0,0,0,0,0,0,0,0,0,0,0,0,0,0,0,0,0,0,0,0,0,0,0,0,0],"id":5,"left_children":[1,3,5,7,9,11,13,-1,-1,15,17,19,-1,-1,-1,-1,-1,21,23,25,-1,-1,-1,-1,-1,-1,-1],"loss_changes":[2.3343653E1,2.0421247E0,1.2276716E0,1.4832115E-1,1.7217994E-1,8.364701E-2,9.8968506E-2,0E0,0E0,6.3610315E-2,1.6213633E-2,1.3366401E-2,0E0,0E0,0E0,0E0,0E0,1.3436209E-3,6.719995E-4,3.5812706E-4,0E0,0E0,0E0,0E0,0E0,0E0,0E0],"parents":[2147483647,0,0,1,1,2,2,3,3,4,4,5,5,6,6,9,9,10,10,11,11,17,17,18,18,19,19],"right_children":[2,4,6,8,10,12,14,-1,-1,16,18,20,-1,-1,-1,-1,-1,22,24,26,-1,-1,-1,-1,-1,-1,-1],"split_conditions":[4.3618664E-1,1.7408682E-1,7.015315E-1,8.9872964E-2,3.1877002E-1,6.008548E-1,7.9927975E-1,-3.1660832E-2,-2.332124E-2,2.4781352E-1,3.8050577E-1,5.090031E-1,2.4115888E-2,3.3692308E-2,4.442177E-2,-1.5778039E-2,-8.568782E-3,3.4845066E-1,4.1362935E-1,5.301876E-1,1.6258908E-2,-3.936714E-3,-1.7640658E-3,1.0680442E-3,3.0775846E-3,8.351528E-3,2.1886693E-3],"split_indices":[1,1,1,1,1,1,1,0,0,1,1,1,0,0,0,0,0,1,1,0,0,0,0,0,0,0,0],"split_type":[0,0,0,0,0,0,0,0,0,0,0,0,0,0,0,0,0,0,0,0,0,0,0,0,0,0,0],"sum_hessian":[3.64E2,2.2E2,1.44E2,1.28E2,9.2E1,5.8E1,8.6E1,6.7E1,6.1E1,6.6E1,2.6E1,2.8E1,3E1,4.3E1,4.3E1,2E1,4.6E1,1.7E1,9E0,5E0,2.3E1,9E0,8E0,6E0,3E0,4E0,1E0],"tree_param":{"num_deleted":"0","num_feature":"2","num_nodes":"27","size_leaf_vector":"1"}},{"base_weights":[-1.0157531E-3,-2.005297E-1,3.0307803E-1,-2.7613E-1,-8.53008E-2,1.8159711E-1,3.8197795E-1,-3.1158933E-2,-2.2180934E-2,-1.07039444E-1,-9.811883E-3,8.5587755E-2,1.9287552E-1,3.35819E-2,4.5081932E-2,-1.4823869E-2,-8.592647E-2,-3.330459E-2,4.313371E-3,9.0855904E-2,2.4355368E-3,1.6136196E-2,2.2045571E-2,-8.668396E-3,-2.5162324E-3,-9.3847665E-4,-3.5381026E-3,6.434098E-5,1.7555425E-3,2.6547478E-3,9.71494E-3],"categories":[],"categories_nodes":[],"categories_segments":[],"categories_sizes":[],"default_left":[0,0,0,0,0,0,0,0,0,0,0,0,0,0,0,0,0,0,0,0,0,0,0,0,0,0,0,0,0,0,0],"id":6,"left_children":[1,3,5,7,9,11,13,-1,-1,15,17,19,21,-1,-1,-1,23,25,27,29,-1,-1,-1,-1,-1,-1,-1,-1,-1,-1,-1],"loss_changes":[2.2205671E1,1.9016523E0,1.3204355E0,1.8706703E-1,1.4500111E-1,4.7379375E-2,1.2506199E-1,0E0,0E0,4.7281265E-2,7.1123047E-3,3.6782026E-4,9.622693E-3,0E0,0E0,0E0,2.8163195E-5,6.5301545E-5,6.6907424E-4,2.540052E-4,0E0,0E0,0E0,0E0,0E0,0E0,0E0,0E0,0E0,0E0,0E0],"parents":[2147483647,0,0,1,1,2,2,3,3,4,4,5,5,6,6,9,9,10,10,11,11,12,12,16,16,17,17,18,18,19,19],"right_children":[2,4,6,8,10,12,14,-1,-1,16,18,20,22,-1,-1,-1,24,26,28,30,-1,-1,-1,-1,-1,-1,-1,-1,-1,-1,-1],"split_conditions":[4.3618664E-1,1.9324073E-1,7.015315E-1,1.0930389E-1,3.2427084E-1,5.3088766E-1,8.457794E-1,-3.1158933E-2,-2.2180934E-2,2.622581E-1,3.684752E-1,5.301876E-1,6.149432E-1,3.35819E-2,4.5081932E-2,-1.4823869E-2,5.230246E-1,2.6866916E-1,4.441557E-1,4.4334957E-1,2.4355368E-3,1.6136196E-2,2.2045571E-2,-8.668396E-3,-2.5162324E-3,-9.3847665E-4,-3.5381026E-3,6.434098E-5,1.7555425E-3,2.6547478E-3,9.71494E-3],"split_indices":[1,1,1,1,1,1,1,0,0,1,1,0,1,0,0,0,0,0,0,1,0,0,0,0,0,0,0,0,0,0,0],"split_type":[0,0,0,0,0,0,0,0,0,0,0,0,0,0,0,0,0,0,0,0,0,0,0,0,0,0,0,0,0,0,0],"sum_hessian":[3.64E2,2.2E2,1.44E2,1.32E2,8.8E1,5.8E1,8.6E1,7.7E1,5.5E1,6.8E1,2E1,7E0,5.1E1,5.5E1,3.1E1,2.1E1,4.7E1,7E0,1.3E1,6E0,1E0,2.7E1,2.4E1,4.6E1,1E0,1E0,6E0,1.1E1,2E0,1E0,5E0],"tree_param":{"num_deleted":"0","num_feature":"2","num_nodes":"31","size_leaf_vector":"1"}},{"base_weights":[-2.235287E-3,-2.0094341E-1,3.006387E-1,-2.708273E-1,-7.6812886E-2,1.8828876E-1,3.755266E-1,-3.1072149E-2,-2.1797461E-2,-9.4847E-2,-8.42418E-3,1.4935847E-1,2.2744631E-2,3.297917E-2,4.357744E-2,-1.3951863E-2,-8.3990805E-2,-2.3780355E-2,6.238797E-3,7.6899774E-2,1.595511E-2,-9.0333E-3,-6.1478894E-3,-3.3648976E-3,-1.3237883E-3,1.6349351E-3,-3.226464E-4,8.386971E-3,2.102506E-3],"categories":[],"categories_nodes":[],"categories_segments":[],"categories_sizes":[],"default_left":[0,0,0,0,0,0,0,0,0,0,0,0,0,0,0,0,0,0,0,0,0,0,0,0,0,0,0,0,0],"id":7,"left_children":[1,3,5,7,9,11,13,-1,-1,15,17,19,-1,-1,-1,-1,21,23,25,27,-1,-1,-1,-1,-1,-1,-1,-1,-1],"loss_changes":[2.2027397E1,1.8963118E0,1.149271E0,2.295723E-1,9.910068E-2,5.7493925E-2,9.325218E-2,0E0,0E0,1.9319475E-2,4.201371E-3,1.2102485E-2,0E0,0E0,0E0,0E0,2.1562278E-3,4.909155E-4,1.009741E-3,5.732924E-4,0E0,0E0,0E0,0E0,0E0,0E0,0E0,0E0,0E0],"parents":[2147483647,0,0,1,1,2,2,3,3,4,4,5,5,6,6,9,9,10,10,11,11,16,16,17,17,18,18,19,19],"right_children":[2,4,6,8,10,12,14,-1,-1,16,18,20,-1,-1,-1,-1,22,24,26,28,-1,-1,-1,-1,-1,-1,-1,-1,-1],"split_conditions":[4.3618664E-1,2.0697297E-1,7.043413E-1,1.0930389E-1,3.4845066E-1,6.0599947E-1,8.39962E-1,-3.1072149E-2,-2.1797461E-2,2.5901303E-1,3.8050577E-1,5.090031E-1,2.2744631E-2,3.297917E-2,4.357744E-2,-1.3951863E-2,3.0816415E-1,3.6736712E-1,3.913095E-1,5.301876E-1,1.595511E-2,-9.0333E-3,-6.1478894E-3,-3.3648976E-3,-1.3237883E-3,1.6349351E-3,-3.226464E-4,8.386971E-3,2.102506E-3],"split_indices":[1,1,1,1,1,1,1,0,0,1,1,1,0,0,0,0,1,1,1,0,0,0,0,0,0,0,0,0,0],"split_type":[0,0,0,0,0,0,0,0,0,0,0,0,0,0,0,0,0,0,0,0,0,0,0,0,0,0,0,0,0],"sum_hessian":[3.64E2,2.2E2,1.44E2,1.4E2,8E1,5.9E1,8.5E1,7.7E1,6.3E1,6.3E1,1.7E1,3.2E1,2.7E1,5.2E1,3.3E1,1E1,5.3E1,8E0,9E0,5E0,2.7E1,3.9E1,1.4E1,3E0,5E0,4E0,5E0,4E0,1E0],"tree_param":{"num_deleted":"0","num_feature":"2","num_nodes":"29","size_leaf_vector":"1"}},{"base_weights":[-2.7515676E-3,-1.813466E-1,2.7260154E-1,-2.4955493E-1,-7.66133E-2,1.608415E-1,3.3985952E-1,-2.8392157E-2,-2.0631758E-2,-1.0334287E-1,-2.5771778E-2,1.09652236E-1,1.8220346E-2,2.894634E-2,3.9179977E-2,-1.3528925E-2,-8.4310295E-3,-4.9240652E-2,7.7463686E-4,1.1333275E-2,2.1701516E-3,-5.293542E-3,-2.3998797E-3,-1.0727308E-3,1.7095323E-3],"categories":[],"categories_nodes":[],"categories_segments":[],"categories_sizes":[],"default_left":[0,0,0,0,0,0,0,0,0,0,0,0,0,0,0,0,0,0,0,0,0,0,0,0,0],"id":8,"left_children":[1,3,5,7,9,11,13,-1,-1,15,17,19,-1,-1,-1,-1,-1,21,23,-1,-1,-1,-1,-1,-1],"loss_changes":[1.799893E1,1.5667782E0,1.0277481E0,1.4053631E-1,1.1828512E-1,4.1257143E-2,1.1955261E-1,0E0,0E0,2.3859024E-2,1.9974604E-2,3.6908686E-3,0E0,0E0,0E0,0E0,0E0,3.1508133E-4,3.1869006E-3,0E0,0E0,0E0,0E0,0E0,0E0],"parents":[2147483647,0,0,1,1,2,2,3,3,4,4,5,5,6,6,9,9,10,10,11,11,17,17,18,18],"right_children":[2,4,6,8,10,12,14,-1,-1,16,18,20,-1,-1,-1,-1,-1,22,24,-1,-1,-1,-1,-1,-1],"split_conditions":[4.4334957E-1,1.9383435E-1,6.883533E-1,9.822312E-2,3.1136966E-1,5.721635E-1,8.02327E-1,-2.8392157E-2,-2.0631758E-2,2.618228E-1,3.6736712E-1,5.301876E-1,1.8220346E-2,2.894634E-2,3.9179977E-2,-1.3528925E-2,-8.4310295E-3,3.4845066E-1,3.913095E-1,1.1333275E-2,2.1701516E-3,-5.293542E-3,-2.3998797E-3,-1.0727308E-3,1.7095323E-3],"split_indices":[1,1,1,1,1,1,1,0,0,1,1,0,0,0,0,0,0,1,1,0,0,0,0,0,0],"split_type":[0,0,0,0,0,0,0,0,0,0,0,0,0,0,0,0,0,0,0,0,0,0,0,0,0],"sum_hessian":[3.64E2,2.21E2,1.43E2,1.33E2,8.8E1,5.5E1,8.8E1,7.1E1,6.2E1,5.7E1,3.1E1,1.8E1,3.7E1,4.8E1,4E1,1.9E1,3.8E1,1.6E1,1.5E1,1.7E1,1E0,1.3E1,3E0,9E0,6E0],"tree_param":{"num_deleted":"0","num_feature":"2","num_nodes":"25","size_leaf_vector":"1"}},{"base_weights":[6.359871E-3,-1.782639E-1,2.877081E-1,-2.51509E-1,-7.474903E-2,1.8700257E-1,3.6068088E-1,-2.854131E-2,-2.102673E-2,-1.0236986E-1,-1.8897757E-2,1.4135611E-1,2.2956163E-2,3.1656973E-2,4.1494202E-2,-1.4275367E-2,-7.974057E-3,-3.783033E-2,1.1682953E-2,7.095916E-2,1.5139273E-2,-4.282001E-3,-1.9051081E-3,-7.58674E-4,1.8222536E-3,7.683405E-3,2.0792352E-3],"categories":[],"categories_nodes":[],"categories_segments":[],"categories_sizes":[],"default_left":[0,0,0,0,0,0,0,0,0,0,0,0,0,0,0,0,0,0,0,0,0,0,0,0,0,0,0],"id":9,"left_children":[1,3,5,7,9,11,13,-1,-1,15,17,19,-1,-1,-1,-1,-1,21,23,25,-1,-1,-1,-1,-1,-1,-1],"loss_changes":[1.9010693E1,1.6568117E0,9.981222E-1,1.20363235E-1,1.4153266E-1,8.99384E-2,6.730461E-2,0E0,0E0,4.5275867E-2,1.896906E-2,1.2573361E-2,0E0,0E0,0E0,0E0,0E0,1.0582805E-3,1.7764542E-3,1.7078593E-4,0E0,0E0,0E0,0E0,0E0,0E0,0E0],"parents":[2147483647,0,0,1,1,2,2,3,3,4,4,5,5,6,6,9,9,10,10,11,11,17,17,18,18,19,19],"right_children":[2,4,6,8,10,12,14,-1,-1,16,18,20,-1,-1,-1,-1,-1,22,24,26,-1,-1,-1,-1,-1,-1,-1],"split_conditions":[4.3618664E-1,1.7408682E-1,7.113459E-1,8.9872964E-2,3.0816415E-1,6.0599947E-1,8.39962E-1,-2.854131E-2,-2.102673E-2,2.4781352E-1,3.6883137E-1,5.090031E-1,2.2956163E-2,3.1656973E-2,4.1494202E-2,-1.4275367E-2,-7.974057E-3,3.4845066E-1,3.8050577E-1,5.301876E-1,1.5139273E-2,-4.282001E-3,-1.9051081E-3,-7.58674E-4,1.8222536E-3,7.683405E-3,2.0792352E-3],"split_indices":[1,1,1,1,1,1,1,0,0,1,1,1,0,0,0,0,0,1,1,0,0,0,0,0,0,0,0],"split_type":[0,0,0,0,0,0,0,0,0,0,0,0,0,0,0,0,0,0,0,0,0,0,0,0,0,0,0],"sum_hessian":[3.64E2,2.2E2,1.44E2,1.28E2,9.2E1,6.2E1,8.2E1,6.7E1,6.1E1,6.1E1,3.1E1,3.2E1,3E1,4.9E1,3.3E1,2E1,4.1E1,1.9E1,1.2E1,5E0,2.7E1,1.4E1,5E0,3E0,9E0,4E0,1E0],"tree_param":{"num_deleted":"0","num_feature":"2","num_nodes":"27","size_leaf_vector":"1"}},{"base_weights":[-7.781674E-4,-1.808478E-1,2.7367812E-1,-2.4394844E-1,-6.8773225E-2,1.6584036E-1,3.457315E-1,-2.8082987E-2,-1.9518748E-2,-8.761557E-2,-6.923282E-3,1.323519E-1,1.9938601E-2,3.0173138E-2,4.0415134E-2,-1.1234417E-2,-7.3165195E-3,-2.7804857E-3,4.012025E-3,6.494071E-3,1.4207031E-2,5.844285E-5,1.6385069E-3],"categories":[],"categories_nodes":[],"categories_segments":[],"categories_sizes":[],"default_left":[0,0,0,0,0,0,0,0,0,0,0,0,0,0,0,0,0,0,0,0,0,0,0],"id":10,"left_children":[1,3,5,7,9,11,13,-1,-1,15,17,19,-1,-1,-1,-1,-1,-1,21,-1,-1,-1,-1],"loss_changes":[1.8088247E1,1.5461297E0,1.0693245E0,1.9875622E-1,9.379068E-2,4.1014552E-2,9.9116325E-2,0E0,0E0,1.3935268E-2,4.678482E-3,1.2393117E-2,0E0,0E0,0E0,0E0,0E0,0E0,5.841613E-4,0E0,0E0,0E0,0E0],"parents":[2147483647,0,0,1,1,2,2,3,3,4,4,5,5,6,6,9,9,10,10,11,11,18,18],"right_children":[2,4,6,8,10,12,14,-1,-1,16,18,20,-1,-1,-1,-1,-1,-1,22,-1,-1,-1,-1],"split_conditions":[4.3618664E-1,2.0697297E-1,7.043413E-1,1.0930389E-1,3.2961336E-1,6.0599947E-1,8.39962E-1,-2.8082987E-2,-1.9518748E-2,2.7215165E-1,3.684752E-1,5.090031E-1,1.9938601E-2,3.0173138E-2,4.0415134E-2,-1.1234417E-2,-7.3165195E-3,-2.7804857E-3,4.441557E-1,6.494071E-3,1.4207031E-2,5.844285E-5,1.6385069E-3],"split_indices":[1,1,1,1,1,1,1,0,0,1,1,1,0,0,0,0,0,0,0,0,0,0,0],"split_type":[0,0,0,0,0,0,0,0,0,0,0,0,0,0,0,0,0,0,0,0,0,0,0],"sum_hessian":[3.64E2,2.2E2,1.44E2,1.4E2,8E1,5.9E1,8.5E1,7.7E1,6.3E1,6.1E1,1.9E1,3.2E1,2.7E1,5.2E1,3.3E1,2E1,4.1E1,6E0,1.3E1,5E0,2.7E1,1.1E1,2E0],"tree_param":{"num_deleted":"0","num_feature":"2","num_nodes":"23","size_leaf_vector":"1"}},{"base_weights":[-1.9011677E-3,-1.812354E-1,2.7144206E-1,-2.4934791E-1,-7.741296E-2,1.6880774E-1,3.3792463E-1,-2.863313E-2,-2.0746581E-2,-9.508111E-2,-1.1703779E-2,1.1494797E-1,1.896499E-2,3.0085763E-2,4.016842E-2,-1.4336986E-2,-7.811835E-2,-3.2030884E-2,1.7054998E-3,1.1911466E-2,1.9973814E-3,-8.277393E-3,-5.7068113E-3,-6.8292173E-4,-3.4655519E-3,-8.822493E-4,5.7461474E-4],"categories":[],"categories_nodes":[],"categories_segments":[],"categories_sizes":[],"default_left":[0,0,0,0,0,0,0,0,0,0,0,0,0,0,0,0,0,0,0,0,0,0,0,0,0,0,0],"id":11,"left_children":[1,3,5,7,9,11,13,-1,-1,15,17,19,-1,-1,-1,-1,21,23,25,-1,-1,-1,-1,-1,-1,-1,-1],"loss_changes":[1.7941422E1,1.5435233E0,9.323473E-1,1.4660549E-1,1.0221261E-1,4.4430852E-2,8.476448E-2,0E0,0E0,4.613793E-2,5.506065E-3,5.139619E-3,0E0,0E0,0E0,0E0,5.683005E-4,2.924921E-4,6.037141E-4,0E0,0E0,0E0,0E0,0E0,0E0,0E0,0E0],"parents":[2147483647,0,0,1,1,2,2,3,3,4,4,5,5,6,6,9,9,10,10,11,11,16,16,17,17,18,18],"right_children":[2,4,6,8,10,12,14,-1,-1,16,18,20,-1,-1,-1,-1,22,24,26,-1,-1,-1,-1,-1,-1,-1,-1],"split_conditions":[4.3618664E-1,1.9324073E-1,7.015315E-1,8.9872964E-2,3.2961336E-1,5.674938E-1,8.573351E-1,-2.863313E-2,-2.0746581E-2,2.4781352E-1,3.6883137E-1,5.301876E-1,1.896499E-2,3.0085763E-2,4.016842E-2,-1.4336986E-2,3.0816415E-1,2.6866916E-1,3.8050577E-1,1.1911466E-2,1.9973814E-3,-8.277393E-3,-5.7068113E-3,-6.8292173E-4,-3.4655519E-3,-8.822493E-4,5.7461474E-4],"split_indices":[1,1,1,1,1,1,1,0,0,1,1,0,0,0,0,0,1,0,1,0,0,0,0,0,0,0,0],"split_type":[0,0,0,0,0,0,0,0,0,0,0,0,0,0,0,0,0,0,0,0,0,0,0,0,0,0,0],"sum_hessian":[3.64E2,2.2E2,1.44E2,1.32E2,8.8E1,5.8E1,8.6E1,6.7E1,6.5E1,6.9E1,1.9E1,1.8E1,4E1,5.8E1,2.8E1,1.6E1,5.3E1,7E0,1.2E1,1.7E1,1E0,4.1E1,1.2E1,1E0,6E0,3E0,9E0],"tree_param":{"num_deleted":"0","num_feature":"2","num_nodes":"27","size_leaf_vector":"1"}},{"base_weights":[-2.4166543E-3,-1.6356346E-1,2.460348E-1,-2.2806175E-1,-7.3309824E-2,1.6256195E-1,3.2066232E-1,-2.5871495E-2,-1.918423E-2,-1.0689297E-1,-3.594278E-2,1.2100537E-1,2.0066123E-2,2.8172124E-2,3.6684576E-2,-1.3217615E-2,-8.48985E-3,-5.3714827E-2,7.3697977E-4,6.879978E-2,1.3123432E-2,-5.629872E-3,-2.219888E-3,-7.539503E-4,2.0453145E-3,7.273791E-3,2.0616443E-3],"categories":[],"categories_nodes":[],"categories_segments":[],"categories_sizes":[],"default_left":[0,0,0,0,0,0,0,0,0,0,0,0,0,0,0,0,0,0,0,0,0,0,0,0,0,0,0],"id":12,"left_children":[1,3,5,7,9,11,13,-1,-1,15,17,19,-1,-1,-1,-1,-1,21,23,25,-1,-1,-1,-1,-1,-1,-1],"loss_changes":[1.4653806E1,1.2755876E0,8.4490204E-1,9.3589306E-2,1.14118874E-1,8.654821E-2,3.1534195E-2,0E0,0E0,1.6026914E-2,3.0025799E-2,1.0195434E-2,0E0,0E0,0E0,0E0,0E0,1.2746826E-3,2.7650944E-3,1.8417835E-5,0E0,0E0,0E0,0E0,0E0,0E0,0E0],"parents":[2147483647,0,0,1,1,2,2,3,3,4,4,5,5,6,6,9,9,10,10,11,11,17,17,18,18,19,19],"right_children":[2,4,6,8,10,12,14,-1,-1,16,18,20,-1,-1,-1,-1,-1,22,24,26,-1,-1,-1,-1,-1,-1,-1],"split_conditions":[4.4334957E-1,1.7408682E-1,7.339032E-1,7.61803E-2,2.9336342E-1,6.1917764E-1,8.4728324E-1,-2.5871495E-2,-1.918423E-2,2.4781352E-1,3.6736712E-1,5.4208714E-1,2.0066123E-2,2.8172124E-2,3.6684576E-2,-1.3217615E-2,-8.48985E-3,3.4845066E-1,4.1362935E-1,5.301876E-1,1.3123432E-2,-5.629872E-3,-2.219888E-3,-7.539503E-4,2.0453145E-3,7.273791E-3,2.0616443E-3],"split_indices":[1,1,1,1,1,1,1,0,0,1,1,1,0,0,0,0,0,1,1,0,0,0,0,0,0,0,0],"split_type":[0,0,0,0,0,0,0,0,0,0,0,0,0,0,0,0,0,0,0,0,0,0,0,0,0,0,0],"sum_hessian":[3.64E2,2.21E2,1.43E2,1.28E2,9.3E1,6.9E1,7.4E1,6.6E1,6.2E1,4.8E1,4.5E1,3.5E1,3.4E1,4.4E1,3E1,2E1,2.8E1,3E1,1.5E1,7E0,2.8E1,2.7E1,3E0,1.1E1,4E0,6E0,1E0],"tree_param":{"num_deleted":"0","num_feature":"2","num_nodes":"27","size_leaf_vector":"1"}},{"base_weights":[5.8446135E-3,-1.6078568E-1,2.5977182E-1,-2.2799411E-1,-6.9246106E-2,1.8098283E-1,3.3714148E-1,-2.5729153E-2,-1.9099047E-2,-9.420314E-2,-1.7168095E-2,1.2797509E-1,2.1832265E-2,3.0015646E-2,3.8454097E-2,-1.3073186E-2,-7.1956376E-3,-3.4356654E-2,1.0596465E-2,6.549036E-2,1.3679414E-2,-3.8823478E-3,-1.7463485E-3,2.9350253E-4,2.7100951E-3,7.068734E-3,1.9752725E-3],"categories":[],"categories_nodes":[],"categories_segments":[],"categories_sizes":[],"default_left":[0,0,0,0,0,0,0,0,0,0,0,0,0,0,0,0,0,0,0,0,0,0,0,0,0,0,0],"id":13,"left_children":[1,3,5,7,9,11,13,-1,-1,15,17,19,-1,-1,-1,-1,-1,21,23,25,-1,-1,-1,-1,-1,-1,-1],"loss_changes":[1.5485635E1,1.3438559E0,8.2288456E-1,8.8541985E-2,1.2185538E-1,1.1852813E-1,1.0798454E-2,0E0,0E0,4.260236E-2,1.5635509E-2,9.226203E-3,0E0,0E0,0E0,0E0,0E0,8.3118305E-4,1.5642836E-3,2.9917806E-5,0E0,0E0,0E0,0E0,0E0,0E0,0E0],"parents":[2147483647,0,0,1,1,2,2,3,3,4,4,5,5,6,6,9,9,10,10,11,11,17,17,18,18,19,19],"right_children":[2,4,6,8,10,12,14,-1,-1,16,18,20,-1,-1,-1,-1,-1,22,24,26,-1,-1,-1,-1,-1,-1,-1],"split_conditions":[4.3618664E-1,1.6731964E-1,7.457359E-1,8.9872964E-2,3.0816415E-1,6.0599947E-1,8.657248E-1,-2.5729153E-2,-1.9099047E-2,2.4781352E-1,3.6883137E-1,5.090031E-1,2.1832265E-2,3.0015646E-2,3.8454097E-2,-1.3073186E-2,-7.1956376E-3,3.4845066E-1,4.1362935E-1,5.301876E-1,1.3679414E-2,-3.8823478E-3,-1.7463485E-3,2.9350253E-4,2.7100951E-3,7.068734E-3,1.9752725E-3],"split_indices":[1,1,1,1,1,1,1,0,0,1,1,1,0,0,0,0,0,1,1,0,0,0,0,0,0,0,0],"split_type":[0,0,0,0,0,0,0,0,0,0,0,0,0,0,0,0,0,0,0,0,0,0,0,0,0,0,0],"sum_hessian":[3.64E2,2.2E2,1.44E2,1.26E2,9.4E1,7.3E1,7.1E1,6.7E1,5.9E1,6.3E1,3.1E1,3.2E1,4.1E1,4.4E1,2.7E1,2.2E1,4.1E1,1.9E1,1.2E1,5E0,2.7E1,1.4E1,5E0,9E0,3E0,4E0,1E0],"tree_param":{"num_deleted":"0","num_feature":"2","num_nodes":"27","size_leaf_vector":"1"}},{"base_weights":[-5.798183E-4,-1.6306724E-1,2.4707742E-1,-2.2697562E-1,-7.266673E-2,1.484971E-1,3.1109077E-1,-2.587809E-2,-1.884315E-2,-9.027375E-2,-8.001031E-3,7.601005E-2,1.5837723E-1,2.7301943E-2,3.67994E-2,-1.3177526E-2,-7.212648E-2,-2.7533766E-2,3.7320342E-3,8.053866E-2,1.9890561E-3,1.3235061E-2,1.8015092E-2,-8.104444E-3,-5.8896593E-3,-7.52528E-4,-2.9317082E-3,5.3085638E-5,1.5292735E-3,2.197306E-3,8.576618E-3],"categories":[],"categories_nodes":[],"categories_segments":[],"categories_sizes":[],"default_left":[0,0,0,0,0,0,0,0,0,0,0,0,0,0,0,0,0,0,0,0,0,0,0,0,0,0,0,0,0,0,0],"id":14,"left_children":[1,3,5,7,9,11,13,-1,-1,15,17,19,21,-1,-1,-1,23,25,27,29,-1,-1,-1,-1,-1,-1,-1,-1,-1,-1,-1],"loss_changes":[1.4728322E1,1.2603011E0,8.688202E-1,1.0937977E-1,1.0516477E-1,3.0216455E-2,8.8005066E-2,0E0,0E0,4.5474708E-2,4.915513E-3,6.853342E-4,5.058408E-3,0E0,0E0,0E0,1.4798939E-3,6.483169E-5,5.099918E-4,5.6467205E-4,0E0,0E0,0E0,0E0,0E0,0E0,0E0,0E0,0E0,0E0,0E0],"parents":[2147483647,0,0,1,1,2,2,3,3,4,4,5,5,6,6,9,9,10,10,11,11,12,12,16,16,17,17,18,18,19,19],"right_children":[2,4,6,8,10,12,14,-1,-1,16,18,20,22,-1,-1,-1,24,26,28,30,-1,-1,-1,-1,-1,-1,-1,-1,-1,-1,-1],"split_conditions":[4.3618664E-1,1.7408682E-1,7.015315E-1,8.9872964E-2,3.2427084E-1,5.4208714E-1,8.457794E-1,-2.587809E-2,-1.884315E-2,2.4781352E-1,3.684752E-1,5.301876E-1,6.149432E-1,2.7301943E-2,3.67994E-2,-1.3177526E-2,2.9336342E-1,2.6866916E-1,4.441557E-1,4.4334957E-1,1.9890561E-3,1.3235061E-2,1.8015092E-2,-8.104444E-3,-5.8896593E-3,-7.52528E-4,-2.9317082E-3,5.3085638E-5,1.5292735E-3,2.197306E-3,8.576618E-3],"split_indices":[1,1,1,1,1,1,1,0,0,1,1,0,1,0,0,0,1,0,0,1,0,0,0,0,0,0,0,0,0,0,0],"split_type":[0,0,0,0,0,0,0,0,0,0,0,0,0,0,0,0,0,0,0,0,0,0,0,0,0,0,0,0,0,0,0],"sum_hessian":[3.64E2,2.2E2,1.44E2,1.28E2,9.2E1,5.8E1,8.6E1,6.7E1,6.1E1,7.2E1,2E1,8E0,5E1,5.5E1,3.1E1,2E1,5.2E1,7E0,1.3E1,7E0,1E0,2.6E1,2.4E1,2.8E1,2.4E1,1E0,6E0,1.1E1,2E0,1E0,6E0],"tree_param":{"num_deleted":"0","num_feature":"2","num_nodes":"31","size_leaf_vector":"1"}},{"base_weights":[-1.6535983E-3,-1.6348362E-1,2.4500908E-1,-2.2849609E-1,-7.485134E-2,1.5491134E-1,3.0678502E-1,-2.5811926E-2,-1.911149E-2,-1.3136585E-2,-5.3897623E-2,1.20981485E-1,1.881794E-2,2.5888896E-2,3.4553155E-2,-6.6894874E-2,-9.148836E-4,6.2684186E-2,1.29153E-2,-7.345509E-3,-4.8600254E-3,-1.1002193E-3,5.2289903E-4,6.763097E-3,1.8975124E-3],"categories":[],"categories_nodes":[],"categories_segments":[],"categories_sizes":[],"default_left":[0,0,0,0,0,0,0,0,0,0,0,0,0,0,0,0,0,0,0,0,0,0,0,0,0],"id":15,"left_children":[1,3,5,7,9,11,13,-1,-1,-1,15,17,-1,-1,-1,19,21,23,-1,-1,-1,-1,-1,-1,-1],"loss_changes":[1.4609916E1,1.2563429E0,7.595272E-1,9.1302395E-2,1.0541767E-1,4.608941E-2,6.82888E-2,0E0,0E0,0E0,4.8831537E-2,7.6245964E-3,0E0,0E0,0E0,3.2709837E-3,9.871577E-4,1.4008954E-5,0E0,0E0,0E0,0E0,0E0,0E0,0E0],"parents":[2147483647,0,0,1,1,2,2,3,3,4,4,5,5,6,6,10,10,11,11,15,15,16,16,17,17],"right_children":[2,4,6,8,10,12,14,-1,-1,-1,16,18,-1,-1,-1,20,22,24,-1,-1,-1,-1,-1,-1,-1],"split_conditions":[4.3618664E-1,1.6731964E-1,7.082591E-1,8.9872964E-2,2.5901303E-1,6.0599947E-1,7.9927975E-1,-2.5811926E-2,-1.911149E-2,-1.3136585E-2,3.6736712E-1,5.090031E-1,1.881794E-2,2.5888896E-2,3.4553155E-2,3.0816415E-1,3.8050577E-1,5.301876E-1,1.29153E-2,-7.345509E-3,-4.8600254E-3,-1.1002193E-3,5.2289903E-4,6.763097E-3,1.8975124E-3],"split_indices":[1,1,1,1,1,1,1,0,0,0,1,1,0,0,0,1,1,0,0,0,0,0,0,0,0],"split_type":[0,0,0,0,0,0,0,0,0,0,0,0,0,0,0,0,0,0,0,0,0,0,0,0,0],"sum_hessian":[3.64E2,2.2E2,1.44E2,1.26E2,9.4E1,6E1,8.4E1,6.7E1,5.9E1,2.4E1,7E1,3.2E1,2.8E1,4.1E1,4.3E1,5.6E1,1.4E1,5E0,2.7E1,3.9E1,1.7E1,5E0,9E0,4E0,1E0],"tree_param":{"num_deleted":"0","num_feature":"2","num_nodes":"25","size_leaf_vector":"1"}},{"base_weights":[-2.0816752E-3,-1.4837155E-1,2.2089861E-1,-2.0727363E-1,-6.951701E-2,1.2778509E-1,2.763815E-1,-2.3424154E-2,-1.7565772E-2,-1.0397825E-1,-3.835792E-2,7.182676E-2,1.4141403E-2,2.3027394E-2,3.154784E-2,-1.2157891E-2,-8.005124E-3,-5.393061E-3,-5.946709E-3,3.4763159E-3,7.946953E-3,-1.5598384E-3,8.0676825E-4],"categories":[],"categories_nodes":[],"categories_segments":[],"categories_sizes":[],"default_left":[0,0,0,0,0,0,0,0,0,0,0,0,0,0,0,0,0,0,0,0,0,0,0],"id":16,"left_children":[1,3,5,7,9,11,13,-1,-1,15,17,19,-1,-1,-1,-1,-1,-1,21,-1,-1,-1,-1],"loss_changes":[1.1938986E1,1.0120692E0,7.1378326E-1,6.628275E-2,9.90946E-2,3.255117E-2,8.959293E-2,0E0,0E0,9.218335E-3,2.5925227E-2,9.198785E-4,0E0,0E0,0E0,0E0,0E0,0E0,2.5605648E-3,0E0,0E0,0E0,0E0],"parents":[2147483647,0,0,1,1,2,2,3,3,4,4,5,5,6,6,9,9,10,10,11,11,18,18],"right_children":[2,4,6,8,10,12,14,-1,-1,16,18,20,-1,-1,-1,-1,-1,-1,22,-1,-1,-1,-1],"split_conditions":[4.3618664E-1,1.6716135E-1,6.8202144E-1,6.557442E-2,2.8536943E-1,5.563734E-1,7.938581E-1,-2.3424154E-2,-1.7565772E-2,2.4781352E-1,3.4845066E-1,4.9360877E-1,1.4141403E-2,2.3027394E-2,3.154784E-2,-1.2157891E-2,-8.005124E-3,-5.393061E-3,3.8434446E-1,3.4763159E-3,7.946953E-3,-1.5598384E-3,8.0676825E-4],"split_indices":[1,1,1,1,1,1,1,0,0,1,1,1,0,0,0,0,0,0,1,0,0,0,0],"split_type":[0,0,0,0,0,0,0,0,0,0,0,0,0,0,0,0,0,0,0,0,0,0,0],"sum_hessian":[3.64E2,2.2E2,1.44E2,1.25E2,9.5E1,5.5E1,8.9E1,6.4E1,6.1E1,4.4E1,5.1E1,1.2E1,4.3E1,4.4E1,4.5E1,2.3E1,2.1E1,3.4E1,1.7E1,3E0,9E0,1E1,7E0],"tree_param":{"num_deleted":"0","num_feature":"2","num_nodes":"23","size_leaf_vector":"1"}},{"base_weights":[5.384271E-3,-1.4501353E-1,2.3457414E-1,-2.0786616E-1,-6.545911E-2,1.4048626E-1,2.8724992E-1,-2.3243336E-2,-1.7534217E-2,-1.1627551E-2,-4.167987E-2,9.499718E-2,1.60592E-2,2.5689393E-2,3.474602E-2,-5.7080418E-2,-1.0945157E-3,9.81898E-3,1.8765092E-3,-6.097866E-3,-2.8992302E-3,-1.6165822E-3,1.559337E-3],"categories":[],"categories_nodes":[],"categories_segments":[],"categories_sizes":[],"default_left":[0,0,0,0,0,0,0,0,0,0,0,0,0,0,0,0,0,0,0,0,0,0,0],"id":17,"left_children":[1,3,5,7,9,11,13,-1,-1,-1,15,17,-1,-1,-1,19,21,-1,-1,-1,-1,-1,-1],"loss_changes":[1.2615439E1,1.0914388E0,6.78287E-1,5.7524204E-2,1.1478284E-1,3.4132123E-2,7.889223E-2,0E0,0E0,0E0,4.306505E-2,2.7816594E-3,0E0,0E0,0E0,3.706798E-3,5.2822437E-3,0E0,0E0,0E0,0E0,0E0,0E0],"parents":[2147483647,0,0,1,1,2,2,3,3,4,4,5,5,6,6,10,10,11,11,15,15,16,16],"right_children":[2,4,6,8,10,12,14,-1,-1,-1,16,18,-1,-1,-1,20,22,-1,-1,-1,-1,-1,-1],"split_conditions":[4.3618664E-1,1.5509121E-1,6.745024E-1,7.61803E-2,2.618228E-1,5.674938E-1,8.657248E-1,-2.3243336E-2,-1.7534217E-2,-1.1627551E-2,3.2961336E-1,5.301876E-1,1.60592E-2,2.5689393E-2,3.474602E-2,3.1877002E-1,3.8050577E-1,9.81898E-3,1.8765092E-3,-6.097866E-3,-2.8992302E-3,-1.6165822E-3,1.559337E-3],"split_indices":[1,1,1,1,1,1,1,0,0,0,1,0,0,0,0,1,1,0,0,0,0,0,0],"split_type":[0,0,0,0,0,0,0,0,0,0,0,0,0,0,0,0,0,0,0,0,0,0,0],"sum_hessian":[3.64E2,2.2E2,1.44E2,1.22E2,9.8E1,5.3E1,9.1E1,6.6E1,5.6E1,3E1,6.8E1,1.8E1,3.5E1,6.4E1,2.7E1,4.9E1,1.9E1,1.7E1,1E0,4.2E1,7E0,1E1,9E0],"tree_param":{"num_deleted":"0","num_feature":"2","num_nodes":"23","size_leaf_vector":"1"}},{"base_weights":[-4.2835844E-4,-1.4709534E-1,2.231153E-1,-2.0251282E-1,-6.262769E-2,1.399875E-1,2.852746E-1,-2.3328336E-2,-1.6774146E-2,-7.8558594E-2,-7.301011E-3,1.0843226E-1,1.6815422E-2,2.5532765E-2,3.433406E-2,-1.1565388E-2,-6.517787E-2,-2.5240913E-2,3.471862E-3,5.4542935E-3,1.161074E-2,-7.321946E-3,-5.3242524E-3,-7.149011E-4,-2.6804183E-3,4.8220158E-5,1.4273216E-3],"categories":[],"categories_nodes":[],"categories_segments":[],"categories_sizes":[],"default_left":[0,0,0,0,0,0,0,0,0,0,0,0,0,0,0,0,0,0,0,0,0,0,0,0,0,0,0],"id":18,"left_children":[1,3,5,7,9,11,13,-1,-1,15,17,19,-1,-1,-1,-1,21,23,25,-1,-1,-1,-1,-1,-1,-1,-1],"loss_changes":[1.1999882E1,1.0218148E0,7.0930433E-1,1.0316944E-1,7.787141E-2,3.8650274E-2,5.492544E-2,0E0,0E0,2.6710898E-2,4.1461834E-3,7.3162317E-3,0E0,0E0,0E0,0E0,1.1885017E-3,3.4636818E-5,4.4521078E-4,0E0,0E0,0E0,0E0,0E0,0E0,0E0,0E0],"parents":[2147483647,0,0,1,1,2,2,3,3,4,4,5,5,6,6,9,9,10,10,11,11,16,16,17,17,18,18],"right_children":[2,4,6,8,10,12,14,-1,-1,16,18,20,-1,-1,-1,-1,22,24,26,-1,-1,-1,-1,-1,-1,-1,-1],"split_conditions":[4.3618664E-1,1.9324073E-1,7.1316636E-1,8.9872964E-2,3.2427084E-1,6.0599947E-1,8.735605E-1,-2.3328336E-2,-1.6774146E-2,2.4781352E-1,3.684752E-1,5.090031E-1,1.6815422E-2,2.5532765E-2,3.433406E-2,-1.1565388E-2,2.9336342E-1,2.6866916E-1,4.441557E-1,5.4542935E-3,1.161074E-2,-7.321946E-3,-5.3242524E-3,-7.149011E-4,-2.6804183E-3,4.8220158E-5,1.4273216E-3],"split_indices":[1,1,1,1,1,1,1,0,0,1,1,1,0,0,0,0,1,0,0,0,0,0,0,0,0,0,0],"split_type":[0,0,0,0,0,0,0,0,0,0,0,0,0,0,0,0,0,0,0,0,0,0,0,0,0,0,0],"sum_hessian":[3.64E2,2.2E2,1.44E2,1.32E2,8.8E1,6.3E1,8.1E1,6.7E1,6.5E1,6.8E1,2E1,3.2E1,3.1E1,5.7E1,2.4E1,1.6E1,5.2E1,7E0,1.3E1,5E0,2.7E1,2.8E1,2.4E1,1E0,6E0,1.1E1,2E0],"tree_param":{"num_deleted":"0","num_feature":"2","num_nodes":"27","size_leaf_vector":"1"}},{"base_weights":[-1.4060751E-3,-1.4745583E-1,2.2120358E-1,-2.0833832E-1,-7.032448E-2,1.5283048E-1,2.8840366E-1,-2.3268692E-2,-1.7505182E-2,-1.2216346E-2,-4.9188152E-2,1.0953714E-1,1.8320788E-2,2.5754085E-2,3.3612408E-2,-6.0838252E-2,-8.618931E-4,4.4715265E-3,1.1452882E-2,-6.5383874E-3,-4.007387E-3,-1.0085349E-3,4.75837E-4],"categories":[],"categories_nodes":[],"categories_segments":[],"categories_sizes":[],"default_left":[0,0,0,0,0,0,0,0,0,0,0,0,0,0,0,0,0,0,0,0,0,0,0],"id":19,"left_children":[1,3,5,7,9,11,13,-1,-1,-1,15,17,-1,-1,-1,19,21,-1,-1,-1,-1,-1,-1],"loss_changes":[1.1899528E1,1.0231528E0,6.221514E-1,5.89571E-2,1.024639E-1,7.725227E-2,1.9474983E-2,0E0,0E0,0E0,4.048398E-2,5.556613E-3,0E0,0E0,0E0,2.8542876E-3,8.255636E-4,0E0,0E0,0E0,0E0,0E0,0E0],"parents":[2147483647,0,0,1,1,2,2,3,3,4,4,5,5,6,6,10,10,11,11,15,15,16,16],"right_children":[2,4,6,8,10,12,14,-1,-1,-1,16,18,-1,-1,-1,20,22,-1,-1,-1,-1,-1,-1],"split_conditions":[4.3618664E-1,1.5509121E-1,7.457359E-1,8.9872964E-2,2.524437E-1,6.0599947E-1,8.735605E-1,-2.3268692E-2,-1.7505182E-2,-1.2216346E-2,3.6736712E-1,4.9360877E-1,1.8320788E-2,2.5754085E-2,3.3612408E-2,3.1877002E-1,3.8050577E-1,4.4715265E-3,1.1452882E-2,-6.5383874E-3,-4.007387E-3,-1.0085349E-3,4.75837E-4],"split_indices":[1,1,1,1,1,1,1,0,0,0,1,1,0,0,0,1,1,0,0,0,0,0,0],"split_type":[0,0,0,0,0,0,0,0,0,0,0,0,0,0,0,0,0,0,0,0,0,0,0],"sum_hessian":[3.64E2,2.2E2,1.44E2,1.22E2,9.8E1,7.3E1,7.1E1,6.7E1,5.5E1,2.7E1,7.1E1,3.2E1,4.1E1,4.7E1,2.4E1,5.7E1,1.4E1,3E0,2.9E1,4.5E1,1.2E1,5E0,9E0],"tree_param":{"num_deleted":"0","num_feature":"2","num_nodes":"23","size_leaf_vector":"1"}},{"base_weights":[-1.8383363E-3,-1.3383892E-1,1.9936143E-1,-1.868716E-1,-6.283937E-2,1.2982775E-1,2.6078245E-1,-2.0703712E-2,-1.5315686E-2,-9.4028495E-2,-3.464033E-2,8.7740794E-2,1.5579666E-2,2.3013933E-2,3.0509425E-2,-1.0992761E-2,-7.2409995E-3,-4.8107777E-2,-4.083365E-3,4.2450903E-3,9.5407395E-3,-5.1638237E-3,-3.177882E-3,-1.1989913E-3,8.924549E-4],"categories":[],"categories_nodes":[],"categories_segments":[],"categories_sizes":[],"default_left":[0,0,0,0,0,0,0,0,0,0,0,0,0,0,0,0,0,0,0,0,0,0,0,0,0],"id":20,"left_children":[1,3,5,7,9,11,13,-1,-1,15,17,19,-1,-1,-1,-1,-1,21,23,-1,-1,-1,-1,-1,-1],"loss_changes":[9.7205305E0,8.203881E-1,5.85413E-1,5.3955078E-2,8.117515E-2,6.2836885E-2,3.2982826E-2,0E0,0E0,7.507354E-3,2.1202825E-2,6.0192496E-3,0E0,0E0,0E0,0E0,0E0,4.343465E-4,1.8554152E-3,0E0,0E0,0E0,0E0,0E0,0E0],"parents":[2147483647,0,0,1,1,2,2,3,3,4,4,5,5,6,6,9,9,10,10,11,11,17,17,18,18],"right_children":[2,4,6,8,10,12,14,-1,-1,16,18,20,-1,-1,-1,-1,-1,22,24,-1,-1,-1,-1,-1,-1],"split_conditions":[4.3618664E-1,1.6716135E-1,7.3097473E-1,1.0526732E-1,2.8536943E-1,6.008548E-1,8.657248E-1,-2.0703712E-2,-1.5315686E-2,2.4781352E-1,3.5007322E-1,5.090031E-1,1.5579666E-2,2.3013933E-2,3.0509425E-2,-1.0992761E-2,-7.2409995E-3,3.2161936E-1,3.890142E-1,4.2450903E-3,9.5407395E-3,-5.1638237E-3,-3.177882E-3,-1.1989913E-3,8.924549E-4],"split_indices":[1,1,1,1,1,1,1,0,0,1,1,1,0,0,0,0,0,1,1,0,0,0,0,0,0],"split_type":[0,0,0,0,0,0,0,0,0,0,0,0,0,0,0,0,0,0,0,0,0,0,0,0,0],"sum_hessian":[3.64E2,2.2E2,1.44E2,1.25E2,9.5E1,6.9E1,7.5E1,7.5E1,5E1,4.4E1,5.1E1,2.8E1,4.1E1,4.8E1,2.7E1,2.3E1,2.1E1,3.5E1,1.6E1,5E0,2.3E1,2.7E1,8E0,1E1,6E0],"tree_param":{"num_deleted":"0","num_feature":"2","num_nodes":"25","size_leaf_vector":"1"}},{"base_weights":[4.9190773E-3,-1.3079028E-1,2.1172492E-1,-1.7907847E-1,-4.6752017E-2,1.4982268E-1,2.7961684E-2,-2.0542664E-2,-1.436144E-1,-6.432612E-2,-8.570466E-3,1.0393806E-1,1.794829E-2,-1.5278876E-2,-1.1219023E-2,-8.830644E-3,-5.502262E-3,-2.073901E-2,1.4189959E-2,6.827105E-2,1.1647715E-2,2.7265947E-4,-2.3842622E-3,6.6148763E-4,2.3898862E-3,7.1532787E-3,1.782684E-3],"categories":[],"categories_nodes":[],"categories_segments":[],"categories_sizes":[],"default_left":[0,0,0,0,0,0,0,0,0,0,0,0,0,0,0,0,0,0,0,0,0,0,0,0,0,0,0],"id":21,"left_children":[1,3,5,7,9,11,-1,-1,13,15,17,19,-1,-1,-1,-1,-1,21,23,25,-1,-1,-1,-1,-1,-1,-1],"loss_changes":[1.0271595E1,8.884578E-1,5.6749296E-1,1.01315975E-1,5.447124E-2,8.74989E-2,0E0,0E0,1.0213852E-3,7.6348037E-3,7.772238E-3,6.806642E-3,0E0,0E0,0E0,0E0,0E0,1.3759169E-3,5.773695E-4,5.3469464E-4,0E0,0E0,0E0,0E0,0E0,0E0,0E0],"parents":[2147483647,0,0,1,1,2,2,3,3,4,4,5,5,8,8,9,9,10,10,11,11,17,17,18,18,19,19],"right_children":[2,4,6,8,10,12,-1,-1,14,16,18,20,-1,-1,-1,-1,-1,22,24,26,-1,-1,-1,-1,-1,-1,-1],"split_conditions":[4.3618664E-1,2.0594405E-1,7.5436306E-1,1.0930389E-1,3.1877002E-1,6.0599947E-1,2.7961684E-2,-2.0542664E-2,1.5509121E-1,2.618228E-1,3.8050577E-1,5.470339E-1,1.794829E-2,-1.5278876E-2,-1.1219023E-2,-8.830644E-3,-5.502262E-3,3.2161936E-1,4.1362935E-1,5.301876E-1,1.1647715E-2,2.7265947E-4,-2.3842622E-3,6.6148763E-4,2.3898862E-3,7.1532787E-3,1.782684E-3],"split_indices":[1,1,1,1,1,1,0,0,1,1,1,1,0,0,0,0,0,1,1,0,0,0,0,0,0,0,0],"split_type":[0,0,0,0,0,0,0,0,0,0,0,0,0,0,0,0,0,0,0,0,0,0,0,0,0,0,0],"sum_hessian":[3.64E2,2.2E2,1.44E2,1.39E2,8.1E1,7.7E1,6.7E1,7.7E1,6.2E1,5.5E1,2.6E1,3.2E1,4.5E1,4.5E1,1.7E1,1.3E1,4.2E1,1.7E1,9E0,1E1,2.2E1,2E0,1.5E1,6E0,3E0,9E0,1E0],"tree_param":{"num_deleted":"0","num_feature":"2","num_nodes":"27","size_leaf_vector":"1"}},{"base_weights":[-3.101468E-4,-1.326855E-1,2.0145029E-1,-1.8762295E-1,-6.3089624E-2,1.2651813E-1,2.5747722E-1,-2.102981E-2,-1.5673844E-2,-9.35725E-2,-3.373833E-2,9.95259E-2,1.5379178E-2,2.2356901E-2,2.9877206E-2,-1.1053087E-2,-6.850665E-3,-4.9177587E-2,-1.8431975E-3,4.9997685E-3,1.0611402E-2,-5.24175E-3,-3.1690698E-3,-1.4161075E-3,3.983761E-4],"categories":[],"categories_nodes":[],"categories_segments":[],"categories_sizes":[],"default_left":[0,0,0,0,0,0,0,0,0,0,0,0,0,0,0,0,0,0,0,0,0,0,0,0,0],"id":22,"left_children":[1,3,5,7,9,11,13,-1,-1,15,17,19,-1,-1,-1,-1,-1,21,23,-1,-1,-1,-1,-1,-1],"loss_changes":[9.775189E0,8.331387E-1,5.761657E-1,5.3176403E-2,8.5419446E-2,3.1808972E-2,4.8023224E-2,0E0,0E0,1.2831539E-2,2.5516097E-2,6.1149895E-3,0E0,0E0,0E0,0E0,0E0,3.2179803E-4,1.3483781E-3,0E0,0E0,0E0,0E0,0E0,0E0],"parents":[2147483647,0,0,1,1,2,2,3,3,4,4,5,5,6,6,9,9,10,10,11,11,17,17,18,18],"right_children":[2,4,6,8,10,12,14,-1,-1,16,18,20,-1,-1,-1,-1,-1,22,24,-1,-1,-1,-1,-1,-1],"split_conditions":[4.3618664E-1,1.5509121E-1,7.1316636E-1,8.9872964E-2,2.8536943E-1,6.149432E-1,8.39962E-1,-2.102981E-2,-1.5673844E-2,2.4781352E-1,3.4845066E-1,5.090031E-1,1.5379178E-2,2.2356901E-2,2.9877206E-2,-1.1053087E-2,-6.850665E-3,4.409659E-1,3.6883137E-1,4.9997685E-3,1.0611402E-2,-5.24175E-3,-3.1690698E-3,-1.4161075E-3,3.983761E-4],"split_indices":[1,1,1,1,1,1,1,0,0,1,1,1,0,0,0,0,0,0,1,0,0,0,0,0,0],"split_type":[0,0,0,0,0,0,0,0,0,0,0,0,0,0,0,0,0,0,0,0,0,0,0,0,0],"sum_hessian":[3.64E2,2.2E2,1.44E2,1.22E2,9.8E1,6.3E1,8.1E1,6.7E1,5.5E1,4.7E1,5.1E1,3.4E1,2.9E1,4.8E1,3.3E1,2.6E1,2.1E1,3.4E1,1.7E1,5E0,2.9E1,2.7E1,7E0,5E0,1.2E1],"tree_param":{"num_deleted":"0","num_feature":"2","num_nodes":"25","size_leaf_vector":"1"}},{"base_weights":[-1.1845304E-3,-1.3300014E-1,1.9972882E-1,-1.8783598E-1,-6.352733E-2,1.2386012E-1,2.4888426E-1,-2.097604E-2,-1.5785925E-2,-1.0722386E-2,-4.297487E-2,6.756898E-2,1.3396914E-1,2.2105593E-2,2.9962769E-2,-5.369269E-2,-8.112073E-4,7.116776E-3,1.5790596E-3,1.09822545E-2,1.4957666E-2,-5.592068E-3,-2.6177303E-3,-3.2480125E-4,1.6652033E-3],"categories":[],"categories_nodes":[],"categories_segments":[],"categories_sizes":[],"default_left":[0,0,0,0,0,0,0,0,0,0,0,0,0,0,0,0,0,0,0,0,0,0,0,0,0],"id":23,"left_children":[1,3,5,7,9,11,13,-1,-1,-1,15,17,19,-1,-1,21,23,-1,-1,-1,-1,-1,-1,-1,-1],"loss_changes":[9.693047E0,8.299892E-1,5.0993013E-1,4.7725677E-2,8.4301114E-2,2.4521708E-2,5.661869E-2,0E0,0E0,0E0,3.1137705E-2,9.25947E-4,2.039671E-3,0E0,0E0,1.9078851E-3,6.9240376E-4,0E0,0E0,0E0,0E0,0E0,0E0,0E0,0E0],"parents":[2147483647,0,0,1,1,2,2,3,3,4,4,5,5,6,6,10,10,11,11,12,12,15,15,16,16],"right_children":[2,4,6,8,10,12,14,-1,-1,-1,16,18,20,-1,-1,22,24,-1,-1,-1,-1,-1,-1,-1,-1],"split_conditions":[4.3618664E-1,1.5509121E-1,7.015315E-1,8.9872964E-2,2.618228E-1,5.470339E-1,8.657248E-1,-2.097604E-2,-1.5785925E-2,-1.0722386E-2,3.6736712E-1,5.301876E-1,6.0599947E-1,2.2105593E-2,2.9962769E-2,3.2961336E-1,4.550854E-1,7.116776E-3,1.5790596E-3,1.09822545E-2,1.4957666E-2,-5.592068E-3,-2.6177303E-3,-3.2480125E-4,1.6652033E-3],"split_indices":[1,1,1,1,1,1,1,0,0,0,1,0,1,0,0,1,0,0,0,0,0,0,0,0,0],"split_type":[0,0,0,0,0,0,0,0,0,0,0,0,0,0,0,0,0,0,0,0,0,0,0,0,0],"sum_hessian":[3.64E2,2.2E2,1.44E2,1.22E2,9.8E1,5.8E1,8.6E1,6.7E1,5.5E1,3E1,6.8E1,1E1,4.8E1,5.9E1,2.7E1,5.4E1,1.4E1,9E0,1E0,2.2E1,2.6E1,4.9E1,5E0,1.3E1,1E0],"tree_param":{"num_deleted":"0","num_feature":"2","num_nodes":"25","size_leaf_vector":"1"}},{"base_weights":[-1.5997427E-3,-1.2006475E-1,1.8104492E-1,-1.637818E-1,-4.902637E-2,1.01348504E-1,2.2365963E-1,-1.856979E-2,-1.3166057E-2,-6.564071E-2,-1.410713E-2,6.611155E-2,1.1259076E-2,1.9431716E-2,2.6886228E-2,-8.210449E-3,-5.1604384E-3,-2.6648737E-2,5.880875E-3,6.8587386E-3,1.5724913E-3,-3.0199823E-3,-1.1375952E-3,-1.3368577E-4,1.6253073E-3],"categories":[],"categories_nodes":[],"categories_segments":[],"categories_sizes":[],"default_left":[0,0,0,0,0,0,0,0,0,0,0,0,0,0,0,0,0,0,0,0,0,0,0,0,0],"id":24,"left_children":[1,3,5,7,9,11,13,-1,-1,15,17,19,-1,-1,-1,-1,-1,21,23,-1,-1,-1,-1,-1,-1],"loss_changes":[7.9192424E0,6.81411E-1,4.663911E-1,7.199526E-2,4.896775E-2,1.3155818E-2,7.110691E-2,0E0,0E0,9.1663E-3,7.4264873E-3,7.92712E-4,0E0,0E0,0E0,0E0,0E0,6.326772E-4,9.200929E-4,0E0,0E0,0E0,0E0,0E0,0E0],"parents":[2147483647,0,0,1,1,2,2,3,3,4,4,5,5,6,6,9,9,10,10,11,11,17,17,18,18],"right_children":[2,4,6,8,10,12,14,-1,-1,16,18,20,-1,-1,-1,-1,-1,22,24,-1,-1,-1,-1,-1,-1],"split_conditions":[4.4334957E-1,2.0349044E-1,6.7299855E-1,1.137362E-1,3.1801814E-1,5.653963E-1,8.39962E-1,-1.856979E-2,-1.3166057E-2,2.7215165E-1,3.761526E-1,5.301876E-1,1.1259076E-2,1.9431716E-2,2.6886228E-2,-8.210449E-3,-5.1604384E-3,3.6736712E-1,4.1362935E-1,6.8587386E-3,1.5724913E-3,-3.0199823E-3,-1.1375952E-3,-1.3368577E-4,1.6253073E-3],"split_indices":[1,1,1,1,1,1,1,0,0,1,1,0,0,0,0,0,0,1,1,0,0,0,0,0,0],"split_type":[0,0,0,0,0,0,0,0,0,0,0,0,0,0,0,0,0,0,0,0,0,0,0,0,0],"sum_hessian":[3.64E2,2.21E2,1.43E2,1.36E2,8.5E1,5.1E1,9.2E1,7.8E1,5.8E1,5.7E1,2.8E1,1.4E1,3.7E1,5.9E1,3.3E1,2.4E1,3.3E1,1.7E1,1.1E1,1.3E1,1E0,1.3E1,4E0,7E0,4E0],"tree_param":{"num_deleted":"0","num_feature":"2","num_nodes":"25","size_leaf_vector":"1"}},{"base_weights":[4.443777E-3,-1.17984705E-1,1.9101103E-1,-1.586215E-1,-3.6763445E-2,1.3533443E-1,2.5206637E-1,-1.7963359E-1,-1.1796549E-2,-4.9110778E-2,-3.5272987E-4,1.0511062E-1,1.7336356E-2,2.2263478E-2,2.8851304E-2,-1.9323986E-2,-1.5514152E-2,-5.6153047E-3,-3.362704E-2,-1.25286905E-2,1.30761E-2,6.225631E-2,1.15285255E-2,-9.622842E-4,-3.4383952E-3,3.5874694E-4,-1.4499053E-3,-8.8628134E-5,1.6677481E-3,6.5094843E-3,1.6935498E-3],"categories":[],"categories_nodes":[],"categories_segments":[],"categories_sizes":[],"default_left":[0,0,0,0,0,0,0,0,0,0,0,0,0,0,0,0,0,0,0,0,0,0,0,0,0,0,0,0,0,0,0],"id":25,"left_children":[1,3,5,7,9,11,13,15,-1,17,19,21,-1,-1,-1,-1,-1,-1,23,25,27,29,-1,-1,-1,-1,-1,-1,-1,-1,-1],"loss_changes":[8.359554E0,7.235949E-1,4.587927E-1,1.04387045E-1,3.370083E-2,7.142973E-2,8.709431E-3,1.6787052E-3,0E0,4.218012E-3,3.4340045E-3,1.2879968E-2,0E0,0E0,0E0,0E0,0E0,0E0,3.251061E-5,4.0131656E-4,5.1761954E-4,3.126748E-4,0E0,0E0,0E0,0E0,0E0,0E0,0E0,0E0,0E0],"parents":[2147483647,0,0,1,1,2,2,3,3,4,4,5,5,6,6,7,7,9,9,10,10,11,11,18,18,19,19,20,20,21,21],"right_children":[2,4,6,8,10,12,14,16,-1,18,20,22,-1,-1,-1,-1,-1,-1,24,26,28,30,-1,-1,-1,-1,-1,-1,-1,-1,-1],"split_conditions":[4.3618664E-1,2.1730183E-1,7.5436306E-1,1.2517314E-1,3.2961336E-1,6.401124E-1,8.6936563E-1,4.9269855E-2,-1.1796549E-2,3.0052635E-1,3.8050577E-1,5.470339E-1,1.7336356E-2,2.2263478E-2,2.8851304E-2,-1.9323986E-2,-1.5514152E-2,-5.6153047E-3,3.007638E-1,2.1275096E-1,2.7538007E-1,5.301876E-1,1.15285255E-2,-9.622842E-4,-3.4383952E-3,3.5874694E-4,-1.4499053E-3,-8.8628134E-5,1.6677481E-3,6.5094843E-3,1.6935498E-3],"split_indices":[1,1,1,1,1,1,1,1,0,1,1,1,0,0,0,0,0,0,1,0,0,0,0,0,0,0,0,0,0,0,0],"split_type":[0,0,0,0,0,0,0,0,0,0,0,0,0,0,0,0,0,0,0,0,0,0,0,0,0,0,0,0,0,0,0],"sum_hessian":[3.64E2,2.2E2,1.44E2,1.46E2,7.4E1,7.7E1,6.7E1,9.4E1,5.2E1,5.5E1,1.9E1,4.5E1,3.2E1,4.1E1,2.6E1,5.6E1,3.8E1,3.6E1,1.9E1,1E1,9E0,1E1,3.5E1,1E0,1.8E1,1E0,9E0,2E0,7E0,9E0,1E0],"tree_param":{"num_deleted":"0","num_feature":"2","num_nodes":"31","size_leaf_vector":"1"}},{"base_weights":[-2.2656076E-4,-1.1902651E-1,1.8292494E-1,-1.60535E-1,-4.334229E-2,1.0527203E-1,2.2567146E-1,-1.8592045E-2,-1.2721212E-1,-5.5932265E-2,2.196745E-5,5.9776593E-2,1.1089576E-1,1.872263E-2,2.6004648E-2,-1.3597441E-2,-1.023781E-2,-6.822484E-3,-4.450014E-2,-1.2980978E-2,5.593089E-3,6.441068E-3,1.3668999E-3,1.1246896E-2,2.0050823E-3,-4.7362954E-3,-2.891777E-3,-1.7215543E-3,-3.007899E-4,1.3067633E-4,1.3047124E-3],"categories":[],"categories_nodes":[],"categories_segments":[],"categories_sizes":[],"default_left":[0,0,0,0,0,0,0,0,0,0,0,0,0,0,0,0,0,0,0,0,0,0,0,0,0,0,0,0,0,0,0],"id":26,"left_children":[1,3,5,7,9,11,13,-1,15,17,19,21,23,-1,-1,-1,-1,-1,25,27,29,-1,-1,-1,-1,-1,-1,-1,-1,-1,-1],"loss_changes":[7.963585E0,6.904633E-1,4.5423603E-1,9.7314596E-2,4.3677628E-2,6.9312453E-3,7.289505E-2,0E0,2.2339821E-4,5.6768507E-3,1.4489825E-3,8.289013E-4,4.3191314E-3,0E0,0E0,0E0,0E0,0E0,1.9169599E-4,2.0160724E-4,4.302564E-4,0E0,0E0,0E0,0E0,0E0,0E0,0E0,0E0,0E0,0E0],"parents":[2147483647,0,0,1,1,2,2,3,3,4,4,5,5,6,6,8,8,9,9,10,10,11,11,12,12,18,18,19,19,20,20],"right_children":[2,4,6,8,10,12,14,-1,16,18,20,22,24,-1,-1,-1,-1,-1,26,28,30,-1,-1,-1,-1,-1,-1,-1,-1,-1,-1],"split_conditions":[4.4334957E-1,2.076853E-1,6.745024E-1,1.137362E-1,3.4845066E-1,5.4208714E-1,7.938581E-1,-1.8592045E-2,1.5509121E-1,2.8536943E-1,3.6883137E-1,5.301876E-1,6.7299855E-1,1.872263E-2,2.6004648E-2,-1.3597441E-2,-1.023781E-2,-6.822484E-3,4.409659E-1,3.2865834E-1,4.1362935E-1,6.441068E-3,1.3668999E-3,1.1246896E-2,2.0050823E-3,-4.7362954E-3,-2.891777E-3,-1.7215543E-3,-3.007899E-4,1.3067633E-4,1.3047124E-3],"split_indices":[1,1,1,1,1,1,1,0,1,1,1,0,1,0,0,0,0,0,0,0,1,0,0,0,0,0,0,0,0,0,0],"split_type":[0,0,0,0,0,0,0,0,0,0,0,0,0,0,0,0,0,0,0,0,0,0,0,0,0,0,0,0,0,0,0],"sum_hessian":[3.64E2,2.21E2,1.43E2,1.42E2,7.9E1,5.2E1,9.1E1,7.8E1,6.4E1,6.1E1,1.8E1,7E0,4.5E1,4.6E1,4.5E1,4.4E1,2E1,2.7E1,3.4E1,5E0,1.3E1,6E0,1E0,4.4E1,1E0,2.7E1,7E0,3E0,2E0,9E0,4E0],"tree_param":{"num_deleted":"0","num_feature":"2","num_nodes":"31","size_leaf_vector":"1"}},{"base_weights":[-9.774402E-4,-1.1994606E-1,1.803539E-1,-1.5923776E-1,-4.1335084E-2,1.2412206E-1,2.356428E-1,-1.8117422E-2,-1.2035575E-2,-5.1911578E-2,-4.958881E-3,8.975569E-2,1.4816892E-2,2.101872E-2,2.7509188E-2,-5.589342E-3,-3.6770727E-2,-1.4832718E-2,4.4234605E-3,4.6798117E-3,9.575534E-3,-5.027741E-3,-2.4989645E-3,2.818644E-4,-1.739147E-3,1.4042581E-3,-4.3297163E-4],"categories":[],"categories_nodes":[],"categories_segments":[],"categories_sizes":[],"default_left":[0,0,0,0,0,0,0,0,0,0,0,0,0,0,0,0,0,0,0,0,0,0,0,0,0,0,0],"id":27,"left_children":[1,3,5,7,9,11,13,-1,-1,15,17,19,-1,-1,-1,-1,21,23,25,-1,-1,-1,-1,-1,-1,-1,-1],"loss_changes":[7.895683E0,6.760335E-1,4.21556E-1,1.03575945E-1,2.8597519E-2,4.78549E-2,1.44815445E-2,0E0,0E0,1.4414936E-3,1.7331267E-3,4.0239394E-3,0E0,0E0,0E0,0E0,1.1304375E-3,4.555094E-4,9.027789E-4,0E0,0E0,0E0,0E0,0E0,0E0,0E0,0E0],"parents":[2147483647,0,0,1,1,2,2,3,3,4,4,5,5,6,6,9,9,10,10,11,11,16,16,17,17,18,18],"right_children":[2,4,6,8,10,12,14,-1,-1,16,18,20,-1,-1,-1,-1,22,24,26,-1,-1,-1,-1,-1,-1,-1,-1],"split_conditions":[4.3618664E-1,2.1730183E-1,7.457359E-1,1.2267996E-1,3.4845066E-1,6.0599947E-1,8.735605E-1,-1.8117422E-2,-1.2035575E-2,3.0816415E-1,3.8050577E-1,5.090031E-1,1.4816892E-2,2.101872E-2,2.7509188E-2,-5.589342E-3,3.6690047E-1,3.5007322E-1,3.913095E-1,4.6798117E-3,9.575534E-3,-5.027741E-3,-2.4989645E-3,2.818644E-4,-1.739147E-3,1.4042581E-3,-4.3297163E-4],"split_indices":[1,1,1,1,1,1,1,0,0,1,1,1,0,0,0,0,0,1,1,0,0,0,0,0,0,0,0],"split_type":[0,0,0,0,0,0,0,0,0,0,0,0,0,0,0,0,0,0,0,0,0,0,0,0,0,0,0],"sum_hessian":[3.64E2,2.2E2,1.44E2,1.46E2,7.4E1,7.3E1,7.1E1,9.1E1,5.5E1,5.7E1,1.7E1,3.2E1,4.1E1,4.7E1,2.4E1,4.3E1,1.4E1,8E0,9E0,5E0,2.7E1,5E0,9E0,1E0,7E0,4E0,5E0],"tree_param":{"num_deleted":"0","num_feature":"2","num_nodes":"27","size_leaf_vector":"1"}},{"base_weights":[-1.3898046E-3,-1.0888765E-1,1.6246133E-1,-1.5331969E-1,-5.258433E-2,1.0798709E-1,2.1619233E-1,-1.7285533E-2,-1.2992634E-2,-7.897913E-2,-2.9126089E-2,7.9390675E-2,1.3758336E-2,1.9107504E-2,2.5097763E-2,-9.050979E-3,-5.9463773E-3,-4.0410865E-2,-4.3114903E-3,4.151258E-3,8.616746E-3,-4.1309255E-3,-1.6459347E-3,-1.3721973E-3,4.589093E-4],"categories":[],"categories_nodes":[],"categories_segments":[],"categories_sizes":[],"default_left":[0,0,0,0,0,0,0,0,0,0,0,0,0,0,0,0,0,0,0,0,0,0,0,0,0],"id":28,"left_children":[1,3,5,7,9,11,13,-1,-1,15,17,19,-1,-1,-1,-1,-1,21,23,-1,-1,-1,-1,-1,-1],"loss_changes":[6.44667E0,5.448072E-1,4.010625E-1,3.375292E-2,5.899805E-2,5.170685E-2,1.4951944E-2,0E0,0E0,4.96909E-3,1.4947236E-2,6.690651E-3,0E0,0E0,0E0,0E0,0E0,1.1624023E-4,1.5706294E-3,0E0,0E0,0E0,0E0,0E0,0E0],"parents":[2147483647,0,0,1,1,2,2,3,3,4,4,5,5,6,6,9,9,10,10,11,11,17,17,18,18],"right_children":[2,4,6,8,10,12,14,-1,-1,16,18,20,-1,-1,-1,-1,-1,22,24,-1,-1,-1,-1,-1,-1],"split_conditions":[4.3618664E-1,1.5509121E-1,7.457359E-1,5.769916E-2,2.786814E-1,6.267759E-1,8.6936563E-1,-1.7285533E-2,-1.2992634E-2,2.4781352E-1,3.4845066E-1,5.3088766E-1,1.3758336E-2,1.9107504E-2,2.5097763E-2,-9.050979E-3,-5.9463773E-3,3.2961336E-1,3.8050577E-1,4.151258E-3,8.616746E-3,-4.1309255E-3,-1.6459347E-3,-1.3721973E-3,4.589093E-4],"split_indices":[1,1,1,1,1,1,1,0,0,1,1,1,0,0,0,0,0,1,1,0,0,0,0,0,0],"split_type":[0,0,0,0,0,0,0,0,0,0,0,0,0,0,0,0,0,0,0,0,0,0,0,0,0],"sum_hessian":[3.64E2,2.2E2,1.44E2,1.22E2,9.8E1,7.3E1,7.1E1,6.3E1,5.9E1,4.5E1,5.3E1,3.9E1,3.4E1,4.5E1,2.6E1,2.6E1,1.9E1,3.6E1,1.7E1,7E0,3.2E1,3.4E1,2E0,8E0,9E0],"tree_param":{"num_deleted":"0","num_feature":"2","num_nodes":"25","size_leaf_vector":"1"}},{"base_weights":[4.087124E-3,-1.06440365E-1,1.7251807E-1,-1.5021525E-1,-4.4575844E-2,1.2227621E-1,2.2761141E-1,-1.7160876E-2,-1.2651073E-2,-6.704999E-2,-1.911343E-2,8.46557E-2,1.4660666E-2,2.0090139E-2,2.6073027E-2,-8.707857E-3,-5.26115E-3,-2.9241232E-2,8.065868E-3,4.3902057E-3,9.036521E-3,-3.5686537E-3,-1.912776E-3,2.1433682E-4,2.0855651E-3],"categories":[],"categories_nodes":[],"categories_segments":[],"categories_sizes":[],"default_left":[0,0,0,0,0,0,0,0,0,0,0,0,0,0,0,0,0,0,0,0,0,0,0,0,0],"id":29,"left_children":[1,3,5,7,9,11,13,-1,-1,15,17,19,-1,-1,-1,-1,-1,21,23,-1,-1,-1,-1,-1,-1],"loss_changes":[6.813294E0,5.9179664E-1,3.7352753E-1,4.3708563E-2,5.1937327E-2,5.898416E-2,7.771969E-3,0E0,0E0,9.588584E-3,1.2622848E-2,3.711328E-3,0E0,0E0,0E0,0E0,0E0,1.4684834E-3,9.400159E-4,0E0,0E0,0E0,0E0,0E0,0E0],"parents":[2147483647,0,0,1,1,2,2,3,3,4,4,5,5,6,6,9,9,10,10,11,11,17,17,18,18],"right_children":[2,4,6,8,10,12,14,-1,-1,16,18,20,-1,-1,-1,-1,-1,22,24,-1,-1,-1,-1,-1,-1],"split_conditions":[4.3618664E-1,1.7408682E-1,7.5436306E-1,6.557442E-2,2.9336342E-1,6.0599947E-1,8.6936563E-1,-1.7160876E-2,-1.2651073E-2,2.1730183E-1,3.6883137E-1,5.090031E-1,1.4660666E-2,2.0090139E-2,2.6073027E-2,-8.707857E-3,-5.26115E-3,3.1877002E-1,4.1362935E-1,4.3902057E-3,9.036521E-3,-3.5686537E-3,-1.912776E-3,2.1433682E-4,2.0855651E-3],"split_indices":[1,1,1,1,1,1,1,0,0,1,1,1,0,0,0,0,0,1,1,0,0,0,0,0,0],"split_type":[0,0,0,0,0,0,0,0,0,0,0,0,0,0,0,0,0,0,0,0,0,0,0,0,0],"sum_hessian":[3.64E2,2.2E2,1.44E2,1.28E2,9.2E1,7.7E1,6.7E1,6.4E1,6.4E1,4.8E1,4.4E1,3.2E1,4.5E1,4.1E1,2.6E1,1.8E1,3E1,3.2E1,1.2E1,5E0,2.7E1,1.8E1,1.4E1,9E0,3E0],"tree_param":{"num_deleted":"0","num_feature":"2","num_nodes":"25","size_leaf_vector":"1"}},{"base_weights":[-1.8111023E-4,-1.0800431E-1,1.6415757E-1,-1.5010153E-1,-4.8450056E-2,1.1053154E-1,2.1699324E-1,-1.7125892E-2,-1.2447568E-2,-6.015099E-2,-5.468238E-3,8.048399E-2,1.3405986E-1,1.9177457E-2,2.5673334E-2,-8.791721E-3,-4.8014354E-2,-1.9165121E-2,2.7491408E-3,3.1727501E-3,8.406343E-3,5.1849824E-3,1.3702224E-2,-5.3840233E-3,-3.933576E-3,-5.222723E-4,-2.0410789E-3,6.213899E-5,1.5204952E-3],"categories":[],"categories_nodes":[],"categories_segments":[],"categories_sizes":[],"default_left":[0,0,0,0,0,0,0,0,0,0,0,0,0,0,0,0,0,0,0,0,0,0,0,0,0,0,0,0,0],"id":30,"left_children":[1,3,5,7,9,11,13,-1,-1,15,17,19,21,-1,-1,-1,23,25,27,-1,-1,-1,-1,-1,-1,-1,-1,-1,-1],"loss_changes":[6.485355E0,5.467899E-1,3.868537E-1,4.8623323E-2,4.6443343E-2,4.152602E-2,2.2922516E-2,0E0,0E0,2.0378858E-2,2.4162899E-3,3.4410954E-3,2.6369095E-3,0E0,0E0,0E0,5.618632E-4,3.2340875E-5,3.6159187E-4,0E0,0E0,0E0,0E0,0E0,0E0,0E0,0E0,0E0,0E0],"parents":[2147483647,0,0,1,1,2,2,3,3,4,4,5,5,6,6,9,9,10,10,11,11,12,12,16,16,17,17,18,18],"right_children":[2,4,6,8,10,12,14,-1,-1,16,18,20,22,-1,-1,-1,24,26,28,-1,-1,-1,-1,-1,-1,-1,-1,-1,-1],"split_conditions":[4.3618664E-1,1.7408682E-1,7.457359E-1,8.9872964E-2,3.2427084E-1,6.149432E-1,8.735605E-1,-1.7125892E-2,-1.2447568E-2,2.4781352E-1,3.684752E-1,4.9360877E-1,1.0984505E-1,1.9177457E-2,2.5673334E-2,-8.791721E-3,2.9336342E-1,2.6866916E-1,4.550854E-1,3.1727501E-3,8.406343E-3,5.1849824E-3,1.3702224E-2,-5.3840233E-3,-3.933576E-3,-5.222723E-4,-2.0410789E-3,6.213899E-5,1.5204952E-3],"split_indices":[1,1,1,1,1,1,1,0,0,1,1,1,0,0,0,0,1,0,0,0,0,0,0,0,0,0,0,0,0],"split_type":[0,0,0,0,0,0,0,0,0,0,0,0,0,0,0,0,0,0,0,0,0,0,0,0,0,0,0,0,0],"sum_hessian":[3.64E2,2.2E2,1.44E2,1.28E2,9.2E1,7.3E1,7.1E1,6.7E1,6.1E1,7.2E1,2E1,3.4E1,3.9E1,4.7E1,2.4E1,2E1,5.2E1,7E0,1.3E1,3E0,3.1E1,2E0,3.7E1,2.8E1,2.4E1,1E0,6E0,1.2E1,1E0],"tree_param":{"num_deleted":"0","num_feature":"2","num_nodes":"29","size_leaf_vector":"1"}},{"base_weights":[-7.8697276E-4,-1.0814945E-1,1.6285367E-1,-1.5291396E-1,-5.144052E-2,1.0474258E-1,2.0622264E-1,-1.7124183E-2,-1.2792805E-2,-8.102362E-2,-3.168344E-2,6.821545E-2,1.1755286E-1,1.7207542E-2,2.3180261E-2,-9.155563E-3,-5.806871E-3,-4.1028142E-2,-2.9114485E-4,7.05984E-3,1.2661174E-3,1.1867516E-2,3.3524751E-3,-4.2679566E-3,-2.263015E-3,-2.6027858E-4,1.6035915E-3],"categories":[],"categories_nodes":[],"categories_segments":[],"categories_sizes":[],"default_left":[0,0,0,0,0,0,0,0,0,0,0,0,0,0,0,0,0,0,0,0,0,0,0,0,0,0,0],"id":31,"left_children":[1,3,5,7,9,11,13,-1,-1,15,17,19,21,-1,-1,-1,-1,23,25,-1,-1,-1,-1,-1,-1,-1,-1],"loss_changes":[6.430248E0,5.531528E-1,3.4383154E-1,3.4420013E-2,5.5295944E-2,2.1928132E-2,3.173828E-2,0E0,0E0,4.112214E-3,1.7882511E-2,1.6214177E-3,3.59416E-4,0E0,0E0,0E0,0E0,4.621446E-4,6.0787256E-4,0E0,0E0,0E0,0E0,0E0,0E0,0E0,0E0],"parents":[2147483647,0,0,1,1,2,2,3,3,4,4,5,5,6,6,9,9,10,10,11,11,12,12,17,17,18,18],"right_children":[2,4,6,8,10,12,14,-1,-1,16,18,20,22,-1,-1,-1,-1,24,26,-1,-1,-1,-1,-1,-1,-1,-1],"split_conditions":[4.3618664E-1,1.5509121E-1,7.1316636E-1,8.9872964E-2,2.7215165E-1,5.674938E-1,7.9927975E-1,-1.7124183E-2,-1.2792805E-2,2.1730183E-1,3.6736712E-1,5.301876E-1,5.230246E-1,1.7207542E-2,2.3180261E-2,-9.155563E-3,-5.806871E-3,3.2961336E-1,4.550854E-1,7.05984E-3,1.2661174E-3,1.1867516E-2,3.3524751E-3,-4.2679566E-3,-2.263015E-3,-2.6027858E-4,1.6035915E-3],"split_indices":[1,1,1,1,1,1,1,0,0,1,1,0,0,0,0,0,0,1,0,0,0,0,0,0,0,0,0],"split_type":[0,0,0,0,0,0,0,0,0,0,0,0,0,0,0,0,0,0,0,0,0,0,0,0,0,0,0],"sum_hessian":[3.64E2,2.2E2,1.44E2,1.22E2,9.8E1,6.3E1,8.1E1,6.7E1,5.5E1,3.8E1,6E1,1.8E1,4.5E1,3.8E1,4.3E1,2.4E1,1.4E1,4.6E1,1.4E1,1.7E1,1E0,4.4E1,1E0,4.1E1,5E0,1.3E1,1E0],"tree_param":{"num_deleted":"0","num_feature":"2","num_nodes":"27","size_leaf_vector":"1"}},{"base_weights":[-1.199419E-3,-9.768653E-2,1.4755987E-1,-1.3861014E-1,-4.7286864E-2,1.01030804E-1,1.980772E-1,-1.5651403E-2,-1.1814045E-2,-6.9146074E-2,-2.2678189E-2,7.6021984E-2,1.3042367E-2,1.7810708E-2,2.3429096E-2,-8.3291745E-3,-5.354132E-3,-3.3014312E-2,7.034596E-4,4.594648E-2,8.244294E-3,-3.509298E-3,-1.7465035E-3,-4.8317388E-4,1.3847244E-3,4.819319E-3,1.286304E-3],"categories":[],"categories_nodes":[],"categories_segments":[],"categories_sizes":[],"default_left":[0,0,0,0,0,0,0,0,0,0,0,0,0,0,0,0,0,0,0,0,0,0,0,0,0,0,0],"id":32,"left_children":[1,3,5,7,9,11,13,-1,-1,15,17,19,-1,-1,-1,-1,-1,21,23,25,-1,-1,-1,-1,-1,-1,-1],"loss_changes":[5.253389E0,4.5132875E-1,3.184638E-1,2.622056E-2,5.276245E-2,4.6686172E-2,7.447958E-3,0E0,0E0,7.2396398E-3,1.1865331E-2,4.709035E-3,0E0,0E0,0E0,0E0,0E0,4.8603863E-4,1.2309615E-3,1.2337789E-4,0E0,0E0,0E0,0E0,0E0,0E0,0E0],"parents":[2147483647,0,0,1,1,2,2,3,3,4,4,5,5,6,6,9,9,10,10,11,11,17,17,18,18,19,19],"right_children":[2,4,6,8,10,12,14,-1,-1,16,18,20,-1,-1,-1,-1,-1,22,24,26,-1,-1,-1,-1,-1,-1,-1],"split_conditions":[4.4334957E-1,1.5196486E-1,7.5436306E-1,5.536428E-2,2.8881237E-1,6.393605E-1,8.811983E-1,-1.5651403E-2,-1.1814045E-2,2.1730183E-1,3.6736712E-1,5.470339E-1,1.3042367E-2,1.7810708E-2,2.3429096E-2,-8.3291745E-3,-5.354132E-3,3.2961336E-1,4.1362935E-1,5.301876E-1,8.244294E-3,-3.509298E-3,-1.7465035E-3,-4.8317388E-4,1.3847244E-3,4.819319E-3,1.286304E-3],"split_indices":[1,1,1,1,1,1,1,0,0,1,1,1,0,0,0,0,0,1,1,0,0,0,0,0,0,0,0],"split_type":[0,0,0,0,0,0,0,0,0,0,0,0,0,0,0,0,0,0,0,0,0,0,0,0,0,0,0],"sum_hessian":[3.64E2,2.21E2,1.43E2,1.21E2,1E2,7.6E1,6.7E1,6.1E1,6E1,5.2E1,4.8E1,4.3E1,3.3E1,4.7E1,2E1,2.5E1,2.7E1,3.3E1,1.5E1,9E0,3.4E1,2.8E1,5E0,1.1E1,4E0,8E0,1E0],"tree_param":{"num_deleted":"0","num_feature":"2","num_nodes":"27","size_leaf_vector":"1"}},{"base_weights":[3.7531704E-3,-9.600883E-2,1.5577833E-1,-1.3779011E-1,-4.312896E-2,9.22182E-2,1.9139212E-1,-1.5739506E-2,-1.190547E-2,-6.3499846E-2,-1.727279E-2,5.3735983E-2,1.0193368E-2,1.607468E-2,2.2117006E-2,-8.077479E-3,-4.7520064E-3,-2.7545914E-2,5.1098485E-3,5.589838E-2,1.3893619E-3,-3.2305715E-3,-1.8470368E-3,-4.318108E-6,1.9291475E-3,1.6563059E-3,5.7968586E-3],"categories":[],"categories_nodes":[],"categories_segments":[],"categories_sizes":[],"default_left":[0,0,0,0,0,0,0,0,0,0,0,0,0,0,0,0,0,0,0,0,0,0,0,0,0,0,0],"id":33,"left_children":[1,3,5,7,9,11,13,-1,-1,15,17,19,-1,-1,-1,-1,-1,21,23,25,-1,-1,-1,-1,-1,-1,-1],"loss_changes":[5.5506682E0,4.8233223E-1,3.1057453E-1,2.6439905E-2,5.1047787E-2,1.4711678E-2,4.8402786E-2,0E0,0E0,1.1344299E-2,1.0488038E-2,3.4338236E-4,0E0,0E0,0E0,0E0,0E0,7.424336E-4,1.0970081E-3,1.7050654E-5,0E0,0E0,0E0,0E0,0E0,0E0,0E0],"parents":[2147483647,0,0,1,1,2,2,3,3,4,4,5,5,6,6,9,9,10,10,11,11,17,17,18,18,19,19],"right_children":[2,4,6,8,10,12,14,-1,-1,16,18,20,-1,-1,-1,-1,-1,22,24,26,-1,-1,-1,-1,-1,-1,-1],"split_conditions":[4.3618664E-1,1.5509121E-1,6.745024E-1,4.9269855E-2,2.9336342E-1,5.563734E-1,7.9927975E-1,-1.5739506E-2,-1.190547E-2,2.1730183E-1,3.6736712E-1,5.301876E-1,1.0193368E-2,1.607468E-2,2.2117006E-2,-8.077479E-3,-4.7520064E-3,3.1877002E-1,4.1362935E-1,4.4334957E-1,1.3893619E-3,-3.2305715E-3,-1.8470368E-3,-4.318108E-6,1.9291475E-3,1.6563059E-3,5.7968586E-3],"split_indices":[1,1,1,1,1,1,1,0,0,1,1,0,0,0,0,0,0,1,1,1,0,0,0,0,0,0,0],"split_type":[0,0,0,0,0,0,0,0,0,0,0,0,0,0,0,0,0,0,0,0,0,0,0,0,0,0,0],"sum_hessian":[3.64E2,2.2E2,1.44E2,1.22E2,9.8E1,5.3E1,9.1E1,5.6E1,6.6E1,5.4E1,4.4E1,1.2E1,4.1E1,4.8E1,4.3E1,2.4E1,3E1,3E1,1.4E1,1.1E1,1E0,1.8E1,1.2E1,1.1E1,3E0,1E0,1E1],"tree_param":{"num_deleted":"0","num_feature":"2","num_nodes":"27","size_leaf_vector":"1"}},{"base_weights":[-8.997174E-5,-9.7424075E-2,1.4826125E-1,-1.3761012E-1,-4.6511866E-2,8.87404E-2,1.869218E-1,-1.5438487E-2,-1.1478349E-2,-7.3820546E-2,-2.8289726E-2,6.054498E-2,9.964217E-3,1.6603213E-2,2.3208693E-2,-8.267202E-3,-5.4146717E-3,-3.863298E-2,-1.434558E-3,6.2642016E-2,1.1399165E-3,-4.087842E-3,-2.341871E-3,-1.2408776E-3,2.5872738E-4,1.3408646E-3,6.4749354E-3],"categories":[],"categories_nodes":[],"categories_segments":[],"categories_sizes":[],"default_left":[0,0,0,0,0,0,0,0,0,0,0,0,0,0,0,0,0,0,0,0,0,0,0,0,0,0,0],"id":34,"left_children":[1,3,5,7,9,11,13,-1,-1,15,17,19,-1,-1,-1,-1,-1,21,23,25,-1,-1,-1,-1,-1,-1,-1],"loss_changes":[5.28491E0,4.4575667E-1,3.1707335E-1,2.937746E-2,4.7176287E-2,1.2102604E-2,4.3549538E-2,0E0,0E0,2.3151338E-3,1.688854E-2,1.244083E-3,0E0,0E0,0E0,0E0,0E0,5.4584444E-4,8.2656107E-4,9.99324E-4,0E0,0E0,0E0,0E0,0E0,0E0,0E0],"parents":[2147483647,0,0,1,1,2,2,3,3,4,4,5,5,6,6,9,9,10,10,11,11,17,17,18,18,19,19],"right_children":[2,4,6,8,10,12,14,-1,-1,16,18,20,-1,-1,-1,-1,-1,22,24,26,-1,-1,-1,-1,-1,-1,-1],"split_conditions":[4.3618664E-1,1.5509121E-1,7.015315E-1,8.9872964E-2,2.7215165E-1,5.674938E-1,8.735605E-1,-1.5438487E-2,-1.1478349E-2,2.1730183E-1,3.4845066E-1,5.301876E-1,9.964217E-3,1.6603213E-2,2.3208693E-2,-8.267202E-3,-5.4146717E-3,4.409659E-1,3.684752E-1,4.4334957E-1,1.1399165E-3,-4.087842E-3,-2.341871E-3,-1.2408776E-3,2.5872738E-4,1.3408646E-3,6.4749354E-3],"split_indices":[1,1,1,1,1,1,1,0,0,1,1,0,0,0,0,0,0,0,1,1,0,0,0,0,0,0,0],"split_type":[0,0,0,0,0,0,0,0,0,0,0,0,0,0,0,0,0,0,0,0,0,0,0,0,0,0,0],"sum_hessian":[3.64E2,2.2E2,1.44E2,1.22E2,9.8E1,5.8E1,8.6E1,6.7E1,5.5E1,3.8E1,6E1,1.8E1,4E1,6.2E1,2.4E1,2.4E1,1.4E1,4.3E1,1.7E1,1.7E1,1E0,3.6E1,7E0,4E0,1.3E1,1E0,1.6E1],"tree_param":{"num_deleted":"0","num_feature":"2","num_nodes":"27","size_leaf_vector":"1"}},{"base_weights":[-6.70285E-4,-9.756105E-2,1.4700922E-1,-1.3786578E-1,-4.6499997E-2,8.637396E-2,1.8100156E-1,-1.5796289E-2,-1.1871056E-2,-7.511916E-2,-2.9675156E-2,4.9231585E-2,9.369651E-2,1.6163815E-2,2.2643E-2,-8.16607E-3,-4.994508E-3,-3.7932463E-2,-1.7246405E-4,5.174912E-3,1.2028114E-3,9.480763E-3,2.2959143E-3,-4.086783E-3,-2.6434264E-3,-2.3610848E-4,1.5234113E-3],"categories":[],"categories_nodes":[],"categories_segments":[],"categories_sizes":[],"default_left":[0,0,0,0,0,0,0,0,0,0,0,0,0,0,0,0,0,0,0,0,0,0,0,0,0,0,0],"id":35,"left_children":[1,3,5,7,9,11,13,-1,-1,15,17,19,21,-1,-1,-1,-1,23,25,-1,-1,-1,-1,-1,-1,-1,-1],"loss_changes":[5.237047E0,4.484079E-1,2.8323078E-1,2.8598547E-2,4.5440584E-2,1.007393E-2,4.4327974E-2,0E0,0E0,1.8498302E-3,1.5584674E-2,4.0782802E-4,1.2816191E-3,0E0,0E0,0E0,0E0,6.07267E-4,5.4175634E-4,0E0,0E0,0E0,0E0,0E0,0E0,0E0,0E0],"parents":[2147483647,0,0,1,1,2,2,3,3,4,4,5,5,6,6,9,9,10,10,11,11,12,12,17,17,18,18],"right_children":[2,4,6,8,10,12,14,-1,-1,16,18,20,22,-1,-1,-1,-1,24,26,-1,-1,-1,-1,-1,-1,-1,-1],"split_conditions":[4.3618664E-1,1.5509121E-1,6.745024E-1,4.9269855E-2,2.6950017E-1,5.470339E-1,8.735605E-1,-1.5796289E-2,-1.1871056E-2,2.4781352E-1,3.6736712E-1,5.301876E-1,6.7299855E-1,1.6163815E-2,2.2643E-2,-8.16607E-3,-4.994508E-3,3.1877002E-1,4.550854E-1,5.174912E-3,1.2028114E-3,9.480763E-3,2.2959143E-3,-4.086783E-3,-2.6434264E-3,-2.3610848E-4,1.5234113E-3],"split_indices":[1,1,1,1,1,1,1,0,0,1,1,0,1,0,0,0,0,1,0,0,0,0,0,0,0,0,0],"split_type":[0,0,0,0,0,0,0,0,0,0,0,0,0,0,0,0,0,0,0,0,0,0,0,0,0,0,0],"sum_hessian":[3.64E2,2.2E2,1.44E2,1.22E2,9.8E1,5.3E1,9.1E1,5.6E1,6.6E1,3.5E1,6.3E1,1E1,4.3E1,6.7E1,2.4E1,2.6E1,9E0,4.9E1,1.4E1,9E0,1E0,4.2E1,1E0,3.7E1,1.2E1,1.3E1,1E0],"tree_param":{"num_deleted":"0","num_feature":"2","num_nodes":"27","size_leaf_vector":"1"}},{"base_weights":[-1.016109E-3,-8.8122845E-2,1.332805E-1,-1.23990685E-1,-4.1473832E-2,9.070056E-2,1.7824854E-1,-1.403214E-2,-1.0455647E-2,-5.7239946E-2,-1.5073656E-2,6.696008E-2,1.1521886E-2,1.6115509E-2,2.1474944E-2,-7.266503E-3,-4.450961E-3,-2.4409676E-2,2.6744988E-3,3.8244042E-3,7.1747378E-3,-2.6518295E-3,-1.3312673E-3,-2.6254295E-4,1.2739456E-3],"categories":[],"categories_nodes":[],"categories_segments":[],"categories_sizes":[],"default_left":[0,0,0,0,0,0,0,0,0,0,0,0,0,0,0,0,0,0,0,0,0,0,0,0,0],"id":36,"left_children":[1,3,5,7,9,11,13,-1,-1,15,17,19,-1,-1,-1,-1,-1,21,23,-1,-1,-1,-1,-1,-1],"loss_changes":[4.2815657E0,3.6630785E-1,2.5955462E-1,2.5000334E-2,3.9927557E-2,3.6522746E-2,8.443117E-3,0E0,0E0,8.744061E-3,6.361775E-3,2.8924495E-3,0E0,0E0,0E0,0E0,0E0,2.3195427E-4,7.8025623E-4,0E0,0E0,0E0,0E0,0E0,0E0],"parents":[2147483647,0,0,1,1,2,2,3,3,4,4,5,5,6,6,9,9,10,10,11,11,17,17,18,18],"right_children":[2,4,6,8,10,12,14,-1,-1,16,18,20,-1,-1,-1,-1,-1,22,24,-1,-1,-1,-1,-1,-1],"split_conditions":[4.4334957E-1,1.580197E-1,7.5226563E-1,6.557442E-2,3.022676E-1,6.32158E-1,8.873719E-1,-1.403214E-2,-1.0455647E-2,2.524437E-1,3.6883137E-1,5.4208714E-1,1.1521886E-2,1.6115509E-2,2.1474944E-2,-7.266503E-3,-4.450961E-3,3.4845066E-1,4.1362935E-1,3.8244042E-3,7.1747378E-3,-2.6518295E-3,-1.3312673E-3,-2.6254295E-4,1.2739456E-3],"split_indices":[1,1,1,1,1,1,1,0,0,1,1,1,0,0,0,0,0,1,1,0,0,0,0,0,0],"split_type":[0,0,0,0,0,0,0,0,0,0,0,0,0,0,0,0,0,0,0,0,0,0,0,0,0],"sum_hessian":[3.64E2,2.21E2,1.43E2,1.24E2,9.7E1,7.5E1,6.8E1,6.4E1,6E1,6E1,3.7E1,4E1,3.5E1,5E1,1.8E1,2.5E1,3.5E1,2.4E1,1.3E1,7E0,3.3E1,1.9E1,5E0,9E0,4E0],"tree_param":{"num_deleted":"0","num_feature":"2","num_nodes":"25","size_leaf_vector":"1"}},{"base_weights":[3.4151184E-3,-8.6605355E-2,1.4059518E-1,-1.2423585E-1,-3.8977504E-2,9.700551E-2,1.8344297E-1,-1.3793674E-2,-1.0287624E-2,-6.4668655E-2,-2.1913039E-2,7.646501E-2,1.2624197E-2,1.6132865E-2,2.1432504E-2,-7.3020416E-3,-4.643781E-3,-3.1225808E-2,2.0689038E-3,4.9042586E-2,8.47011E-3,-3.4729575E-3,-2.019917E-3,-7.635514E-4,1.059599E-3,5.092965E-3,1.3198942E-3],"categories":[],"categories_nodes":[],"categories_segments":[],"categories_sizes":[],"default_left":[0,0,0,0,0,0,0,0,0,0,0,0,0,0,0,0,0,0,0,0,0,0,0,0,0,0,0],"id":37,"left_children":[1,3,5,7,9,11,13,-1,-1,15,17,19,-1,-1,-1,-1,-1,21,23,25,-1,-1,-1,-1,-1,-1,-1],"loss_changes":[4.519566E0,3.9124715E-1,2.5302458E-1,2.1805048E-2,4.198508E-2,3.4786224E-2,1.4594793E-2,0E0,0E0,2.5472194E-3,1.368824E-2,6.2352717E-3,0E0,0E0,0E0,0E0,0E0,9.984225E-4,1.570413E-3,2.0709261E-4,0E0,0E0,0E0,0E0,0E0,0E0,0E0],"parents":[2147483647,0,0,1,1,2,2,3,3,4,4,5,5,6,6,9,9,10,10,11,11,17,17,18,18,19,19],"right_children":[2,4,6,8,10,12,14,-1,-1,16,18,20,-1,-1,-1,-1,-1,22,24,26,-1,-1,-1,-1,-1,-1,-1],"split_conditions":[4.3618664E-1,1.5509121E-1,7.457359E-1,9.822312E-2,2.7215165E-1,6.401124E-1,8.6936563E-1,-1.3793674E-2,-1.0287624E-2,2.1730183E-1,3.4845066E-1,5.563734E-1,1.2624197E-2,1.6132865E-2,2.1432504E-2,-7.3020416E-3,-4.643781E-3,3.1386283E-1,3.8050577E-1,5.301876E-1,8.47011E-3,-3.4729575E-3,-2.019917E-3,-7.635514E-4,1.059599E-3,5.092965E-3,1.3198942E-3],"split_indices":[1,1,1,1,1,1,1,0,0,1,1,1,0,0,0,0,0,1,1,0,0,0,0,0,0,0,0],"split_type":[0,0,0,0,0,0,0,0,0,0,0,0,0,0,0,0,0,0,0,0,0,0,0,0,0,0,0],"sum_hessian":[3.64E2,2.2E2,1.44E2,1.22E2,9.8E1,7.3E1,7.1E1,7.1E1,5.1E1,3.8E1,6E1,4.5E1,2.8E1,4.5E1,2.6E1,2.4E1,1.4E1,4.3E1,1.7E1,1.2E1,3.3E1,3.1E1,1.2E1,8E0,9E0,1.1E1,1E0],"tree_param":{"num_deleted":"0","num_feature":"2","num_nodes":"27","size_leaf_vector":"1"}},{"base_weights":[-5.160558E-5,-8.789891E-2,1.3384016E-1,-1.24067955E-1,-4.207375E-2,8.9705005E-2,1.7734241E-1,-1.4198176E-2,-1.05899E-2,-6.6789314E-2,-2.5582261E-2,6.625905E-2,1.1017329E-1,1.5673934E-2,2.098066E-2,-7.3759267E-3,-4.717563E-3,-3.491582E-2,-1.345656E-3,3.4125994E-3,7.021341E-3,4.175033E-2,1.1281485E-2,-3.6901068E-3,-2.1369576E-3,-9.557401E-4,3.5566662E-4,5.1151845E-3,1.1473655E-3],"categories":[],"categories_nodes":[],"categories_segments":[],"categories_sizes":[],"default_left":[0,0,0,0,0,0,0,0,0,0,0,0,0,0,0,0,0,0,0,0,0,0,0,0,0,0,0,0,0],"id":38,"left_children":[1,3,5,7,9,11,13,-1,-1,15,17,19,21,-1,-1,-1,-1,23,25,-1,-1,27,-1,-1,-1,-1,-1,-1,-1],"loss_changes":[4.304906E0,3.6107695E-1,2.6248837E-1,2.4997592E-2,3.8643435E-2,2.8212488E-2,1.5273094E-2,0E0,0E0,1.8519163E-3,1.3752051E-2,2.305314E-3,2.1581352E-3,0E0,0E0,0E0,0E0,3.9471686E-4,7.586116E-4,0E0,0E0,2.6704092E-4,0E0,0E0,0E0,0E0,0E0,0E0,0E0],"parents":[2147483647,0,0,1,1,2,2,3,3,4,4,5,5,6,6,9,9,10,10,11,11,12,12,17,17,18,18,21,21],"right_children":[2,4,6,8,10,12,14,-1,-1,16,18,20,22,-1,-1,-1,-1,24,26,-1,-1,28,-1,-1,-1,-1,-1,-1,-1],"split_conditions":[4.3618664E-1,1.5509121E-1,7.457359E-1,5.065495E-2,2.7215165E-1,6.1917764E-1,8.735605E-1,-1.4198176E-2,-1.05899E-2,2.4781352E-1,3.4845066E-1,5.090031E-1,1.0984505E-1,1.5673934E-2,2.098066E-2,-7.3759267E-3,-4.717563E-3,4.409659E-1,3.2865834E-1,3.4125994E-3,7.021341E-3,6.403894E-1,1.1281485E-2,-3.6901068E-3,-2.1369576E-3,-9.557401E-4,3.5566662E-4,5.1151845E-3,1.1473655E-3],"split_indices":[1,1,1,1,1,1,1,0,0,1,1,1,0,0,0,0,0,0,0,0,0,1,0,0,0,0,0,0,0],"split_type":[0,0,0,0,0,0,0,0,0,0,0,0,0,0,0,0,0,0,0,0,0,0,0,0,0,0,0,0,0],"sum_hessian":[3.64E2,2.2E2,1.44E2,1.22E2,9.8E1,7.3E1,7.1E1,5.8E1,6.4E1,3.8E1,6E1,3.6E1,3.7E1,4.7E1,2.4E1,2.6E1,1.2E1,4.3E1,1.7E1,5E0,3.1E1,2E0,3.5E1,3.6E1,7E0,6E0,1.1E1,1E0,1E0],"tree_param":{"num_deleted":"0","num_feature":"2","num_nodes":"29","size_leaf_vector":"1"}},{"base_weights":[-5.739719E-4,-8.801431E-2,1.3270113E-1,-1.24304146E-1,-4.2037908E-2,9.0610504E-2,1.7411785E-1,-1.3712617E-2,-9.98602E-3,-6.639391E-2,-2.577689E-2,6.499186E-2,1.0858204E-2,1.5456601E-2,2.0469269E-2,-7.4926848E-3,-4.7746096E-3,-3.343296E-2,-6.940961E-5,3.4330294E-3,6.924106E-2,-3.7350585E-3,-2.56938E-3,-2.1418545E-4,1.447241E-3,1.6558319E-3,7.057901E-3],"categories":[],"categories_nodes":[],"categories_segments":[],"categories_sizes":[],"default_left":[0,0,0,0,0,0,0,0,0,0,0,0,0,0,0,0,0,0,0,0,0,0,0,0,0,0,0],"id":39,"left_children":[1,3,5,7,9,11,13,-1,-1,15,17,19,-1,-1,-1,-1,-1,21,23,-1,25,-1,-1,-1,-1,-1,-1],"loss_changes":[4.2652507E0,3.6350775E-1,2.3699522E-1,2.4857283E-2,3.749785E-2,2.7013123E-2,1.1402607E-2,0E0,0E0,2.628252E-3,1.2003597E-2,1.9224137E-3,0E0,0E0,0E0,0E0,0E0,4.6531856E-4,4.830546E-4,0E0,8.049607E-4,0E0,0E0,0E0,0E0,0E0,0E0],"parents":[2147483647,0,0,1,1,2,2,3,3,4,4,5,5,6,6,9,9,10,10,11,11,17,17,18,18,20,20],"right_children":[2,4,6,8,10,12,14,-1,-1,16,18,20,-1,-1,-1,-1,-1,22,24,-1,26,-1,-1,-1,-1,-1,-1],"split_conditions":[4.3618664E-1,1.5509121E-1,7.457359E-1,1.0930389E-1,2.7215165E-1,6.0599947E-1,8.735605E-1,-1.3712617E-2,-9.98602E-3,2.1730183E-1,3.6736712E-1,5.090031E-1,1.0858204E-2,1.5456601E-2,2.0469269E-2,-7.4926848E-3,-4.7746096E-3,3.6690047E-1,4.550854E-1,3.4330294E-3,1.1189006E-1,-3.7350585E-3,-2.56938E-3,-2.1418545E-4,1.447241E-3,1.6558319E-3,7.057901E-3],"split_indices":[1,1,1,1,1,1,1,0,0,1,1,1,0,0,0,0,0,0,0,0,0,0,0,0,0,0,0],"split_type":[0,0,0,0,0,0,0,0,0,0,0,0,0,0,0,0,0,0,0,0,0,0,0,0,0,0,0],"sum_hessian":[3.64E2,2.2E2,1.44E2,1.22E2,9.8E1,7.3E1,7.1E1,7.7E1,4.5E1,3.8E1,6E1,3.2E1,4.1E1,4.7E1,2.4E1,2.4E1,1.4E1,4.6E1,1.4E1,5E0,2.7E1,2.8E1,1.8E1,1.3E1,1E0,1E0,2.6E1],"tree_param":{"num_deleted":"0","num_feature":"2","num_nodes":"27","size_leaf_vector":"1"}},{"base_weights":[-8.5714017E-4,-7.994015E-2,1.19682185E-1,-1.1333828E-1,-3.9864507E-2,7.287534E-2,1.5376832E-1,-1.2969873E-2,-9.846062E-3,-5.990025E-2,-2.1653958E-2,5.0826617E-2,8.800004E-3,1.3461016E-2,1.848004E-2,-6.8512904E-3,-4.556433E-3,-2.8811624E-2,-6.460746E-4,2.256443E-3,5.4596798E-3,-3.3348855E-3,-2.1161335E-3,-5.3735374E-4,7.3407096E-4],"categories":[],"categories_nodes":[],"categories_segments":[],"categories_sizes":[],"default_left":[0,0,0,0,0,0,0,0,0,0,0,0,0,0,0,0,0,0,0,0,0,0,0,0,0],"id":40,"left_children":[1,3,5,7,9,11,13,-1,-1,15,17,19,-1,-1,-1,-1,-1,21,23,-1,-1,-1,-1,-1,-1],"loss_changes":[3.488971E0,2.9127955E-1,2.201364E-1,1.6438365E-2,3.5918847E-2,1.6536504E-2,2.4468899E-2,0E0,0E0,2.8048158E-3,8.251596E-3,1.7515495E-3,0E0,0E0,0E0,0E0,0E0,7.174462E-4,6.05804E-4,0E0,0E0,0E0,0E0,0E0,0E0],"parents":[2147483647,0,0,1,1,2,2,3,3,4,4,5,5,6,6,9,9,10,10,11,11,17,17,18,18],"right_children":[2,4,6,8,10,12,14,-1,-1,16,18,20,-1,-1,-1,-1,-1,22,24,-1,-1,-1,-1,-1,-1],"split_conditions":[4.3618664E-1,1.4337726E-1,7.113459E-1,4.796391E-2,2.7777117E-1,5.9218806E-1,8.573351E-1,-1.2969873E-2,-9.846062E-3,2.1730183E-1,3.6736712E-1,5.0025725E-1,8.800004E-3,1.3461016E-2,1.848004E-2,-6.8512904E-3,-4.556433E-3,3.0816415E-1,3.913095E-1,2.256443E-3,5.4596798E-3,-3.3348855E-3,-2.1161335E-3,-5.3735374E-4,7.3407096E-4],"split_indices":[1,1,1,1,1,1,1,0,0,1,1,1,0,0,0,0,0,1,1,0,0,0,0,0,0],"split_type":[0,0,0,0,0,0,0,0,0,0,0,0,0,0,0,0,0,0,0,0,0,0,0,0,0],"sum_hessian":[3.64E2,2.2E2,1.44E2,1.19E2,1.01E2,6.2E1,8.2E1,5.3E1,6.6E1,4.7E1,5.4E1,2.7E1,3.5E1,5.4E1,2.8E1,2.7E1,2E1,4E1,1.4E1,4E0,2.3E1,2.3E1,1.7E1,9E0,5E0],"tree_param":{"num_deleted":"0","num_feature":"2","num_nodes":"25","size_leaf_vector":"1"}},{"base_weights":[3.1389399E-3,-7.813135E-2,1.2698442E-1,-1.1200805E-1,-3.525291E-2,8.9644596E-2,1.6794798E-1,-1.2838001E-2,-9.64079E-3,-5.2004416E-2,-1.3995453E-2,6.914204E-2,1.1550741E-2,1.5379607E-2,2.1154854E-2,-6.4636306E-3,-3.7515224E-3,-2.1620357E-2,6.436646E-3,5.02386E-2,7.950003E-3,-2.435559E-3,-1.002831E-3,1.5476675E-4,1.7049931E-3,5.163641E-3,1.2539E-3],"categories":[],"categories_nodes":[],"categories_segments":[],"categories_sizes":[],"default_left":[0,0,0,0,0,0,0,0,0,0,0,0,0,0,0,0,0,0,0,0,0,0,0,0,0,0,0],"id":41,"left_children":[1,3,5,7,9,11,13,-1,-1,15,17,19,-1,-1,-1,-1,-1,21,23,25,-1,-1,-1,-1,-1,-1,-1],"loss_changes":[3.6836314E0,3.1707156E-1,2.0673227E-1,1.9038081E-2,3.452552E-2,3.3373296E-2,9.422898E-3,0E0,0E0,7.641569E-3,7.149838E-3,5.0128996E-3,0E0,0E0,0E0,0E0,0E0,8.0208294E-4,6.48158E-4,3.537722E-4,0E0,0E0,0E0,0E0,0E0,0E0,0E0],"parents":[2147483647,0,0,1,1,2,2,3,3,4,4,5,5,6,6,9,9,10,10,11,11,17,17,18,18,19,19],"right_children":[2,4,6,8,10,12,14,-1,-1,16,18,20,-1,-1,-1,-1,-1,22,24,26,-1,-1,-1,-1,-1,-1,-1],"split_conditions":[4.3618664E-1,1.5509121E-1,7.5436306E-1,4.9269855E-2,2.9336342E-1,6.401124E-1,9.032807E-1,-1.2838001E-2,-9.64079E-3,2.524437E-1,3.6883137E-1,5.674938E-1,1.1550741E-2,1.5379607E-2,2.1154854E-2,-6.4636306E-3,-3.7515224E-3,3.2961336E-1,4.1362935E-1,5.301876E-1,7.950003E-3,-2.435559E-3,-1.002831E-3,1.5476675E-4,1.7049931E-3,5.163641E-3,1.2539E-3],"split_indices":[1,1,1,1,1,1,1,0,0,1,1,1,0,0,0,0,0,1,1,0,0,0,0,0,0,0,0],"split_type":[0,0,0,0,0,0,0,0,0,0,0,0,0,0,0,0,0,0,0,0,0,0,0,0,0,0,0],"sum_hessian":[3.64E2,2.2E2,1.44E2,1.22E2,9.8E1,7.7E1,6.7E1,5.6E1,6.6E1,5.4E1,4.4E1,4.5E1,3.2E1,5.4E1,1.3E1,2.7E1,2.7E1,3.2E1,1.2E1,1.8E1,2.7E1,2.5E1,7E0,9E0,3E0,1.7E1,1E0],"tree_param":{"num_deleted":"0","num_feature":"2","num_nodes":"27","size_leaf_vector":"1"}},{"base_weights":[1.19707765E-5,-7.930499E-2,1.2090188E-1,-1.0624939E-1,-2.9528359E-2,6.8408616E-2,1.50399E-1,-1.207401E-2,-7.936441E-3,-3.7263557E-2,-1.2444274E-3,3.5298347E-2,7.2588906E-2,1.2344745E-2,1.7466692E-2,-4.636476E-3,-2.9861E-2,-1.1176044E-2,2.3914662E-3,3.7734423E-2,9.122908E-4,7.3693015E-2,1.0899961E-3,-3.1628632E-3,-1.9499749E-3,-1.7770231E-3,-8.565088E-5,4.004217E-5,1.4137522E-3,1.103191E-3,4.0346193E-3,6.01373E-3,8.2674315E-3],"categories":[],"categories_nodes":[],"categories_segments":[],"categories_sizes":[],"default_left":[0,0,0,0,0,0,0,0,0,0,0,0,0,0,0,0,0,0,0,0,0,0,0,0,0,0,0,0,0,0,0,0,0],"id":42,"left_children":[1,3,5,7,9,11,13,-1,-1,15,17,19,21,-1,-1,-1,23,25,27,29,-1,31,-1,-1,-1,-1,-1,-1,-1,-1,-1,-1,-1],"loss_changes":[3.5094347E0,2.932682E-1,2.1422935E-1,4.6127796E-2,1.7237388E-2,4.9118698E-3,3.8610935E-2,0E0,0E0,2.7925745E-3,6.7671255E-4,1.65876E-4,2.3979843E-3,0E0,0E0,0E0,6.0901046E-5,3.2502442E-4,3.2175586E-4,4.30895E-5,0E0,6.285906E-4,0E0,0E0,0E0,0E0,0E0,0E0,0E0,0E0,0E0,0E0,0E0],"parents":[2147483647,0,0,1,1,2,2,3,3,4,4,5,5,6,6,9,9,10,10,11,11,12,12,16,16,17,17,18,18,19,19,21,21],"right_children":[2,4,6,8,10,12,14,-1,-1,16,18,20,22,-1,-1,-1,24,26,28,30,-1,32,-1,-1,-1,-1,-1,-1,-1,-1,-1,-1,-1],"split_conditions":[4.3618664E-1,2.076853E-1,6.745024E-1,1.2252167E-1,3.4845066E-1,5.3088766E-1,7.938581E-1,-1.207401E-2,-7.936441E-3,2.786814E-1,3.684752E-1,5.301876E-1,6.7299855E-1,1.2344745E-2,1.7466692E-2,-4.636476E-3,4.409659E-1,3.2865834E-1,4.550854E-1,4.4334957E-1,9.122908E-4,6.008548E-1,1.0899961E-3,-3.1628632E-3,-1.9499749E-3,-1.7770231E-3,-8.565088E-5,4.004217E-5,1.4137522E-3,1.103191E-3,4.0346193E-3,6.01373E-3,8.2674315E-3],"split_indices":[1,1,1,1,1,1,1,0,0,1,1,0,1,0,0,0,0,0,0,1,0,1,0,0,0,0,0,0,0,0,0,0,0],"split_type":[0,0,0,0,0,0,0,0,0,0,0,0,0,0,0,0,0,0,0,0,0,0,0,0,0,0,0,0,0,0,0,0,0],"sum_hessian":[3.64E2,2.2E2,1.44E2,1.42E2,7.8E1,5.3E1,9.1E1,9E1,5.2E1,6.1E1,1.7E1,7E0,4.6E1,4.6E1,4.5E1,2.5E1,3.6E1,4E0,1.3E1,6E0,1E0,4.5E1,1E0,2.9E1,7E0,2E0,2E0,1.2E1,1E0,1E0,5E0,2.1E1,2.4E1],"tree_param":{"num_deleted":"0","num_feature":"2","num_nodes":"33","size_leaf_vector":"1"}},{"base_weights":[-4.6754978E-4,-7.9398565E-2,1.1983743E-1,-1.0918193E-1,-3.3998724E-2,8.371659E-2,1.5950784E-1,-1.2358936E-2,-8.716478E-2,-4.212467E-2,-5.6802006E-3,5.886076E-2,9.972802E-3,1.418393E-2,1.8599022E-2,-4.1486556E-3,-8.896758E-3,-6.2712803E-3,-3.4726124E-2,-1.3431418E-2,4.18928E-3,3.5688832E-2,6.372671E-2,-3.911507E-3,-2.8245908E-3,-2.5069018E-4,-1.536563E-3,1.3487637E-3,-4.257565E-4,4.29129E-3,1.7736539E-3,1.5730411E-3,6.5017343E-3],"categories":[],"categories_nodes":[],"categories_segments":[],"categories_sizes":[],"default_left":[0,0,0,0,0,0,0,0,0,0,0,0,0,0,0,0,0,0,0,0,0,0,0,0,0,0,0,0,0,0,0,0,0],"id":43,"left_children":[1,3,5,7,9,11,13,-1,15,17,19,21,-1,-1,-1,-1,-1,-1,23,25,27,29,31,-1,-1,-1,-1,-1,-1,-1,-1,-1,-1],"loss_changes":[3.4754798E0,2.9511535E-1,1.9442129E-1,3.1416297E-2,2.024094E-2,2.5172174E-2,5.436778E-3,0E0,9.2056394E-4,8.332454E-3,1.6627781E-3,1.4465302E-3,0E0,0E0,0E0,0E0,0E0,0E0,4.0254742E-4,2.1504401E-4,8.428423E-4,2.7638394E-4,5.878359E-4,0E0,0E0,0E0,0E0,0E0,0E0,0E0,0E0,0E0,0E0],"parents":[2147483647,0,0,1,1,2,2,3,3,4,4,5,5,6,6,8,8,9,9,10,10,11,11,18,18,19,19,20,20,21,21,22,22],"right_children":[2,4,6,8,10,12,14,-1,16,18,20,22,-1,-1,-1,-1,-1,-1,24,26,28,30,32,-1,-1,-1,-1,-1,-1,-1,-1,-1,-1],"split_conditions":[4.3618664E-1,1.9324073E-1,7.5436306E-1,1.0930389E-1,3.2427084E-1,6.0599947E-1,8.744707E-1,-1.2358936E-2,2.2832689E-1,2.4781352E-1,3.8050577E-1,5.3088766E-1,9.972802E-3,1.418393E-2,1.8599022E-2,-4.1486556E-3,-8.896758E-3,-6.2712803E-3,2.9336342E-1,2.6866916E-1,3.913095E-1,3.2941473E-1,1.1189006E-1,-3.911507E-3,-2.8245908E-3,-2.5069018E-4,-1.536563E-3,1.3487637E-3,-4.257565E-4,4.29129E-3,1.7736539E-3,1.5730411E-3,6.5017343E-3],"split_indices":[1,1,1,1,1,1,1,0,0,1,1,1,0,0,0,0,0,0,1,0,1,0,0,0,0,0,0,0,0,0,0,0,0],"split_type":[0,0,0,0,0,0,0,0,0,0,0,0,0,0,0,0,0,0,0,0,0,0,0,0,0,0,0,0,0,0,0,0,0],"sum_hessian":[3.64E2,2.2E2,1.44E2,1.32E2,8.8E1,7.7E1,6.7E1,7.7E1,5.5E1,6.8E1,2E1,3.2E1,4.5E1,4.4E1,2.3E1,3E0,5.2E1,1.6E1,5.2E1,1.1E1,9E0,7E0,2.5E1,2.8E1,2.4E1,2E0,9E0,4E0,5E0,4E0,3E0,1E0,2.4E1],"tree_param":{"num_deleted":"0","num_feature":"2","num_nodes":"33","size_leaf_vector":"1"}},{"base_weights":[-7.46826E-4,-7.2124764E-2,1.08048156E-1,-9.679632E-2,-2.828757E-2,7.459004E-2,1.4807983E-1,-1.098473E-2,-7.373553E-3,-3.640006E-2,-6.247374E-3,5.634503E-2,9.942081E-3,1.33998515E-2,1.799566E-2,-4.384163E-3,-2.719011E-3,-1.2887701E-2,3.6738217E-3,3.6669232E-2,6.316766E-3,-1.4348975E-3,-5.647272E-4,-2.0105182E-4,7.7984686E-4,1.7548889E-3,3.9986908E-3],"categories":[],"categories_nodes":[],"categories_segments":[],"categories_sizes":[],"default_left":[0,0,0,0,0,0,0,0,0,0,0,0,0,0,0,0,0,0,0,0,0,0,0,0,0,0,0],"id":44,"left_children":[1,3,5,7,9,11,13,-1,-1,15,17,19,-1,-1,-1,-1,-1,21,23,25,-1,-1,-1,-1,-1,-1,-1],"loss_changes":[2.842223E0,2.3628032E-1,1.8316555E-1,3.4336567E-2,1.42554715E-2,3.1094193E-2,5.0623417E-3,0E0,0E0,2.851598E-3,1.5625868E-3,4.261479E-3,0E0,0E0,0E0,0E0,0E0,6.709085E-5,2.5013788E-4,2.498012E-4,0E0,0E0,0E0,0E0,0E0,0E0,0E0],"parents":[2147483647,0,0,1,1,2,2,3,3,4,4,5,5,6,6,9,9,10,10,11,11,17,17,18,18,19,19],"right_children":[2,4,6,8,10,12,14,-1,-1,16,18,20,-1,-1,-1,-1,-1,22,24,26,-1,-1,-1,-1,-1,-1,-1],"split_conditions":[4.3618664E-1,2.0697297E-1,7.632672E-1,1.2042423E-1,3.232815E-1,6.483834E-1,8.9880884E-1,-1.098473E-2,-7.373553E-3,2.869524E-1,3.8050577E-1,5.5827296E-1,9.942081E-3,1.33998515E-2,1.799566E-2,-4.384163E-3,-2.719011E-3,3.6883137E-1,3.6759955E-1,4.9360877E-1,6.316766E-3,-1.4348975E-3,-5.647272E-4,-2.0105182E-4,7.7984686E-4,1.7548889E-3,3.9986908E-3],"split_indices":[1,1,1,1,1,1,1,0,0,1,1,1,0,0,0,0,0,1,0,1,0,0,0,0,0,0,0],"split_type":[0,0,0,0,0,0,0,0,0,0,0,0,0,0,0,0,0,0,0,0,0,0,0,0,0,0,0],"sum_hessian":[3.64E2,2.2E2,1.44E2,1.4E2,8E1,8E1,6.4E1,8.7E1,5.3E1,5.8E1,2.2E1,4.8E1,3.2E1,4.8E1,1.6E1,3E1,2.8E1,1.3E1,9E0,1.4E1,3.4E1,1E1,3E0,4E0,5E0,3E0,1.1E1],"tree_param":{"num_deleted":"0","num_feature":"2","num_nodes":"27","size_leaf_vector":"1"}},{"base_weights":[2.9022498E-3,-7.00603E-2,1.1536602E-1,-1.0406495E-1,-3.449133E-2,8.178904E-2,1.5169045E-1,-1.1836853E-2,-9.20856E-3,-5.6958158E-2,-1.8061096E-2,6.345855E-2,1.043067E-2,1.3869609E-2,1.9190472E-2,-6.1644726E-2,-3.8542487E-3,-2.6117086E-2,2.8174692E-3,4.6904672E-2,7.183395E-3,-1.9215345E-3,-6.363392E-3,-2.9442082E-3,-1.7060962E-3,-6.451256E-4,1.0144839E-3,4.8262356E-3,1.1912048E-3],"categories":[],"categories_nodes":[],"categories_segments":[],"categories_sizes":[],"default_left":[0,0,0,0,0,0,0,0,0,0,0,0,0,0,0,0,0,0,0,0,0,0,0,0,0,0,0,0,0],"id":45,"left_children":[1,3,5,7,9,11,13,-1,-1,15,17,19,-1,-1,-1,21,-1,23,25,27,-1,-1,-1,-1,-1,-1,-1,-1,-1],"loss_changes":[3.003142E0,2.6492202E-1,1.6322517E-1,8.46231E-3,3.9576143E-2,2.5163352E-2,8.91757E-3,0E0,0E0,1.5941411E-3,1.1006426E-2,2.8696805E-3,0E0,0E0,0E0,1.7312765E-3,0E0,9.1293454E-4,1.3558388E-3,2.802573E-4,0E0,0E0,0E0,0E0,0E0,0E0,0E0,0E0,0E0],"parents":[2147483647,0,0,1,1,2,2,3,3,4,4,5,5,6,6,9,9,10,10,11,11,15,15,17,17,18,18,19,19],"right_children":[2,4,6,8,10,12,14,-1,-1,16,18,20,-1,-1,-1,22,-1,24,26,28,-1,-1,-1,-1,-1,-1,-1,-1,-1],"split_conditions":[4.4334957E-1,1.3815346E-1,7.5436306E-1,4.285884E-2,2.6950017E-1,6.401124E-1,9.032807E-1,-1.1836853E-2,-9.20856E-3,2.1730183E-1,3.4845066E-1,5.674938E-1,1.043067E-2,1.3869609E-2,1.9190472E-2,1.3843049E-1,-3.8542487E-3,3.0816415E-1,3.8050577E-1,5.301876E-1,7.183395E-3,-1.9215345E-3,-6.363392E-3,-2.9442082E-3,-1.7060962E-3,-6.451256E-4,1.0144839E-3,4.8262356E-3,1.1912048E-3],"split_indices":[1,1,1,1,1,1,1,0,0,1,1,1,0,0,0,1,0,1,1,0,0,0,0,0,0,0,0,0,0],"split_type":[0,0,0,0,0,0,0,0,0,0,0,0,0,0,0,0,0,0,0,0,0,0,0,0,0,0,0,0,0],"sum_hessian":[3.64E2,2.21E2,1.43E2,1.12E2,1.09E2,7.6E1,6.7E1,4.7E1,6.5E1,4.5E1,6.4E1,4.4E1,3.2E1,5.4E1,1.3E1,3.4E1,1.1E1,4.6E1,1.8E1,1.7E1,2.7E1,2E0,3.2E1,3.2E1,1.4E1,8E0,1E1,1.6E1,1E0],"tree_param":{"num_deleted":"0","num_feature":"2","num_nodes":"29","size_leaf_vector":"1"}},{"base_weights":[6.8489964E-5,-7.151101E-2,1.0916504E-1,-1.0096329E-1,-3.4196444E-2,7.3073655E-2,1.4474279E-1,-1.1615487E-2,-8.562072E-3,-5.4210596E-2,-2.0839917E-2,5.4114677E-2,8.9610726E-2,1.2706356E-2,1.7289719E-2,-6.056363E-3,-4.000816E-3,-2.759301E-2,1.7091056E-3,3.2524783E-2,5.806816E-2,3.6543667E-2,9.154379E-3,-2.916966E-3,-1.4416481E-3,-8.747833E-6,1.343064E-3,3.4694963E-3,8.6667686E-4,2.9060752E-3,6.021488E-3,4.4460534E-3,1.0354966E-3],"categories":[],"categories_nodes":[],"categories_segments":[],"categories_sizes":[],"default_left":[0,0,0,0,0,0,0,0,0,0,0,0,0,0,0,0,0,0,0,0,0,0,0,0,0,0,0,0,0,0,0,0,0],"id":46,"left_children":[1,3,5,7,9,11,13,-1,-1,15,17,19,21,-1,-1,-1,-1,23,25,27,29,31,-1,-1,-1,-1,-1,-1,-1,-1,-1,-1,-1],"loss_changes":[2.8581192E0,2.3942626E-1,1.756103E-1,1.872325E-2,2.533488E-2,1.8351644E-2,1.3868928E-2,0E0,0E0,1.0958835E-3,9.335976E-3,1.2694895E-3,5.527735E-4,0E0,0E0,0E0,0E0,5.5589154E-4,3.1705567E-4,1.13517046E-4,1.1823326E-4,1.6161008E-4,0E0,0E0,0E0,0E0,0E0,0E0,0E0,0E0,0E0,0E0,0E0],"parents":[2147483647,0,0,1,1,2,2,3,3,4,4,5,5,6,6,9,9,10,10,11,11,12,12,17,17,18,18,19,19,20,20,21,21],"right_children":[2,4,6,8,10,12,14,-1,-1,16,18,20,22,-1,-1,-1,-1,24,26,28,30,32,-1,-1,-1,-1,-1,-1,-1,-1,-1,-1,-1],"split_conditions":[4.3618664E-1,1.5509121E-1,7.457359E-1,5.065495E-2,2.7215165E-1,6.1917764E-1,8.735605E-1,-1.1615487E-2,-8.562072E-3,2.1730183E-1,3.6736712E-1,5.3088766E-1,1.0984505E-1,1.2706356E-2,1.7289719E-2,-6.056363E-3,-4.000816E-3,3.2427084E-1,4.550854E-1,5.301876E-1,1.4832819E-1,6.403894E-1,9.154379E-3,-2.916966E-3,-1.4416481E-3,-8.747833E-6,1.343064E-3,3.4694963E-3,8.6667686E-4,2.9060752E-3,6.021488E-3,4.4460534E-3,1.0354966E-3],"split_indices":[1,1,1,1,1,1,1,0,0,1,1,1,0,0,0,0,0,1,0,0,0,1,0,0,0,0,0,0,0,0,0,0,0],"split_type":[0,0,0,0,0,0,0,0,0,0,0,0,0,0,0,0,0,0,0,0,0,0,0,0,0,0,0,0,0,0,0,0,0],"sum_hessian":[3.64E2,2.2E2,1.44E2,1.22E2,9.8E1,7.3E1,7.1E1,5.8E1,6.4E1,3.8E1,6E1,3.6E1,3.7E1,4.7E1,2.4E1,2.4E1,1.4E1,4.6E1,1.4E1,7E0,2.9E1,2E0,3.5E1,4E1,6E0,1.3E1,1E0,6E0,1E0,3E0,2.6E1,1E0,1E0],"tree_param":{"num_deleted":"0","num_feature":"2","num_nodes":"33","size_leaf_vector":"1"}},{"base_weights":[-3.725257E-4,-7.163643E-2,1.08246066E-1,-9.6007414E-2,-2.6615081E-2,6.288983E-2,1.3369162E-1,-1.0793116E-1,-7.0159766E-3,-3.3187874E-2,-2.496845E-3,3.630224E-2,6.810741E-2,1.1110213E-2,1.5580966E-1,-1.1971242E-2,-9.418767E-3,-4.3358305E-3,-2.804183E-2,-1.2063303E-2,3.291659E-3,3.816779E-3,8.823365E-4,6.9161266E-2,1.1395693E-3,3.9919675E-3,1.575764E-2,-3.165055E-3,-2.1070868E-3,1.6257167E-4,-2.2736497E-3,2.044941E-3,-2.184832E-4,8.941296E-3,5.94056E-3],"categories":[],"categories_nodes":[],"categories_segments":[],"categories_sizes":[],"default_left":[0,0,0,0,0,0,0,0,0,0,0,0,0,0,0,0,0,0,0,0,0,0,0,0,0,0,0,0,0,0,0,0,0,0,0],"id":47,"left_children":[1,3,5,7,9,11,13,15,-1,17,19,21,23,-1,25,-1,-1,-1,27,29,31,-1,-1,33,-1,-1,-1,-1,-1,-1,-1,-1,-1,-1,-1],"loss_changes":[2.8330684E0,2.3992908E-1,1.5893877E-1,3.6500335E-2,1.2440544E-2,5.018592E-3,2.8655529E-2,4.268527E-3,0E0,2.0290837E-3,1.036467E-3,2.2712722E-4,1.8415749E-3,0E0,2.7185678E-3,0E0,0E0,0E0,4.3997169E-4,1.059702E-3,1.1722499E-3,0E0,0E0,3.1838417E-3,0E0,0E0,0E0,0E0,0E0,0E0,0E0,0E0,0E0,0E0,0E0],"parents":[2147483647,0,0,1,1,2,2,3,3,4,4,5,5,6,6,7,7,9,9,10,10,11,11,12,12,14,14,18,18,19,19,20,20,23,23],"right_children":[2,4,6,8,10,12,14,16,-1,18,20,22,24,-1,26,-1,-1,-1,28,30,32,-1,-1,34,-1,-1,-1,-1,-1,-1,-1,-1,-1,-1,-1],"split_conditions":[4.3618664E-1,2.076853E-1,6.745024E-1,1.2529185E-1,3.4845066E-1,5.470339E-1,7.9927975E-1,4.285884E-2,-7.0159766E-3,2.7215165E-1,3.2865834E-1,5.301876E-1,6.7299855E-1,1.1110213E-2,2.2854885E-1,-1.1971242E-2,-9.418767E-3,-4.3358305E-3,3.6690047E-1,2.6866916E-1,3.592151E-1,3.816779E-3,8.823365E-4,2.959877E-1,1.1395693E-3,3.9919675E-3,1.575764E-2,-3.165055E-3,-2.1070868E-3,1.6257167E-4,-2.2736497E-3,2.044941E-3,-2.184832E-4,8.941296E-3,5.94056E-3],"split_indices":[1,1,1,1,1,1,1,1,0,1,0,0,1,0,0,0,0,0,0,0,0,0,0,0,0,0,0,0,0,0,0,0,0,0,0],"split_type":[0,0,0,0,0,0,0,0,0,0,0,0,0,0,0,0,0,0,0,0,0,0,0,0,0,0,0,0,0,0,0,0,0,0,0],"sum_hessian":[3.64E2,2.2E2,1.44E2,1.42E2,7.8E1,5.3E1,9.1E1,9.5E1,4.7E1,6.1E1,1.7E1,1E1,4.3E1,4.8E1,4.3E1,4.7E1,4.8E1,1.8E1,4.3E1,6E0,1.1E1,9E0,1E0,4.2E1,1E0,1E0,4.2E1,2.6E1,1.7E1,3E0,3E0,2E0,9E0,1.1E1,3.1E1],"tree_param":{"num_deleted":"0","num_feature":"2","num_nodes":"35","size_leaf_vector":"1"}},{"base_weights":[-5.994665E-4,-6.503393E-2,9.761167E-2,-9.226437E-2,-3.2360524E-2,6.74028E-2,1.3375486E-1,-1.0795756E-2,-8.068167E-3,-4.9596984E-2,-1.842947E-2,5.0956853E-2,8.978004E-3,1.2087214E-2,1.630195E-2,-5.543668E-3,-3.7757629E-3,-2.4952086E-2,-2.5485423E-3,3.406512E-2,5.740717E-3,-2.8334898E-3,-1.8509593E-3,-8.83522E-4,3.3643216E-4,1.6232729E-3,3.6931615E-3],"categories":[],"categories_nodes":[],"categories_segments":[],"categories_sizes":[],"default_left":[0,0,0,0,0,0,0,0,0,0,0,0,0,0,0,0,0,0,0,0,0,0,0,0,0,0,0],"id":48,"left_children":[1,3,5,7,9,11,13,-1,-1,15,17,19,-1,-1,-1,-1,-1,21,23,25,-1,-1,-1,-1,-1,-1,-1],"loss_changes":[2.3161347E0,1.9364041E-1,1.4930212E-1,1.3102174E-2,2.3578405E-2,2.5234282E-2,4.801035E-3,0E0,0E0,1.0180697E-3,5.944349E-3,3.3833236E-3,0E0,0E0,0E0,0E0,0E0,3.690757E-4,6.9882534E-4,2.1836348E-4,0E0,0E0,0E0,0E0,0E0,0E0,0E0],"parents":[2147483647,0,0,1,1,2,2,3,3,4,4,5,5,6,6,9,9,10,10,11,11,17,17,18,18,19,19],"right_children":[2,4,6,8,10,12,14,-1,-1,16,18,20,-1,-1,-1,-1,-1,22,24,26,-1,-1,-1,-1,-1,-1,-1],"split_conditions":[4.3618664E-1,1.4337726E-1,7.632672E-1,4.285884E-2,2.7476355E-1,6.483834E-1,8.9880884E-1,-1.0795756E-2,-8.068167E-3,2.1730183E-1,3.4845066E-1,5.653963E-1,8.978004E-3,1.2087214E-2,1.630195E-2,-5.543668E-3,-3.7757629E-3,3.0515653E-1,3.8050577E-1,4.9360877E-1,5.740717E-3,-2.8334898E-3,-1.8509593E-3,-8.83522E-4,3.3643216E-4,1.6232729E-3,3.6931615E-3],"split_indices":[1,1,1,1,1,1,1,0,0,1,1,1,0,0,0,0,0,1,1,1,0,0,0,0,0,0,0],"split_type":[0,0,0,0,0,0,0,0,0,0,0,0,0,0,0,0,0,0,0,0,0,0,0,0,0,0,0],"sum_hessian":[3.64E2,2.2E2,1.44E2,1.19E2,1.01E2,8E1,6.4E1,4.7E1,7.2E1,4.4E1,5.7E1,4.8E1,3.2E1,4.8E1,1.6E1,2.7E1,1.7E1,4E1,1.7E1,1.5E1,3.3E1,2.4E1,1.6E1,8E0,9E0,3E0,1.2E1],"tree_param":{"num_deleted":"0","num_feature":"2","num_nodes":"27","size_leaf_vector":"1"}},{"base_weights":[2.664701E-3,-6.4751156E-2,1.0194843E-1,-9.38447E-2,-3.312549E-2,5.9124876E-2,1.2737228E-1,-1.06778275E-2,-8.301656E-3,-5.1526237E-2,-1.8706478E-2,3.9129447E-2,7.057545E-3,1.0926983E-2,1.5503913E-2,-5.5716965E-2,-3.5009428E-3,-2.409908E-2,-3.3315613E-3,1.6048014E-2,4.3144066E-2,-1.7934323E-3,-5.746336E-3,-2.65871E-3,-1.5929568E-3,-7.0768164E-4,3.0297766E-4,2.0068556E-3,6.678134E-4,4.428358E-3,1.1316448E-3],"categories":[],"categories_nodes":[],"categories_segments":[],"categories_sizes":[],"default_left":[0,0,0,0,0,0,0,0,0,0,0,0,0,0,0,0,0,0,0,0,0,0,0,0,0,0,0,0,0,0,0],"id":49,"left_children":[1,3,5,7,9,11,13,-1,-1,15,17,19,-1,-1,-1,21,-1,23,25,27,29,-1,-1,-1,-1,-1,-1,-1,-1,-1,-1],"loss_changes":[2.449655E0,1.9747365E-1,1.5360272E-1,6.960869E-3,2.7160116E-2,1.0289088E-2,2.9135942E-2,0E0,0E0,1.233384E-3,4.9772747E-3,1.4388785E-3,0E0,0E0,0E0,1.2788475E-3,0E0,4.911423E-4,4.2646332E-4,5.4339413E-5,1.879558E-4,0E0,0E0,0E0,0E0,0E0,0E0,0E0,0E0,0E0,0E0],"parents":[2147483647,0,0,1,1,2,2,3,3,4,4,5,5,6,6,9,9,10,10,11,11,15,15,17,17,18,18,19,19,20,20],"right_children":[2,4,6,8,10,12,14,-1,-1,16,18,20,-1,-1,-1,22,-1,24,26,28,30,-1,-1,-1,-1,-1,-1,-1,-1,-1,-1],"split_conditions":[4.1362935E-1,1.3815346E-1,6.745024E-1,4.285884E-2,2.6950017E-1,5.721635E-1,8.39962E-1,-1.06778275E-2,-8.301656E-3,2.1730183E-1,3.2961336E-1,4.4334957E-1,7.057545E-3,1.0926983E-2,1.5503913E-2,1.3843049E-1,-3.5009428E-3,3.0816415E-1,3.8050577E-1,3.943205E-1,5.301876E-1,-1.7934323E-3,-5.746336E-3,-2.65871E-3,-1.5929568E-3,-7.0768164E-4,3.0297766E-4,2.0068556E-3,6.678134E-4,4.428358E-3,1.1316448E-3],"split_indices":[1,1,1,1,1,1,1,0,0,1,1,1,0,0,0,1,0,1,1,0,0,0,0,0,0,0,0,0,0,0,0],"split_type":[0,0,0,0,0,0,0,0,0,0,0,0,0,0,0,0,0,0,0,0,0,0,0,0,0,0,0,0,0,0,0],"sum_hessian":[3.64E2,2.17E2,1.47E2,1.12E2,1.05E2,5.6E1,9.1E1,4.7E1,6.5E1,4.5E1,6E1,2.2E1,3.4E1,5.8E1,3.3E1,3.4E1,1.1E1,4.4E1,1.6E1,4E0,1.8E1,2E0,3.2E1,3.2E1,1.2E1,1E1,6E0,2E0,2E0,1.7E1,1E0],"tree_param":{"num_deleted":"0","num_feature":"2","num_nodes":"31","size_leaf_vector":"1"}},{"base_weights":[1.2914161E-4,-6.45104E-2,9.8647825E-2,-9.1031E-2,-3.0908935E-2,6.614331E-2,1.3068514E-1,-1.0089283E-2,-7.1695107E-3,-4.8318785E-2,-1.8286685E-2,4.906168E-2,8.1034815E-3,1.1462194E-2,1.5629905E-1,-5.406755E-3,-3.4749755E-3,-2.4518263E-2,1.627161E-3,4.996709E-2,8.233428E-4,4.3494524E-3,1.5918698E-2,-2.5924523E-3,-1.3180776E-3,-1.7873167E-4,7.0467644E-4,8.745566E-4,5.0894977E-3],"categories":[],"categories_nodes":[],"categories_segments":[],"categories_sizes":[],"default_left":[0,0,0,0,0,0,0,0,0,0,0,0,0,0,0,0,0,0,0,0,0,0,0,0,0,0,0,0,0],"id":50,"left_children":[1,3,5,7,9,11,13,-1,-1,15,17,19,-1,-1,21,-1,-1,23,25,27,-1,-1,-1,-1,-1,-1,-1,-1,-1],"loss_changes":[2.3307576E0,1.9412637E-1,1.4235294E-1,1.6220927E-2,2.0871803E-2,1.4847726E-2,1.1708379E-2,0E0,0E0,1.3193786E-3,7.361483E-3,9.563565E-4,0E0,0E0,1.2205243E-3,0E0,0E0,3.757514E-4,2.901715E-4,9.3185157E-4,0E0,0E0,0E0,0E0,0E0,0E0,0E0,0E0,0E0],"parents":[2147483647,0,0,1,1,2,2,3,3,4,4,5,5,6,6,9,9,10,10,11,11,14,14,17,17,18,18,19,19],"right_children":[2,4,6,8,10,12,14,-1,-1,16,18,20,-1,-1,22,-1,-1,24,26,28,-1,-1,-1,-1,-1,-1,-1,-1,-1],"split_conditions":[4.3618664E-1,1.5509121E-1,7.457359E-1,1.137362E-1,2.7456567E-1,6.1917764E-1,8.735605E-1,-1.0089283E-2,-7.1695107E-3,2.4781352E-1,3.6736712E-1,5.5403924E-1,8.1034815E-3,1.1462194E-2,2.4425924E-1,-5.406755E-3,-3.4749755E-3,3.2427084E-1,3.943205E-1,4.4334957E-1,8.233428E-4,4.3494524E-3,1.5918698E-2,-2.5924523E-3,-1.3180776E-3,-1.7873167E-4,7.0467644E-4,8.745566E-4,5.0894977E-3],"split_indices":[1,1,1,1,1,1,1,0,0,1,1,0,0,0,0,0,0,1,0,1,0,0,0,0,0,0,0,0,0],"split_type":[0,0,0,0,0,0,0,0,0,0,0,0,0,0,0,0,0,0,0,0,0,0,0,0,0,0,0,0,0],"sum_hessian":[3.64E2,2.2E2,1.44E2,1.22E2,9.8E1,7.3E1,7.1E1,7.8E1,4.4E1,4E1,5.8E1,3.6E1,3.7E1,4.7E1,2.4E1,2.6E1,1.4E1,4.4E1,1.4E1,3.5E1,1E0,1E0,2.3E1,3.8E1,6E0,9E0,5E0,1E0,3.4E1],"tree_param":{"num_deleted":"0","num_feature":"2","num_nodes":"29","size_leaf_vector":"1"}},{"base_weights":[-2.988791E-4,-6.464609E-2,9.77772E-2,-9.387779E-2,-3.3748575E-2,6.814729E-2,1.3032655E-1,-1.0799058E-2,-8.2191555E-3,-5.6258224E-2,-2.1877268E-2,4.7738597E-2,8.130684E-2,1.1874941E-2,1.6649917E-2,-1.6064102E-2,-5.8096056E-3,-2.7168542E-2,3.9356152E-4,4.870654E-2,8.382201E-4,8.276172E-3,3.286634E-3,-3.4783445E-3,1.0687292E-3,-3.0109785E-3,-1.879628E-3,-1.5884574E-4,1.4070914E-3,1.0473252E-3,4.9602026E-3],"categories":[],"categories_nodes":[],"categories_segments":[],"categories_sizes":[],"default_left":[0,0,0,0,0,0,0,0,0,0,0,0,0,0,0,0,0,0,0,0,0,0,0,0,0,0,0,0,0,0,0],"id":51,"left_children":[1,3,5,7,9,11,13,-1,-1,15,17,19,21,-1,-1,23,-1,25,27,29,-1,-1,-1,-1,-1,-1,-1,-1,-1,-1,-1],"loss_changes":[2.3098073E0,1.964361E-1,1.3096166E-1,9.760678E-3,2.7896099E-2,1.7066956E-2,8.70502E-3,0E0,0E0,1.7999411E-3,8.613091E-3,8.4885955E-4,5.2177906E-4,0E0,0E0,1.8740464E-3,0E0,8.869134E-4,4.2898257E-4,5.7610124E-4,0E0,0E0,0E0,0E0,0E0,0E0,0E0,0E0,0E0,0E0,0E0],"parents":[2147483647,0,0,1,1,2,2,3,3,4,4,5,5,6,6,9,9,10,10,11,11,12,12,15,15,17,17,18,18,19,19],"right_children":[2,4,6,8,10,12,14,-1,-1,16,18,20,22,-1,-1,24,-1,26,28,30,-1,-1,-1,-1,-1,-1,-1,-1,-1,-1,-1],"split_conditions":[4.3618664E-1,1.3815346E-1,7.5436306E-1,4.285884E-2,2.4781352E-1,6.0599947E-1,9.032807E-1,-1.0799058E-2,-8.2191555E-3,1.3843049E-1,3.6736712E-1,5.5403924E-1,5.0965583E-1,1.1874941E-2,1.6649917E-2,3.3509073E-1,-5.8096056E-3,3.0816415E-1,4.550854E-1,1.1189006E-1,8.382201E-4,8.276172E-3,3.286634E-3,-3.4783445E-3,1.0687292E-3,-3.0109785E-3,-1.879628E-3,-1.5884574E-4,1.4070914E-3,1.0473252E-3,4.9602026E-3],"split_indices":[1,1,1,1,1,1,1,0,0,1,1,0,0,0,0,0,0,1,0,0,0,0,0,0,0,0,0,0,0,0,0],"split_type":[0,0,0,0,0,0,0,0,0,0,0,0,0,0,0,0,0,0,0,0,0,0,0,0,0,0,0,0,0,0,0],"sum_hessian":[3.64E2,2.2E2,1.44E2,1.12E2,1.08E2,7.7E1,6.7E1,4.7E1,6.5E1,3.6E1,7.2E1,3.2E1,4.5E1,5.4E1,1.3E1,2E0,3.4E1,5.8E1,1.4E1,3.1E1,1E0,4.3E1,2E0,1E0,1E0,4.1E1,1.7E1,1.3E1,1E0,1E0,3E1],"tree_param":{"num_deleted":"0","num_feature":"2","num_nodes":"31","size_leaf_vector":"1"}},{"base_weights":[-4.983963E-4,-5.868173E-2,8.818447E-2,-8.412626E-2,-3.0283175E-2,6.1592713E-2,1.218183E-1,-9.951093E-3,-7.471971E-3,-4.7692508E-3,-1.8113106E-2,4.6086833E-2,8.154116E-3,1.11738695E-2,1.5534504E-2,-2.424266E-2,-3.4159527E-3,3.4344684E-2,5.4382486E-3,-2.739576E-3,-1.7991028E-3,-8.994029E-4,3.061527E-4,1.7194003E-3,3.7050408E-3],"categories":[],"categories_nodes":[],"categories_segments":[],"categories_sizes":[],"default_left":[0,0,0,0,0,0,0,0,0,0,0,0,0,0,0,0,0,0,0,0,0,0,0,0,0],"id":52,"left_children":[1,3,5,7,9,11,13,-1,-1,-1,15,17,-1,-1,-1,19,21,23,-1,-1,-1,-1,-1,-1,-1],"loss_changes":[1.8885254E0,1.5714437E-1,1.2218237E-1,9.35173E-3,2.1594651E-2,2.1915406E-2,3.9319396E-3,0E0,0E0,0E0,5.682759E-3,2.9052868E-3,0E0,0E0,0E0,3.941618E-4,7.50173E-4,4.3027103E-4,0E0,0E0,0E0,0E0,0E0,0E0,0E0],"parents":[2147483647,0,0,1,1,2,2,3,3,4,4,5,5,6,6,10,10,11,11,15,15,16,16,17,17],"right_children":[2,4,6,8,10,12,14,-1,-1,-1,16,18,-1,-1,-1,20,22,24,-1,-1,-1,-1,-1,-1,-1],"split_conditions":[4.3618664E-1,1.3926154E-1,7.691638E-1,3.8782697E-2,2.6950017E-1,6.483834E-1,9.106019E-1,-9.951093E-3,-7.471971E-3,-4.7692508E-3,3.2961336E-1,5.804345E-1,8.154116E-3,1.11738695E-2,1.5534504E-2,3.022676E-1,3.8050577E-1,5.0025725E-1,5.4382486E-3,-2.739576E-3,-1.7991028E-3,-8.994029E-4,3.061527E-4,1.7194003E-3,3.7050408E-3],"split_indices":[1,1,1,1,1,1,1,0,0,0,1,1,0,0,0,1,1,1,0,0,0,0,0,0,0],"split_type":[0,0,0,0,0,0,0,0,0,0,0,0,0,0,0,0,0,0,0,0,0,0,0,0,0],"sum_hessian":[3.64E2,2.2E2,1.44E2,1.15E2,1.05E2,8.2E1,6.2E1,4E1,7.5E1,4.2E1,6.3E1,4.8E1,3.4E1,5.1E1,1.1E1,4.4E1,1.9E1,2.2E1,2.6E1,2.7E1,1.7E1,1E1,9E0,4E0,1.8E1],"tree_param":{"num_deleted":"0","num_feature":"2","num_nodes":"25","size_leaf_vector":"1"}},{"base_weights":[2.4175395E-3,-5.843511E-2,9.203551E-2,-8.462818E-2,-2.9961029E-2,5.919019E-2,1.19214155E-1,-9.487118E-3,-7.364525E-3,-4.661363E-2,-1.6912166E-2,4.072632E-2,7.318108E-2,1.03989495E-2,1.4524813E-2,-5.036069E-2,-3.1800233E-3,-2.1783657E-2,-3.0222062E-3,2.2335076E-3,4.5926105E-3,7.417751E-3,1.8156499E-3,-1.6738704E-3,-5.1891156E-3,-2.456987E-3,-1.5198032E-3,-6.433465E-4,2.7700874E-4],"categories":[],"categories_nodes":[],"categories_segments":[],"categories_sizes":[],"default_left":[0,0,0,0,0,0,0,0,0,0,0,0,0,0,0,0,0,0,0,0,0,0,0,0,0,0,0,0,0],"id":53,"left_children":[1,3,5,7,9,11,13,-1,-1,15,17,19,21,-1,-1,23,-1,25,27,-1,-1,-1,-1,-1,-1,-1,-1,-1,-1],"loss_changes":[1.9959023E0,1.6005397E-1,1.2506199E-1,5.7254434E-3,2.2245206E-2,1.484409E-2,1.6604304E-2,0E0,0E0,9.518266E-4,4.0617194E-3,2.0344146E-3,7.366836E-4,0E0,0E0,9.3241036E-4,0E0,4.5229122E-4,3.5372452E-4,0E0,0E0,0E0,0E0,0E0,0E0,0E0,0E0,0E0,0E0],"parents":[2147483647,0,0,1,1,2,2,3,3,4,4,5,5,6,6,9,9,10,10,11,11,12,12,15,15,17,17,18,18],"right_children":[2,4,6,8,10,12,14,-1,-1,16,18,20,22,-1,-1,24,-1,26,28,-1,-1,-1,-1,-1,-1,-1,-1,-1,-1],"split_conditions":[4.1362935E-1,1.3815346E-1,7.1744037E-1,4.808263E-2,2.6950017E-1,6.008548E-1,8.6936563E-1,-9.487118E-3,-7.364525E-3,2.1730183E-1,3.2961336E-1,5.090031E-1,5.1613253E-1,1.03989495E-2,1.4524813E-2,1.3843049E-1,-3.1800233E-3,3.6690047E-1,3.8050577E-1,2.2335076E-3,4.5926105E-3,