{"learner":{"attributes":{"scikit_learn":"{\"_estimator_type\": \"regressor\"}"},"feature_names":[],"feature_types":[],"gradient_booster":{"model":{"gbtree_model_param":{"num_parallel_tree":"1","num_trees":"400"},"iteration_indptr":[0,4,8,12,16,20,24,28,32,36,40,44,48,52,56,60,64,68,72,76,80,84,88,92,96,100,104,108,112,116,120,124,128,132,136,140,144,148,152,156,160,164,168,172,176,180,184,188,192,196,200,204,208,212,216,220,224,228,232,236,240,244,248,252,256,260,264,268,272,276,280,284,288,292,296,300,304,308,312,316,320,324,328,332,336,340,344,348,352,356,360,364,368,372,376,380,384,388,392,396,400],"tree_info":[0,1,2,3,0,1,2,3,0,1,2,3,0,1,2,3,0,1,2,3,0,1,2,3,0,1,2,3,0,1,2,3,0,1,2,3,0,1,2,3,0,1,2,3,0,1,2,3,0,1,2,3,0,1,2,3,0,1,2,3,0,1,2,3,0,1,2,3,0,1,2,3,0,1,2,3,0,1,2,3,0,1,2,3,0,1,2,3,0,1,2,3,0,1,2,3,0,1,2,3,0,1,2,3,0,1,2,3,0,1,2,3,0,1,2,3,0,1,2,3,0,1,2,3,0,1,2,3,0,1,2,3,0,1,2,3,0,1,2,3,0,1,2,3,0,1,2,3,0,1,2,3,0,1,2,3,0,1,2,3,0,1,2,3,0,1,2,3,0,1,2,3,0,1,2,3,0,1,2,3,0,1,2,3,0,1,2,3,0,1,2,3,0,1,2,3,0,1,2,3,0,1,2,3,0,1,2,3,0,1,2,3,0,1,2,3,0,1,2,3,0,1,2,3,0,1,2,3,0,1,2,3,0,1,2,3,0,1,2,3,0,1,2,3,0,1,2,3,0,1,2,3,0,1,2,3,0,1,2,3,0,1,2,3,0,1,2,3,0,1,2,3,0,1,2,3,0,1,2,3,0,1,2,3,0,1,2,3,0,1,2,3,0,1,2,3,0,1,2,3,0,1,2,3,0,1,2,3,0,1,2,3,0,1,2,3,0,1,2,3,0,1,2,3,0,1,2,3,0,1,2,3,0,1,2,3,0,1,2,3,0,1,2,3,0,1,2,3,0,1,2,3,0,1,2,3,0,1,2,3,0,1,2,3,0,1,2,3,0,1,2,3,0,1,2,3,0,1,2,3,0,1,2,3,0,1,2,3,0,1,2,3,0,1,2,3,0,1,2,3],"trees":[{"base_weights":[-1.5981557E-3,1.0347875E-1,-4.2189997E-2,9.468211E-2,2.093357E-2,-1.4779796E-1,6.136845E-2,1.0627043E-1,-1.3747948E-1,-1.7217514E-1,-6.7000575E-2,1.2775368E-2,1.1759307E-1,-3.9878614E-2,1.1164488E-1,-1.5315587E-2,-3.7386955E-3,-5.317171E-2,-1.976494E-1,2.1485323E-1,-1.03566594E-1,4.012913E-2,-8.7180465E-2,9.6125096E-2,2.7253792E-1,8.366332E-3,-2.0525223E-2,2.8951501E-2,1.0207365E-2,-2.1823188E-2,6.1299377E-3,-2.4437796E-2,-1.6599104E-2,5.846904E-3,2.474916E-2,-4.463779E-3,-2.2955976E-2,1.8580919E-3,3.263847E-2,-1.593003E-2,-1.3387237E-3,1.2136274E-2,-1.8152803E-3,3.494289E-2,1.2751243E-2],"categories":[],"categories_nodes":[],"categories_segments":[],"categories_sizes":[],"default_left":[0,0,0,0,0,0,0,0,0,0,0,0,0,0,0,0,0,0,0,0,0,0,0,0,0,0,0,0,0,0,0,0,0,0,0,0,0,0,0,0,0,0,0,0,0],"id":0,"left_children":[1,3,5,7,-1,9,11,13,15,17,19,21,23,25,27,-1,-1,29,31,33,35,37,39,41,43,-1,-1,-1,-1,-1,-1,-1,-1,-1,-1,-1,-1,-1,-1,-1,-1,-1,-1,-1,-1],"loss_changes":[1.5611875E0,7.51605E-2,2.8963313E0,2.728849E-1,0E0,2.4648333E-1,3.6460274E-1,7.671559E-2,2.119422E-3,2.926433E-1,3.520523E-1,2.0309274E-1,1.8003613E-1,9.889439E-2,1.2196493E-1,0E0,0E0,3.723752E-1,8.074212E-2,5.945921E-3,2.0506713E-1,3.5169655E-1,8.301869E-2,1.6371298E-1,3.3501625E-2,0E0,0E0,0E0,0E0,0E0,0E0,0E0,0E0,0E0,0E0,0E0,0E0,0E0,0E0,0E0,0E0,0E0,0E0,0E0,0E0],"parents":[2147483647,0,0,1,1,2,2,3,3,5,5,6,6,7,7,8,8,9,9,10,10,11,11,12,12,13,13,14,14,17,17,18,18,19,19,20,20,21,21,22,22,23,23,24,24],"right_children":[2,4,6,8,-1,10,12,14,16,18,20,22,24,26,28,-1,-1,30,32,34,36,38,40,42,44,-1,-1,-1,-1,-1,-1,-1,-1,-1,-1,-1,-1,-1,-1,-1,-1,-1,-1,-1,-1],"split_conditions":[4.093171E-1,4.039164E-1,4.7801968E-1,4.0150887E-1,2.093357E-2,4.6235913E-1,5.5965114E-1,9.5164604E-2,4.0350354E-1,4.265535E-1,4.631802E-1,5.3734577E-1,8.606986E-1,6.847526E-2,1.4143664E-1,-1.5315587E-2,-3.7386955E-3,4.1725412E-1,4.398016E-1,4.6246067E-1,4.7292545E-1,5.350731E-1,5.470934E-1,7.0715135E-1,9.6256304E-1,8.366332E-3,-2.0525223E-2,2.8951501E-2,1.0207365E-2,-2.1823188E-2,6.1299377E-3,-2.4437796E-2,-1.6599104E-2,5.846904E-3,2.474916E-2,-4.463779E-3,-2.2955976E-2,1.8580919E-3,3.263847E-2,-1.593003E-2,-1.3387237E-3,1.2136274E-2,-1.8152803E-3,3.494289E-2,1.2751243E-2],"split_indices":[0,0,0,0,0,0,0,0,0,0,0,0,0,0,0,0,0,0,0,0,0,0,0,0,0,0,0,0,0,0,0,0,0,0,0,0,0,0,0,0,0,0,0,0,0],"split_type":[0,0,0,0,0,0,0,0,0,0,0,0,0,0,0,0,0,0,0,0,0,0,0,0,0,0,0,0,0,0,0,0,0,0,0,0,0,0,0,0,0,0,0,0,0],"sum_hessian":[3.64E2,1.01E2,2.63E2,9.5E1,6E0,1.3E2,1.33E2,9.1E1,4E0,9.9E1,3.1E1,7.2E1,6.1E1,3E0,8.8E1,3E0,1E0,1.8E1,8.1E1,3E0,2.8E1,5.7E1,1.5E1,5.5E1,6E0,2E0,1E0,3E0,8.5E1,7E0,1.1E1,3E1,5.1E1,1E0,2E0,2E1,8E0,5.4E1,3E0,7E0,8E0,4.5E1,1E1,3E0,3E0],"tree_param":{"num_deleted":"0","num_feature":"1","num_nodes":"45","size_leaf_vector":"1"}},{"base_weights":[2.3725557E-3,1.11707516E-1,-3.9879486E-2,1.02720484E-1,2.1900006E-2,-1.4947924E-1,6.756415E-2,1.1469817E-1,-1.382131E-2,-1.7511156E-1,-6.470701E-2,1.936856E-2,1.2322083E-1,1.5638821E-1,9.49748E-2,-5.454951E-2,-2.0091116E-1,2.0220776E-3,-2.354616E-2,4.8122358E-2,-8.6074494E-2,1.0177846E-1,2.7715686E-1,9.727695E-3,2.9200673E-2,-1.2890716E-2,1.0788695E-2,-2.2375256E-2,6.2798313E-3,-2.4659676E-2,-1.6981184E-2,-3.4943246E-3,2.7242709E-2,2.6101356E-3,3.3888053E-2,-1.6557118E-2,-5.8469444E-4,1.2552353E-2,-6.771673E-4,3.4892082E-2,1.36103695E-2],"categories":[],"categories_nodes":[],"categories_segments":[],"categories_sizes":[],"default_left":[0,0,0,0,0,0,0,0,0,0,0,0,0,0,0,0,0,0,0,0,0,0,0,0,0,0,0,0,0,0,0,0,0,0,0,0,0,0,0,0,0],"id":1,"left_children":[1,3,5,7,-1,9,11,13,-1,15,17,19,21,23,25,27,29,31,-1,33,35,37,39,-1,-1,-1,-1,-1,-1,-1,-1,-1,-1,-1,-1,-1,-1,-1,-1,-1,-1],"loss_changes":[1.6906182E0,7.5856805E-2,3.1189098E0,2.9289222E-1,0E0,2.733202E-1,3.5705596E-1,6.0795784E-2,0E0,3.000853E-1,3.6509365E-1,2.2546995E-1,1.7643815E-1,1.9605875E-1,2.0180923E-1,3.913079E-1,7.463002E-2,2.494141E-1,0E0,3.625163E-1,1.010771E-1,1.4519167E-1,2.3368299E-2,0E0,0E0,0E0,0E0,0E0,0E0,0E0,0E0,0E0,0E0,0E0,0E0,0E0,0E0,0E0,0E0,0E0,0E0],"parents":[2147483647,0,0,1,1,2,2,3,3,5,5,6,6,7,7,9,9,10,10,11,11,12,12,13,13,14,14,15,15,16,16,17,17,19,19,20,20,21,21,22,22],"right_children":[2,4,6,8,-1,10,12,14,-1,16,18,20,22,24,26,28,30,32,-1,34,36,38,40,-1,-1,-1,-1,-1,-1,-1,-1,-1,-1,-1,-1,-1,-1,-1,-1,-1,-1],"split_conditions":[4.093171E-1,4.039164E-1,4.7801968E-1,4.0150887E-1,2.1900006E-2,4.6235913E-1,5.5965114E-1,2.891739E-1,-1.382131E-2,4.265535E-1,4.7292545E-1,5.3734577E-1,8.606986E-1,2.5870645E-1,3.1140155E-1,4.1725412E-1,4.398016E-1,4.7172734E-1,-2.354616E-2,5.350731E-1,5.470934E-1,7.0715135E-1,9.6256304E-1,9.727695E-3,2.9200673E-2,-1.2890716E-2,1.0788695E-2,-2.2375256E-2,6.2798313E-3,-2.4659676E-2,-1.6981184E-2,-3.4943246E-3,2.7242709E-2,2.6101356E-3,3.3888053E-2,-1.6557118E-2,-5.8469444E-4,1.2552353E-2,-6.771673E-4,3.4892082E-2,1.36103695E-2],"split_indices":[0,0,0,0,0,0,0,0,0,0,0,0,0,0,0,0,0,0,0,0,0,0,0,0,0,0,0,0,0,0,0,0,0,0,0,0,0,0,0,0,0],"split_type":[0,0,0,0,0,0,0,0,0,0,0,0,0,0,0,0,0,0,0,0,0,0,0,0,0,0,0,0,0,0,0,0,0,0,0,0,0,0,0,0,0],"sum_hessian":[3.64E2,1.01E2,2.63E2,9.5E1,6E0,1.3E2,1.33E2,9.1E1,4E0,9.9E1,3.1E1,7.2E1,6.1E1,2.7E1,6.4E1,1.8E1,8.1E1,2.3E1,8E0,5.7E1,1.5E1,5.5E1,6E0,2E1,7E0,3E0,6.1E1,7E0,1.1E1,3E1,5.1E1,2.1E1,2E0,5.4E1,3E0,7E0,8E0,4.5E1,1E1,3E0,3E0],"tree_param":{"num_deleted":"0","num_feature":"1","num_nodes":"41","size_leaf_vector":"1"}},{"base_weights":[-7.179438E-4,1.0309546E-1,-4.082495E-2,9.426628E-2,2.0945344E-2,-1.449059E-1,6.1230488E-2,1.0593288E-1,-1.3925234E-2,-1.7073777E-1,-5.9652936E-2,1.626207E-2,1.13189586E-1,8.9575455E-2,1.7282882E-1,-5.6683365E-2,-1.9508286E-1,6.049005E-3,-2.2823E-2,4.444191E-2,-8.6906224E-2,9.515616E-2,2.4128701E-1,9.83959E-3,-1.5785389E-2,3.249271E-2,6.032733E-3,-2.2836348E-2,6.2493663E-3,-2.4035871E-2,-1.643399E-2,-3.2354973E-3,2.8566185E-2,2.173993E-3,3.454836E-2,-1.6505564E-2,-7.783837E-4,1.19953E-2,-1.7190203E-3,3.0621713E-2,1.1603512E-2],"categories":[],"categories_nodes":[],"categories_segments":[],"categories_sizes":[],"default_left":[0,0,0,0,0,0,0,0,0,0,0,0,0,0,0,0,0,0,0,0,0,0,0,0,0,0,0,0,0,0,0,0,0,0,0,0,0,0,0,0,0],"id":2,"left_children":[1,3,5,7,-1,9,11,13,-1,15,17,19,21,23,25,27,29,31,-1,33,35,37,39,-1,-1,-1,-1,-1,-1,-1,-1,-1,-1,-1,-1,-1,-1,-1,-1,-1,-1],"loss_changes":[1.5239391E0,7.6039076E-2,2.8130875E0,2.7629066E-1,0E0,2.783091E-1,3.1125283E-1,8.518934E-2,0E0,2.6660824E-1,3.5580745E-1,2.160927E-1,1.20262206E-1,1.8139726E-1,2.7128977E-1,4.030175E-1,7.463646E-2,2.6696044E-1,0E0,3.8887525E-1,9.764913E-2,1.5806866E-1,2.1396399E-2,0E0,0E0,0E0,0E0,0E0,0E0,0E0,0E0,0E0,0E0,0E0,0E0,0E0,0E0,0E0,0E0,0E0,0E0],"parents":[2147483647,0,0,1,1,2,2,3,3,5,5,6,6,7,7,9,9,10,10,11,11,12,12,13,13,14,14,15,15,16,16,17,17,19,19,20,20,21,21,22,22],"right_children":[2,4,6,8,-1,10,12,14,-1,16,18,20,22,24,26,28,30,32,-1,34,36,38,40,-1,-1,-1,-1,-1,-1,-1,-1,-1,-1,-1,-1,-1,-1,-1,-1,-1,-1],"split_conditions":[4.093171E-1,4.039164E-1,4.7801968E-1,4.0150887E-1,2.0945344E-2,4.6235913E-1,5.5965114E-1,3.902026E-1,-1.3925234E-2,4.265535E-1,4.7292545E-1,5.3734577E-1,8.606986E-1,3.8732445E-1,3.940226E-1,4.1725412E-1,4.398016E-1,4.7172734E-1,-2.2823E-2,5.350731E-1,5.470934E-1,7.0715135E-1,9.6256304E-1,9.83959E-3,-1.5785389E-2,3.249271E-2,6.032733E-3,-2.2836348E-2,6.2493663E-3,-2.4035871E-2,-1.643399E-2,-3.2354973E-3,2.8566185E-2,2.173993E-3,3.454836E-2,-1.6505564E-2,-7.783837E-4,1.19953E-2,-1.7190203E-3,3.0621713E-2,1.1603512E-2],"split_indices":[0,0,0,0,0,0,0,0,0,0,0,0,0,0,0,0,0,0,0,0,0,0,0,0,0,0,0,0,0,0,0,0,0,0,0,0,0,0,0,0,0],"split_type":[0,0,0,0,0,0,0,0,0,0,0,0,0,0,0,0,0,0,0,0,0,0,0,0,0,0,0,0,0,0,0,0,0,0,0,0,0,0,0,0,0],"sum_hessian":[3.64E2,1.01E2,2.63E2,9.5E1,6E0,1.3E2,1.33E2,9.1E1,4E0,9.9E1,3.1E1,7.2E1,6.1E1,7.5E1,1.6E1,1.8E1,8.1E1,2.3E1,8E0,5.7E1,1.5E1,5.5E1,6E0,7.3E1,2E0,6E0,1E1,7E0,1.1E1,3E1,5.1E1,2.1E1,2E0,5.4E1,3E0,7E0,8E0,4.5E1,1E1,3E0,3E0],"tree_param":{"num_deleted":"0","num_feature":"1","num_nodes":"41","size_leaf_vector":"1"}},{"base_weights":[-5.6469726E-5,1.0558867E-1,-4.0873695E-2,1.5144947E-1,8.705945E-2,-1.46411E-1,6.260586E-2,9.351584E-2,2.845941E-2,-1.3992786E-1,9.84607E-2,-1.7226389E-1,-6.1045352E-2,1.8039634E-2,1.1406922E-1,1.1488996E-1,-1.6698329E-2,-4.4274977E-3,-2.1344328E-2,8.5288756E-2,2.085875E-2,-5.880122E-2,-1.9645324E-1,4.279138E-3,-2.2846118E-2,4.605694E-2,-8.465058E-2,9.582784E-2,2.4370465E-1,7.665768E-3,2.4865467E-2,1.0194605E-2,-1.3831948E-2,-2.283161E-2,5.910881E-3,-2.4096316E-2,-1.6614055E-2,-3.2154259E-3,2.70031E-2,2.3936965E-3,3.386924E-2,-1.6725723E-2,-1.8168456E-4,1.18643E-2,-8.2926144E-4,3.1388838E-2,1.1259476E-2],"categories":[],"categories_nodes":[],"categories_segments":[],"categories_sizes":[],"default_left":[0,0,0,0,0,0,0,0,0,0,0,0,0,0,0,0,0,0,0,0,0,0,0,0,0,0,0,0,0,0,0,0,0,0,0,0,0,0,0,0,0,0,0,0,0,0,0],"id":3,"left_children":[1,3,5,7,9,11,13,15,-1,17,19,21,23,25,27,29,-1,-1,-1,31,-1,33,35,37,-1,39,41,43,45,-1,-1,-1,-1,-1,-1,-1,-1,-1,-1,-1,-1,-1,-1,-1,-1,-1,-1],"loss_changes":[1.5782474E0,7.349086E-2,2.8922977E0,1.8936545E-1,2.0787281E-1,2.7859426E-1,3.052749E-1,1.361114E-1,0E0,1.8677644E-2,8.665186E-2,2.6290727E-1,3.5094088E-1,2.139273E-1,1.23259544E-1,8.322132E-2,0E0,0E0,0E0,2.5993186E-1,0E0,3.932581E-1,7.060194E-2,2.4105647E-1,0E0,3.6733192E-1,1.0917799E-1,1.3401324E-1,2.9070288E-2,0E0,0E0,0E0,0E0,0E0,0E0,0E0,0E0,0E0,0E0,0E0,0E0,0E0,0E0,0E0,0E0,0E0,0E0],"parents":[2147483647,0,0,1,1,2,2,3,3,4,4,5,5,6,6,7,7,9,9,10,10,11,11,12,12,13,13,14,14,15,15,19,19,21,21,22,22,23,23,25,25,26,26,27,27,28,28],"right_children":[2,4,6,8,10,12,14,16,-1,18,20,22,24,26,28,30,-1,-1,-1,32,-1,34,36,38,-1,40,42,44,46,-1,-1,-1,-1,-1,-1,-1,-1,-1,-1,-1,-1,-1,-1,-1,-1,-1,-1],"split_conditions":[4.093171E-1,2.891739E-1,4.7801968E-1,2.5870645E-1,3.1140155E-1,4.6235913E-1,5.5965114E-1,2.5846747E-1,2.845941E-2,3.1124172E-1,4.039164E-1,4.265535E-1,4.7292545E-1,5.3734577E-1,8.606986E-1,2.333463E-1,-1.6698329E-2,-4.4274977E-3,-2.1344328E-2,4.0150887E-1,2.085875E-2,4.1725412E-1,4.398016E-1,4.7172734E-1,-2.2846118E-2,5.350731E-1,5.470934E-1,7.0715135E-1,9.6256304E-1,7.665768E-3,2.4865467E-2,1.0194605E-2,-1.3831948E-2,-2.283161E-2,5.910881E-3,-2.4096316E-2,-1.6614055E-2,-3.2154259E-3,2.70031E-2,2.3936965E-3,3.386924E-2,-1.6725723E-2,-1.8168456E-4,1.18643E-2,-8.2926144E-4,3.1388838E-2,1.1259476E-2],"split_indices":[0,0,0,0,0,0,0,0,0,0,0,0,0,0,0,0,0,0,0,0,0,0,0,0,0,0,0,0,0,0,0,0,0,0,0,0,0,0,0,0,0,0,0,0,0,0,0],"split_type":[0,0,0,0,0,0,0,0,0,0,0,0,0,0,0,0,0,0,0,0,0,0,0,0,0,0,0,0,0,0,0,0,0,0,0,0,0,0,0,0,0,0,0,0,0,0,0],"sum_hessian":[3.64E2,1.01E2,2.63E2,2.7E1,7.4E1,1.3E2,1.33E2,2E1,7E0,3E0,7.1E1,9.9E1,3.1E1,7.2E1,6.1E1,1.9E1,1E0,2E0,1E0,6.5E1,6E0,1.8E1,8.1E1,2.3E1,8E0,5.7E1,1.5E1,5.5E1,6E0,1.6E1,3E0,6.1E1,4E0,7E0,1.1E1,3E1,5.1E1,2.1E1,2E0,5.4E1,3E0,7E0,8E0,4.5E1,1E1,3E0,3E0],"tree_param":{"num_deleted":"0","num_feature":"1","num_nodes":"47","size_leaf_vector":"1"}},{"base_weights":[-1.2997963E-3,9.3414016E-2,-3.7888844E-2,8.5296676E-2,1.9139264E-2,-1.3342696E-1,5.579312E-2,9.593688E-2,-1.2754238E-1,-1.5552494E-1,-6.020125E-2,1.1733834E-2,1.0676949E-1,-3.8930483E-2,1.00920394E-1,-1.4166919E-2,-3.5517605E-3,-4.8680503E-2,-1.7838493E-1,2.010169E-1,-9.415543E-2,3.671099E-2,-7.954172E-2,8.6696886E-2,2.5209755E-1,7.808576E-3,-1.9498961E-2,2.6780142E-2,9.1985E-3,-1.9913658E-2,5.5680256E-3,-2.207285E-2,-1.4971117E-2,5.5545582E-3,2.3099216E-2,-4.0386557E-3,-2.0915445E-2,1.6756619E-3,3.0190587E-2,-1.4536153E-2,-1.2197263E-3,1.094903E-2,-1.6502542E-3,3.2322176E-2,1.1794898E-2],"categories":[],"categories_nodes":[],"categories_segments":[],"categories_sizes":[],"default_left":[0,0,0,0,0,0,0,0,0,0,0,0,0,0,0,0,0,0,0,0,0,0,0,0,0,0,0,0,0,0,0,0,0,0,0,0,0,0,0,0,0,0,0,0,0],"id":4,"left_children":[1,3,5,7,-1,9,11,13,15,17,19,21,23,25,27,-1,-1,29,31,33,35,37,39,41,43,-1,-1,-1,-1,-1,-1,-1,-1,-1,-1,-1,-1,-1,-1,-1,-1,-1,-1,-1,-1],"loss_changes":[1.2684425E0,6.479806E-2,2.3702972E0,2.2964245E-1,0E0,2.0261359E-1,2.997088E-1,6.5763295E-2,1.4683306E-3,2.3556232E-1,3.0274922E-1,1.6934572E-1,1.5900493E-1,8.827172E-2,1.0807848E-1,0E0,0E0,3.0942047E-1,6.651473E-2,4.6115667E-3,1.7087063E-1,3.0186534E-1,6.914856E-2,1.335338E-1,2.8664798E-2,0E0,0E0,0E0,0E0,0E0,0E0,0E0,0E0,0E0,0E0,0E0,0E0,0E0,0E0,0E0,0E0,0E0,0E0,0E0,0E0],"parents":[2147483647,0,0,1,1,2,2,3,3,5,5,6,6,7,7,8,8,9,9,10,10,11,11,12,12,13,13,14,14,17,17,18,18,19,19,20,20,21,21,22,22,23,23,24,24],"right_children":[2,4,6,8,-1,10,12,14,16,18,20,22,24,26,28,-1,-1,30,32,34,36,38,40,42,44,-1,-1,-1,-1,-1,-1,-1,-1,-1,-1,-1,-1,-1,-1,-1,-1,-1,-1,-1,-1],"split_conditions":[4.093171E-1,4.039164E-1,4.7801968E-1,4.0150887E-1,1.9139264E-2,4.6235913E-1,5.5965114E-1,9.5164604E-2,4.0350354E-1,4.265535E-1,4.631802E-1,5.3734577E-1,8.606986E-1,6.847526E-2,1.4143664E-1,-1.4166919E-2,-3.5517605E-3,4.1725412E-1,4.398016E-1,4.6246067E-1,4.7292545E-1,5.350731E-1,5.470934E-1,7.0715135E-1,9.6256304E-1,7.808576E-3,-1.9498961E-2,2.6780142E-2,9.1985E-3,-1.9913658E-2,5.5680256E-3,-2.207285E-2,-1.4971117E-2,5.5545582E-3,2.3099216E-2,-4.0386557E-3,-2.0915445E-2,1.6756619E-3,3.0190587E-2,-1.4536153E-2,-1.2197263E-3,1.094903E-2,-1.6502542E-3,3.2322176E-2,1.1794898E-2],"split_indices":[0,0,0,0,0,0,0,0,0,0,0,0,0,0,0,0,0,0,0,0,0,0,0,0,0,0,0,0,0,0,0,0,0,0,0,0,0,0,0,0,0,0,0,0,0],"split_type":[0,0,0,0,0,0,0,0,0,0,0,0,0,0,0,0,0,0,0,0,0,0,0,0,0,0,0,0,0,0,0,0,0,0,0,0,0,0,0,0,0,0,0,0,0],"sum_hessian":[3.64E2,1.01E2,2.63E2,9.5E1,6E0,1.3E2,1.33E2,9.1E1,4E0,9.9E1,3.1E1,7.2E1,6.1E1,3E0,8.8E1,3E0,1E0,1.8E1,8.1E1,3E0,2.8E1,5.7E1,1.5E1,5.5E1,6E0,2E0,1E0,3E0,8.5E1,7E0,1.1E1,3E1,5.1E1,1E0,2E0,2E1,8E0,5.4E1,3E0,7E0,8E0,4.5E1,1E1,3E0,3E0],"tree_param":{"num_deleted":"0","num_feature":"1","num_nodes":"45","size_leaf_vector":"1"}},{"base_weights":[2.3191448E-3,1.00977E-1,-3.580745E-2,9.268806E-2,2.0022864E-2,-1.3497052E-1,6.1402764E-2,1.03628635E-1,-1.2715606E-1,-1.5817776E-1,-5.8229994E-2,1.7696852E-2,1.1187258E-1,8.916534E-2,1.6219229E-1,-1.4080189E-2,-3.6286355E-3,-4.994169E-2,-1.8132786E-1,4.9319588E-2,-1.5602784E-1,4.3939393E-2,-7.853841E-2,9.181267E-2,2.563701E-1,9.854632E-3,-1.7195418E-2,2.7439034E-2,3.1972844E-3,-2.0417422E-2,5.704181E-3,-2.2273256E-2,-1.5315722E-2,2.1942208E-2,-6.813455E-4,-8.018758E-3,-2.1453168E-2,2.3538668E-3,3.134645E-2,-1.5108369E-2,-5.3272216E-4,1.1324405E-2,-6.156071E-4,3.2275174E-2,1.2589592E-2],"categories":[],"categories_nodes":[],"categories_segments":[],"categories_sizes":[],"default_left":[0,0,0,0,0,0,0,0,0,0,0,0,0,0,0,0,0,0,0,0,0,0,0,0,0,0,0,0,0,0,0,0,0,0,0,0,0,0,0,0,0,0,0,0,0],"id":5,"left_children":[1,3,5,7,-1,9,11,13,15,17,19,21,23,25,27,-1,-1,29,31,33,35,37,39,41,43,-1,-1,-1,-1,-1,-1,-1,-1,-1,-1,-1,-1,-1,-1,-1,-1,-1,-1,-1,-1],"loss_changes":[1.3765589E0,6.535566E-2,2.5531583E0,2.4407822E-1,0E0,2.2409225E-1,2.9360133E-1,6.3464165E-2,1.0907799E-3,2.4151158E-1,3.4427497E-1,1.8780935E-1,1.5617561E-1,2.0311195E-1,2.3960328E-1,0E0,0E0,3.2515284E-1,6.1531544E-2,1.5426895E-1,5.8225274E-2,3.115349E-1,8.417318E-2,1.1827502E-1,1.9994527E-2,0E0,0E0,0E0,0E0,0E0,0E0,0E0,0E0,0E0,0E0,0E0,0E0,0E0,0E0,0E0,0E0,0E0,0E0,0E0,0E0],"parents":[2147483647,0,0,1,1,2,2,3,3,5,5,6,6,7,7,8,8,9,9,10,10,11,11,12,12,13,13,14,14,17,17,18,18,19,19,20,20,21,21,22,22,23,23,24,24],"right_children":[2,4,6,8,-1,10,12,14,16,18,20,22,24,26,28,-1,-1,30,32,34,36,38,40,42,44,-1,-1,-1,-1,-1,-1,-1,-1,-1,-1,-1,-1,-1,-1,-1,-1,-1,-1,-1,-1],"split_conditions":[4.093171E-1,4.039164E-1,4.7801968E-1,4.0150887E-1,2.0022864E-2,4.6235913E-1,5.5965114E-1,3.902026E-1,4.0350354E-1,4.265535E-1,4.688469E-1,5.3734577E-1,8.606986E-1,3.8732445E-1,3.9442974E-1,-1.4080189E-2,-3.6286355E-3,4.1725412E-1,4.398016E-1,4.631802E-1,4.7292545E-1,5.350731E-1,5.470934E-1,7.0715135E-1,9.6256304E-1,9.854632E-3,-1.7195418E-2,2.7439034E-2,3.1972844E-3,-2.0417422E-2,5.704181E-3,-2.2273256E-2,-1.5315722E-2,2.1942208E-2,-6.813455E-4,-8.018758E-3,-2.1453168E-2,2.3538668E-3,3.134645E-2,-1.5108369E-2,-5.3272216E-4,1.1324405E-2,-6.156071E-4,3.2275174E-2,1.2589592E-2],"split_indices":[0,0,0,0,0,0,0,0,0,0,0,0,0,0,0,0,0,0,0,0,0,0,0,0,0,0,0,0,0,0,0,0,0,0,0,0,0,0,0,0,0,0,0,0,0],"split_type":[0,0,0,0,0,0,0,0,0,0,0,0,0,0,0,0,0,0,0,0,0,0,0,0,0,0,0,0,0,0,0,0,0,0,0,0,0,0,0,0,0,0,0,0,0],"sum_hessian":[3.64E2,1.01E2,2.63E2,9.5E1,6E0,1.3E2,1.33E2,9.1E1,4E0,9.9E1,3.1E1,7.2E1,6.1E1,7.5E1,1.6E1,3E0,1E0,1.8E1,8.1E1,1.5E1,1.6E1,5.7E1,1.5E1,5.5E1,6E0,7.3E1,2E0,8E0,8E0,7E0,1.1E1,3E1,5.1E1,3E0,1.2E1,8E0,8E0,5.4E1,3E0,7E0,8E0,4.5E1,1E1,3E0,3E0],"tree_param":{"num_deleted":"0","num_feature":"1","num_nodes":"45","size_leaf_vector":"1"}},{"base_weights":[-4.900098E-4,9.3174145E-2,-3.667658E-2,-4.7274128E-2,9.790767E-2,-1.308317E-1,5.564431E-2,8.244119E-3,-2.1821005E-2,2.924232E-2,8.878298E-2,-1.5423457E-1,-5.3609278E-2,1.4902145E-2,1.0271744E-1,-5.0608486E-2,9.8638065E-2,-5.1888023E-2,-1.760681E-1,2.246498E-1,-9.0141244E-2,4.0630866E-2,-7.929585E-2,8.5824065E-2,2.231905E-1,7.884608E-3,-1.6741093E-2,1.8480545E-2,7.894052E-3,-2.0838168E-2,5.6765075E-3,-2.170982E-2,-1.4822194E-2,6.8529993E-3,2.538464E-2,-3.536239E-3,-2.079429E-2,1.960547E-3,3.1957235E-2,-1.5061326E-2,-7.0919393E-4,1.0821847E-2,-1.5627452E-3,2.8325086E-2,1.073325E-2],"categories":[],"categories_nodes":[],"categories_segments":[],"categories_sizes":[],"default_left":[0,0,0,0,0,0,0,0,0,0,0,0,0,0,0,0,0,0,0,0,0,0,0,0,0,0,0,0,0,0,0,0,0,0,0,0,0,0,0,0,0,0,0,0,0],"id":6,"left_children":[1,3,5,7,9,11,13,-1,-1,-1,15,17,19,21,23,25,27,29,31,33,35,37,39,41,43,-1,-1,-1,-1,-1,-1,-1,-1,-1,-1,-1,-1,-1,-1,-1,-1,-1,-1,-1,-1],"loss_changes":[1.2405425E0,7.243979E-2,2.3020961E0,1.06681526E-1,1.497522E-1,2.284782E-1,2.554627E-1,0E0,0E0,0E0,1.3686854E-1,2.1432304E-1,3.4554142E-1,1.801442E-1,1.07027054E-1,1.1904395E-1,1.3816708E-1,3.348957E-1,6.1508894E-2,8.365959E-4,1.7978477E-1,3.3389628E-1,8.132221E-2,1.2892017E-1,1.8307328E-2,0E0,0E0,0E0,0E0,0E0,0E0,0E0,0E0,0E0,0E0,0E0,0E0,0E0,0E0,0E0,0E0,0E0,0E0,0E0,0E0],"parents":[2147483647,0,0,1,1,2,2,3,3,4,4,5,5,6,6,10,10,11,11,12,12,13,13,14,14,15,15,16,16,17,17,18,18,19,19,20,20,21,21,22,22,23,23,24,24],"right_children":[2,4,6,8,10,12,14,-1,-1,-1,16,18,20,22,24,26,28,30,32,34,36,38,40,42,44,-1,-1,-1,-1,-1,-1,-1,-1,-1,-1,-1,-1,-1,-1,-1,-1,-1,-1,-1,-1],"split_conditions":[4.093171E-1,9.5164604E-2,4.7801968E-1,6.847526E-2,1.4143664E-1,4.6235913E-1,5.5965114E-1,8.244119E-3,-2.1821005E-2,2.924232E-2,2.0560412E-1,4.265535E-1,4.631802E-1,5.3734577E-1,8.606986E-1,1.8418387E-1,2.891739E-1,4.1725412E-1,4.398016E-1,4.6246067E-1,4.7292545E-1,5.350731E-1,5.470934E-1,7.0715135E-1,9.6256304E-1,7.884608E-3,-1.6741093E-2,1.8480545E-2,7.894052E-3,-2.0838168E-2,5.6765075E-3,-2.170982E-2,-1.4822194E-2,6.8529993E-3,2.538464E-2,-3.536239E-3,-2.079429E-2,1.960547E-3,3.1957235E-2,-1.5061326E-2,-7.0919393E-4,1.0821847E-2,-1.5627452E-3,2.8325086E-2,1.073325E-2],"split_indices":[0,0,0,0,0,0,0,0,0,0,0,0,0,0,0,0,0,0,0,0,0,0,0,0,0,0,0,0,0,0,0,0,0,0,0,0,0,0,0,0,0,0,0,0,0],"split_type":[0,0,0,0,0,0,0,0,0,0,0,0,0,0,0,0,0,0,0,0,0,0,0,0,0,0,0,0,0,0,0,0,0,0,0,0,0,0,0,0,0,0,0,0,0],"sum_hessian":[3.64E2,1.01E2,2.63E2,3E0,9.8E1,1.3E2,1.33E2,2E0,1E0,3E0,9.5E1,9.9E1,3.1E1,7.2E1,6.1E1,6E0,8.9E1,1.8E1,8.1E1,3E0,2.8E1,5.7E1,1.5E1,5.5E1,6E0,3E0,3E0,1.5E1,7.4E1,7E0,1.1E1,3E1,5.1E1,1E0,2E0,2E1,8E0,5.4E1,3E0,7E0,8E0,4.5E1,1E1,3E0,3E0],"tree_param":{"num_deleted":"0","num_feature":"1","num_nodes":"45","size_leaf_vector":"1"}},{"base_weights":[9.189436E-5,9.538022E-2,-3.6724396E-2,1.378864E-1,7.823951E-2,-1.3220264E-1,5.689034E-2,8.4918216E-2,2.5969211E-2,-1.3237804E-1,8.885382E-2,-1.5561381E-1,-5.4911386E-2,1.650082E-2,1.0352815E-1,1.05027534E-1,-1.5863411E-2,-4.132332E-3,-2.027711E-2,7.670477E-2,1.907086E-2,-5.3811654E-2,-1.7730439E-1,5.0135598E-2,-1.5054905E-1,4.2076476E-2,-7.724225E-2,8.6442105E-2,2.2542681E-1,6.9442852E-3,2.3000557E-2,9.1915885E-3,-1.2725392E-2,-2.0833844E-2,5.369051E-3,-2.1764416E-2,-1.4984599E-2,2.0838497E-2,-2.4130987E-4,-7.621694E-3,-2.081535E-2,2.1586798E-3,3.1329047E-2,-1.5262223E-2,-1.6553568E-4,1.07036615E-2,-7.5387536E-4,2.9034674E-2,1.0415017E-2],"categories":[],"categories_nodes":[],"categories_segments":[],"categories_sizes":[],"default_left":[0,0,0,0,0,0,0,0,0,0,0,0,0,0,0,0,0,0,0,0,0,0,0,0,0,0,0,0,0,0,0,0,0,0,0,0,0,0,0,0,0,0,0,0,0,0,0,0,0],"id":7,"left_children":[1,3,5,7,9,11,13,15,-1,17,19,21,23,25,27,29,-1,-1,-1,31,-1,33,35,37,39,41,43,45,47,-1,-1,-1,-1,-1,-1,-1,-1,-1,-1,-1,-1,-1,-1,-1,-1,-1,-1,-1,-1],"loss_changes":[1.2839822E0,6.35277E-2,2.367198E0,1.585986E-1,1.7942938E-1,2.2849679E-1,2.5070468E-1,1.19512066E-1,0E0,1.7259307E-2,7.44673E-2,2.1127367E-1,3.2903424E-1,1.7827055E-1,1.0964513E-1,7.29738E-2,0E0,0E0,0E0,2.1645755E-1,0E0,3.268131E-1,5.821538E-2,1.3355562E-1,5.6926817E-2,3.1554818E-1,9.091115E-2,1.0919431E-1,2.4873257E-2,0E0,0E0,0E0,0E0,0E0,0E0,0E0,0E0,0E0,0E0,0E0,0E0,0E0,0E0,0E0,0E0,0E0,0E0,0E0,0E0],"parents":[2147483647,0,0,1,1,2,2,3,3,4,4,5,5,6,6,7,7,9,9,10,10,11,11,12,12,13,13,14,14,15,15,19,19,21,21,22,22,23,23,24,24,25,25,26,26,27,27,28,28],"right_children":[2,4,6,8,10,12,14,16,-1,18,20,22,24,26,28,30,-1,-1,-1,32,-1,34,36,38,40,42,44,46,48,-1,-1,-1,-1,-1,-1,-1,-1,-1,-1,-1,-1,-1,-1,-1,-1,-1,-1,-1,-1],"split_conditions":[4.093171E-1,2.891739E-1,4.7801968E-1,2.5870645E-1,3.1140155E-1,4.6235913E-1,5.5965114E-1,2.5846747E-1,2.5969211E-2,3.1124172E-1,4.039164E-1,4.265535E-1,4.688469E-1,5.3734577E-1,8.606986E-1,2.333463E-1,-1.5863411E-2,-4.132332E-3,-2.027711E-2,4.0150887E-1,1.907086E-2,4.1725412E-1,4.398016E-1,4.631802E-1,4.7292545E-1,5.350731E-1,5.470934E-1,7.0715135E-1,9.6256304E-1,6.9442852E-3,2.3000557E-2,9.1915885E-3,-1.2725392E-2,-2.0833844E-2,5.369051E-3,-2.1764416E-2,-1.4984599E-2,2.0838497E-2,-2.4130987E-4,-7.621694E-3,-2.081535E-2,2.1586798E-3,3.1329047E-2,-1.5262223E-2,-1.6553568E-4,1.07036615E-2,-7.5387536E-4,2.9034674E-2,1.0415017E-2],"split_indices":[0,0,0,0,0,0,0,0,0,0,0,0,0,0,0,0,0,0,0,0,0,0,0,0,0,0,0,0,0,0,0,0,0,0,0,0,0,0,0,0,0,0,0,0,0,0,0,0,0],"split_type":[0,0,0,0,0,0,0,0,0,0,0,0,0,0,0,0,0,0,0,0,0,0,0,0,0,0,0,0,0,0,0,0,0,0,0,0,0,0,0,0,0,0,0,0,0,0,0,0,0],"sum_hessian":[3.64E2,1.01E2,2.63E2,2.7E1,7.4E1,1.3E2,1.33E2,2E1,7E0,3E0,7.1E1,9.9E1,3.1E1,7.2E1,6.1E1,1.9E1,1E0,2E0,1E0,6.5E1,6E0,1.8E1,8.1E1,1.5E1,1.6E1,5.7E1,1.5E1,5.5E1,6E0,1.6E1,3E0,6.1E1,4E0,7E0,1.1E1,3E1,5.1E1,3E0,1.2E1,8E0,8E0,5.4E1,3E0,7E0,8E0,4.5E1,1E1,3E0,3E0],"tree_param":{"num_deleted":"0","num_feature":"1","num_nodes":"49","size_leaf_vector":"1"}},{"base_weights":[-1.0395526E-3,8.432467E-2,-3.4017246E-2,7.683545E-2,1.7498756E-2,-1.2044832E-1,5.0732665E-2,8.66072E-2,-1.1833189E-1,-1.4048634E-1,-5.4065503E-2,1.0781136E-2,9.695409E-2,7.2188266E-2,1.4597382E-1,-1.3104401E-2,-3.3741728E-3,-4.456748E-2,-1.609982E-1,1.8807867E-1,-8.560037E-2,3.3589307E-2,-7.25723E-2,7.8193255E-2,2.3319024E-1,8.113793E-3,-1.72633E-2,2.6498774E-2,1.0740568E-3,-1.8171212E-2,5.057623E-3,-1.9936768E-2,-1.3502796E-2,5.2768304E-3,2.1559268E-2,-3.654021E-3,-1.9056292E-2,1.511142E-3,2.792629E-2,-1.3264241E-2,-1.1113065E-3,9.87793E-3,-1.5002319E-3,2.9898012E-2,1.0910281E-2],"categories":[],"categories_nodes":[],"categories_segments":[],"categories_sizes":[],"default_left":[0,0,0,0,0,0,0,0,0,0,0,0,0,0,0,0,0,0,0,0,0,0,0,0,0,0,0,0,0,0,0,0,0,0,0,0,0,0,0,0,0,0,0,0,0],"id":8,"left_children":[1,3,5,7,-1,9,11,13,15,17,19,21,23,25,27,-1,-1,29,31,33,35,37,39,41,43,-1,-1,-1,-1,-1,-1,-1,-1,-1,-1,-1,-1,-1,-1,-1,-1,-1,-1,-1,-1],"loss_changes":[1.0303856E0,5.581212E-2,1.9399174E0,1.9333255E-1,0E0,1.6665792E-1,2.4640137E-1,6.8214774E-2,9.5494837E-4,1.8957222E-1,2.6045108E-1,1.4122081E-1,1.402322E-1,1.805284E-1,2.7076277E-1,0E0,0E0,2.5711086E-1,5.478978E-2,3.5152584E-3,1.423717E-1,2.5907263E-1,5.7595745E-2,1.0891947E-1,2.4526298E-2,0E0,0E0,0E0,0E0,0E0,0E0,0E0,0E0,0E0,0E0,0E0,0E0,0E0,0E0,0E0,0E0,0E0,0E0,0E0,0E0],"parents":[2147483647,0,0,1,1,2,2,3,3,5,5,6,6,7,7,8,8,9,9,10,10,11,11,12,12,13,13,14,14,17,17,18,18,19,19,20,20,21,21,22,22,23,23,24,24],"right_children":[2,4,6,8,-1,10,12,14,16,18,20,22,24,26,28,-1,-1,30,32,34,36,38,40,42,44,-1,-1,-1,-1,-1,-1,-1,-1,-1,-1,-1,-1,-1,-1,-1,-1,-1,-1,-1,-1],"split_conditions":[4.093171E-1,4.039164E-1,4.7801968E-1,4.0150887E-1,1.7498756E-2,4.6235913E-1,5.5965114E-1,3.902026E-1,4.0350354E-1,4.265535E-1,4.631802E-1,5.3734577E-1,8.606986E-1,3.8732445E-1,3.9442974E-1,-1.3104401E-2,-3.3741728E-3,4.1725412E-1,4.398016E-1,4.6246067E-1,4.7292545E-1,5.350731E-1,5.470934E-1,7.0715135E-1,9.6256304E-1,8.113793E-3,-1.72633E-2,2.6498774E-2,1.0740568E-3,-1.8171212E-2,5.057623E-3,-1.9936768E-2,-1.3502796E-2,5.2768304E-3,2.1559268E-2,-3.654021E-3,-1.9056292E-2,1.511142E-3,2.792629E-2,-1.3264241E-2,-1.1113065E-3,9.87793E-3,-1.5002319E-3,2.9898012E-2,1.0910281E-2],"split_indices":[0,0,0,0,0,0,0,0,0,0,0,0,0,0,0,0,0,0,0,0,0,0,0,0,0,0,0,0,0,0,0,0,0,0,0,0,0,0,0,0,0,0,0,0,0],"split_type":[0,0,0,0,0,0,0,0,0,0,0,0,0,0,0,0,0,0,0,0,0,0,0,0,0,0,0,0,0,0,0,0,0,0,0,0,0,0,0,0,0,0,0,0,0],"sum_hessian":[3.64E2,1.01E2,2.63E2,9.5E1,6E0,1.3E2,1.33E2,9.1E1,4E0,9.9E1,3.1E1,7.2E1,6.1E1,7.5E1,1.6E1,3E0,1E0,1.8E1,8.1E1,3E0,2.8E1,5.7E1,1.5E1,5.5E1,6E0,7.3E1,2E0,8E0,8E0,7E0,1.1E1,3E1,5.1E1,1E0,2E0,2E1,8E0,5.4E1,3E0,7E0,8E0,4.5E1,1E1,3E0,3E0],"tree_param":{"num_deleted":"0","num_feature":"1","num_nodes":"45","size_leaf_vector":"1"}},{"base_weights":[2.1933308E-3,9.113037E-2,-3.2177016E-2,1.32637E-1,7.441949E-2,-1.219354E-1,5.581198E-2,5.9899166E-2,2.2462918E-1,-1.266301E-1,8.4555306E-2,-1.4288302E-1,-5.266359E-2,3.279821E-2,1.3800673E-1,1.4704598E-1,-5.652175E-2,1.2657669E-1,2.5783334E-2,-2.7407042E-3,-2.1214964E-2,7.282604E-2,1.8306619E-2,-4.5721907E-2,-1.636535E-1,2.0296544E-1,-8.610678E-2,4.283923E-2,-1.4169201E-2,1.0183474E-1,2.3714232E-1,-2.93383E-3,2.2683045E-2,-1.710234E-2,4.638391E-3,2.4974456E-2,-1.8304741E-2,8.70392E-3,-1.1798221E-2,-1.8630898E-2,5.181296E-3,-2.6650462E-2,-1.5202703E-2,4.906659E-3,2.3790952E-2,-3.5139855E-3,-1.9546218E-2,1.6174546E-3,1.0848346E-2,1.849046E-2,-5.596437E-4,2.9854536E-2,1.1645371E-2],"categories":[],"categories_nodes":[],"categories_segments":[],"categories_sizes":[],"default_left":[0,0,0,0,0,0,0,0,0,0,0,0,0,0,0,0,0,0,0,0,0,0,0,0,0,0,0,0,0,0,0,0,0,0,0,0,0,0,0,0,0,0,0,0,0,0,0,0,0,0,0,0,0],"id":9,"left_children":[1,3,5,7,9,11,13,15,17,19,21,23,25,27,29,31,33,35,-1,-1,-1,37,-1,39,41,43,45,47,-1,49,51,-1,-1,-1,-1,-1,-1,-1,-1,-1,-1,-1,-1,-1,-1,-1,-1,-1,-1,-1,-1,-1,-1],"loss_changes":[1.1186632E0,6.087762E-2,2.0918114E0,1.7390159E-1,1.6354242E-1,1.8256676E-1,2.4894956E-1,1.8078841E-1,6.433308E-3,2.812764E-2,6.9861114E-2,1.9432569E-1,2.910463E-1,1.9178835E-1,7.984269E-2,1.4738207E-1,1.02195665E-1,2.3639382E-1,0E0,0E0,0E0,1.8926013E-1,0E0,2.7018386E-1,5.7539225E-2,9.837985E-3,1.5476324E-1,1.7503396E-1,0E0,2.0629352E-1,1.7107815E-2,0E0,0E0,0E0,0E0,0E0,0E0,0E0,0E0,0E0,0E0,0E0,0E0,0E0,0E0,0E0,0E0,0E0,0E0,0E0,0E0,0E0,0E0],"parents":[2147483647,0,0,1,1,2,2,3,3,4,4,5,5,6,6,7,7,8,8,9,9,10,10,11,11,12,12,13,13,14,14,15,15,16,16,17,17,21,21,23,23,24,24,25,25,26,26,27,27,29,29,30,30],"right_children":[2,4,6,8,10,12,14,16,18,20,22,24,26,28,30,32,34,36,-1,-1,-1,38,-1,40,42,44,46,48,-1,50,52,-1,-1,-1,-1,-1,-1,-1,-1,-1,-1,-1,-1,-1,-1,-1,-1,-1,-1,-1,-1,-1,-1],"split_conditions":[4.093171E-1,2.891739E-1,4.7801968E-1,2.333463E-1,3.1140155E-1,4.6235913E-1,6.4712214E-1,1.8418387E-1,2.5870645E-1,3.1124172E-1,4.039164E-1,4.265535E-1,4.631802E-1,6.300488E-1,8.606986E-1,9.5164604E-2,2.0560412E-1,2.5846747E-1,2.5783334E-2,-2.7407042E-3,-2.1214964E-2,4.0150887E-1,1.8306619E-2,4.1725412E-1,4.2883375E-1,4.6246067E-1,4.7292545E-1,5.5965114E-1,-1.4169201E-2,7.0715135E-1,9.6256304E-1,-2.93383E-3,2.2683045E-2,-1.710234E-2,4.638391E-3,2.4974456E-2,-1.8304741E-2,8.70392E-3,-1.1798221E-2,-1.8630898E-2,5.181296E-3,-2.6650462E-2,-1.5202703E-2,4.906659E-3,2.3790952E-2,-3.5139855E-3,-1.9546218E-2,1.6174546E-3,1.0848346E-2,1.849046E-2,-5.596437E-4,2.9854536E-2,1.1645371E-2],"split_indices":[0,0,0,0,0,0,0,0,0,0,0,0,0,0,0,0,0,0,0,0,0,0,0,0,0,0,0,0,0,0,0,0,0,0,0,0,0,0,0,0,0,0,0,0,0,0,0,0,0,0,0,0,0],"split_type":[0,0,0,0,0,0,0,0,0,0,0,0,0,0,0,0,0,0,0,0,0,0,0,0,0,0,0,0,0,0,0,0,0,0,0,0,0,0,0,0,0,0,0,0,0,0,0,0,0,0,0,0,0],"sum_hessian":[3.64E2,1.01E2,2.63E2,2.7E1,7.4E1,1.3E2,1.33E2,1.6E1,1.1E1,3E0,7.1E1,9.9E1,3.1E1,1.05E2,2.8E1,9E0,7E0,4E0,7E0,2E0,1E0,6.5E1,6E0,1.8E1,8.1E1,3E0,2.8E1,1E2,5E0,2.2E1,6E0,3E0,6E0,3E0,4E0,3E0,1E0,6.1E1,4E0,7E0,1.1E1,6E0,7.5E1,1E0,2E0,2E1,8E0,7.2E1,2.8E1,1.2E1,1E1,3E0,3E0],"tree_param":{"num_deleted":"0","num_feature":"1","num_nodes":"53","size_leaf_vector":"1"}},{"base_weights":[-2.8796136E-4,8.418207E-2,-3.2923017E-2,7.5973265E-2,1.8473398E-2,-1.1808279E-1,5.0575886E-2,8.658228E-2,-1.3442739E-2,-1.3932805E-1,-4.800126E-2,1.3660524E-2,9.3225E-2,7.117195E-2,1.5038246E-1,-4.7497205E-2,-1.589068E-1,2.1024424E-1,-8.196611E-2,3.715257E-2,-7.235192E-2,7.7407E-2,2.0645119E-1,7.928172E-3,-1.52592985E-2,2.9030988E-2,4.7666626E-3,-1.9014828E-2,5.156161E-3,-1.9608868E-2,-1.336848E-2,6.5103504E-3,2.3692332E-2,-3.1994556E-3,-1.8945906E-2,1.7680569E-3,2.9560445E-2,-1.3743462E-2,-6.461534E-4,9.763188E-3,-1.4206774E-3,2.6200706E-2,9.928255E-3],"categories":[],"categories_nodes":[],"categories_segments":[],"categories_sizes":[],"default_left":[0,0,0,0,0,0,0,0,0,0,0,0,0,0,0,0,0,0,0,0,0,0,0,0,0,0,0,0,0,0,0,0,0,0,0,0,0,0,0,0,0,0,0],"id":10,"left_children":[1,3,5,7,-1,9,11,13,-1,15,17,19,21,23,25,27,29,31,33,35,37,39,41,-1,-1,-1,-1,-1,-1,-1,-1,-1,-1,-1,-1,-1,-1,-1,-1,-1,-1,-1,-1],"loss_changes":[1.0089612E0,7.015711E-2,1.8832095E0,2.2592491E-1,0E0,1.8835807E-1,2.096971E-1,7.97497E-2,0E0,1.7224562E-1,2.9791355E-1,1.5019245E-1,9.506202E-2,1.5001366E-1,2.3049885E-1,2.7829045E-1,5.0685644E-2,6.4343214E-5,1.4971444E-1,2.8666288E-1,6.772514E-2,1.05148196E-1,1.566419E-2,0E0,0E0,0E0,0E0,0E0,0E0,0E0,0E0,0E0,0E0,0E0,0E0,0E0,0E0,0E0,0E0,0E0,0E0,0E0,0E0],"parents":[2147483647,0,0,1,1,2,2,3,3,5,5,6,6,7,7,9,9,10,10,11,11,12,12,13,13,14,14,15,15,16,16,17,17,18,18,19,19,20,20,21,21,22,22],"right_children":[2,4,6,8,-1,10,12,14,-1,16,18,20,22,24,26,28,30,32,34,36,38,40,42,-1,-1,-1,-1,-1,-1,-1,-1,-1,-1,-1,-1,-1,-1,-1,-1,-1,-1,-1,-1],"split_conditions":[4.093171E-1,4.039164E-1,4.7801968E-1,4.0150887E-1,1.8473398E-2,4.6235913E-1,5.5965114E-1,3.902026E-1,-1.3442739E-2,4.265535E-1,4.631802E-1,5.3734577E-1,8.606986E-1,3.8732445E-1,3.940226E-1,4.1725412E-1,4.398016E-1,4.6246067E-1,4.7292545E-1,5.350731E-1,5.470934E-1,7.0715135E-1,9.6256304E-1,7.928172E-3,-1.52592985E-2,2.9030988E-2,4.7666626E-3,-1.9014828E-2,5.156161E-3,-1.9608868E-2,-1.336848E-2,6.5103504E-3,2.3692332E-2,-3.1994556E-3,-1.8945906E-2,1.7680569E-3,2.9560445E-2,-1.3743462E-2,-6.461534E-4,9.763188E-3,-1.4206774E-3,2.6200706E-2,9.928255E-3],"split_indices":[0,0,0,0,0,0,0,0,0,0,0,0,0,0,0,0,0,0,0,0,0,0,0,0,0,0,0,0,0,0,0,0,0,0,0,0,0,0,0,0,0,0,0],"split_type":[0,0,0,0,0,0,0,0,0,0,0,0,0,0,0,0,0,0,0,0,0,0,0,0,0,0,0,0,0,0,0,0,0,0,0,0,0,0,0,0,0,0,0],"sum_hessian":[3.64E2,1.01E2,2.63E2,9.5E1,6E0,1.3E2,1.33E2,9.1E1,4E0,9.9E1,3.1E1,7.2E1,6.1E1,7.5E1,1.6E1,1.8E1,8.1E1,3E0,2.8E1,5.7E1,1.5E1,5.5E1,6E0,7.3E1,2E0,6E0,1E1,7E0,1.1E1,3E1,5.1E1,1E0,2E0,2E1,8E0,5.4E1,3E0,7E0,8E0,4.5E1,1E1,3E0,3E0],"tree_param":{"num_deleted":"0","num_feature":"1","num_nodes":"43","size_leaf_vector":"1"}},{"base_weights":[1.884156E-4,8.614785E-2,-3.3023898E-2,1.2552814E-1,7.029724E-2,-1.19440794E-1,5.170474E-2,7.7096924E-2,2.3696905E-2,-1.2524259E-1,8.0184214E-2,-1.4057456E-1,-4.9665242E-2,3.0496983E-2,1.2743981E-1,9.602201E-2,-1.507024E-2,-3.8568426E-3,-1.9263256E-2,6.898074E-2,1.7436214E-2,-4.9244415E-2,-1.6002211E-1,4.640936E-2,-1.3716692E-1,4.029038E-2,-1.3944141E-2,2.040513E-2,8.853776E-2,6.290704E-3,2.1275515E-2,8.287253E-3,-1.1707361E-2,-1.9010883E-2,4.876889E-3,-2.580331E-2,-1.4888922E-2,1.927561E-2,-2.1903515E-4,-6.944209E-3,-1.8965099E-2,1.5098136E-3,1.0231602E-2,2.6643628E-3,2.0851979E-2],"categories":[],"categories_nodes":[],"categories_segments":[],"categories_sizes":[],"default_left":[0,0,0,0,0,0,0,0,0,0,0,0,0,0,0,0,0,0,0,0,0,0,0,0,0,0,0,0,0,0,0,0,0,0,0,0,0,0,0,0,0,0,0,0,0],"id":11,"left_children":[1,3,5,7,9,11,13,15,-1,17,19,21,23,25,27,29,-1,-1,-1,31,-1,33,35,37,39,41,-1,-1,43,-1,-1,-1,-1,-1,-1,-1,-1,-1,-1,-1,-1,-1,-1,-1,-1],"loss_changes":[1.0448878E0,5.484426E-2,1.9391799E0,1.3285252E-1,1.5503982E-1,1.8619347E-1,2.113404E-1,1.050043E-1,0E0,1.5934333E-2,6.394103E-2,1.6973472E-1,2.753799E-1,1.8203123E-1,6.8363726E-2,6.3928485E-2,0E0,0E0,0E0,1.8028763E-1,0E0,2.7159655E-1,5.105543E-2,1.1422077E-1,4.725632E-2,1.5627432E-1,0E0,0E0,1.5039413E-1,0E0,0E0,0E0,0E0,0E0,0E0,0E0,0E0,0E0,0E0,0E0,0E0,0E0,0E0,0E0,0E0],"parents":[2147483647,0,0,1,1,2,2,3,3,4,4,5,5,6,6,7,7,9,9,10,10,11,11,12,12,13,13,14,14,15,15,19,19,21,21,22,22,23,23,24,24,25,25,28,28],"right_children":[2,4,6,8,10,12,14,16,-1,18,20,22,24,26,28,30,-1,-1,-1,32,-1,34,36,38,40,42,-1,-1,44,-1,-1,-1,-1,-1,-1,-1,-1,-1,-1,-1,-1,-1,-1,-1,-1],"split_conditions":[4.093171E-1,2.891739E-1,4.7801968E-1,2.5870645E-1,3.1140155E-1,4.6235913E-1,6.4712214E-1,2.5846747E-1,2.3696905E-2,3.1124172E-1,4.039164E-1,4.265535E-1,4.688469E-1,6.300488E-1,6.964422E-1,2.333463E-1,-1.507024E-2,-3.8568426E-3,-1.9263256E-2,4.0150887E-1,1.7436214E-2,4.1725412E-1,4.2883375E-1,4.631802E-1,4.7292545E-1,5.5965114E-1,-1.3944141E-2,2.040513E-2,8.606986E-1,6.290704E-3,2.1275515E-2,8.287253E-3,-1.1707361E-2,-1.9010883E-2,4.876889E-3,-2.580331E-2,-1.4888922E-2,1.927561E-2,-2.1903515E-4,-6.944209E-3,-1.8965099E-2,1.5098136E-3,1.0231602E-2,2.6643628E-3,2.0851979E-2],"split_indices":[0,0,0,0,0,0,0,0,0,0,0,0,0,0,0,0,0,0,0,0,0,0,0,0,0,0,0,0,0,0,0,0,0,0,0,0,0,0,0,0,0,0,0,0,0],"split_type":[0,0,0,0,0,0,0,0,0,0,0,0,0,0,0,0,0,0,0,0,0,0,0,0,0,0,0,0,0,0,0,0,0,0,0,0,0,0,0,0,0,0,0,0,0],"sum_hessian":[3.64E2,1.01E2,2.63E2,2.7E1,7.4E1,1.3E2,1.33E2,2E1,7E0,3E0,7.1E1,9.9E1,3.1E1,1.05E2,2.8E1,1.9E1,1E0,2E0,1E0,6.5E1,6E0,1.8E1,8.1E1,1.5E1,1.6E1,1E2,5E0,8E0,2E1,1.6E1,3E0,6.1E1,4E0,7E0,1.1E1,6E0,7.5E1,3E0,1.2E1,8E0,8E0,7.2E1,2.8E1,1.4E1,6E0],"tree_param":{"num_deleted":"0","num_feature":"1","num_nodes":"45","size_leaf_vector":"1"}},{"base_weights":[-8.2254567E-4,7.6082826E-2,-3.0532867E-2,-4.4045374E-2,8.016797E-2,-1.0872736E-1,4.6138857E-2,6.747085E-3,-1.8929703E-2,2.4163095E-2,7.260527E-2,-1.2690324E-1,-4.8530016E-2,3.650547E-2,2.1570098E-1,-5.5668138E-2,8.177536E-2,-4.0800925E-2,-1.4530617E-1,1.7597984E-1,-7.7823445E-2,9.909339E-3,7.052354E-2,2.7655661E-2,1.0092011E-2,8.3052E-3,-1.8047124E-2,1.6961763E-2,6.194534E-3,-9.97349E-3,1.4416116E-2,-2.4113767E-2,-1.34567665E-2,5.012989E-3,2.0121986E-2,-3.3060182E-3,-1.73624E-2,2.330113E-3,-1.1968484E-2,1.5211821E-2,4.7197766E-3],"categories":[],"categories_nodes":[],"categories_segments":[],"categories_sizes":[],"default_left":[0,0,0,0,0,0,0,0,0,0,0,0,0,0,0,0,0,0,0,0,0,0,0,0,0,0,0,0,0,0,0,0,0,0,0,0,0,0,0,0,0],"id":12,"left_children":[1,3,5,7,9,11,13,-1,-1,-1,15,17,19,21,23,25,27,29,31,33,35,37,39,-1,-1,-1,-1,-1,-1,-1,-1,-1,-1,-1,-1,-1,-1,-1,-1,-1,-1],"loss_changes":[8.3630544E-1,5.358672E-2,1.5877774E0,7.756369E-2,1.0334492E-1,1.3717365E-1,2.1100911E-1,0E0,0E0,0E0,1.1747509E-1,1.5252483E-1,2.2414857E-1,1.1510903E-1,2.0985335E-2,1.3617744E-1,1.4626521E-1,2.2148836E-1,5.193591E-2,2.6186928E-3,1.1862199E-1,1.2948015E-1,9.9402785E-2,0E0,0E0,0E0,0E0,0E0,0E0,0E0,0E0,0E0,0E0,0E0,0E0,0E0,0E0,0E0,0E0,0E0,0E0],"parents":[2147483647,0,0,1,1,2,2,3,3,4,4,5,5,6,6,10,10,11,11,12,12,13,13,14,14,15,15,16,16,17,17,18,18,19,19,20,20,21,21,22,22],"right_children":[2,4,6,8,10,12,14,-1,-1,-1,16,18,20,22,24,26,28,30,32,34,36,38,40,-1,-1,-1,-1,-1,-1,-1,-1,-1,-1,-1,-1,-1,-1,-1,-1,-1,-1],"split_conditions":[4.093171E-1,9.5164604E-2,4.7801968E-1,6.847526E-2,1.4143664E-1,4.6235913E-1,8.606986E-1,6.747085E-3,-1.8929703E-2,2.4163095E-2,2.0560412E-1,4.265535E-1,4.631802E-1,5.5965114E-1,9.6256304E-1,1.8418387E-1,2.891739E-1,4.24331E-1,4.2883375E-1,4.6246067E-1,4.7292545E-1,5.520173E-1,5.8719724E-1,2.7655661E-2,1.0092011E-2,8.3052E-3,-1.8047124E-2,1.6961763E-2,6.194534E-3,-9.97349E-3,1.4416116E-2,-2.4113767E-2,-1.34567665E-2,5.012989E-3,2.0121986E-2,-3.3060182E-3,-1.73624E-2,2.330113E-3,-1.1968484E-2,1.5211821E-2,4.7197766E-3],"split_indices":[0,0,0,0,0,0,0,0,0,0,0,0,0,0,0,0,0,0,0,0,0,0,0,0,0,0,0,0,0,0,0,0,0,0,0,0,0,0,0,0,0],"split_type":[0,0,0,0,0,0,0,0,0,0,0,0,0,0,0,0,0,0,0,0,0,0,0,0,0,0,0,0,0,0,0,0,0,0,0,0,0,0,0,0,0],"sum_hessian":[3.64E2,1.01E2,2.63E2,3E0,9.8E1,1.3E2,1.33E2,2E0,1E0,3E0,9.5E1,9.9E1,3.1E1,1.27E2,6E0,6E0,8.9E1,1.8E1,8.1E1,3E0,2.8E1,7.2E1,5.5E1,3E0,3E0,3E0,3E0,1.5E1,7.4E1,1.4E1,4E0,6E0,7.5E1,1E0,2E0,2E1,8E0,6.6E1,6E0,1.1E1,4.4E1],"tree_param":{"num_deleted":"0","num_feature":"1","num_nodes":"41","size_leaf_vector":"1"}},{"base_weights":[2.0810012E-3,8.2321204E-2,-2.8928777E-2,1.1028011E-1,6.0911965E-2,-1.1012098E-1,5.0661582E-2,9.153687E-2,2.7014244E-2,-1.4053773E-2,9.599496E-2,-1.2914775E-1,-4.722106E-2,2.9502314E-2,1.262554E-1,1.2079251E-1,2.1483438E-2,4.0958088E-2,-1.4924112E-1,3.1869035E-2,7.002716E-2,-4.1857585E-2,-1.4779855E-1,4.507139E-2,-1.3130683E-1,3.8678728E-2,-1.2988433E-2,9.243087E-2,2.1935664E-1,5.4337787E-3,2.0487066E-2,-1.19956015E-2,7.5910874E-3,-1.0063191E-3,2.4839759E-2,-2.17888E-2,-6.04457E-3,-2.335908E-2,9.338345E-3,-1.01812035E-2,1.463773E-2,-2.4366139E-2,-1.3702436E-2,1.898433E-2,-2.9408405E-4,-2.0218393E-2,-7.426624E-3,1.4579241E-3,9.80092E-3,1.6783647E-2,-5.0876546E-4,2.7615447E-2,1.07719675E-2],"categories":[],"categories_nodes":[],"categories_segments":[],"categories_sizes":[],"default_left":[0,0,0,0,0,0,0,0,0,0,0,0,0,0,0,0,0,0,0,0,0,0,0,0,0,0,0,0,0,0,0,0,0,0,0,0,0,0,0,0,0,0,0,0,0,0,0,0,0,0,0,0,0],"id":13,"left_children":[1,3,5,7,9,11,13,15,-1,17,19,21,23,25,27,29,31,33,35,-1,37,39,41,43,45,47,-1,49,51,-1,-1,-1,-1,-1,-1,-1,-1,-1,-1,-1,-1,-1,-1,-1,-1,-1,-1,-1,-1,-1,-1,-1,-1],"loss_changes":[9.105857E-1,5.433762E-2,1.7115778E0,1.0411447E-1,1.5915047E-1,1.5067995E-1,2.1060947E-1,7.9383284E-2,0E0,1.548508E-1,2.1478236E-1,1.5661669E-1,2.5425363E-1,1.6005911E-1,7.104877E-2,1.4531466E-1,1.0918238E-1,1.612571E-1,2.3402765E-2,0E0,2.9128635E-1,2.2932784E-1,5.130565E-2,1.1177144E-1,5.371335E-2,1.429843E-1,0E0,1.6998309E-1,1.4637858E-2,0E0,0E0,0E0,0E0,0E0,0E0,0E0,0E0,0E0,0E0,0E0,0E0,0E0,0E0,0E0,0E0,0E0,0E0,0E0,0E0,0E0,0E0,0E0,0E0],"parents":[2147483647,0,0,1,1,2,2,3,3,4,4,5,5,6,6,7,7,9,9,10,10,11,11,12,12,13,13,14,14,15,15,16,16,17,17,18,18,20,20,21,21,22,22,23,23,24,24,25,25,27,27,28,28],"right_children":[2,4,6,8,10,12,14,16,-1,18,20,22,24,26,28,30,32,34,36,-1,38,40,42,44,46,48,-1,50,52,-1,-1,-1,-1,-1,-1,-1,-1,-1,-1,-1,-1,-1,-1,-1,-1,-1,-1,-1,-1,-1,-1,-1,-1],"split_conditions":[4.093171E-1,3.3815566E-1,4.7801968E-1,3.3387953E-1,3.7014502E-1,4.6235913E-1,6.4712214E-1,2.891739E-1,2.7014244E-2,3.655552E-1,3.763215E-1,4.265535E-1,4.688469E-1,6.300488E-1,8.606986E-1,2.333463E-1,3.1140155E-1,3.614607E-1,3.6662167E-1,3.1869035E-2,3.8063732E-1,4.24331E-1,4.2883375E-1,4.631802E-1,4.7172734E-1,5.5965114E-1,-1.2988433E-2,7.0715135E-1,9.6256304E-1,5.4337787E-3,2.0487066E-2,-1.19956015E-2,7.5910874E-3,-1.0063191E-3,2.4839759E-2,-2.17888E-2,-6.04457E-3,-2.335908E-2,9.338345E-3,-1.01812035E-2,1.463773E-2,-2.4366139E-2,-1.3702436E-2,1.898433E-2,-2.9408405E-4,-2.0218393E-2,-7.426624E-3,1.4579241E-3,9.80092E-3,1.6783647E-2,-5.0876546E-4,2.7615447E-2,1.07719675E-2],"split_indices":[0,0,0,0,0,0,0,0,0,0,0,0,0,0,0,0,0,0,0,0,0,0,0,0,0,0,0,0,0,0,0,0,0,0,0,0,0,0,0,0,0,0,0,0,0,0,0,0,0,0,0,0,0],"split_type":[0,0,0,0,0,0,0,0,0,0,0,0,0,0,0,0,0,0,0,0,0,0,0,0,0,0,0,0,0,0,0,0,0,0,0,0,0,0,0,0,0,0,0,0,0,0,0,0,0,0,0,0,0],"sum_hessian":[3.64E2,1.01E2,2.63E2,4.2E1,5.9E1,1.3E2,1.33E2,3.9E1,3E0,1.9E1,4E1,9.9E1,3.1E1,1.05E2,2.8E1,2.7E1,1.2E1,1.4E1,5E0,3E0,3.7E1,1.8E1,8.1E1,1.5E1,1.6E1,1E2,5E0,2.2E1,6E0,1.6E1,1.1E1,3E0,9E0,1.2E1,2E0,2E0,3E0,2E0,3.5E1,1.4E1,4E0,6E0,7.5E1,3E0,1.2E1,6E0,1E1,7.2E1,2.8E1,1.2E1,1E1,3E0,3E0],"tree_param":{"num_deleted":"0","num_feature":"1","num_nodes":"53","size_leaf_vector":"1"}},{"base_weights":[-1.10864516E-4,7.607266E-2,-2.9544989E-2,-5.1887065E-2,8.047434E-2,-1.0657053E-1,4.5976587E-2,7.165966E-3,-2.1126363E-2,2.6454536E-2,7.196644E-2,-1.2586361E-1,-4.294934E-2,1.2526513E-2,8.461979E-2,-5.360842E-2,8.093375E-2,-4.3476883E-2,-1.4341828E-1,4.989133E-2,-1.2780237E-1,5.9329443E-2,-2.756914E-2,6.981528E-2,1.9096735E-1,6.698649E-3,-1.6080124E-2,1.6004728E-2,6.2977076E-3,-1.038927E-2,1.4646594E-2,-2.3812596E-2,-1.3280814E-2,1.9677049E-2,8.599529E-5,-2.0462863E-2,-6.7294533E-3,3.244276E-3,1.793935E-2,-1.4075597E-2,-1.1082938E-3,1.4918014E-2,4.7099865E-3,2.423565E-2,9.183637E-3],"categories":[],"categories_nodes":[],"categories_segments":[],"categories_sizes":[],"default_left":[0,0,0,0,0,0,0,0,0,0,0,0,0,0,0,0,0,0,0,0,0,0,0,0,0,0,0,0,0,0,0,0,0,0,0,0,0,0,0,0,0,0,0,0,0],"id":14,"left_children":[1,3,5,7,9,11,13,-1,-1,-1,15,17,19,21,23,25,27,29,31,33,35,37,39,41,43,-1,-1,-1,-1,-1,-1,-1,-1,-1,-1,-1,-1,-1,-1,-1,-1,-1,-1,-1,-1],"loss_changes":[8.207219E-1,6.162578E-2,1.5406116E0,9.390089E-2,1.3600135E-1,1.553899E-1,1.7215082E-1,0E0,0E0,0E0,1.1244127E-1,1.3839197E-1,2.584662E-1,1.3862702E-1,8.428186E-2,1.0125984E-1,1.17776155E-1,2.3325221E-1,5.077362E-2,1.1505778E-1,6.525567E-2,1.03936195E-1,7.3080845E-2,9.393075E-2,1.3402671E-2,0E0,0E0,0E0,0E0,0E0,0E0,0E0,0E0,0E0,0E0,0E0,0E0,0E0,0E0,0E0,0E0,0E0,0E0,0E0,0E0],"parents":[2147483647,0,0,1,1,2,2,3,3,4,4,5,5,6,6,10,10,11,11,12,12,13,13,14,14,15,15,16,16,17,17,18,18,19,19,20,20,21,21,22,22,23,23,24,24],"right_children":[2,4,6,8,10,12,14,-1,-1,-1,16,18,20,22,24,26,28,30,32,34,36,38,40,42,44,-1,-1,-1,-1,-1,-1,-1,-1,-1,-1,-1,-1,-1,-1,-1,-1,-1,-1,-1,-1],"split_conditions":[4.093171E-1,9.5164604E-2,4.7801968E-1,6.847526E-2,1.4143664E-1,4.6235913E-1,5.5965114E-1,7.165966E-3,-2.1126363E-2,2.6454536E-2,2.0560412E-1,4.265535E-1,4.688469E-1,5.1405215E-1,8.606986E-1,1.8418387E-1,2.891739E-1,4.24331E-1,4.2883375E-1,4.631802E-1,4.7172734E-1,5.0898236E-1,5.167307E-1,5.8719724E-1,9.6256304E-1,6.698649E-3,-1.6080124E-2,1.6004728E-2,6.2977076E-3,-1.038927E-2,1.4646594E-2,-2.3812596E-2,-1.3280814E-2,1.9677049E-2,8.599529E-5,-2.0462863E-2,-6.7294533E-3,3.244276E-3,1.793935E-2,-1.4075597E-2,-1.1082938E-3,1.4918014E-2,4.7099865E-3,2.423565E-2,9.183637E-3],"split_indices":[0,0,0,0,0,0,0,0,0,0,0,0,0,0,0,0,0,0,0,0,0,0,0,0,0,0,0,0,0,0,0,0,0,0,0,0,0,0,0,0,0,0,0,0,0],"split_type":[0,0,0,0,0,0,0,0,0,0,0,0,0,0,0,0,0,0,0,0,0,0,0,0,0,0,0,0,0,0,0,0,0,0,0,0,0,0,0,0,0,0,0,0,0],"sum_hessian":[3.64E2,1.01E2,2.63E2,3E0,9.8E1,1.3E2,1.33E2,2E0,1E0,3E0,9.5E1,9.9E1,3.1E1,7.2E1,6.1E1,6E0,8.9E1,1.8E1,8.1E1,1.5E1,1.6E1,3.3E1,3.9E1,5.5E1,6E0,3E0,3E0,1.5E1,7.4E1,1.4E1,4E0,6E0,7.5E1,3E0,1.2E1,6E0,1E1,2.8E1,5E0,4E0,3.5E1,1.1E1,4.4E1,3E0,3E0],"tree_param":{"num_deleted":"0","num_feature":"1","num_nodes":"45","size_leaf_vector":"1"}},{"base_weights":[1.8910338E-4,7.779865E-2,-2.9797118E-2,1.1426793E-1,6.314614E-2,-1.0796755E-1,4.6845596E-2,6.998228E-2,2.1623427E-2,-1.1849836E-1,7.236046E-2,-1.2706538E-1,-4.4912864E-2,2.7426502E-2,1.1621037E-1,8.7798126E-2,-1.4316729E-2,-3.59972E-3,-1.8300092E-2,4.7927458E-2,1.11307055E-1,-4.506387E-2,-1.4451616E-1,4.2959474E-2,-1.249743E-1,3.6377594E-2,-1.2782127E-2,1.8591339E-2,8.080382E-2,5.6986376E-3,1.9679852E-2,6.230773E-3,-1.7895905E-2,2.8720478E-2,4.737415E-3,-1.734743E-2,4.4298414E-3,-1.8006071E-2,-1.2054697E-2,1.782994E-2,-1.9881541E-4,-1.9352054E-2,-6.9992677E-3,1.3609007E-3,9.243722E-3,2.4156896E-3,1.9064669E-2],"categories":[],"categories_nodes":[],"categories_segments":[],"categories_sizes":[],"default_left":[0,0,0,0,0,0,0,0,0,0,0,0,0,0,0,0,0,0,0,0,0,0,0,0,0,0,0,0,0,0,0,0,0,0,0,0,0,0,0,0,0,0,0,0,0,0,0],"id":15,"left_children":[1,3,5,7,9,11,13,15,-1,17,19,21,23,25,27,29,-1,-1,-1,31,33,35,37,39,41,43,-1,-1,45,-1,-1,-1,-1,-1,-1,-1,-1,-1,-1,-1,-1,-1,-1,-1,-1,-1,-1],"loss_changes":[8.517524E-1,4.728979E-2,1.5867331E0,1.11305505E-1,1.3410455E-1,1.520443E-1,1.7731088E-1,9.231605E-2,0E0,1.4698625E-2,6.3179255E-2,1.3658655E-1,2.3049477E-1,1.5195136E-1,5.654788E-2,5.5955008E-2,0E0,0E0,0E0,1.6123426E-1,2.9002655E-1,2.257106E-1,4.8156142E-2,9.7685814E-2,5.0524294E-2,1.2765825E-1,0E0,0E0,1.26062E-1,0E0,0E0,0E0,0E0,0E0,0E0,0E0,0E0,0E0,0E0,0E0,0E0,0E0,0E0,0E0,0E0,0E0,0E0],"parents":[2147483647,0,0,1,1,2,2,3,3,4,4,5,5,6,6,7,7,9,9,10,10,11,11,12,12,13,13,14,14,15,15,19,19,20,20,21,21,22,22,23,23,24,24,25,25,28,28],"right_children":[2,4,6,8,10,12,14,16,-1,18,20,22,24,26,28,30,-1,-1,-1,32,34,36,38,40,42,44,-1,-1,46,-1,-1,-1,-1,-1,-1,-1,-1,-1,-1,-1,-1,-1,-1,-1,-1,-1,-1],"split_conditions":[4.093171E-1,2.891739E-1,4.7801968E-1,2.5870645E-1,3.1140155E-1,4.6235913E-1,6.4712214E-1,2.5846747E-1,2.1623427E-2,3.1124172E-1,3.902026E-1,4.265535E-1,4.688469E-1,6.300488E-1,6.964422E-1,2.333463E-1,-1.4316729E-2,-3.59972E-3,-1.8300092E-2,3.8732445E-1,3.940226E-1,4.1725412E-1,4.398016E-1,4.631802E-1,4.7172734E-1,5.5965114E-1,-1.2782127E-2,1.8591339E-2,8.606986E-1,5.6986376E-3,1.9679852E-2,6.230773E-3,-1.7895905E-2,2.8720478E-2,4.737415E-3,-1.734743E-2,4.4298414E-3,-1.8006071E-2,-1.2054697E-2,1.782994E-2,-1.9881541E-4,-1.9352054E-2,-6.9992677E-3,1.3609007E-3,9.243722E-3,2.4156896E-3,1.9064669E-2],"split_indices":[0,0,0,0,0,0,0,0,0,0,0,0,0,0,0,0,0,0,0,0,0,0,0,0,0,0,0,0,0,0,0,0,0,0,0,0,0,0,0,0,0,0,0,0,0,0,0],"split_type":[0,0,0,0,0,0,0,0,0,0,0,0,0,0,0,0,0,0,0,0,0,0,0,0,0,0,0,0,0,0,0,0,0,0,0,0,0,0,0,0,0,0,0,0,0,0,0],"sum_hessian":[3.64E2,1.01E2,2.63E2,2.7E1,7.4E1,1.3E2,1.33E2,2E1,7E0,3E0,7.1E1,9.9E1,3.1E1,1.05E2,2.8E1,1.9E1,1E0,2E0,1E0,4.5E1,2.6E1,1.8E1,8.1E1,1.5E1,1.6E1,1E2,5E0,8E0,2E1,1.6E1,3E0,4.3E1,2E0,6E0,2E1,7E0,1.1E1,3E1,5.1E1,3E0,1.2E1,6E0,1E1,7.2E1,2.8E1,1.4E1,6E0],"tree_param":{"num_deleted":"0","num_feature":"1","num_nodes":"47","size_leaf_vector":"1"}},{"base_weights":[-6.176215E-4,6.872351E-2,-2.7406175E-2,6.1740056E-2,1.5467899E-1,-9.807341E-2,4.1883484E-2,7.066082E-2,-1.1475003E-2,1.8701902E-2,8.3669215E-2,-1.1454419E-1,-4.3537427E-2,3.2935336E-2,1.995234E-1,5.7091255E-2,1.2716822E-1,-6.7112567E-3,1.5630066E-2,-3.6487006E-2,-1.3123374E-1,1.646656E-1,-7.07538E-2,8.786363E-3,6.382711E-2,2.5581488E-2,9.335109E-3,6.5333745E-3,-1.6525384E-2,2.3592705E-2,4.2796103E-4,-2.1278968E-2,2.4713022E-3,-2.2046873E-2,-1.21287955E-2,4.76234E-3,1.878052E-2,-2.991158E-3,-1.5819078E-2,5.2169827E-3,-2.830924E-3,8.198998E-3,-1.7929178E-3],"categories":[],"categories_nodes":[],"categories_segments":[],"categories_sizes":[],"default_left":[0,0,0,0,0,0,0,0,0,0,0,0,0,0,0,0,0,0,0,0,0,0,0,0,0,0,0,0,0,0,0,0,0,0,0,0,0,0,0,0,0,0,0],"id":16,"left_children":[1,3,5,7,9,11,13,15,-1,-1,17,19,21,23,25,27,29,-1,-1,31,33,35,37,39,41,-1,-1,-1,-1,-1,-1,-1,-1,-1,-1,-1,-1,-1,-1,-1,-1,-1,-1],"loss_changes":[6.7988867E-1,5.1677287E-2,1.2967858E0,1.5925327E-1,4.274696E-4,1.1268389E-1,1.8244708E-1,6.328365E-2,0E0,0E0,5.4295734E-2,1.2548542E-1,1.9297966E-1,9.49278E-2,1.7955542E-2,1.5008007E-1,2.2619903E-1,0E0,0E0,2.102635E-1,4.6035767E-2,1.8893108E-3,9.8830745E-2,1.1895839E-1,8.462605E-2,0E0,0E0,0E0,0E0,0E0,0E0,0E0,0E0,0E0,0E0,0E0,0E0,0E0,0E0,0E0,0E0,0E0,0E0],"parents":[2147483647,0,0,1,1,2,2,3,3,4,4,5,5,6,6,7,7,10,10,11,11,12,12,13,13,14,14,15,15,16,16,19,19,20,20,21,21,22,22,23,23,24,24],"right_children":[2,4,6,8,10,12,14,16,-1,-1,18,20,22,24,26,28,30,-1,-1,32,34,36,38,40,42,-1,-1,-1,-1,-1,-1,-1,-1,-1,-1,-1,-1,-1,-1,-1,-1,-1,-1],"split_conditions":[4.093171E-1,4.039164E-1,4.7801968E-1,4.0150887E-1,4.0789944E-1,4.6235913E-1,8.606986E-1,3.902026E-1,-1.1475003E-2,1.8701902E-2,4.080388E-1,4.265535E-1,4.631802E-1,5.5965114E-1,9.6256304E-1,3.8732445E-1,3.9442974E-1,-6.7112567E-3,1.5630066E-2,4.145001E-1,4.2883375E-1,4.6246067E-1,4.7292545E-1,5.1405215E-1,7.0715135E-1,2.5581488E-2,9.335109E-3,6.5333745E-3,-1.6525384E-2,2.3592705E-2,4.2796103E-4,-2.1278968E-2,2.4713022E-3,-2.2046873E-2,-1.21287955E-2,4.76234E-3,1.878052E-2,-2.991158E-3,-1.5819078E-2,5.2169827E-3,-2.830924E-3,8.198998E-3,-1.7929178E-3],"split_indices":[0,0,0,0,0,0,0,0,0,0,0,0,0,0,0,0,0,0,0,0,0,0,0,0,0,0,0,0,0,0,0,0,0,0,0,0,0,0,0,0,0,0,0],"split_type":[0,0,0,0,0,0,0,0,0,0,0,0,0,0,0,0,0,0,0,0,0,0,0,0,0,0,0,0,0,0,0,0,0,0,0,0,0,0,0,0,0,0,0],"sum_hessian":[3.64E2,1.01E2,2.63E2,9.5E1,6E0,1.3E2,1.33E2,9.1E1,4E0,3E0,3E0,9.9E1,3.1E1,1.27E2,6E0,7.5E1,1.6E1,1E0,2E0,1.8E1,8.1E1,3E0,2.8E1,7.2E1,5.5E1,3E0,3E0,7.3E1,2E0,8E0,8E0,4E0,1.4E1,6E0,7.5E1,1E0,2E0,2E1,8E0,3.3E1,3.9E1,4.5E1,1E1],"tree_param":{"num_deleted":"0","num_feature":"1","num_nodes":"43","size_leaf_vector":"1"}},{"base_weights":[2.0721992E-3,7.470064E-2,-2.5996638E-2,6.7748666E-2,1.593705E-1,-9.943383E-2,4.5990445E-2,7.699938E-2,-1.160143E-1,1.9370314E-2,8.519523E-2,-1.1656911E-1,-4.277879E-2,3.7049886E-2,2.0290491E-1,6.3953176E-2,1.3079423E-1,-1.6031832E-2,-6.485872E-3,-6.8936856E-3,1.5955156E-2,-3.7437275E-2,-1.3348296E-1,4.1732393E-2,-1.19802326E-1,1.3141283E-2,6.755485E-2,2.554429E-2,9.96407E-3,7.570471E-3,-1.1805951E-2,2.628306E-2,3.4880713E-3,-2.1404287E-2,2.3927074E-3,-1.6892547E-2,-1.0978679E-2,1.7560503E-2,-2.6693734E-4,-5.480695E-3,-1.7148634E-2,3.7104115E-3,-7.4545317E-3,1.3930874E-2,4.6919263E-3],"categories":[],"categories_nodes":[],"categories_segments":[],"categories_sizes":[],"default_left":[0,0,0,0,0,0,0,0,0,0,0,0,0,0,0,0,0,0,0,0,0,0,0,0,0,0,0,0,0,0,0,0,0,0,0,0,0,0,0,0,0,0,0,0,0],"id":17,"left_children":[1,3,5,7,9,11,13,15,17,-1,19,21,23,25,27,29,31,-1,-1,-1,-1,33,35,37,39,41,43,-1,-1,-1,-1,-1,-1,-1,-1,-1,-1,-1,-1,-1,-1,-1,-1,-1,-1],"loss_changes":[7.460295E-1,4.9242377E-2,1.4002168E0,1.7212722E-1,1.323849E-3,1.2218809E-1,1.8047142E-1,5.620265E-2,9.3395263E-4,0E0,5.6841753E-2,1.288451E-1,2.1329883E-1,9.246664E-2,1.2524545E-2,1.7149615E-1,2.0612147E-1,0E0,0E0,0E0,0E0,2.1102989E-1,5.0322175E-2,9.557566E-2,4.7708154E-2,1.5615496E-1,7.638201E-2,0E0,0E0,0E0,0E0,0E0,0E0,0E0,0E0,0E0,0E0,0E0,0E0,0E0,0E0,0E0,0E0,0E0,0E0],"parents":[2147483647,0,0,1,1,2,2,3,3,4,4,5,5,6,6,7,7,8,8,10,10,11,11,12,12,13,13,14,14,15,15,16,16,21,21,22,22,23,23,24,24,25,25,26,26],"right_children":[2,4,6,8,10,12,14,16,18,-1,20,22,24,26,28,30,32,-1,-1,-1,-1,34,36,38,40,42,44,-1,-1,-1,-1,-1,-1,-1,-1,-1,-1,-1,-1,-1,-1,-1,-1,-1,-1],"split_conditions":[4.093171E-1,4.039164E-1,4.7801968E-1,4.0150887E-1,4.0789944E-1,4.6235913E-1,8.606986E-1,3.902026E-1,4.0286785E-1,1.9370314E-2,4.080388E-1,4.265535E-1,4.688469E-1,5.5965114E-1,9.6256304E-1,3.8483235E-1,3.940226E-1,-1.6031832E-2,-6.485872E-3,-6.8936856E-3,1.5955156E-2,4.145001E-1,4.398016E-1,4.631802E-1,4.7292545E-1,5.3734577E-1,5.8719724E-1,2.554429E-2,9.96407E-3,7.570471E-3,-1.1805951E-2,2.628306E-2,3.4880713E-3,-2.1404287E-2,2.3927074E-3,-1.6892547E-2,-1.0978679E-2,1.7560503E-2,-2.6693734E-4,-5.480695E-3,-1.7148634E-2,3.7104115E-3,-7.4545317E-3,1.3930874E-2,4.6919263E-3],"split_indices":[0,0,0,0,0,0,0,0,0,0,0,0,0,0,0,0,0,0,0,0,0,0,0,0,0,0,0,0,0,0,0,0,0,0,0,0,0,0,0,0,0,0,0,0,0],"split_type":[0,0,0,0,0,0,0,0,0,0,0,0,0,0,0,0,0,0,0,0,0,0,0,0,0,0,0,0,0,0,0,0,0,0,0,0,0,0,0,0,0,0,0,0,0],"sum_hessian":[3.64E2,1.01E2,2.63E2,9.5E1,6E0,1.3E2,1.33E2,9.1E1,4E0,3E0,3E0,9.9E1,3.1E1,1.27E2,6E0,7.5E1,1.6E1,1E0,3E0,1E0,2E0,1.8E1,8.1E1,1.5E1,1.6E1,7.2E1,5.5E1,3E0,3E0,7.1E1,4E0,6E0,1E1,4E0,1.4E1,3E1,5.1E1,3E0,1.2E1,8E0,8E0,5.7E1,1.5E1,1.1E1,4.4E1],"tree_param":{"num_deleted":"0","num_feature":"1","num_nodes":"45","size_leaf_vector":"1"}},{"base_weights":[2.1306048E-5,6.871456E-2,-2.651935E-2,6.108723E-2,1.6350161E-2,-9.622085E-2,4.1819572E-2,7.0738375E-2,-1.2871138E-2,-1.1360561E-1,-3.8886573E-2,2.3985524E-2,1.0556405E-1,5.6237433E-2,1.3140504E-1,-3.8905125E-2,-1.2952882E-1,1.820127E-1,-6.8014525E-2,3.436289E-2,-1.5469774E-2,1.8589674E-2,6.610889E-2,6.370136E-3,-1.4661859E-2,2.600281E-2,3.760809E-3,-1.644197E-2,4.8013343E-3,-2.1771517E-2,-1.1970207E-2,5.2009807E-3,2.080104E-2,-2.2509168E-3,-1.6663654E-2,1.1356046E-3,9.109175E-3,1.0118212E-3,1.766448E-2],"categories":[],"categories_nodes":[],"categories_segments":[],"categories_sizes":[],"default_left":[0,0,0,0,0,0,0,0,0,0,0,0,0,0,0,0,0,0,0,0,0,0,0,0,0,0,0,0,0,0,0,0,0,0,0,0,0,0,0],"id":18,"left_children":[1,3,5,7,-1,9,11,13,-1,15,17,19,21,23,25,27,29,31,33,35,-1,-1,37,-1,-1,-1,-1,-1,-1,-1,-1,-1,-1,-1,-1,-1,-1,-1,-1],"loss_changes":[6.672771E-1,6.3755274E-2,1.2615418E0,1.8495518E-1,0E0,1.261555E-1,1.4980216E-1,7.354477E-2,0E0,1.13907814E-1,2.1827848E-1,2.018676E-1,7.9627186E-2,1.244116E-1,1.9531652E-1,2.1517545E-1,4.4999003E-2,2.7005225E-3,1.2639621E-1,1.3078591E-1,0E0,0E0,1.2818126E-1,0E0,0E0,0E0,0E0,0E0,0E0,0E0,0E0,0E0,0E0,0E0,0E0,0E0,0E0,0E0,0E0],"parents":[2147483647,0,0,1,1,2,2,3,3,5,5,6,6,7,7,9,9,10,10,11,11,12,12,13,13,14,14,15,15,16,16,17,17,18,18,19,19,22,22],"right_children":[2,4,6,8,-1,10,12,14,-1,16,18,20,22,24,26,28,30,32,34,36,-1,-1,38,-1,-1,-1,-1,-1,-1,-1,-1,-1,-1,-1,-1,-1,-1,-1,-1],"split_conditions":[4.093171E-1,4.039164E-1,4.7801968E-1,4.0150887E-1,1.6350161E-2,4.6235913E-1,6.4712214E-1,3.902026E-1,-1.2871138E-2,4.265535E-1,4.631802E-1,6.300488E-1,6.964422E-1,3.8732445E-1,3.940226E-1,4.1725412E-1,4.2883375E-1,4.6246067E-1,4.7292545E-1,5.5965114E-1,-1.5469774E-2,1.8589674E-2,8.606986E-1,6.370136E-3,-1.4661859E-2,2.600281E-2,3.760809E-3,-1.644197E-2,4.8013343E-3,-2.1771517E-2,-1.1970207E-2,5.2009807E-3,2.080104E-2,-2.2509168E-3,-1.6663654E-2,1.1356046E-3,9.109175E-3,1.0118212E-3,1.766448E-2],"split_indices":[0,0,0,0,0,0,0,0,0,0,0,0,0,0,0,0,0,0,0,0,0,0,0,0,0,0,0,0,0,0,0,0,0,0,0,0,0,0,0],"split_type":[0,0,0,0,0,0,0,0,0,0,0,0,0,0,0,0,0,0,0,0,0,0,0,0,0,0,0,0,0,0,0,0,0,0,0,0,0,0,0],"sum_hessian":[3.64E2,1.01E2,2.63E2,9.5E1,6E0,1.3E2,1.33E2,9.1E1,4E0,9.9E1,3.1E1,1.05E2,2.8E1,7.5E1,1.6E1,1.8E1,8.1E1,3E0,2.8E1,1E2,5E0,8E0,2E1,7.3E1,2E0,6E0,1E1,7E0,1.1E1,6E0,7.5E1,1E0,2E0,2E1,8E0,7.2E1,2.8E1,1.4E1,6E0],"tree_param":{"num_deleted":"0","num_feature":"1","num_nodes":"39","size_leaf_vector":"1"}},{"base_weights":[2.2162963E-4,7.0338175E-2,-2.6869694E-2,6.340626E-2,1.5535615E-2,-9.756544E-2,4.2443834E-2,7.222271E-2,-1.1149765E-1,-1.1478862E-1,-4.0694088E-2,2.4663312E-2,1.0597112E-1,5.8372032E-2,1.2989497E-1,-1.5420163E-2,-6.2271245E-3,-4.1237358E-2,-1.3043113E-1,8.205551E-3,-1.6657156E-1,3.2844834E-2,-1.171695E-2,1.6938778E-2,7.374631E-2,6.672108E-3,-1.6702846E-2,2.6258722E-2,3.3645814E-3,-9.795527E-3,1.3716385E-2,-2.2048222E-2,-1.2042074E-2,-2.7376541E-3,2.664057E-2,-2.3132173E-2,-1.1502555E-2,1.2266756E-3,8.3512245E-3,2.1902255E-3,1.7430553E-2],"categories":[],"categories_nodes":[],"categories_segments":[],"categories_sizes":[],"default_left":[0,0,0,0,0,0,0,0,0,0,0,0,0,0,0,0,0,0,0,0,0,0,0,0,0,0,0,0,0,0,0,0,0,0,0,0,0,0,0,0,0],"id":19,"left_children":[1,3,5,7,-1,9,11,13,15,17,19,21,23,25,27,-1,-1,29,31,33,35,37,-1,-1,39,-1,-1,-1,-1,-1,-1,-1,-1,-1,-1,-1,-1,-1,-1,-1,-1],"loss_changes":[6.952257E-1,5.0261855E-2,1.2977865E0,1.5608767E-1,0E0,1.23643875E-1,1.4874585E-1,6.590733E-2,9.0849027E-4,1.0967398E-1,1.9833845E-1,1.2685166E-1,4.677236E-2,1.5416715E-1,2.0828086E-1,0E0,0E0,2.0568824E-1,4.736793E-2,2.2778851E-1,3.43059E-3,1.04282014E-1,0E0,0E0,1.0566367E-1,0E0,0E0,0E0,0E0,0E0,0E0,0E0,0E0,0E0,0E0,0E0,0E0,0E0,0E0,0E0,0E0],"parents":[2147483647,0,0,1,1,2,2,3,3,5,5,6,6,7,7,8,8,9,9,10,10,11,11,12,12,13,13,14,14,17,17,18,18,19,19,20,20,21,21,24,24],"right_children":[2,4,6,8,-1,10,12,14,16,18,20,22,24,26,28,-1,-1,30,32,34,36,38,-1,-1,40,-1,-1,-1,-1,-1,-1,-1,-1,-1,-1,-1,-1,-1,-1,-1,-1],"split_conditions":[4.093171E-1,4.039164E-1,4.7801968E-1,4.0150887E-1,1.5535615E-2,4.6235913E-1,6.4712214E-1,3.902026E-1,4.0286785E-1,4.265535E-1,4.7292545E-1,6.300488E-1,6.964422E-1,3.8732445E-1,3.940226E-1,-1.5420163E-2,-6.2271245E-3,4.24331E-1,4.2883375E-1,4.7172734E-1,4.7480187E-1,5.5965114E-1,-1.171695E-2,1.6938778E-2,8.606986E-1,6.672108E-3,-1.6702846E-2,2.6258722E-2,3.3645814E-3,-9.795527E-3,1.3716385E-2,-2.2048222E-2,-1.2042074E-2,-2.7376541E-3,2.664057E-2,-2.3132173E-2,-1.1502555E-2,1.2266756E-3,8.3512245E-3,2.1902255E-3,1.7430553E-2],"split_indices":[0,0,0,0,0,0,0,0,0,0,0,0,0,0,0,0,0,0,0,0,0,0,0,0,0,0,0,0,0,0,0,0,0,0,0,0,0,0,0,0,0],"split_type":[0,0,0,0,0,0,0,0,0,0,0,0,0,0,0,0,0,0,0,0,0,0,0,0,0,0,0,0,0,0,0,0,0,0,0,0,0,0,0,0,0],"sum_hessian":[3.64E2,1.01E2,2.63E2,9.5E1,6E0,1.3E2,1.33E2,9.1E1,4E0,9.9E1,3.1E1,1.05E2,2.8E1,7.5E1,1.6E1,1E0,3E0,1.8E1,8.1E1,2.3E1,8E0,1E2,5E0,8E0,2E1,7.3E1,2E0,6E0,1E1,1.4E1,4E0,6E0,7.5E1,2.1E1,2E0,2E0,6E0,7.2E1,2.8E1,1.4E1,6E0],"tree_param":{"num_deleted":"0","num_feature":"1","num_nodes":"41","size_leaf_vector":"1"}},{"base_weights":[-4.8563513E-4,6.2146977E-2,-2.468276E-2,5.559264E-2,1.431569E-1,-8.863439E-2,3.8021315E-2,6.374721E-2,-1.0557003E-1,1.729926E-2,7.753199E-2,-1.036196E-1,-3.9035786E-2,1.9504372E-2,1.0439286E-1,5.1250648E-2,1.1586438E-1,-1.4765376E-2,-5.8135665E-3,-6.375694E-3,1.4588063E-2,-3.382818E-2,-1.1852713E-1,1.5408474E-1,-6.432704E-2,2.9751586E-2,-1.5624111E-2,1.828209E-2,6.580976E-2,5.888865E-3,-1.5423692E-2,2.4242278E-2,2.4794096E-3,-1.9576652E-2,2.2406476E-3,-1.5133153E-2,-9.669129E-3,4.524222E-3,1.7528486E-2,-2.7062846E-3,-1.4412937E-2,7.9404115E-4,8.362967E-3,6.0060545E-4,1.8455917E-2],"categories":[],"categories_nodes":[],"categories_segments":[],"categories_sizes":[],"default_left":[0,0,0,0,0,0,0,0,0,0,0,0,0,0,0,0,0,0,0,0,0,0,0,0,0,0,0,0,0,0,0,0,0,0,0,0,0,0,0,0,0,0,0,0,0],"id":20,"left_children":[1,3,5,7,9,11,13,15,17,-1,19,21,23,25,27,29,31,-1,-1,-1,-1,33,35,37,39,41,-1,-1,43,-1,-1,-1,-1,-1,-1,-1,-1,-1,-1,-1,-1,-1,-1,-1,-1],"loss_changes":[5.547021E-1,4.6200097E-2,1.0620174E0,1.3289425E-1,2.9328465E-4,9.332025E-2,1.6264962E-1,5.3980142E-2,1.3971217E-3,0E0,4.792852E-2,1.0003221E-1,1.6620815E-1,1.9554396E-1,7.5722486E-2,1.2836592E-1,1.899264E-1,0E0,0E0,0E0,0E0,1.7741081E-1,4.4105172E-2,1.2996122E-3,8.233876E-2,1.1802548E-1,0E0,0E0,1.4802626E-1,0E0,0E0,0E0,0E0,0E0,0E0,0E0,0E0,0E0,0E0,0E0,0E0,0E0,0E0,0E0,0E0],"parents":[2147483647,0,0,1,1,2,2,3,3,4,4,5,5,6,6,7,7,8,8,10,10,11,11,12,12,13,13,14,14,15,15,16,16,21,21,22,22,23,23,24,24,25,25,28,28],"right_children":[2,4,6,8,10,12,14,16,18,-1,20,22,24,26,28,30,32,-1,-1,-1,-1,34,36,38,40,42,-1,-1,44,-1,-1,-1,-1,-1,-1,-1,-1,-1,-1,-1,-1,-1,-1,-1,-1],"split_conditions":[4.093171E-1,4.039164E-1,4.7801968E-1,4.0150887E-1,4.0789944E-1,4.6235913E-1,6.4712214E-1,3.902026E-1,4.0286785E-1,1.729926E-2,4.080388E-1,4.265535E-1,4.631802E-1,6.300488E-1,6.964422E-1,3.8732445E-1,3.940226E-1,-1.4765376E-2,-5.8135665E-3,-6.375694E-3,1.4588063E-2,4.145001E-1,4.398016E-1,4.6246067E-1,4.7292545E-1,5.5965114E-1,-1.5624111E-2,1.828209E-2,8.606986E-1,5.888865E-3,-1.5423692E-2,2.4242278E-2,2.4794096E-3,-1.9576652E-2,2.2406476E-3,-1.5133153E-2,-9.669129E-3,4.524222E-3,1.7528486E-2,-2.7062846E-3,-1.4412937E-2,7.9404115E-4,8.362967E-3,6.0060545E-4,1.8455917E-2],"split_indices":[0,0,0,0,0,0,0,0,0,0,0,0,0,0,0,0,0,0,0,0,0,0,0,0,0,0,0,0,0,0,0,0,0,0,0,0,0,0,0,0,0,0,0,0,0],"split_type":[0,0,0,0,0,0,0,0,0,0,0,0,0,0,0,0,0,0,0,0,0,0,0,0,0,0,0,0,0,0,0,0,0,0,0,0,0,0,0,0,0,0,0,0,0],"sum_hessian":[3.64E2,1.01E2,2.63E2,9.5E1,6E0,1.3E2,1.33E2,9.1E1,4E0,3E0,3E0,9.9E1,3.1E1,1.05E2,2.8E1,7.5E1,1.6E1,1E0,3E0,1E0,2E0,1.8E1,8.1E1,3E0,2.8E1,1E2,5E0,8E0,2E1,7.3E1,2E0,6E0,1E1,4E0,1.4E1,3E1,5.1E1,1E0,2E0,2E1,8E0,7.2E1,2.8E1,1.4E1,6E0],"tree_param":{"num_deleted":"0","num_feature":"1","num_nodes":"45","size_leaf_vector":"1"}},{"base_weights":[1.9461259E-3,6.753891E-2,-2.3403913E-2,9.2986315E-2,4.8175953E-2,-8.9889064E-2,4.1767422E-2,7.5539894E-2,2.4420392E-2,-2.0040348E-2,8.0277175E-2,-1.0538103E-1,-3.8667645E-2,2.3175975E-2,1.0828211E-1,1.02338925E-1,1.2008151E-2,3.138539E-2,-1.4526464E-1,2.8911073E-2,5.618214E-2,-3.4694154E-2,-1.2047456E-1,1.6243467E-1,-6.507253E-2,3.1628482E-2,-1.2297058E-2,1.7627938E-2,7.398413E-2,5.6176633E-3,2.1072257E-2,-1.1663715E-2,6.2265457E-3,-1.6122423E-3,2.267908E-2,-2.0840911E-2,-6.1590127E-3,-2.2306507E-2,7.7892127E-3,-1.5129352E-2,4.5929933E-3,-2.082968E-2,-1.1080048E-2,2.8340847E-3,1.9768566E-2,-2.2900735E-3,-1.562431E-2,1.1775865E-3,8.051168E-3,1.5990501E-3,1.8768704E-2],"categories":[],"categories_nodes":[],"categories_segments":[],"categories_sizes":[],"default_left":[0,0,0,0,0,0,0,0,0,0,0,0,0,0,0,0,0,0,0,0,0,0,0,0,0,0,0,0,0,0,0,0,0,0,0,0,0,0,0,0,0,0,0,0,0,0,0,0,0,0,0],"id":21,"left_children":[1,3,5,7,9,11,13,15,-1,17,19,21,23,25,27,29,31,33,35,-1,37,39,41,43,45,47,-1,-1,49,-1,-1,-1,-1,-1,-1,-1,-1,-1,-1,-1,-1,-1,-1,-1,-1,-1,-1,-1,-1,-1,-1],"loss_changes":[6.084952E-1,4.5779467E-2,1.1476469E0,9.499571E-2,1.3299839E-1,9.9876285E-2,1.6319546E-1,6.687464E-2,0E0,1.3335422E-1,1.9006309E-1,1.02511644E-1,1.8049268E-1,1.348317E-1,5.4591E-2,1.2825295E-1,9.131222E-2,1.4290567E-1,1.8865556E-2,0E0,2.477482E-1,1.8556252E-1,4.6587825E-2,1.330518E-2,1.07921876E-1,9.706831E-2,0E0,0E0,1.3547373E-1,0E0,0E0,0E0,0E0,0E0,0E0,0E0,0E0,0E0,0E0,0E0,0E0,0E0,0E0,0E0,0E0,0E0,0E0,0E0,0E0,0E0,0E0],"parents":[2147483647,0,0,1,1,2,2,3,3,4,4,5,5,6,6,7,7,9,9,10,10,11,11,12,12,13,13,14,14,15,15,16,16,17,17,18,18,20,20,21,21,22,22,23,23,24,24,25,25,28,28],"right_children":[2,4,6,8,10,12,14,16,-1,18,20,22,24,26,28,30,32,34,36,-1,38,40,42,44,46,48,-1,-1,50,-1,-1,-1,-1,-1,-1,-1,-1,-1,-1,-1,-1,-1,-1,-1,-1,-1,-1,-1,-1,-1,-1],"split_conditions":[4.093171E-1,3.3815566E-1,4.7801968E-1,3.3387953E-1,3.7014502E-1,4.6235913E-1,6.4712214E-1,2.891739E-1,2.4420392E-2,3.655552E-1,3.763215E-1,4.265535E-1,4.631802E-1,6.300488E-1,6.964422E-1,2.5870645E-1,3.1140155E-1,3.614607E-1,3.6662167E-1,2.8911073E-2,3.8063732E-1,4.1725412E-1,4.2883375E-1,4.6246067E-1,4.7292545E-1,5.5965114E-1,-1.2297058E-2,1.7627938E-2,8.606986E-1,5.6176633E-3,2.1072257E-2,-1.1663715E-2,6.2265457E-3,-1.6122423E-3,2.267908E-2,-2.0840911E-2,-6.1590127E-3,-2.2306507E-2,7.7892127E-3,-1.5129352E-2,4.5929933E-3,-2.082968E-2,-1.1080048E-2,2.8340847E-3,1.9768566E-2,-2.2900735E-3,-1.562431E-2,1.1775865E-3,8.051168E-3,1.5990501E-3,1.8768704E-2],"split_indices":[0,0,0,0,0,0,0,0,0,0,0,0,0,0,0,0,0,0,0,0,0,0,0,0,0,0,0,0,0,0,0,0,0,0,0,0,0,0,0,0,0,0,0,0,0,0,0,0,0,0,0],"split_type":[0,0,0,0,0,0,0,0,0,0,0,0,0,0,0,0,0,0,0,0,0,0,0,0,0,0,0,0,0,0,0,0,0,0,0,0,0,0,0,0,0,0,0,0,0,0,0,0,0,0,0],"sum_hessian":[3.64E2,1.01E2,2.63E2,4.2E1,5.9E1,1.3E2,1.33E2,3.9E1,3E0,1.9E1,4E1,9.9E1,3.1E1,1.05E2,2.8E1,2.7E1,1.2E1,1.4E1,5E0,3E0,3.7E1,1.8E1,8.1E1,3E0,2.8E1,1E2,5E0,8E0,2E1,2E1,7E0,3E0,9E0,1.2E1,2E0,2E0,3E0,2E0,3.5E1,7E0,1.1E1,6E0,7.5E1,1E0,2E0,2E1,8E0,7.2E1,2.8E1,1.4E1,6E0],"tree_param":{"num_deleted":"0","num_feature":"1","num_nodes":"51","size_leaf_vector":"1"}},{"base_weights":[7.040264E-5,6.2087726E-2,-2.3891103E-2,5.50681E-2,1.4948718E-2,-8.6891085E-2,3.7876725E-2,6.389794E-2,-1.1841445E-2,-1.0269886E-1,-3.477644E-2,2.1537673E-2,9.629268E-2,5.05046E-2,1.2001533E-1,-3.5627276E-2,-1.16987415E-1,4.4900365E-2,-1.0772071E-1,3.1028029E-2,-1.4180626E-2,1.693726E-2,6.038735E-2,5.7417317E-3,-1.3684402E-2,2.3773996E-2,3.4189168E-3,-8.876375E-3,1.30907595E-2,-1.4874046E-2,-9.580796E-3,1.7031193E-2,2.8583224E-4,-1.8515967E-2,-4.864858E-3,1.0235987E-3,8.229668E-3,9.173847E-4,1.6150381E-2],"categories":[],"categories_nodes":[],"categories_segments":[],"categories_sizes":[],"default_left":[0,0,0,0,0,0,0,0,0,0,0,0,0,0,0,0,0,0,0,0,0,0,0,0,0,0,0,0,0,0,0,0,0,0,0,0,0,0,0],"id":22,"left_children":[1,3,5,7,-1,9,11,13,-1,15,17,19,21,23,25,27,29,31,33,35,-1,-1,37,-1,-1,-1,-1,-1,-1,-1,-1,-1,-1,-1,-1,-1,-1,-1,-1],"loss_changes":[5.4388374E-1,5.4346174E-2,1.0306133E0,1.5462133E-1,0E0,1.0434848E-1,1.2582389E-1,6.3085794E-2,0E0,9.166765E-2,1.9081964E-1,1.6872033E-1,6.58668E-2,1.0628395E-1,1.6363737E-1,1.7975229E-1,4.0895462E-2,8.387412E-2,6.875849E-2,1.06821574E-1,0E0,0E0,1.0726749E-1,0E0,0E0,0E0,0E0,0E0,0E0,0E0,0E0,0E0,0E0,0E0,0E0,0E0,0E0,0E0,0E0],"parents":[2147483647,0,0,1,1,2,2,3,3,5,5,6,6,7,7,9,9,10,10,11,11,12,12,13,13,14,14,15,15,16,16,17,17,18,18,19,19,22,22],"right_children":[2,4,6,8,-1,10,12,14,-1,16,18,20,22,24,26,28,30,32,34,36,-1,-1,38,-1,-1,-1,-1,-1,-1,-1,-1,-1,-1,-1,-1,-1,-1,-1,-1],"split_conditions":[4.093171E-1,4.039164E-1,4.7801968E-1,4.0150887E-1,1.4948718E-2,4.6235913E-1,6.4712214E-1,3.902026E-1,-1.1841445E-2,4.265535E-1,4.688469E-1,6.300488E-1,6.964422E-1,3.8732445E-1,3.940226E-1,4.24331E-1,4.398016E-1,4.631802E-1,4.7172734E-1,5.5965114E-1,-1.4180626E-2,1.693726E-2,8.606986E-1,5.7417317E-3,-1.3684402E-2,2.3773996E-2,3.4189168E-3,-8.876375E-3,1.30907595E-2,-1.4874046E-2,-9.580796E-3,1.7031193E-2,2.8583224E-4,-1.8515967E-2,-4.864858E-3,1.0235987E-3,8.229668E-3,9.173847E-4,1.6150381E-2],"split_indices":[0,0,0,0,0,0,0,0,0,0,0,0,0,0,0,0,0,0,0,0,0,0,0,0,0,0,0,0,0,0,0,0,0,0,0,0,0,0,0],"split_type":[0,0,0,0,0,0,0,0,0,0,0,0,0,0,0,0,0,0,0,0,0,0,0,0,0,0,0,0,0,0,0,0,0,0,0,0,0,0,0],"sum_hessian":[3.64E2,1.01E2,2.63E2,9.5E1,6E0,1.3E2,1.33E2,9.1E1,4E0,9.9E1,3.1E1,1.05E2,2.8E1,7.5E1,1.6E1,1.8E1,8.1E1,1.5E1,1.6E1,1E2,5E0,8E0,2E1,7.3E1,2E0,6E0,1E1,1.4E1,4E0,3E1,5.1E1,3E0,1.2E1,6E0,1E1,7.2E1,2.8E1,1.4E1,6E0],"tree_param":{"num_deleted":"0","num_feature":"1","num_nodes":"39","size_leaf_vector":"1"}},{"base_weights":[2.186456E-4,6.343652E-2,-2.4207272E-2,1.4811191E-1,5.660148E-2,-8.812112E-2,3.845632E-2,-3.6389455E-2,2.9558528E-2,-6.7546815E-2,6.562855E-2,-1.03611454E-1,-3.6960054E-2,2.2176808E-2,9.663468E-2,1.0342824E-2,-2.2792127E-2,5.8458976E-2,-1.766659E-1,1.3550839E-1,4.9845804E-2,-3.6907274E-2,-1.17803745E-1,4.233201E-2,-1.0941376E-1,2.9655186E-2,-1.0740536E-2,1.4114925E-1,5.6909718E-2,6.0884457E-4,1.0778529E-2,-2.3055855E-2,-8.184884E-3,7.070321E-3,1.914757E-2,-1.1712756E-2,5.84298E-3,-1.4972423E-2,4.1379645E-3,-2.0158373E-2,-1.08537115E-2,1.6698018E-2,7.224175E-5,-1.7458651E-2,-5.7993485E-3,1.7826272E-2,2.328697E-3,1.011934E-2,2.406043E-2,-1.3281538E-2,1.0705191E-2],"categories":[],"categories_nodes":[],"categories_segments":[],"categories_sizes":[],"default_left":[0,0,0,0,0,0,0,0,0,0,0,0,0,0,0,0,0,0,0,0,0,0,0,0,0,0,0,0,0,0,0,0,0,0,0,0,0,0,0,0,0,0,0,0,0,0,0,0,0,0,0],"id":23,"left_children":[1,3,5,7,9,11,13,15,-1,17,19,21,23,25,27,-1,-1,29,31,33,35,37,39,41,43,45,-1,47,49,-1,-1,-1,-1,-1,-1,-1,-1,-1,-1,-1,-1,-1,-1,-1,-1,-1,-1,-1,-1,-1,-1],"loss_changes":[5.6515205E-1,5.065018E-2,1.0607278E0,2.0121947E-1,1.1201978E-1,9.998822E-2,1.2477042E-1,1.3069163E-1,0E0,1.06575176E-1,9.250614E-2,9.032071E-2,1.884718E-1,1.0590596E-1,4.32491E-2,0E0,0E0,9.676736E-3,1.5688166E-3,4.4493556E-2,1.14341125E-1,1.7400528E-1,4.178202E-2,8.286433E-2,4.684554E-2,9.143168E-2,0E0,2.731198E-2,1.7594308E-1,0E0,0E0,0E0,0E0,0E0,0E0,0E0,0E0,0E0,0E0,0E0,0E0,0E0,0E0,0E0,0E0,0E0,0E0,0E0,0E0,0E0,0E0],"parents":[2147483647,0,0,1,1,2,2,3,3,4,4,5,5,6,6,7,7,9,9,10,10,11,11,12,12,13,13,14,14,17,17,18,18,19,19,20,20,21,21,22,22,23,23,24,24,25,25,27,27,28,28],"right_children":[2,4,6,8,10,12,14,16,-1,18,20,22,24,26,28,-1,-1,30,32,34,36,38,40,42,44,46,-1,48,50,-1,-1,-1,-1,-1,-1,-1,-1,-1,-1,-1,-1,-1,-1,-1,-1,-1,-1,-1,-1,-1,-1],"split_conditions":[4.093171E-1,1.4143664E-1,4.7801968E-1,9.5164604E-2,2.0560412E-1,4.6235913E-1,6.4712214E-1,6.847526E-2,2.9558528E-2,1.8418387E-1,2.891739E-1,4.265535E-1,4.688469E-1,6.300488E-1,7.0715135E-1,1.0342824E-2,-2.2792127E-2,1.8406774E-1,1.9069274E-1,2.5870645E-1,3.1140155E-1,4.1725412E-1,4.2883375E-1,4.631802E-1,4.7172734E-1,4.8026446E-1,-1.0740536E-2,7.018462E-1,7.1863157E-1,6.0884457E-4,1.0778529E-2,-2.3055855E-2,-8.184884E-3,7.070321E-3,1.914757E-2,-1.1712756E-2,5.84298E-3,-1.4972423E-2,4.1379645E-3,-2.0158373E-2,-1.08537115E-2,1.6698018E-2,7.224175E-5,-1.7458651E-2,-5.7993485E-3,1.7826272E-2,2.328697E-3,1.011934E-2,2.406043E-2,-1.3281538E-2,1.0705191E-2],"split_indices":[0,0,0,0,0,0,0,0,0,0,0,0,0,0,0,0,0,0,0,0,0,0,0,0,0,0,0,0,0,0,0,0,0,0,0,0,0,0,0,0,0,0,0,0,0,0,0,0,0,0,0],"split_type":[0,0,0,0,0,0,0,0,0,0,0,0,0,0,0,0,0,0,0,0,0,0,0,0,0,0,0,0,0,0,0,0,0,0,0,0,0,0,0,0,0,0,0,0,0,0,0,0,0,0,0],"sum_hessian":[3.64E2,1.01E2,2.63E2,6E0,9.5E1,1.3E2,1.33E2,3E0,3E0,6E0,8.9E1,9.9E1,3.1E1,1.05E2,2.8E1,2E0,1E0,3E0,3E0,1.5E1,7.4E1,1.8E1,8.1E1,1.5E1,1.6E1,1E2,5E0,1.2E1,1.6E1,2E0,1E0,1E0,2E0,8E0,7E0,3E0,7.1E1,7E0,1.1E1,6E0,7.5E1,3E0,1.2E1,6E0,1E1,3E0,9.7E1,1E1,2E0,3E0,1.3E1],"tree_param":{"num_deleted":"0","num_feature":"1","num_nodes":"51","size_leaf_vector":"1"}},{"base_weights":[-3.9382878E-4,5.614913E-2,-2.223848E-2,-5.2003197E-2,5.9951756E-2,-7.7507444E-2,3.709032E-2,5.4691276E-3,-1.860433E-2,2.1419195E-2,5.2900586E-2,-9.367903E-2,-3.291096E-2,2.9232642E-2,1.6873981E-1,-3.954762E-2,6.4110234E-2,-6.1674897E-2,-1.2706529E-1,1.4418945E-1,-5.2210696E-2,1.2122047E-1,1.9024653E-2,2.2278683E-2,7.2507844E-3,6.750641E-3,-8.813118E-3,1.8943008E-2,4.3204254E-3,-9.684696E-3,3.9339468E-2,-1.9186173E-2,-8.867139E-3,4.2980104E-3,1.635992E-2,-3.4224452E-3,-2.3265585E-2,5.6349165E-3,2.0077046E-2,-2.0517873E-2,2.9323648E-3],"categories":[],"categories_nodes":[],"categories_segments":[],"categories_sizes":[],"default_left":[0,0,0,0,0,0,0,0,0,0,0,0,0,0,0,0,0,0,0,0,0,0,0,0,0,0,0,0,0,0,0,0,0,0,0,0,0,0,0,0,0],"id":24,"left_children":[1,3,5,7,9,11,13,-1,-1,-1,15,17,19,21,23,25,27,29,31,33,35,37,39,-1,-1,-1,-1,-1,-1,-1,-1,-1,-1,-1,-1,-1,-1,-1,-1,-1,-1],"loss_changes":[4.520825E-1,4.5066476E-2,8.685417E-1,6.7380294E-2,9.633896E-2,9.572071E-2,1.2747808E-1,0E0,0E0,0E0,1.0202134E-1,9.901309E-2,1.3741186E-1,1.12253115E-1,2.0253569E-2,6.316115E-2,2.1713015E-1,8.864032E-1,1.0240114E-1,8.2627684E-4,1.0563108E-1,5.0612897E-2,2.6232326E-1,0E0,0E0,0E0,0E0,0E0,0E0,0E0,0E0,0E0,0E0,0E0,0E0,0E0,0E0,0E0,0E0,0E0,0E0],"parents":[2147483647,0,0,1,1,2,2,3,3,4,4,5,5,6,6,10,10,11,11,12,12,13,13,14,14,15,15,16,16,17,17,18,18,19,19,20,20,21,21,22,22],"right_children":[2,4,6,8,10,12,14,-1,-1,-1,16,18,20,22,24,26,28,30,32,34,36,38,40,-1,-1,-1,-1,-1,-1,-1,-1,-1,-1,-1,-1,-1,-1,-1,-1,-1,-1],"split_conditions":[4.093171E-1,9.5164604E-2,4.8530304E-1,6.847526E-2,1.4143664E-1,4.6235913E-1,8.606986E-1,5.4691276E-3,-1.860433E-2,2.1419195E-2,2.333463E-1,4.425521E-1,4.631802E-1,4.9695262E-1,9.6256304E-1,1.8418387E-1,2.891739E-1,4.404435E-1,4.4713488E-1,4.6246067E-1,4.8143536E-1,4.9432197E-1,4.99723E-1,2.2278683E-2,7.2507844E-3,6.750641E-3,-8.813118E-3,1.8943008E-2,4.3204254E-3,-9.684696E-3,3.9339468E-2,-1.9186173E-2,-8.867139E-3,4.2980104E-3,1.635992E-2,-3.4224452E-3,-2.3265585E-2,5.6349165E-3,2.0077046E-2,-2.0517873E-2,2.9323648E-3],"split_indices":[0,0,0,0,0,0,0,0,0,0,0,0,0,0,0,0,0,0,0,0,0,0,0,0,0,0,0,0,0,0,0,0,0,0,0,0,0,0,0,0,0],"split_type":[0,0,0,0,0,0,0,0,0,0,0,0,0,0,0,0,0,0,0,0,0,0,0,0,0,0,0,0,0,0,0,0,0,0,0,0,0,0,0,0,0],"sum_hessian":[3.64E2,1.01E2,2.63E2,3E0,9.8E1,1.36E2,1.27E2,2E0,1E0,3E0,9.5E1,9.9E1,3.7E1,1.21E2,6E0,1E1,8.5E1,5.2E1,4.7E1,3E0,3.4E1,1.1E1,1.1E2,3E0,3E0,3E0,7E0,1.1E1,7.4E1,4.9E1,3E0,1.6E1,3.1E1,1E0,2E0,3.2E1,2E0,7E0,4E0,4E0,1.06E2],"tree_param":{"num_deleted":"0","num_feature":"1","num_nodes":"41","size_leaf_vector":"1"}},{"base_weights":[1.8920719E-3,6.131574E-2,-2.107424E-2,5.4879945E-2,1.4081867E-1,-8.118838E-2,3.7851334E-2,6.352406E-2,-1.15147784E-1,1.733335E-2,7.309918E-2,-9.526738E-2,-3.4654375E-2,2.0829435E-2,9.8764084E-2,5.1814713E-2,1.1213504E-1,-1.26987845E-2,-3.3893764E-3,-6.9384607E-3,1.4372199E-2,-6.374516E-2,-1.2808841E-1,3.7709355E-2,-1.00722924E-1,2.8557012E-2,-1.1272302E-2,1.606101E-1,6.755561E-2,6.010055E-3,-1.6984096E-2,2.0874163E-2,3.0689902E-4,-9.873797E-3,3.8960118E-2,-1.9377444E-2,-8.918996E-3,1.0867554E-3,2.2016818E-2,-1.781932E-2,-4.2267027E-3,1.7211871E-2,2.2405952E-3,2.206794E-2,1.119218E-2,1.4498051E-3,1.7159956E-2],"categories":[],"categories_nodes":[],"categories_segments":[],"categories_sizes":[],"default_left":[0,0,0,0,0,0,0,0,0,0,0,0,0,0,0,0,0,0,0,0,0,0,0,0,0,0,0,0,0,0,0,0,0,0,0,0,0,0,0,0,0,0,0,0,0,0,0],"id":25,"left_children":[1,3,5,7,9,11,13,15,17,-1,19,21,23,25,27,29,31,-1,-1,-1,-1,33,35,37,39,41,-1,43,45,-1,-1,-1,-1,-1,-1,-1,-1,-1,-1,-1,-1,-1,-1,-1,-1,-1,-1],"loss_changes":[4.9942318E-1,4.4461668E-2,9.382298E-1,1.4840966E-1,2.742678E-3,8.2523465E-2,1.368808E-1,4.6556383E-2,5.0616264E-4,0E0,5.0222505E-2,9.529406E-2,1.5678912E-1,1.1261493E-1,4.512334E-2,1.497894E-1,1.7847987E-1,0E0,0E0,0E0,0E0,8.792529E-1,1.053614E-1,7.596768E-2,6.945442E-2,8.533222E-2,0E0,1.6232282E-3,1.1343881E-1,0E0,0E0,0E0,0E0,0E0,0E0,0E0,0E0,0E0,0E0,0E0,0E0,0E0,0E0,0E0,0E0,0E0,0E0],"parents":[2147483647,0,0,1,1,2,2,3,3,4,4,5,5,6,6,7,7,8,8,10,10,11,11,12,12,13,13,14,14,15,15,16,16,21,21,22,22,23,23,24,24,25,25,27,27,28,28],"right_children":[2,4,6,8,10,12,14,16,18,-1,20,22,24,26,28,30,32,-1,-1,-1,-1,34,36,38,40,42,-1,44,46,-1,-1,-1,-1,-1,-1,-1,-1,-1,-1,-1,-1,-1,-1,-1,-1,-1,-1],"split_conditions":[4.093171E-1,4.039164E-1,4.7801968E-1,4.0150887E-1,4.0789944E-1,4.6235913E-1,6.4712214E-1,3.902026E-1,4.0350354E-1,1.733335E-2,4.080388E-1,4.425521E-1,4.688469E-1,6.300488E-1,6.964422E-1,3.8732445E-1,3.9442974E-1,-1.26987845E-2,-3.3893764E-3,-6.9384607E-3,1.4372199E-2,4.404435E-1,4.4713488E-1,4.685118E-1,4.7172734E-1,4.8026446E-1,-1.1272302E-2,6.5637976E-1,8.606986E-1,6.010055E-3,-1.6984096E-2,2.0874163E-2,3.0689902E-4,-9.873797E-3,3.8960118E-2,-1.9377444E-2,-8.918996E-3,1.0867554E-3,2.2016818E-2,-1.781932E-2,-4.2267027E-3,1.7211871E-2,2.2405952E-3,2.206794E-2,1.119218E-2,1.4498051E-3,1.7159956E-2],"split_indices":[0,0,0,0,0,0,0,0,0,0,0,0,0,0,0,0,0,0,0,0,0,0,0,0,0,0,0,0,0,0,0,0,0,0,0,0,0,0,0,0,0,0,0,0,0,0,0],"split_type":[0,0,0,0,0,0,0,0,0,0,0,0,0,0,0,0,0,0,0,0,0,0,0,0,0,0,0,0,0,0,0,0,0,0,0,0,0,0,0,0,0,0,0,0,0,0,0],"sum_hessian":[3.64E2,1.01E2,2.63E2,9.5E1,6E0,1.3E2,1.33E2,9.1E1,4E0,3E0,3E0,9.9E1,3.1E1,1.05E2,2.8E1,7.5E1,1.6E1,3E0,1E0,1E0,2E0,5.2E1,4.7E1,1.5E1,1.6E1,1E2,5E0,8E0,2E1,7.3E1,2E0,8E0,8E0,4.9E1,3E0,1.6E1,3.1E1,1.4E1,1E0,6E0,1E1,3E0,9.7E1,2E0,6E0,1.4E1,6E0],"tree_param":{"num_deleted":"0","num_feature":"1","num_nodes":"47","size_leaf_vector":"1"}},{"base_weights":[1.3221563E-4,5.609814E-2,-2.1491483E-2,-5.9272364E-2,6.0192928E-2,-7.840277E-2,3.4306057E-2,5.8807773E-3,-2.0675639E-2,2.3562057E-2,5.2256435E-2,-9.263138E-2,-3.148829E-2,1.9337427E-2,8.783601E-2,-3.744897E-2,6.312275E-2,-6.1181147E-2,-1.2542786E-1,1.33281415E-2,-1.4750007E-1,2.8016848E-2,-1.2998908E-2,1.54317245E-2,5.5161383E-2,5.2878605E-3,-7.793163E-3,1.7759671E-2,4.3965275E-3,-9.535633E-3,3.813039E-2,-1.9173523E-2,-8.6282445E-3,-2.3688164E-3,2.8033832E-2,-2.1490661E-2,-9.754011E-3,1.8341726E-2,2.138809E-3,8.317631E-4,1.4766066E-2],"categories":[],"categories_nodes":[],"categories_segments":[],"categories_sizes":[],"default_left":[0,0,0,0,0,0,0,0,0,0,0,0,0,0,0,0,0,0,0,0,0,0,0,0,0,0,0,0,0,0,0,0,0,0,0,0,0,0,0,0,0],"id":26,"left_children":[1,3,5,7,9,11,13,-1,-1,-1,15,17,19,21,23,25,27,29,31,33,35,37,-1,-1,39,-1,-1,-1,-1,-1,-1,-1,-1,-1,-1,-1,-1,-1,-1,-1,-1],"loss_changes":[4.429251E-1,5.1754385E-2,8.4102434E-1,8.181861E-2,1.2552306E-1,8.452934E-2,1.05671674E-1,0E0,0E0,0E0,9.5941484E-2,9.547186E-2,1.6834138E-1,1.4102508E-1,5.4482907E-2,4.4344626E-2,1.8079263E-1,8.378262E-1,1.0804683E-1,2.4385023E-1,9.346649E-3,1.0011837E-1,0E0,0E0,8.976509E-2,0E0,0E0,0E0,0E0,0E0,0E0,0E0,0E0,0E0,0E0,0E0,0E0,0E0,0E0,0E0,0E0],"parents":[2147483647,0,0,1,1,2,2,3,3,4,4,5,5,6,6,10,10,11,11,12,12,13,13,14,14,15,15,16,16,17,17,18,18,19,19,20,20,21,21,24,24],"right_children":[2,4,6,8,10,12,14,-1,-1,-1,16,18,20,22,24,26,28,30,32,34,36,38,-1,-1,40,-1,-1,-1,-1,-1,-1,-1,-1,-1,-1,-1,-1,-1,-1,-1,-1],"split_conditions":[4.093171E-1,9.5164604E-2,4.7801968E-1,6.847526E-2,1.4143664E-1,4.6235913E-1,6.4712214E-1,5.8807773E-3,-2.0675639E-2,2.3562057E-2,2.333463E-1,4.425521E-1,4.7292545E-1,6.300488E-1,6.964422E-1,1.8418387E-1,2.891739E-1,4.404435E-1,4.4713488E-1,4.7172734E-1,4.7480187E-1,4.8026446E-1,-1.2998908E-2,1.54317245E-2,8.606986E-1,5.2878605E-3,-7.793163E-3,1.7759671E-2,4.3965275E-3,-9.535633E-3,3.813039E-2,-1.9173523E-2,-8.6282445E-3,-2.3688164E-3,2.8033832E-2,-2.1490661E-2,-9.754011E-3,1.8341726E-2,2.138809E-3,8.317631E-4,1.4766066E-2],"split_indices":[0,0,0,0,0,0,0,0,0,0,0,0,0,0,0,0,0,0,0,0,0,0,0,0,0,0,0,0,0,0,0,0,0,0,0,0,0,0,0,0,0],"split_type":[0,0,0,0,0,0,0,0,0,0,0,0,0,0,0,0,0,0,0,0,0,0,0,0,0,0,0,0,0,0,0,0,0,0,0,0,0,0,0,0,0],"sum_hessian":[3.64E2,1.01E2,2.63E2,3E0,9.8E1,1.3E2,1.33E2,2E0,1E0,3E0,9.5E1,9.9E1,3.1E1,1.05E2,2.8E1,1E1,8.5E1,5.2E1,4.7E1,2.3E1,8E0,1E2,5E0,8E0,2E1,3E0,7E0,1.1E1,7.4E1,4.9E1,3E0,1.6E1,3.1E1,2.1E1,2E0,2E0,6E0,3E0,9.7E1,1.4E1,6E0],"tree_param":{"num_deleted":"0","num_feature":"1","num_nodes":"41","size_leaf_vector":"1"}},{"base_weights":[2.2496573E-4,5.7265457E-2,-2.1814257E-2,5.0852653E-2,1.3703166E-1,-7.967798E-2,3.49168E-2,5.900667E-2,-1.0935172E-1,1.6870812E-2,7.10973E-2,-9.3668774E-2,-3.3466786E-2,8.123215E-3,6.590091E-2,4.611954E-2,1.13148734E-1,-1.4941304E-2,-6.198313E-3,-8.095661E-3,1.48767475E-2,-6.3622855E-2,-1.2489305E-1,1.110551E-2,-1.4860772E-1,3.1329345E-2,-7.6506704E-2,5.4188065E-2,1.501892E-1,5.3843926E-3,-1.5978854E-2,2.3507146E-2,2.5275284E-3,-9.724661E-3,3.725798E-2,-1.8768383E-2,-8.763255E-3,-2.2318293E-3,2.5251156E-2,-2.1203404E-2,-1.0019532E-2,1.2312824E-3,2.8497417E-2,-1.44890575E-2,-7.220285E-4,1.2451078E-2,3.4231164E-3,2.1753147E-2,4.5299637E-3],"categories":[],"categories_nodes":[],"categories_segments":[],"categories_sizes":[],"default_left":[0,0,0,0,0,0,0,0,0,0,0,0,0,0,0,0,0,0,0,0,0,0,0,0,0,0,0,0,0,0,0,0,0,0,0,0,0,0,0,0,0,0,0,0,0,0,0,0,0],"id":27,"left_children":[1,3,5,7,9,11,13,15,17,-1,19,21,23,25,27,29,31,-1,-1,-1,-1,33,35,37,39,41,43,45,47,-1,-1,-1,-1,-1,-1,-1,-1,-1,-1,-1,-1,-1,-1,-1,-1,-1,-1,-1,-1],"loss_changes":[4.6010095E-1,4.5207083E-2,8.6940694E-1,1.3185813E-1,2.6252866E-3,8.156079E-2,1.1070818E-1,5.8973342E-2,2.271533E-4,0E0,5.9283927E-2,8.587015E-2,1.6587745E-1,1.45764E-1,5.307135E-2,1.2948267E-1,1.7619258E-1,0E0,0E0,0E0,0E0,8.135711E-1,9.585434E-2,1.9928463E-1,6.3907504E-3,2.762508E-1,7.476304E-2,7.4329585E-2,3.959042E-2,0E0,0E0,0E0,0E0,0E0,0E0,0E0,0E0,0E0,0E0,0E0,0E0,0E0,0E0,0E0,0E0,0E0,0E0,0E0,0E0],"parents":[2147483647,0,0,1,1,2,2,3,3,4,4,5,5,6,6,7,7,8,8,10,10,11,11,12,12,13,13,14,14,15,15,16,16,21,21,22,22,23,23,24,24,25,25,26,26,27,27,28,28],"right_children":[2,4,6,8,10,12,14,16,18,-1,20,22,24,26,28,30,32,-1,-1,-1,-1,34,36,38,40,42,44,46,48,-1,-1,-1,-1,-1,-1,-1,-1,-1,-1,-1,-1,-1,-1,-1,-1,-1,-1,-1,-1],"split_conditions":[4.093171E-1,4.039164E-1,4.7801968E-1,4.0150887E-1,4.0789944E-1,4.6235913E-1,5.5965114E-1,3.902026E-1,4.0286785E-1,1.6870812E-2,4.080388E-1,4.425521E-1,4.7292545E-1,5.3734577E-1,8.606986E-1,3.8732445E-1,3.940226E-1,-1.4941304E-2,-6.198313E-3,-8.095661E-3,1.48767475E-2,4.404435E-1,4.4713488E-1,4.7172734E-1,4.7480187E-1,5.350731E-1,5.470934E-1,5.8719724E-1,9.6256304E-1,5.3843926E-3,-1.5978854E-2,2.3507146E-2,2.5275284E-3,-9.724661E-3,3.725798E-2,-1.8768383E-2,-8.763255E-3,-2.2318293E-3,2.5251156E-2,-2.1203404E-2,-1.0019532E-2,1.2312824E-3,2.8497417E-2,-1.44890575E-2,-7.220285E-4,1.2451078E-2,3.4231164E-3,2.1753147E-2,4.5299637E-3],"split_indices":[0,0,0,0,0,0,0,0,0,0,0,0,0,0,0,0,0,0,0,0,0,0,0,0,0,0,0,0,0,0,0,0,0,0,0,0,0,0,0,0,0,0,0,0,0,0,0,0,0],"split_type":[0,0,0,0,0,0,0,0,0,0,0,0,0,0,0,0,0,0,0,0,0,0,0,0,0,0,0,0,0,0,0,0,0,0,0,0,0,0,0,0,0,0,0,0,0,0,0,0,0],"sum_hessian":[3.64E2,1.01E2,2.63E2,9.5E1,6E0,1.3E2,1.33E2,9.1E1,4E0,3E0,3E0,9.9E1,3.1E1,7.2E1,6.1E1,7.5E1,1.6E1,1E0,3E0,1E0,2E0,5.2E1,4.7E1,2.3E1,8E0,5.7E1,1.5E1,5.5E1,6E0,7.3E1,2E0,6E0,1E1,4.9E1,3E0,1.6E1,3.1E1,2.1E1,2E0,2E0,6E0,5.4E1,3E0,7E0,8E0,1.1E1,4.4E1,3E0,3E0],"tree_param":{"num_deleted":"0","num_feature":"1","num_nodes":"49","size_leaf_vector":"1"}},{"base_weights":[-1.8263239E-4,5.0823294E-2,-1.9888775E-2,4.4609357E-2,1.2878251E-1,-7.244273E-2,3.1637028E-2,5.2124172E-2,-1.02585144E-1,1.5677784E-2,6.8591565E-2,-8.429512E-2,-3.3140205E-2,1.5381792E-2,8.996178E-2,4.0330317E-2,1.0178352E-1,-1.4243126E-2,-5.70158E-3,-6.27293E-3,1.3327496E-2,-5.4947894E-2,-1.1494319E-1,3.5406508E-2,-9.570534E-2,2.4796613E-2,-1.4566466E-2,1.6396359E-2,5.396283E-2,4.9778563E-3,-1.0379046E-2,1.9440284E-2,-2.1450818E-4,-8.735598E-3,3.6389012E-2,-1.7380415E-2,-8.008134E-3,1.1556138E-3,1.9658104E-2,-1.9232849E-2,-2.5517398E-3,5.417359E-4,7.2723813E-3,2.708608E-4,1.5608433E-2],"categories":[],"categories_nodes":[],"categories_segments":[],"categories_sizes":[],"default_left":[0,0,0,0,0,0,0,0,0,0,0,0,0,0,0,0,0,0,0,0,0,0,0,0,0,0,0,0,0,0,0,0,0,0,0,0,0,0,0,0,0,0,0,0,0],"id":28,"left_children":[1,3,5,7,9,11,13,15,17,-1,19,21,23,25,27,29,31,-1,-1,-1,-1,33,35,37,39,41,-1,-1,43,-1,-1,-1,-1,-1,-1,-1,-1,-1,-1,-1,-1,-1,-1,-1,-1],"loss_changes":[3.6788327E-1,4.3667316E-2,7.171735E-1,1.1153656E-1,1.0418221E-3,5.8230042E-2,1.2565932E-1,4.9777135E-2,9.57977E-4,0E0,4.2337358E-2,8.36277E-2,1.4062488E-1,1.6433167E-1,6.840773E-2,1.0865484E-1,1.6405557E-1,0E0,0E0,0E0,0E0,7.511959E-1,8.457762E-2,5.923344E-2,1.1038254E-1,9.3414165E-2,0E0,0E0,1.0949455E-1,0E0,0E0,0E0,0E0,0E0,0E0,0E0,0E0,0E0,0E0,0E0,0E0,0E0,0E0,0E0,0E0],"parents":[2147483647,0,0,1,1,2,2,3,3,4,4,5,5,6,6,7,7,8,8,10,10,11,11,12,12,13,13,14,14,15,15,16,16,21,21,22,22,23,23,24,24,25,25,28,28],"right_children":[2,4,6,8,10,12,14,16,18,-1,20,22,24,26,28,30,32,-1,-1,-1,-1,34,36,38,40,42,-1,-1,44,-1,-1,-1,-1,-1,-1,-1,-1,-1,-1,-1,-1,-1,-1,-1,-1],"split_conditions":[4.093171E-1,4.039164E-1,4.7801968E-1,4.0150887E-1,4.0789944E-1,4.6235913E-1,6.4712214E-1,3.902026E-1,4.0286785E-1,1.5677784E-2,4.080388E-1,4.425521E-1,4.688469E-1,6.300488E-1,6.964422E-1,3.8483235E-1,3.9442974E-1,-1.4243126E-2,-5.70158E-3,-6.27293E-3,1.3327496E-2,4.404435E-1,4.4713488E-1,4.685118E-1,4.7172734E-1,5.5965114E-1,-1.4566466E-2,1.6396359E-2,8.606986E-1,4.9778563E-3,-1.0379046E-2,1.9440284E-2,-2.1450818E-4,-8.735598E-3,3.6389012E-2,-1.7380415E-2,-8.008134E-3,1.1556138E-3,1.9658104E-2,-1.9232849E-2,-2.5517398E-3,5.417359E-4,7.2723813E-3,2.708608E-4,1.5608433E-2],"split_indices":[0,0,0,0,0,0,0,0,0,0,0,0,0,0,0,0,0,0,0,0,0,0,0,0,0,0,0,0,0,0,0,0,0,0,0,0,0,0,0,0,0,0,0,0,0],"split_type":[0,0,0,0,0,0,0,0,0,0,0,0,0,0,0,0,0,0,0,0,0,0,0,0,0,0,0,0,0,0,0,0,0,0,0,0,0,0,0,0,0,0,0,0,0],"sum_hessian":[3.64E2,1.01E2,2.63E2,9.5E1,6E0,1.3E2,1.33E2,9.1E1,4E0,3E0,3E0,9.9E1,3.1E1,1.05E2,2.8E1,7.5E1,1.6E1,1E0,3E0,1E0,2E0,5.2E1,4.7E1,1.5E1,1.6E1,1E2,5E0,8E0,2E1,7.1E1,4E0,8E0,8E0,4.9E1,3E0,1.6E1,3.1E1,1.4E1,1E0,6E0,1E1,7.2E1,2.8E1,1.4E1,6E0],"tree_param":{"num_deleted":"0","num_feature":"1","num_nodes":"45","size_leaf_vector":"1"}},{"base_weights":[1.9241932E-3,5.5369325E-2,-1.8732352E-2,1.3129683E-1,4.9256183E-2,-7.095241E-2,3.7305772E-2,-4.561191E-2,2.7538136E-2,-7.204072E-2,5.8143094E-2,-8.5732736E-2,-3.0189632E-2,1.3519539E-1,2.6946958E-2,9.341437E-3,-2.3134539E-2,5.059936E-2,-1.7667063E-1,1.2678538E-1,4.2724166E-2,-2.2425147E-2,-9.935605E-2,1.5102677E-1,-5.003752E-2,6.4165145E-2,2.218047E-2,-2.0986933E-1,3.718709E-2,-6.023278E-4,1.1023364E-2,-2.3134409E-2,-8.133146E-3,5.9151324E-3,1.8702554E-2,-1.1239692E-2,5.0748615E-3,-7.4064382E-3,1.3697758E-2,-1.8197952E-2,-9.043868E-3,2.638042E-3,1.837821E-2,-3.1937794E-3,-2.324553E-2,1.2133387E-2,-7.156069E-3,-6.138979E-3,-2.3164177E-2,2.1796394E-2,3.027532E-3],"categories":[],"categories_nodes":[],"categories_segments":[],"categories_sizes":[],"default_left":[0,0,0,0,0,0,0,0,0,0,0,0,0,0,0,0,0,0,0,0,0,0,0,0,0,0,0,0,0,0,0,0,0,0,0,0,0,0,0,0,0,0,0,0,0,0,0,0,0,0,0],"id":29,"left_children":[1,3,5,7,9,11,13,15,-1,17,19,21,23,25,27,-1,-1,29,31,33,35,37,39,41,43,45,-1,47,49,-1,-1,-1,-1,-1,-1,-1,-1,-1,-1,-1,-1,-1,-1,-1,-1,-1,-1,-1,-1,-1,-1],"loss_changes":[4.039942E-1,4.0876716E-2,7.751938E-1,1.9098938E-1,1.0767235E-1,7.995248E-2,1.2615149E-1,1.2489832E-1,0E0,9.8762155E-2,8.9838356E-2,8.401787E-2,1.4423397E-1,5.9590414E-2,2.9153284E-1,0E0,0E0,1.4170568E-2,2.0345375E-3,5.4125756E-2,9.906104E-2,1.6654241E-1,4.3958306E-2,1.1483073E-2,1.0813579E-1,7.075691E-2,0E0,1.9433498E-3,1.3459319E-1,0E0,0E0,0E0,0E0,0E0,0E0,0E0,0E0,0E0,0E0,0E0,0E0,0E0,0E0,0E0,0E0,0E0,0E0,0E0,0E0,0E0,0E0],"parents":[2147483647,0,0,1,1,2,2,3,3,4,4,5,5,6,6,7,7,9,9,10,10,11,11,12,12,13,13,14,14,17,17,18,18,19,19,20,20,21,21,22,22,23,23,24,24,25,25,27,27,28,28],"right_children":[2,4,6,8,10,12,14,16,-1,18,20,22,24,26,28,-1,-1,30,32,34,36,38,40,42,44,46,-1,48,50,-1,-1,-1,-1,-1,-1,-1,-1,-1,-1,-1,-1,-1,-1,-1,-1,-1,-1,-1,-1,-1,-1],"split_conditions":[4.093171E-1,1.4143664E-1,4.8530304E-1,9.5164604E-2,2.0560412E-1,4.6235913E-1,4.9695262E-1,6.847526E-2,2.7538136E-2,1.8418387E-1,2.891739E-1,4.265535E-1,4.631802E-1,4.9432197E-1,4.99723E-1,9.341437E-3,-2.3134539E-2,1.8406774E-1,1.9069274E-1,2.5870645E-1,3.1140155E-1,4.24331E-1,4.2883375E-1,4.6246067E-1,4.8143536E-1,4.9139166E-1,2.218047E-2,4.972888E-1,5.024481E-1,-6.023278E-4,1.1023364E-2,-2.3134409E-2,-8.133146E-3,5.9151324E-3,1.8702554E-2,-1.1239692E-2,5.0748615E-3,-7.4064382E-3,1.3697758E-2,-1.8197952E-2,-9.043868E-3,2.638042E-3,1.837821E-2,-3.1937794E-3,-2.324553E-2,1.2133387E-2,-7.156069E-3,-6.138979E-3,-2.3164177E-2,2.1796394E-2,3.027532E-3],"split_indices":[0,0,0,0,0,0,0,0,0,0,0,0,0,0,0,0,0,0,0,0,0,0,0,0,0,0,0,0,0,0,0,0,0,0,0,0,0,0,0,0,0,0,0,0,0,0,0,0,0,0,0],"split_type":[0,0,0,0,0,0,0,0,0,0,0,0,0,0,0,0,0,0,0,0,0,0,0,0,0,0,0,0,0,0,0,0,0,0,0,0,0,0,0,0,0,0,0,0,0,0,0,0,0,0,0],"sum_hessian":[3.64E2,1.01E2,2.63E2,6E0,9.5E1,1.36E2,1.27E2,3E0,3E0,6E0,8.9E1,9.9E1,3.7E1,1.1E1,1.16E2,2E0,1E0,3E0,3E0,1.5E1,7.4E1,1.8E1,8.1E1,3E0,3.4E1,7E0,4E0,4E0,1.12E2,2E0,1E0,1E0,2E0,8E0,7E0,3E0,7.1E1,1.4E1,4E0,6E0,7.5E1,1E0,2E0,3.2E1,2E0,5E0,2E0,1E0,3E0,3E0,1.09E2],"tree_param":{"num_deleted":"0","num_feature":"1","num_nodes":"51","size_leaf_vector":"1"}},{"base_weights":[2.8924877E-4,5.0766937E-2,-1.9214591E-2,4.424884E-2,1.3290557E-1,-6.8406425E-2,3.358616E-2,5.228458E-2,-1.1245851E-2,1.6040323E-2,7.218153E-2,-8.336031E-2,-2.7253946E-2,1.2246919E-1,2.4182891E-2,3.9698657E-2,1.0547549E-1,-7.846235E-3,1.4855027E-2,-5.45235E-2,-1.1346427E-1,1.5931514E-1,-4.779744E-2,5.4702036E-2,2.064028E-2,-1.9916809E-1,3.3851672E-2,4.60683E-3,-1.30652115E-2,1.9204734E-2,7.1841513E-4,-8.60114E-3,3.5270613E-2,-1.7368956E-2,-7.792383E-3,4.2078122E-3,1.843681E-2,-2.9945653E-3,-2.2823466E-2,1.0582043E-2,-6.5768757E-3,-4.95366E-3,-2.2419183E-2,2.3015976E-2,2.6405451E-3],"categories":[],"categories_nodes":[],"categories_segments":[],"categories_sizes":[],"default_left":[0,0,0,0,0,0,0,0,0,0,0,0,0,0,0,0,0,0,0,0,0,0,0,0,0,0,0,0,0,0,0,0,0,0,0,0,0,0,0,0,0,0,0,0,0],"id":30,"left_children":[1,3,5,7,9,11,13,15,-1,-1,17,19,21,23,25,27,29,-1,-1,31,33,35,37,39,-1,41,43,-1,-1,-1,-1,-1,-1,-1,-1,-1,-1,-1,-1,-1,-1,-1,-1,-1,-1],"loss_changes":[3.6032116E-1,4.8728615E-2,6.8800217E-1,1.2676875E-1,1.1022389E-4,8.2036376E-2,1.0401957E-1,5.740276E-2,0E0,0E0,5.7673533E-2,8.0623746E-2,1.5326054E-1,5.696465E-2,2.5940734E-1,8.8484526E-2,1.4327775E-1,0E0,0E0,7.099454E-1,8.920622E-2,3.9906725E-3,1.0590481E-1,5.6225866E-2,0E0,7.6159984E-3,1.5910062E-1,0E0,0E0,0E0,0E0,0E0,0E0,0E0,0E0,0E0,0E0,0E0,0E0,0E0,0E0,0E0,0E0,0E0,0E0],"parents":[2147483647,0,0,1,1,2,2,3,3,4,4,5,5,6,6,7,7,10,10,11,11,12,12,13,13,14,14,15,15,16,16,19,19,20,20,21,21,22,22,23,23,25,25,26,26],"right_children":[2,4,6,8,10,12,14,16,-1,-1,18,20,22,24,26,28,30,-1,-1,32,34,36,38,40,-1,42,44,-1,-1,-1,-1,-1,-1,-1,-1,-1,-1,-1,-1,-1,-1,-1,-1,-1,-1],"split_conditions":[4.093171E-1,4.039164E-1,4.8530304E-1,4.0150887E-1,4.0789944E-1,4.6235913E-1,4.9695262E-1,3.902026E-1,-1.1245851E-2,1.6040323E-2,4.080388E-1,4.425521E-1,4.631802E-1,4.9432197E-1,4.99723E-1,3.8732445E-1,3.9442974E-1,-7.846235E-3,1.4855027E-2,4.404435E-1,4.4713488E-1,4.6246067E-1,4.8143536E-1,4.9139166E-1,2.064028E-2,4.972888E-1,5.024481E-1,4.60683E-3,-1.30652115E-2,1.9204734E-2,7.1841513E-4,-8.60114E-3,3.5270613E-2,-1.7368956E-2,-7.792383E-3,4.2078122E-3,1.843681E-2,-2.9945653E-3,-2.2823466E-2,1.0582043E-2,-6.5768757E-3,-4.95366E-3,-2.2419183E-2,2.3015976E-2,2.6405451E-3],"split_indices":[0,0,0,0,0,0,0,0,0,0,0,0,0,0,0,0,0,0,0,0,0,0,0,0,0,0,0,0,0,0,0,0,0,0,0,0,0,0,0,0,0,0,0,0,0],"split_type":[0,0,0,0,0,0,0,0,0,0,0,0,0,0,0,0,0,0,0,0,0,0,0,0,0,0,0,0,0,0,0,0,0,0,0,0,0,0,0,0,0,0,0,0,0],"sum_hessian":[3.64E2,1.01E2,2.63E2,9.5E1,6E0,1.36E2,1.27E2,9.1E1,4E0,3E0,3E0,9.9E1,3.7E1,1.1E1,1.16E2,7.5E1,1.6E1,1E0,2E0,5.2E1,4.7E1,3E0,3.4E1,7E0,4E0,4E0,1.12E2,7.3E1,2E0,8E0,8E0,4.9E1,3E0,1.6E1,3.1E1,1E0,2E0,3.2E1,2E0,5E0,2E0,1E0,3E0,3E0,1.09E2],"tree_param":{"num_deleted":"0","num_feature":"1","num_nodes":"45","size_leaf_vector":"1"}},{"base_weights":[3.8445683E-4,5.1714923E-2,-1.9449225E-2,1.311297E-1,4.5385566E-2,-7.177279E-2,3.184806E-2,-3.990113E-2,2.693781E-2,-6.824351E-2,5.3719096E-2,-8.430189E-2,-3.0376466E-2,1.7622922E-2,8.27452E-2,9.294342E-3,-2.1921739E-2,5.1421642E-2,-1.7084779E-1,1.1854831E-1,3.9172612E-2,-4.0563777E-2,-1.0246731E-1,1.5613055E-1,-5.5054106E-2,2.4513612E-2,-1.0130751E-2,2.0355945E-2,6.625676E-2,2.0929675E-4,9.970384E-3,-2.2172282E-2,-7.998184E-3,5.9632356E-3,1.7001022E-2,-1.1238127E-2,4.704821E-3,-6.1824173E-3,1.1839992E-2,-1.6613951E-2,-7.7231945E-3,2.7657896E-3,1.8973548E-2,-1.7220177E-3,-1.3721615E-2,1.6396957E-2,1.8571394E-3,3.8878922E-3,1.3892503E-2],"categories":[],"categories_nodes":[],"categories_segments":[],"categories_sizes":[],"default_left":[0,0,0,0,0,0,0,0,0,0,0,0,0,0,0,0,0,0,0,0,0,0,0,0,0,0,0,0,0,0,0,0,0,0,0,0,0,0,0,0,0,0,0,0,0,0,0,0,0],"id":31,"left_children":[1,3,5,7,9,11,13,15,-1,17,19,21,23,25,27,-1,-1,29,31,33,35,37,39,41,43,45,-1,-1,47,-1,-1,-1,-1,-1,-1,-1,-1,-1,-1,-1,-1,-1,-1,-1,-1,-1,-1,-1,-1],"loss_changes":[3.7260213E-1,4.5318335E-2,7.1087694E-1,1.7626165E-1,9.457143E-2,6.5383494E-2,9.556033E-2,1.15659565E-1,0E0,9.4732374E-2,8.022949E-2,7.529569E-2,1.5587734E-1,8.935176E-2,4.428193E-2,0E0,0E0,9.318109E-3,7.574335E-4,3.837271E-2,9.480563E-2,1.12088546E-1,9.9644125E-2,1.2021564E-2,8.778399E-2,8.0651306E-2,0E0,0E0,4.8315257E-2,0E0,0E0,0E0,0E0,0E0,0E0,0E0,0E0,0E0,0E0,0E0,0E0,0E0,0E0,0E0,0E0,0E0,0E0,0E0,0E0],"parents":[2147483647,0,0,1,1,2,2,3,3,4,4,5,5,6,6,7,7,9,9,10,10,11,11,12,12,13,13,14,14,17,17,18,18,19,19,20,20,21,21,22,22,23,23,24,24,25,25,28,28],"right_children":[2,4,6,8,10,12,14,16,-1,18,20,22,24,26,28,-1,-1,30,32,34,36,38,40,42,44,46,-1,-1,48,-1,-1,-1,-1,-1,-1,-1,-1,-1,-1,-1,-1,-1,-1,-1,-1,-1,-1,-1,-1],"split_conditions":[4.093171E-1,1.4143664E-1,4.7801968E-1,9.5164604E-2,2.0560412E-1,4.6235913E-1,6.4712214E-1,6.847526E-2,2.693781E-2,1.8418387E-1,2.891739E-1,4.3096206E-1,4.631802E-1,6.300488E-1,6.5637976E-1,9.294342E-3,-2.1921739E-2,1.8406774E-1,1.9069274E-1,2.5870645E-1,3.1140155E-1,4.2984846E-1,4.398016E-1,4.6246067E-1,4.7292545E-1,4.8026446E-1,-1.0130751E-2,2.0355945E-2,8.606986E-1,2.0929675E-4,9.970384E-3,-2.2172282E-2,-7.998184E-3,5.9632356E-3,1.7001022E-2,-1.1238127E-2,4.704821E-3,-6.1824173E-3,1.1839992E-2,-1.6613951E-2,-7.7231945E-3,2.7657896E-3,1.8973548E-2,-1.7220177E-3,-1.3721615E-2,1.6396957E-2,1.8571394E-3,3.8878922E-3,1.3892503E-2],"split_indices":[0,0,0,0,0,0,0,0,0,0,0,0,0,0,0,0,0,0,0,0,0,0,0,0,0,0,0,0,0,0,0,0,0,0,0,0,0,0,0,0,0,0,0,0,0,0,0,0,0],"split_type":[0,0,0,0,0,0,0,0,0,0,0,0,0,0,0,0,0,0,0,0,0,0,0,0,0,0,0,0,0,0,0,0,0,0,0,0,0,0,0,0,0,0,0,0,0,0,0,0,0],"sum_hessian":[3.64E2,1.01E2,2.63E2,6E0,9.5E1,1.3E2,1.33E2,3E0,3E0,6E0,8.9E1,9.9E1,3.1E1,1.05E2,2.8E1,2E0,1E0,3E0,3E0,1.5E1,7.4E1,3E1,6.9E1,3E0,2.8E1,1E2,5E0,2E0,2.6E1,2E0,1E0,1E0,2E0,8E0,7E0,3E0,7.1E1,2.7E1,3E0,1.8E1,5.1E1,1E0,2E0,2E1,8E0,3E0,9.7E1,2E1,6E0],"tree_param":{"num_deleted":"0","num_feature":"1","num_nodes":"49","size_leaf_vector":"1"}},{"base_weights":[-4.538661E-5,4.5903828E-2,-1.779832E-2,-5.382006E-2,4.94694E-2,-6.518859E-2,2.8663794E-2,4.772663E-3,-1.7923007E-2,1.9439416E-2,4.2915564E-2,-1.3907E-2,-7.323427E-2,1.3779908E-2,8.207856E-2,-6.552349E-2,5.087287E-2,-6.548051E-2,1.4359492E-1,-1.18860476E-1,-5.531081E-2,2.2394318E-2,-1.3352597E-2,1.4938906E-1,4.93227E-2,5.871004E-3,-1.7337615E-2,1.2658334E-2,3.4043E-3,-1.2086438E-3,-2.092926E-2,5.64656E-3,2.4605611E-2,-5.8416165E-3,-1.5396128E-2,2.7110932E-2,-7.5270175E-3,1.7240265E-2,1.6043015E-3,1.1132643E-2,2.2694508E-2,2.455795E-4,1.4270568E-2],"categories":[],"categories_nodes":[],"categories_segments":[],"categories_sizes":[],"default_left":[0,0,0,0,0,0,0,0,0,0,0,0,0,0,0,0,0,0,0,0,0,0,0,0,0,0,0,0,0,0,0,0,0,0,0,0,0,0,0,0,0,0,0],"id":32,"left_children":[1,3,5,7,9,11,13,-1,-1,-1,15,17,19,21,23,25,27,29,31,33,35,37,-1,39,41,-1,-1,-1,-1,-1,-1,-1,-1,-1,-1,-1,-1,-1,-1,-1,-1,-1,-1],"loss_changes":[2.985597E-1,3.893085E-2,5.831575E-1,5.9493933E-2,8.568899E-2,5.3031504E-2,1.0540156E-1,0E0,0E0,0E0,8.617015E-2,1.6373828E-1,8.58348E-2,1.3749924E-1,5.6571305E-2,1.0397134E-1,1.10368475E-1,1.12651095E-1,3.0743152E-2,5.677715E-2,5.6116295E-1,9.346173E-2,0E0,1.3028979E-3,9.155753E-2,0E0,0E0,0E0,0E0,0E0,0E0,0E0,0E0,0E0,0E0,0E0,0E0,0E0,0E0,0E0,0E0,0E0,0E0],"parents":[2147483647,0,0,1,1,2,2,3,3,4,4,5,5,6,6,10,10,11,11,12,12,13,13,14,14,15,15,16,16,17,17,18,18,19,19,20,20,21,21,23,23,24,24],"right_children":[2,4,6,8,10,12,14,-1,-1,-1,16,18,20,22,24,26,28,30,32,34,36,38,-1,40,42,-1,-1,-1,-1,-1,-1,-1,-1,-1,-1,-1,-1,-1,-1,-1,-1,-1,-1],"split_conditions":[4.093171E-1,9.5164604E-2,4.7801968E-1,6.847526E-2,1.4143664E-1,4.265535E-1,6.4712214E-1,4.772663E-3,-1.7923007E-2,1.9439416E-2,2.0560412E-1,4.24331E-1,4.398016E-1,6.300488E-1,6.964422E-1,1.8418387E-1,2.891739E-1,4.2009214E-1,4.2637166E-1,4.3096206E-1,4.425521E-1,4.8026446E-1,-1.3352597E-2,6.9187665E-1,8.606986E-1,5.871004E-3,-1.7337615E-2,1.2658334E-2,3.4043E-3,-1.2086438E-3,-2.092926E-2,5.64656E-3,2.4605611E-2,-5.8416165E-3,-1.5396128E-2,2.7110932E-2,-7.5270175E-3,1.7240265E-2,1.6043015E-3,1.1132643E-2,2.2694508E-2,2.455795E-4,1.4270568E-2],"split_indices":[0,0,0,0,0,0,0,0,0,0,0,0,0,0,0,0,0,0,0,0,0,0,0,0,0,0,0,0,0,0,0,0,0,0,0,0,0,0,0,0,0,0,0],"split_type":[0,0,0,0,0,0,0,0,0,0,0,0,0,0,0,0,0,0,0,0,0,0,0,0,0,0,0,0,0,0,0,0,0,0,0,0,0,0,0,0,0,0,0],"sum_hessian":[3.64E2,1.01E2,2.63E2,3E0,9.8E1,1.3E2,1.33E2,2E0,1E0,3E0,9.5E1,1.8E1,1.12E2,1.05E2,2.8E1,6E0,8.9E1,1.4E1,4E0,3E1,8.2E1,1E2,5E0,8E0,2E1,3E0,3E0,1.5E1,7.4E1,1.1E1,3E0,3E0,1E0,1.2E1,1.8E1,4E0,7.8E1,3E0,9.7E1,7E0,1E0,1.4E1,6E0],"tree_param":{"num_deleted":"0","num_feature":"1","num_nodes":"43","size_leaf_vector":"1"}},{"base_weights":[1.7527478E-3,5.6937687E-2,-1.4691534E-2,4.0943198E-2,1.8567586E-1,-5.4602034E-2,3.3752363E-2,5.117035E-2,-1.1451639E-1,2.1138381E-2,6.3798698E-3,7.590528E-3,-6.8373546E-2,1.7754612E-2,8.775315E-2,7.226594E-2,1.5439204E-2,-2.8959215E-3,-1.6190144E-1,-2.5845807E-2,2.2302908E-1,-8.495035E-2,-2.731339E-2,1.2393899E-1,3.2381273E-3,1.4555347E-1,5.8802854E-2,5.0875843E-3,1.5217346E-2,-3.8412125E-3,1.0215599E-2,-1.9896302E-2,-4.388915E-3,1.6394205E-3,-1.2293511E-2,6.427482E-3,2.5452225E-2,-5.8345995E-3,-1.0701362E-2,1.4117816E-2,-4.5789187E-3,5.8370787E-3,2.0406034E-2,-1.9474303E-2,1.4845981E-3,2.0394905E-2,9.973343E-3,-1.19306585E-2,8.3830515E-3],"categories":[],"categories_nodes":[],"categories_segments":[],"categories_sizes":[],"default_left":[0,0,0,0,0,0,0,0,0,0,0,0,0,0,0,0,0,0,0,0,0,0,0,0,0,0,0,0,0,0,0,0,0,0,0,0,0,0,0,0,0,0,0,0,0,0,0,0,0],"id":33,"left_children":[1,3,5,7,9,11,13,15,17,-1,-1,19,21,23,25,27,29,-1,31,33,35,37,39,41,43,45,47,-1,-1,-1,-1,-1,-1,-1,-1,-1,-1,-1,-1,-1,-1,-1,-1,-1,-1,-1,-1,-1,-1],"loss_changes":[3.3206552E-1,1.6536236E-1,5.4706746E-1,1.2669288E-1,1.471287E-2,1.3327429E-1,1.0902001E-1,5.315569E-2,1.5582114E-2,0E0,0E0,2.1466516E-1,8.412176E-2,1.5374108E-1,3.996779E-2,6.9173366E-2,1.3467883E-1,0E0,4.3888465E-3,1.0864282E-1,3.6393106E-3,4.6584368E-2,1.2475901E-1,5.112976E-2,2.074253E-1,3.7406385E-3,1.0361243E-1,0E0,0E0,0E0,0E0,0E0,0E0,0E0,0E0,0E0,0E0,0E0,0E0,0E0,0E0,0E0,0E0,0E0,0E0,0E0,0E0,0E0,0E0],"parents":[2147483647,0,0,1,1,2,2,3,3,4,4,5,5,6,6,7,7,8,8,11,11,12,12,13,13,14,14,15,15,16,16,18,18,19,19,20,20,21,21,22,22,23,23,24,24,25,25,26,26],"right_children":[2,4,6,8,10,12,14,16,18,-1,-1,20,22,24,26,28,30,-1,32,34,36,38,40,42,44,46,48,-1,-1,-1,-1,-1,-1,-1,-1,-1,-1,-1,-1,-1,-1,-1,-1,-1,-1,-1,-1,-1,-1],"split_conditions":[3.9442974E-1,3.902026E-1,4.8530304E-1,3.8483235E-1,3.940226E-1,4.195436E-1,6.4712214E-1,3.4083185E-1,3.8732445E-1,2.1138381E-2,6.3798698E-3,4.1725412E-1,4.6235913E-1,4.9695262E-1,6.964422E-1,3.2421768E-1,3.7014502E-1,-2.8959215E-3,3.8805246E-1,4.093171E-1,4.1751987E-1,4.425521E-1,4.631802E-1,4.9432197E-1,4.99723E-1,6.5637976E-1,7.018462E-1,5.0875843E-3,1.5217346E-2,-3.8412125E-3,1.0215599E-2,-1.9896302E-2,-4.388915E-3,1.6394205E-3,-1.2293511E-2,6.427482E-3,2.5452225E-2,-5.8345995E-3,-1.0701362E-2,1.4117816E-2,-4.5789187E-3,5.8370787E-3,2.0406034E-2,-1.9474303E-2,1.4845981E-3,2.0394905E-2,9.973343E-3,-1.19306585E-2,8.3830515E-3],"split_indices":[0,0,0,0,0,0,0,0,0,0,0,0,0,0,0,0,0,0,0,0,0,0,0,0,0,0,0,0,0,0,0,0,0,0,0,0,0,0,0,0,0,0,0,0,0,0,0,0,0],"split_type":[0,0,0,0,0,0,0,0,0,0,0,0,0,0,0,0,0,0,0,0,0,0,0,0,0,0,0,0,0,0,0,0,0,0,0,0,0,0,0,0,0,0,0,0,0,0,0,0,0],"sum_hessian":[3.64E2,8.3E1,2.81E2,7.5E1,8E0,1.54E2,1.27E2,7.1E1,4E0,6E0,2E0,2.8E1,1.26E2,9.9E1,2.8E1,4.4E1,2.7E1,2E0,2E0,2.5E1,3E0,8.9E1,3.7E1,1.1E1,8.8E1,8E0,2E1,3.6E1,8E0,1.7E1,1E1,1E0,1E0,1.8E1,7E0,1E0,2E0,4.2E1,4.7E1,3E0,3.4E1,7E0,4E0,4E0,8.4E1,2E0,6E0,2E0,1.8E1],"tree_param":{"num_deleted":"0","num_feature":"1","num_nodes":"49","size_leaf_vector":"1"}},{"base_weights":[3.8232407E-4,4.5918353E-2,-1.721259E-2,-6.0498975E-2,4.975422E-2,-6.3897684E-2,2.8555766E-2,5.1816027E-3,-1.98722E-2,2.1449387E-2,4.23718E-2,-1.7496975E-2,-5.9021637E-2,3.8719084E-3,5.715844E-2,-6.284442E-2,5.0084483E-2,1.0879078E-1,-6.8242006E-2,1.7126672E-2,-1.2354825E-1,1.1523034E-1,4.237371E-2,4.545758E-3,-1.5543531E-2,1.1910758E-2,3.4691764E-3,-3.4080723E-3,2.244646E-2,-8.208453E-3,-2.7177378E-3,5.8811746E-4,2.5507024E-2,-2.2162529E-2,5.415857E-4,6.953001E-3,2.2915466E-2,-2.5817335E-2,5.990978E-3],"categories":[],"categories_nodes":[],"categories_segments":[],"categories_sizes":[],"default_left":[0,0,0,0,0,0,0,0,0,0,0,0,0,0,0,0,0,0,0,0,0,0,0,0,0,0,0,0,0,0,0,0,0,0,0,0,0,0,0],"id":34,"left_children":[1,3,5,7,9,11,13,-1,-1,-1,15,-1,17,19,21,23,25,27,29,31,33,35,37,-1,-1,-1,-1,-1,-1,-1,-1,-1,-1,-1,-1,-1,-1,-1,-1],"loss_changes":[2.932293E-1,4.464677E-2,5.6591344E-1,7.239506E-2,1.11313134E-1,6.062156E-2,9.4385944E-2,0E0,0E0,0E0,8.105151E-2,0E0,2.0393035E-1,1.2540743E-1,4.8349053E-2,7.726017E-2,9.148872E-2,1.2333535E-1,6.6550076E-2,1.7777805E-1,8.973922E-2,4.6543404E-2,2.842582E-1,0E0,0E0,0E0,0E0,0E0,0E0,0E0,0E0,0E0,0E0,0E0,0E0,0E0,0E0,0E0,0E0],"parents":[2147483647,0,0,1,1,2,2,3,3,4,4,5,5,6,6,10,10,12,12,13,13,14,14,15,15,16,16,17,17,18,18,19,19,20,20,21,21,22,22],"right_children":[2,4,6,8,10,12,14,-1,-1,-1,16,-1,18,20,22,24,26,28,30,32,34,36,38,-1,-1,-1,-1,-1,-1,-1,-1,-1,-1,-1,-1,-1,-1,-1,-1],"split_conditions":[4.093171E-1,9.5164604E-2,4.7801968E-1,6.847526E-2,1.4143664E-1,4.145001E-1,5.5965114E-1,5.1816027E-3,-1.98722E-2,2.1449387E-2,2.0560412E-1,-1.7496975E-2,4.195436E-1,5.520173E-1,5.8719724E-1,1.8418387E-1,2.891739E-1,4.1725412E-1,4.6235913E-1,5.470934E-1,5.5825037E-1,5.8036643E-1,5.887104E-1,4.545758E-3,-1.5543531E-2,1.1910758E-2,3.4691764E-3,-3.4080723E-3,2.244646E-2,-8.208453E-3,-2.7177378E-3,5.8811746E-4,2.5507024E-2,-2.2162529E-2,5.415857E-4,6.953001E-3,2.2915466E-2,-2.5817335E-2,5.990978E-3],"split_indices":[0,0,0,0,0,0,0,0,0,0,0,0,0,0,0,0,0,0,0,0,0,0,0,0,0,0,0,0,0,0,0,0,0,0,0,0,0,0,0],"split_type":[0,0,0,0,0,0,0,0,0,0,0,0,0,0,0,0,0,0,0,0,0,0,0,0,0,0,0,0,0,0,0,0,0,0,0,0,0,0,0],"sum_hessian":[3.64E2,1.01E2,2.63E2,3E0,9.8E1,1.3E2,1.33E2,2E0,1E0,3E0,9.5E1,4E0,1.26E2,7.2E1,6.1E1,6E0,8.9E1,6E0,1.2E2,6.6E1,6E0,1.1E1,5E1,3E0,3E0,1.5E1,7.4E1,3E0,3E0,8.9E1,3.1E1,6.4E1,2E0,3E0,3E0,9E0,2E0,2E0,4.8E1],"tree_param":{"num_deleted":"0","num_feature":"1","num_nodes":"39","size_leaf_vector":"1"}},{"base_weights":[4.6827176E-4,4.664882E-2,-1.7375987E-2,4.0619344E-2,1.2267464E-1,-6.298787E-2,3.1578735E-2,4.8168465E-2,-1.06408335E-2,1.5252638E-2,6.2154233E-2,-5.891354E-2,-2.2533698E-2,1.2908888E-1,2.1307793E-2,3.6178496E-2,9.8937236E-2,-7.926119E-3,1.357131E-2,-6.469005E-2,1.0421379E-1,5.433173E-2,2.2288254E-2,-2.0179744E-1,3.099114E-2,6.9481493E-3,-1.1784424E-3,2.108898E-2,1.8700404E-3,-1.708936E-2,-5.999944E-3,1.5167183E-2,-4.2809187E-3,1.0933838E-2,-7.379213E-3,-5.54744E-3,-2.245096E-2,2.2284372E-2,2.3732947E-3],"categories":[],"categories_nodes":[],"categories_segments":[],"categories_sizes":[],"default_left":[0,0,0,0,0,0,0,0,0,0,0,0,0,0,0,0,0,0,0,0,0,