{"learner":{"attributes":{"scikit_learn":"{\"_estimator_type\": \"regressor\"}"},"feature_names":[],"feature_types":[],"gradient_booster":{"model":{"gbtree_model_param":{"num_parallel_tree":"1","num_trees":"400"},"iteration_indptr":[0,4,8,12,16,20,24,28,32,36,40,44,48,52,56,60,64,68,72,76,80,84,88,92,96,100,104,108,112,116,120,124,128,132,136,140,144,148,152,156,160,164,168,172,176,180,184,188,192,196,200,204,208,212,216,220,224,228,232,236,240,244,248,252,256,260,264,268,272,276,280,284,288,292,296,300,304,308,312,316,320,324,328,332,336,340,344,348,352,356,360,364,368,372,376,380,384,388,392,396,400],"tree_info":[0,1,2,3,0,1,2,3,0,1,2,3,0,1,2,3,0,1,2,3,0,1,2,3,0,1,2,3,0,1,2,3,0,1,2,3,0,1,2,3,0,1,2,3,0,1,2,3,0,1,2,3,0,1,2,3,0,1,2,3,0,1,2,3,0,1,2,3,0,1,2,3,0,1,2,3,0,1,2,3,0,1,2,3,0,1,2,3,0,1,2,3,0,1,2,3,0,1,2,3,0,1,2,3,0,1,2,3,0,1,2,3,0,1,2,3,0,1,2,3,0,1,2,3,0,1,2,3,0,1,2,3,0,1,2,3,0,1,2,3,0,1,2,3,0,1,2,3,0,1,2,3,0,1,2,3,0,1,2,3,0,1,2,3,0,1,2,3,0,1,2,3,0,1,2,3,0,1,2,3,0,1,2,3,0,1,2,3,0,1,2,3,0,1,2,3,0,1,2,3,0,1,2,3,0,1,2,3,0,1,2,3,0,1,2,3,0,1,2,3,0,1,2,3,0,1,2,3,0,1,2,3,0,1,2,3,0,1,2,3,0,1,2,3,0,1,2,3,0,1,2,3,0,1,2,3,0,1,2,3,0,1,2,3,0,1,2,3,0,1,2,3,0,1,2,3,0,1,2,3,0,1,2,3,0,1,2,3,0,1,2,3,0,1,2,3,0,1,2,3,0,1,2,3,0,1,2,3,0,1,2,3,0,1,2,3,0,1,2,3,0,1,2,3,0,1,2,3,0,1,2,3,0,1,2,3,0,1,2,3,0,1,2,3,0,1,2,3,0,1,2,3,0,1,2,3,0,1,2,3,0,1,2,3,0,1,2,3,0,1,2,3,0,1,2,3,0,1,2,3,0,1,2,3,0,1,2,3,0,1,2,3,0,1,2,3,0,1,2,3],"trees":[{"base_weights":[-3.1905828E-4,-1.4009687E-2,9.16723E-4,3.2835357E-2,-2.5847184E-3,-8.842272E-3,5.6106754E-2,-1.0973749E-2,1.2980573E-2,3.548801E-2,-4.3348648E-2,3.2262355E-2,7.395226E-2,-9.630665E-3,-1.865533E-2,5.3667746E-2,1.1300639E-3,-8.5400156E-4,4.988511E-3,-1.0033227E-2,-4.3006949E-4,4.536727E-3,-3.393471E-3,1.4687739E-2,5.105364E-3,-3.025066E-3,-5.206097E-4,1.7830505E-3,9.723005E-3,-3.984374E-3,6.430911E-4],"categories":[],"categories_nodes":[],"categories_segments":[],"categories_sizes":[],"default_left":[0,0,0,0,0,0,0,0,0,0,0,0,0,0,0,0,0,0,0,0,0,0,0,0,0,0,0,0,0,0,0],"id":0,"left_children":[1,-1,3,5,7,9,11,13,15,17,19,21,23,25,-1,27,29,-1,-1,-1,-1,-1,-1,-1,-1,-1,-1,-1,-1,-1,-1],"loss_changes":[3.1536943E-1,0E0,2.0237267E-1,1.7410761E-1,2.1324527E-1,1.0096737E-1,4.6548396E-2,2.4840629E-1,2.75737E-1,1.8808417E-2,8.189695E-2,4.5782357E-2,1.0104388E-1,9.600374E-2,0E0,1.9965503E-1,9.669119E-2,0E0,0E0,0E0,0E0,0E0,0E0,0E0,0E0,0E0,0E0,0E0,0E0,0E0,0E0],"parents":[2147483647,0,0,2,2,3,3,4,4,5,5,6,6,7,7,8,8,9,9,10,10,11,11,12,12,13,13,15,15,16,16],"right_children":[2,-1,4,6,8,10,12,14,16,18,20,22,24,26,-1,28,30,-1,-1,-1,-1,-1,-1,-1,-1,-1,-1,-1,-1,-1,-1],"split_conditions":[4.3295848E-1,-1.4009687E-2,5.5961615E-1,5.2066433E-1,6.4323676E-1,4.98359E-1,5.424038E-1,6.4272606E-1,6.548789E-1,4.5066854E-1,5.076324E-1,5.392303E-1,5.488864E-1,5.879593E-1,-1.865533E-2,6.487443E-1,6.6043496E-1,-8.5400156E-4,4.988511E-3,-1.0033227E-2,-4.3006949E-4,4.536727E-3,-3.393471E-3,1.4687739E-2,5.105364E-3,-3.025066E-3,-5.206097E-4,1.7830505E-3,9.723005E-3,-3.984374E-3,6.430911E-4],"split_indices":[0,0,0,0,0,0,0,0,0,0,0,0,0,0,0,0,0,0,0,0,0,0,0,0,0,0,0,0,0,0,0],"split_type":[0,0,0,0,0,0,0,0,0,0,0,0,0,0,0,0,0,0,0,0,0,0,0,0,0,0,0,0,0,0,0],"sum_hessian":[1.824E3,1.5E1,1.809E3,1.78E2,1.631E3,6.4E1,1.14E2,1.06E3,5.71E2,2.8E1,3.6E1,5E1,6.4E1,1.053E3,7E0,1.28E2,4.43E2,7E0,2.1E1,1.4E1,2.2E1,4.2E1,8E0,1.4E1,5E1,1.85E2,8.68E2,7.1E1,5.7E1,5E1,3.93E2],"tree_param":{"num_deleted":"0","num_feature":"1","num_nodes":"31","size_leaf_vector":"1"}},{"base_weights":[2.767822E-3,-1.2633731E-2,3.9075534E-3,4.086831E-2,-1.4874701E-4,1.7338872E-2,8.186857E-2,-8.909534E-3,1.6101852E-2,-9.674292E-8,3.9097577E-2,1.579195E-2,5.7895377E-2,-7.56028E-3,-1.8555993E-2,5.6061275E-2,4.455755E-3,4.793476E-3,-3.7570659E-3,5.2224593E-3,-2.796455E-3,-2.1894036E-3,8.8677695E-3,-2.6919653E-3,-3.407917E-4,1.9473815E-3,1.0051362E-2,-3.8855155E-3,1.0050681E-3],"categories":[],"categories_nodes":[],"categories_segments":[],"categories_sizes":[],"default_left":[0,0,0,0,0,0,0,0,0,0,0,0,0,0,0,0,0,0,0,0,0,0,0,0,0,0,0,0,0],"id":1,"left_children":[1,-1,3,5,7,9,11,13,15,17,19,-1,21,23,-1,25,27,-1,-1,-1,-1,-1,-1,-1,-1,-1,-1,-1,-1],"loss_changes":[2.6903367E-1,0E0,2.7136838E-1,1.7126411E-1,2.3248811E-1,4.3386463E-2,1.0936412E-1,2.5148228E-1,2.6594263E-1,1.18862E-1,4.6357036E-2,0E0,1.2720278E-1,8.4636316E-2,0E0,2.0784798E-1,1.0798119E-1,0E0,0E0,0E0,0E0,0E0,0E0,0E0,0E0,0E0,0E0,0E0,0E0],"parents":[2147483647,0,0,2,2,3,3,4,4,5,5,6,6,7,7,8,8,9,9,10,10,12,12,13,13,15,15,16,16],"right_children":[2,-1,4,6,8,10,12,14,16,18,20,-1,22,24,-1,26,28,-1,-1,-1,-1,-1,-1,-1,-1,-1,-1,-1,-1],"split_conditions":[4.3295848E-1,-1.2633731E-2,5.5961615E-1,5.424038E-1,6.4323676E-1,5.2066433E-1,5.488864E-1,6.4272606E-1,6.548789E-1,4.98359E-1,5.392303E-1,1.579195E-2,5.5079097E-1,5.879593E-1,-1.8555993E-2,6.487443E-1,6.6043496E-1,4.793476E-3,-3.7570659E-3,5.2224593E-3,-2.796455E-3,-2.1894036E-3,8.8677695E-3,-2.6919653E-3,-3.407917E-4,1.9473815E-3,1.0051362E-2,-3.8855155E-3,1.0050681E-3],"split_indices":[0,0,0,0,0,0,0,0,0,0,0,0,0,0,0,0,0,0,0,0,0,0,0,0,0,0,0,0,0],"split_type":[0,0,0,0,0,0,0,0,0,0,0,0,0,0,0,0,0,0,0,0,0,0,0,0,0,0,0,0,0],"sum_hessian":[1.824E3,1.5E1,1.809E3,1.78E2,1.631E3,1.14E2,6.4E1,1.06E3,5.71E2,6.4E1,5E1,1.4E1,5E1,1.053E3,7E0,1.28E2,4.43E2,2.8E1,3.6E1,4.2E1,8E0,1.4E1,3.6E1,1.85E2,8.68E2,7.1E1,5.7E1,5E1,3.93E2],"tree_param":{"num_deleted":"0","num_feature":"1","num_nodes":"29","size_leaf_vector":"1"}},{"base_weights":[-2.2728974E-3,-1.5122066E-2,-9.5497636E-4,2.7051136E-2,-4.02614E-3,1.6160703E-3,7.163546E-2,-1.1549422E-2,9.935797E-3,-1.7033981E-2,2.5354056E-2,1.414776E-2,4.9689043E-2,-1.02326255E-2,-1.8359369E-2,5.3056594E-2,-2.6149207E-3,2.3101973E-3,-4.8031514E-3,3.8151026E-3,-3.8604145E-3,-2.2888463E-3,7.7769407E-3,-3.2106657E-3,-5.538952E-4,1.5625035E-3,9.860859E-3,-4.191677E-3,2.4790116E-4],"categories":[],"categories_nodes":[],"categories_segments":[],"categories_sizes":[],"default_left":[0,0,0,0,0,0,0,0,0,0,0,0,0,0,0,0,0,0,0,0,0,0,0,0,0,0,0,0,0],"id":2,"left_children":[1,-1,3,5,7,9,11,13,15,17,19,-1,21,23,-1,25,27,-1,-1,-1,-1,-1,-1,-1,-1,-1,-1,-1,-1],"loss_changes":[3.5810566E-1,0E0,1.5578946E-1,2.0287119E-1,1.7153937E-1,5.1344067E-2,9.260118E-2,2.3848796E-1,3.097034E-1,8.197713E-2,4.321482E-2,0E0,1.0571818E-1,1.080359E-1,0E0,2.1841481E-1,8.899314E-2,0E0,0E0,0E0,0E0,0E0,0E0,0E0,0E0,0E0,0E0,0E0,0E0],"parents":[2147483647,0,0,2,2,3,3,4,4,5,5,6,6,7,7,8,8,9,9,10,10,12,12,13,13,15,15,16,16],"right_children":[2,-1,4,6,8,10,12,14,16,18,20,-1,22,24,-1,26,28,-1,-1,-1,-1,-1,-1,-1,-1,-1,-1,-1,-1],"split_conditions":[4.3295848E-1,-1.5122066E-2,5.5961615E-1,5.424038E-1,6.4323676E-1,5.2066433E-1,5.488864E-1,6.4272606E-1,6.548789E-1,4.98359E-1,5.392303E-1,1.414776E-2,5.5079097E-1,5.879593E-1,-1.8359369E-2,6.487443E-1,6.6043496E-1,2.3101973E-3,-4.8031514E-3,3.8151026E-3,-3.8604145E-3,-2.2888463E-3,7.7769407E-3,-3.2106657E-3,-5.538952E-4,1.5625035E-3,9.860859E-3,-4.191677E-3,2.4790116E-4],"split_indices":[0,0,0,0,0,0,0,0,0,0,0,0,0,0,0,0,0,0,0,0,0,0,0,0,0,0,0,0,0],"split_type":[0,0,0,0,0,0,0,0,0,0,0,0,0,0,0,0,0,0,0,0,0,0,0,0,0,0,0,0,0],"sum_hessian":[1.824E3,1.5E1,1.809E3,1.78E2,1.631E3,1.14E2,6.4E1,1.06E3,5.71E2,6.4E1,5E1,1.4E1,5E1,1.053E3,7E0,1.28E2,4.43E2,2.8E1,3.6E1,4.2E1,8E0,1.4E1,3.6E1,1.85E2,8.68E2,7.1E1,5.7E1,5E1,3.93E2],"tree_param":{"num_deleted":"0","num_feature":"1","num_nodes":"29","size_leaf_vector":"1"}},{"base_weights":[-1.7593204E-4,-1.3624728E-2,1.0270057E-3,3.5109702E-2,-2.7118605E-3,-8.013325E-3,5.9178285E-2,-1.0783103E-2,1.2264188E-2,3.5215586E-2,-4.167887E-2,3.487674E-2,7.7335216E-2,-9.452615E-3,-1.8472705E-2,5.480537E-2,-1.2337152E-4,-1.2825992E-3,5.1084543E-3,-9.604944E-3,-4.4076756E-4,4.8766085E-3,-3.5358642E-3,1.5164538E-2,5.396291E-3,-2.9618852E-3,-5.125373E-4,1.7835252E-3,9.97544E-3,-4.1685947E-3,5.256869E-4],"categories":[],"categories_nodes":[],"categories_segments":[],"categories_sizes":[],"default_left":[0,0,0,0,0,0,0,0,0,0,0,0,0,0,0,0,0,0,0,0,0,0,0,0,0,0,0,0,0,0,0],"id":3,"left_children":[1,-1,3,5,7,9,11,13,15,17,19,21,23,25,-1,27,29,-1,-1,-1,-1,-1,-1,-1,-1,-1,-1,-1,-1,-1,-1],"loss_changes":[2.988657E-1,0E0,2.3074467E-1,1.8626016E-1,1.9740076E-1,9.606386E-2,4.8045546E-2,2.4380146E-1,3.0144018E-1,2.2763934E-2,7.455552E-2,5.1475983E-2,1.0470876E-1,9.182464E-2,0E0,2.125892E-1,9.950493E-2,0E0,0E0,0E0,0E0,0E0,0E0,0E0,0E0,0E0,0E0,0E0,0E0,0E0,0E0],"parents":[2147483647,0,0,2,2,3,3,4,4,5,5,6,6,7,7,8,8,9,9,10,10,11,11,12,12,13,13,15,15,16,16],"right_children":[2,-1,4,6,8,10,12,14,16,18,20,22,24,26,-1,28,30,-1,-1,-1,-1,-1,-1,-1,-1,-1,-1,-1,-1,-1,-1],"split_conditions":[4.3295848E-1,-1.3624728E-2,5.5961615E-1,5.2066433E-1,6.4323676E-1,4.98359E-1,5.424038E-1,6.4272606E-1,6.548789E-1,4.5066854E-1,5.076324E-1,5.392303E-1,5.488864E-1,5.879593E-1,-1.8472705E-2,6.487443E-1,6.6043496E-1,-1.2825992E-3,5.1084543E-3,-9.604944E-3,-4.4076756E-4,4.8766085E-3,-3.5358642E-3,1.5164538E-2,5.396291E-3,-2.9618852E-3,-5.125373E-4,1.7835252E-3,9.97544E-3,-4.1685947E-3,5.256869E-4],"split_indices":[0,0,0,0,0,0,0,0,0,0,0,0,0,0,0,0,0,0,0,0,0,0,0,0,0,0,0,0,0,0,0],"split_type":[0,0,0,0,0,0,0,0,0,0,0,0,0,0,0,0,0,0,0,0,0,0,0,0,0,0,0,0,0,0,0],"sum_hessian":[1.824E3,1.5E1,1.809E3,1.78E2,1.631E3,6.4E1,1.14E2,1.06E3,5.71E2,2.8E1,3.6E1,5E1,6.4E1,1.053E3,7E0,1.28E2,4.43E2,7E0,2.1E1,1.4E1,2.2E1,4.2E1,8E0,1.4E1,5E1,1.85E2,8.68E2,7.1E1,5.7E1,5E1,3.93E2],"tree_param":{"num_deleted":"0","num_feature":"1","num_nodes":"31","size_leaf_vector":"1"}},{"base_weights":[-2.9451714E-4,-1.269628E-2,8.2536513E-4,2.9633425E-2,-2.3348483E-3,-8.05541E-3,5.067813E-2,-9.897295E-3,1.1696779E-2,3.208177E-2,-3.9296567E-2,3.872285E-2,8.326066E-2,-8.67096E-3,-1.7022988E-2,4.839017E-2,1.0095185E-3,-7.7927526E-4,4.512334E-3,-9.096793E-3,-3.889314E-4,5.3531053E-3,-6.788777E-4,1.1158069E-2,6.9790194E-3,-2.724187E-3,-4.68608E-4,1.6072227E-3,8.767468E-3,-3.59375E-3,5.789438E-4],"categories":[],"categories_nodes":[],"categories_segments":[],"categories_sizes":[],"default_left":[0,0,0,0,0,0,0,0,0,0,0,0,0,0,0,0,0,0,0,0,0,0,0,0,0,0,0,0,0,0,0],"id":4,"left_children":[1,-1,3,5,7,9,11,13,15,17,19,21,23,25,-1,27,29,-1,-1,-1,-1,-1,-1,-1,-1,-1,-1,-1,-1,-1,-1],"loss_changes":[2.5898752E-1,0E0,1.6485089E-1,1.4238217E-1,1.732929E-1,8.276629E-2,4.1572213E-2,2.0713948E-1,2.24262E-1,1.5432395E-2,6.73392E-2,5.8322713E-2,3.6572963E-3,7.787132E-2,0E0,1.6236857E-1,7.8620136E-2,0E0,0E0,0E0,0E0,0E0,0E0,0E0,0E0,0E0,0E0,0E0,0E0,0E0,0E0],"parents":[2147483647,0,0,2,2,3,3,4,4,5,5,6,6,7,7,8,8,9,9,10,10,11,11,12,12,13,13,15,15,16,16],"right_children":[2,-1,4,6,8,10,12,14,16,18,20,22,24,26,-1,28,30,-1,-1,-1,-1,-1,-1,-1,-1,-1,-1,-1,-1,-1,-1],"split_conditions":[4.3295848E-1,-1.269628E-2,5.5961615E-1,5.2066433E-1,6.4323676E-1,4.98359E-1,5.5328655E-1,6.4272606E-1,6.548789E-1,4.5066854E-1,5.076324E-1,5.488864E-1,5.547484E-1,5.879593E-1,-1.7022988E-2,6.487443E-1,6.6043496E-1,-7.7927526E-4,4.512334E-3,-9.096793E-3,-3.889314E-4,5.3531053E-3,-6.788777E-4,1.1158069E-2,6.9790194E-3,-2.724187E-3,-4.68608E-4,1.6072227E-3,8.767468E-3,-3.59375E-3,5.789438E-4],"split_indices":[0,0,0,0,0,0,0,0,0,0,0,0,0,0,0,0,0,0,0,0,0,0,0,0,0,0,0,0,0,0,0],"split_type":[0,0,0,0,0,0,0,0,0,0,0,0,0,0,0,0,0,0,0,0,0,0,0,0,0,0,0,0,0,0,0],"sum_hessian":[1.824E3,1.5E1,1.809E3,1.78E2,1.631E3,6.4E1,1.14E2,1.06E3,5.71E2,2.8E1,3.6E1,8.5E1,2.9E1,1.053E3,7E0,1.28E2,4.43E2,7E0,2.1E1,1.4E1,2.2E1,6.4E1,2.1E1,7E0,2.2E1,1.85E2,8.68E2,7.1E1,5.7E1,5E1,3.93E2],"tree_param":{"num_deleted":"0","num_feature":"1","num_nodes":"31","size_leaf_vector":"1"}},{"base_weights":[2.4914942E-3,-1.1449317E-2,3.5242364E-3,3.6926348E-2,-1.4151269E-4,9.362009E-3,6.596724E-2,-8.0389315E-3,1.4507619E-2,1.6283222E-2,-6.6211284E-3,5.3291928E-2,8.827393E-2,-6.8071336E-3,-1.6932344E-2,5.0548162E-2,4.003704E-3,1.5858963E-6,6.360574E-3,8.31101E-3,7.208383E-5,1.1501637E-2,7.513421E-3,3.0444938E-4,-1.4956649E-3,1.7553492E-3,9.063555E-3,-3.5045836E-3,9.048178E-4],"categories":[],"categories_nodes":[],"categories_segments":[],"categories_sizes":[],"default_left":[0,0,0,0,0,0,0,0,0,0,0,0,0,0,0,0,0,0,0,0,0,0,0,0,0,0,0,0,0],"id":5,"left_children":[1,-1,3,5,7,9,11,13,15,17,-1,19,21,23,-1,25,27,-1,-1,-1,-1,-1,-1,-1,-1,-1,-1,-1,-1],"loss_changes":[2.2089085E-1,0E0,2.2162843E-1,1.4267068E-1,1.8892322E-1,4.97226E-2,1.9894421E-2,2.0963615E-1,2.1633783E-1,6.620287E-2,0E0,9.085937E-2,1.9000024E-3,8.466697E-2,0E0,1.6903347E-1,8.777817E-2,0E0,0E0,0E0,0E0,0E0,0E0,0E0,0E0,0E0,0E0,0E0,0E0],"parents":[2147483647,0,0,2,2,3,3,4,4,5,5,6,6,7,7,8,8,9,9,11,11,12,12,13,13,15,15,16,16],"right_children":[2,-1,4,6,8,10,12,14,16,18,-1,20,22,24,-1,26,28,-1,-1,-1,-1,-1,-1,-1,-1,-1,-1,-1,-1],"split_conditions":[4.3295848E-1,-1.1449317E-2,5.5961615E-1,5.334505E-1,6.4323676E-1,5.289828E-1,5.5328655E-1,6.4272606E-1,6.548789E-1,5.2066433E-1,-6.6211284E-3,5.488864E-1,5.547484E-1,6.090477E-1,-1.6932344E-2,6.487443E-1,6.6043496E-1,1.5858963E-6,6.360574E-3,8.31101E-3,7.208383E-5,1.1501637E-2,7.513421E-3,3.0444938E-4,-1.4956649E-3,1.7553492E-3,9.063555E-3,-3.5045836E-3,9.048178E-4],"split_indices":[0,0,0,0,0,0,0,0,0,0,0,0,0,0,0,0,0,0,0,0,0,0,0,0,0,0,0,0,0],"split_type":[0,0,0,0,0,0,0,0,0,0,0,0,0,0,0,0,0,0,0,0,0,0,0,0,0,0,0,0,0],"sum_hessian":[1.824E3,1.5E1,1.809E3,1.78E2,1.631E3,9.2E1,8.6E1,1.06E3,5.71E2,8.5E1,7E0,5.7E1,2.9E1,1.053E3,7E0,1.28E2,4.43E2,6.4E1,2.1E1,3.6E1,2.1E1,7E0,2.2E1,4.77E2,5.76E2,7.1E1,5.7E1,5E1,3.93E2],"tree_param":{"num_deleted":"0","num_feature":"1","num_nodes":"29","size_leaf_vector":"1"}},{"base_weights":[-2.0525444E-3,-1.37043735E-2,-8.581182E-4,2.4441538E-2,-3.6324933E-3,1.4323898E-3,6.477401E-2,-1.0415323E-2,8.955295E-3,-1.5368932E-2,2.2817753E-2,1.2827302E-2,4.4827748E-2,-9.212926E-3,-1.6752923E-2,4.783948E-2,-2.3623074E-3,2.0871449E-3,-4.335818E-3,3.4424637E-3,-3.5172668E-3,-5.507853E-4,8.024626E-3,-2.8913256E-3,-4.985683E-4,1.408423E-3,8.891773E-3,7.149255E-4,-2.0681554E-3],"categories":[],"categories_nodes":[],"categories_segments":[],"categories_sizes":[],"default_left":[0,0,0,0,0,0,0,0,0,0,0,0,0,0,0,0,0,0,0,0,0,0,0,0,0,0,0,0,0],"id":6,"left_children":[1,-1,3,5,7,9,11,13,15,17,19,-1,21,23,-1,25,27,-1,-1,-1,-1,-1,-1,-1,-1,-1,-1,-1,-1],"loss_changes":[2.9413998E-1,0E0,1.2713403E-1,1.6602205E-1,1.3943478E-1,4.1670457E-2,7.657671E-2,1.9889358E-1,2.5183633E-1,6.6837095E-2,3.5538297E-2,0E0,9.1365404E-2,8.763096E-2,0E0,1.7761993E-1,7.751249E-2,0E0,0E0,0E0,0E0,0E0,0E0,0E0,0E0,0E0,0E0,0E0,0E0],"parents":[2147483647,0,0,2,2,3,3,4,4,5,5,6,6,7,7,8,8,9,9,10,10,12,12,13,13,15,15,16,16],"right_children":[2,-1,4,6,8,10,12,14,16,18,20,-1,22,24,-1,26,28,-1,-1,-1,-1,-1,-1,-1,-1,-1,-1,-1,-1],"split_conditions":[4.3295848E-1,-1.37043735E-2,5.5961615E-1,5.424038E-1,6.4323676E-1,5.2066433E-1,5.488864E-1,6.4272606E-1,6.548789E-1,4.98359E-1,5.392303E-1,1.2827302E-2,5.5328655E-1,5.879593E-1,-1.6752923E-2,6.487443E-1,7.005218E-1,2.0871449E-3,-4.335818E-3,3.4424637E-3,-3.5172668E-3,-5.507853E-4,8.024626E-3,-2.8913256E-3,-4.985683E-4,1.408423E-3,8.891773E-3,7.149255E-4,-2.0681554E-3],"split_indices":[0,0,0,0,0,0,0,0,0,0,0,0,0,0,0,0,0,0,0,0,0,0,0,0,0,0,0,0,0],"split_type":[0,0,0,0,0,0,0,0,0,0,0,0,0,0,0,0,0,0,0,0,0,0,0,0,0,0,0,0,0],"sum_hessian":[1.824E3,1.5E1,1.809E3,1.78E2,1.631E3,1.14E2,6.4E1,1.06E3,5.71E2,6.4E1,5E1,1.4E1,5E1,1.053E3,7E0,1.28E2,4.43E2,2.8E1,3.6E1,4.2E1,8E0,2.1E1,2.9E1,1.85E2,8.68E2,7.1E1,5.7E1,2.92E2,1.51E2],"tree_param":{"num_deleted":"0","num_feature":"1","num_nodes":"29","size_leaf_vector":"1"}},{"base_weights":[-1.6478825E-4,-1.23474095E-2,9.2532975E-4,3.1686343E-2,-2.4491476E-3,-7.3076785E-3,5.3450912E-2,-9.725478E-3,1.1051963E-2,3.182596E-2,-3.7782487E-2,4.061466E-2,8.846647E-3,-8.510649E-3,-1.6856343E-2,4.9415994E-2,-1.1923516E-4,4.1059178E-4,5.7424274E-3,-8.708484E-3,-3.9860635E-4,5.637785E-3,-7.804522E-4,8.391971E-5,-1.6241526E-3,1.6076503E-3,8.995095E-3,-3.7599083E-3,4.73252E-4],"categories":[],"categories_nodes":[],"categories_segments":[],"categories_sizes":[],"default_left":[0,0,0,0,0,0,0,0,0,0,0,0,0,0,0,0,0,0,0,0,0,0,0,0,0,0,0,0,0],"id":7,"left_children":[1,-1,3,5,7,9,11,13,15,17,19,21,-1,23,-1,25,27,-1,-1,-1,-1,-1,-1,-1,-1,-1,-1,-1,-1],"loss_changes":[2.4543384E-1,0E0,1.8795986E-1,1.5230574E-1,1.6043277E-1,7.8720815E-2,4.8095882E-2,2.032969E-1,2.451492E-1,2.0342227E-2,6.1303873E-2,6.607871E-2,0E0,7.619939E-2,0E0,1.7288637E-1,8.0916256E-2,0E0,0E0,0E0,0E0,0E0,0E0,0E0,0E0,0E0,0E0,0E0,0E0],"parents":[2147483647,0,0,2,2,3,3,4,4,5,5,6,6,7,7,8,8,9,9,10,10,11,11,13,13,15,15,16,16],"right_children":[2,-1,4,6,8,10,12,14,16,18,20,22,-1,24,-1,26,28,-1,-1,-1,-1,-1,-1,-1,-1,-1,-1,-1,-1],"split_conditions":[4.3295848E-1,-1.23474095E-2,5.5961615E-1,5.2066433E-1,6.4323676E-1,4.98359E-1,5.5328655E-1,6.4272606E-1,6.548789E-1,4.7007507E-1,5.076324E-1,5.488864E-1,8.846647E-3,6.090477E-1,-1.6856343E-2,6.487443E-1,6.6043496E-1,4.1059178E-4,5.7424274E-3,-8.708484E-3,-3.9860635E-4,5.637785E-3,-7.804522E-4,8.391971E-5,-1.6241526E-3,1.6076503E-3,8.995095E-3,-3.7599083E-3,4.73252E-4],"split_indices":[0,0,0,0,0,0,0,0,0,0,0,0,0,0,0,0,0,0,0,0,0,0,0,0,0,0,0,0,0],"split_type":[0,0,0,0,0,0,0,0,0,0,0,0,0,0,0,0,0,0,0,0,0,0,0,0,0,0,0,0,0],"sum_hessian":[1.824E3,1.5E1,1.809E3,1.78E2,1.631E3,6.4E1,1.14E2,1.06E3,5.71E2,2.8E1,3.6E1,8.5E1,2.9E1,1.053E3,7E0,1.28E2,4.43E2,1.4E1,1.4E1,1.4E1,2.2E1,6.4E1,2.1E1,4.77E2,5.76E2,7.1E1,5.7E1,5E1,3.93E2],"tree_param":{"num_deleted":"0","num_feature":"1","num_nodes":"29","size_leaf_vector":"1"}},{"base_weights":[-2.6971445E-4,-1.1506005E-2,7.4515573E-4,2.6765384E-2,-2.1092352E-3,6.4116213E-3,6.2364113E-2,-8.926613E-3,1.0539974E-2,-7.3383776E-3,2.381041E-2,1.2817263E-2,4.1785844E-2,-7.806887E-3,-1.5533477E-2,4.3631587E-2,9.0178027E-4,2.9002316E-3,-3.562329E-3,3.5707452E-3,-3.5676595E-3,-2.7872308E-3,6.8896287E-3,1.6775231E-4,-1.5650459E-3,1.448734E-3,7.905839E-3,1.0529768E-3,-1.7663365E-3],"categories":[],"categories_nodes":[],"categories_segments":[],"categories_sizes":[],"default_left":[0,0,0,0,0,0,0,0,0,0,0,0,0,0,0,0,0,0,0,0,0,0,0,0,0,0,0,0,0],"id":8,"left_children":[1,-1,3,5,7,9,11,13,15,17,19,-1,21,23,-1,25,27,-1,-1,-1,-1,-1,-1,-1,-1,-1,-1,-1,-1],"loss_changes":[2.1269327E-1,0E0,1.344886E-1,1.2929782E-1,1.408287E-1,2.7686564E-2,8.266881E-2,1.7272459E-1,1.823963E-1,6.784622E-2,3.7367597E-2,0E0,9.823193E-2,7.843507E-2,0E0,1.320455E-1,7.954876E-2,0E0,0E0,0E0,0E0,0E0,0E0,0E0,0E0,0E0,0E0,0E0,0E0],"parents":[2147483647,0,0,2,2,3,3,4,4,5,5,6,6,7,7,8,8,9,9,10,10,12,12,13,13,15,15,16,16],"right_children":[2,-1,4,6,8,10,12,14,16,18,20,-1,22,24,-1,26,28,-1,-1,-1,-1,-1,-1,-1,-1,-1,-1,-1,-1],"split_conditions":[4.3295848E-1,-1.1506005E-2,5.5961615E-1,5.424038E-1,6.4323676E-1,5.2066433E-1,5.488864E-1,6.4272606E-1,6.548789E-1,4.98359E-1,5.392303E-1,1.2817263E-2,5.5079097E-1,6.090477E-1,-1.5533477E-2,6.487443E-1,7.005218E-1,2.9002316E-3,-3.562329E-3,3.5707452E-3,-3.5676595E-3,-2.7872308E-3,6.8896287E-3,1.6775231E-4,-1.5650459E-3,1.448734E-3,7.905839E-3,1.0529768E-3,-1.7663365E-3],"split_indices":[0,0,0,0,0,0,0,0,0,0,0,0,0,0,0,0,0,0,0,0,0,0,0,0,0,0,0,0,0],"split_type":[0,0,0,0,0,0,0,0,0,0,0,0,0,0,0,0,0,0,0,0,0,0,0,0,0,0,0,0,0],"sum_hessian":[1.824E3,1.5E1,1.809E3,1.78E2,1.631E3,1.14E2,6.4E1,1.06E3,5.71E2,6.4E1,5E1,1.4E1,5E1,1.053E3,7E0,1.28E2,4.43E2,2.8E1,3.6E1,4.2E1,8E0,1.4E1,3.6E1,4.77E2,5.76E2,7.1E1,5.7E1,2.92E2,1.51E2],"tree_param":{"num_deleted":"0","num_feature":"1","num_nodes":"29","size_leaf_vector":"1"}},{"base_weights":[2.2455081E-3,-1.0375946E-2,3.1813278E-3,3.3385333E-2,-1.3343808E-4,1.3285809E-2,6.8432406E-2,-7.252128E-3,1.3071218E-2,4.330506E-2,3.1266813E-3,1.3542341E-2,4.7387358E-2,-6.127558E-3,-1.54507635E-2,4.5577217E-2,3.597468E-3,-5.737588E-4,5.917034E-3,-8.826398E-3,2.1862753E-3,-1.9917884E-3,7.3392526E-3,-2.4544997E-3,-2.1784546E-4,1.5822513E-3,8.172828E-3,1.2771215E-3,-1.4109804E-3],"categories":[],"categories_nodes":[],"categories_segments":[],"categories_sizes":[],"default_left":[0,0,0,0,0,0,0,0,0,0,0,0,0,0,0,0,0,0,0,0,0,0,0,0,0,0,0,0,0],"id":9,"left_children":[1,-1,3,5,7,9,11,13,15,17,19,-1,21,23,-1,25,27,-1,-1,-1,-1,-1,-1,-1,-1,-1,-1,-1,-1],"loss_changes":[1.8137288E-1,0E0,1.8122022E-1,1.251837E-1,1.5350255E-1,3.4936085E-2,8.522153E-2,1.7475381E-1,1.7598556E-1,2.2903673E-2,1.5089998E-1,0E0,9.072632E-2,7.660645E-2,0E0,1.3746753E-1,7.230446E-2,0E0,0E0,0E0,0E0,0E0,0E0,0E0,0E0,0E0,0E0,0E0,0E0],"parents":[2147483647,0,0,2,2,3,3,4,4,5,5,6,6,7,7,8,8,9,9,10,10,12,12,13,13,15,15,16,16],"right_children":[2,-1,4,6,8,10,12,14,16,18,20,-1,22,24,-1,26,28,-1,-1,-1,-1,-1,-1,-1,-1,-1,-1,-1,-1],"split_conditions":[4.3295848E-1,-1.0375946E-2,5.5961615E-1,5.424038E-1,6.4323676E-1,4.98359E-1,5.488864E-1,6.4272606E-1,6.548789E-1,4.5066854E-1,5.076324E-1,1.3542341E-2,5.5079097E-1,5.879593E-1,-1.54507635E-2,6.487443E-1,7.005218E-1,-5.737588E-4,5.917034E-3,-8.826398E-3,2.1862753E-3,-1.9917884E-3,7.3392526E-3,-2.4544997E-3,-2.1784546E-4,1.5822513E-3,8.172828E-3,1.2771215E-3,-1.4109804E-3],"split_indices":[0,0,0,0,0,0,0,0,0,0,0,0,0,0,0,0,0,0,0,0,0,0,0,0,0,0,0,0,0],"split_type":[0,0,0,0,0,0,0,0,0,0,0,0,0,0,0,0,0,0,0,0,0,0,0,0,0,0,0,0,0],"sum_hessian":[1.824E3,1.5E1,1.809E3,1.78E2,1.631E3,1.14E2,6.4E1,1.06E3,5.71E2,2.8E1,8.6E1,1.4E1,5E1,1.053E3,7E0,1.28E2,4.43E2,7E0,2.1E1,1.4E1,7.2E1,1.4E1,3.6E1,1.85E2,8.68E2,7.1E1,5.7E1,2.92E2,1.51E2],"tree_param":{"num_deleted":"0","num_feature":"1","num_nodes":"29","size_leaf_vector":"1"}},{"base_weights":[-1.8510851E-3,-1.241959E-2,-7.685613E-4,2.2097815E-2,-3.276106E-3,1.2689461E-3,5.8608927E-2,-9.392778E-3,8.075408E-3,-1.3866633E-2,2.053451E-2,1.1630087E-2,4.049151E-2,-8.294852E-3,-1.5287042E-2,4.3135382E-2,-2.1291242E-3,1.8856273E-3,-3.9139544E-3,5.8688773E-3,4.5115786E-4,-4.982111E-4,7.2489115E-3,-2.603747E-3,-4.4876934E-4,1.2695364E-3,8.017928E-3,-3.8508202E-3,2.5852464E-4],"categories":[],"categories_nodes":[],"categories_segments":[],"categories_sizes":[],"default_left":[0,0,0,0,0,0,0,0,0,0,0,0,0,0,0,0,0,0,0,0,0,0,0,0,0,0,0,0,0],"id":10,"left_children":[1,-1,3,5,7,9,11,13,15,17,19,-1,21,23,-1,25,27,-1,-1,-1,-1,-1,-1,-1,-1,-1,-1,-1,-1],"loss_changes":[2.416097E-1,0E0,1.03855E-1,1.3605246E-1,1.1339131E-1,3.381822E-2,6.323069E-2,1.6586897E-1,2.0473665E-1,5.4493215E-2,3.0913722E-2,0E0,7.456855E-2,7.1079746E-2,0E0,1.4444467E-1,7.6247536E-2,0E0,0E0,0E0,0E0,0E0,0E0,0E0,0E0,0E0,0E0,0E0,0E0],"parents":[2147483647,0,0,2,2,3,3,4,4,5,5,6,6,7,7,8,8,9,9,10,10,12,12,13,13,15,15,16,16],"right_children":[2,-1,4,6,8,10,12,14,16,18,20,-1,22,24,-1,26,28,-1,-1,-1,-1,-1,-1,-1,-1,-1,-1,-1,-1],"split_conditions":[4.3295848E-1,-1.241959E-2,5.5961615E-1,5.424038E-1,6.4323676E-1,5.2066433E-1,5.488864E-1,6.4272606E-1,6.548789E-1,4.98359E-1,5.26026E-1,1.1630087E-2,5.5328655E-1,5.879593E-1,-1.5287042E-2,6.487443E-1,6.6043496E-1,1.8856273E-3,-3.9139544E-3,5.8688773E-3,4.5115786E-4,-4.982111E-4,7.2489115E-3,-2.603747E-3,-4.4876934E-4,1.2695364E-3,8.017928E-3,-3.8508202E-3,2.5852464E-4],"split_indices":[0,0,0,0,0,0,0,0,0,0,0,0,0,0,0,0,0,0,0,0,0,0,0,0,0,0,0,0,0],"split_type":[0,0,0,0,0,0,0,0,0,0,0,0,0,0,0,0,0,0,0,0,0,0,0,0,0,0,0,0,0],"sum_hessian":[1.824E3,1.5E1,1.809E3,1.78E2,1.631E3,1.14E2,6.4E1,1.06E3,5.71E2,6.4E1,5E1,1.4E1,5E1,1.053E3,7E0,1.28E2,4.43E2,2.8E1,3.6E1,1.4E1,3.6E1,2.1E1,2.9E1,1.85E2,8.68E2,7.1E1,5.7E1,5E1,3.93E2],"tree_param":{"num_deleted":"0","num_feature":"1","num_nodes":"29","size_leaf_vector":"1"}},{"base_weights":[-1.5525443E-4,-1.118984E-2,8.3261606E-4,2.8577764E-2,-2.21102E-3,7.7377376E-3,6.500892E-2,-8.770263E-3,9.9595515E-3,-6.6223596E-3,2.5888102E-2,1.3222988E-2,4.396337E-2,-7.661039E-3,-1.53814135E-2,4.4556584E-2,-1.1472038E-4,2.8855538E-3,-3.425038E-3,7.2588413E-3,6.255864E-4,-2.7268745E-3,7.1653053E-3,-2.6756374E-3,-3.5650746E-4,1.4491174E-3,8.111095E-3,9.153834E-4,-1.7980322E-3],"categories":[],"categories_nodes":[],"categories_segments":[],"categories_sizes":[],"default_left":[0,0,0,0,0,0,0,0,0,0,0,0,0,0,0,0,0,0,0,0,0,0,0,0,0,0,0,0,0],"id":11,"left_children":[1,-1,3,5,7,9,11,13,15,17,19,-1,21,23,-1,25,27,-1,-1,-1,-1,-1,-1,-1,-1,-1,-1,-1,-1],"loss_changes":[2.0155083E-1,0E0,1.529107E-1,1.3539849E-1,1.3036947E-1,3.0145157E-2,8.614236E-2,1.6952172E-1,1.9936995E-1,6.4700276E-2,4.630431E-2,0E0,1.0254603E-1,8.2342E-2,0E0,1.4059845E-1,7.3685795E-2,0E0,0E0,0E0,0E0,0E0,0E0,0E0,0E0,0E0,0E0,0E0,0E0],"parents":[2147483647,0,0,2,2,3,3,4,4,5,5,6,6,7,7,8,8,9,9,10,10,12,12,13,13,15,15,16,16],"right_children":[2,-1,4,6,8,10,12,14,16,18,20,-1,22,24,-1,26,28,-1,-1,-1,-1,-1,-1,-1,-1,-1,-1,-1,-1],"split_conditions":[4.3295848E-1,-1.118984E-2,5.5961615E-1,5.424038E-1,6.4323676E-1,5.2066433E-1,5.488864E-1,6.4272606E-1,6.548789E-1,4.98359E-1,5.26026E-1,1.3222988E-2,5.5079097E-1,5.879593E-1,-1.53814135E-2,6.487443E-1,7.005218E-1,2.8855538E-3,-3.425038E-3,7.2588413E-3,6.255864E-4,-2.7268745E-3,7.1653053E-3,-2.6756374E-3,-3.5650746E-4,1.4491174E-3,8.111095E-3,9.153834E-4,-1.7980322E-3],"split_indices":[0,0,0,0,0,0,0,0,0,0,0,0,0,0,0,0,0,0,0,0,0,0,0,0,0,0,0,0,0],"split_type":[0,0,0,0,0,0,0,0,0,0,0,0,0,0,0,0,0,0,0,0,0,0,0,0,0,0,0,0,0],"sum_hessian":[1.824E3,1.5E1,1.809E3,1.78E2,1.631E3,1.14E2,6.4E1,1.06E3,5.71E2,6.4E1,5E1,1.4E1,5E1,1.053E3,7E0,1.28E2,4.43E2,2.8E1,3.6E1,1.4E1,3.6E1,1.4E1,3.6E1,1.85E2,8.68E2,7.1E1,5.7E1,2.92E2,1.51E2],"tree_param":{"num_deleted":"0","num_feature":"1","num_nodes":"29","size_leaf_vector":"1"}},{"base_weights":[-2.4468382E-4,-1.0427318E-2,6.7504024E-4,2.4179686E-2,-1.9033952E-3,5.764731E-3,5.6387994E-2,-8.5402625E-3,8.887242E-3,-6.6147298E-3,2.1429442E-2,1.16209835E-1,3.768769E-2,-5.026616E-3,-4.049931E-2,1.6870447E-2,-1.590866E-2,2.620208E-3,-3.215724E-3,6.091613E-3,4.8421518E-4,1.38906315E-2,7.898713E-3,-2.527089E-3,6.2192855E-3,-1.0863512E-3,2.6178933E-3,-1.5126987E-2,-3.0535185E-3,1.4051663E-3,1.7825117E-2,-8.811371E-3,-3.6611827E-4],"categories":[],"categories_nodes":[],"categories_segments":[],"categories_sizes":[],"default_left":[0,0,0,0,0,0,0,0,0,0,0,0,0,0,0,0,0,0,0,0,0,0,0,0,0,0,0,0,0,0,0,0,0],"id":12,"left_children":[1,-1,3,5,7,9,11,13,15,17,19,21,23,25,27,29,31,-1,-1,-1,-1,-1,-1,-1,-1,-1,-1,-1,-1,-1,-1,-1,-1],"loss_changes":[1.7468184E-1,0E0,1.0974146E-1,1.0584244E-1,1.1695325E-1,2.2442628E-2,6.833495E-2,1.13324426E-1,1.2339377E-1,5.5327125E-2,3.3108868E-2,1.7005652E-3,8.0254994E-2,1.6639927E-1,1.0575414E-1,2.1175203E-1,1.3409552E-1,0E0,0E0,0E0,0E0,0E0,0E0,0E0,0E0,0E0,0E0,0E0,0E0,0E0,0E0,0E0,0E0],"parents":[2147483647,0,0,2,2,3,3,4,4,5,5,6,6,7,7,8,8,9,9,10,10,11,11,12,12,13,13,14,14,15,15,16,16],"right_children":[2,-1,4,6,8,10,12,14,16,18,20,22,24,26,28,30,32,-1,-1,-1,-1,-1,-1,-1,-1,-1,-1,-1,-1,-1,-1,-1,-1],"split_conditions":[4.3295848E-1,-1.0427318E-2,5.5961615E-1,5.424038E-1,6.391735E-1,5.2066433E-1,5.488864E-1,6.328198E-1,7.005218E-1,4.98359E-1,5.26026E-1,5.4553455E-1,5.5079097E-1,6.2445605E-1,6.33373E-1,6.9912124E-1,7.070284E-1,2.620208E-3,-3.215724E-3,6.091613E-3,4.8421518E-4,1.38906315E-2,7.898713E-3,-2.527089E-3,6.2192855E-3,-1.0863512E-3,2.6178933E-3,-1.5126987E-2,-3.0535185E-3,1.4051663E-3,1.7825117E-2,-8.811371E-3,-3.6611827E-4],"split_indices":[0,0,0,0,0,0,0,0,0,0,0,0,0,0,0,0,0,0,0,0,0,0,0,0,0,0,0,0,0,0,0,0,0],"split_type":[0,0,0,0,0,0,0,0,0,0,0,0,0,0,0,0,0,0,0,0,0,0,0,0,0,0,0,0,0,0,0,0,0],"sum_hessian":[1.824E3,1.5E1,1.809E3,1.78E2,1.631E3,1.14E2,6.4E1,1.01E3,6.21E2,6.4E1,5E1,1.4E1,5E1,9.11E2,9.9E1,4.7E2,1.51E2,2.8E1,3.6E1,1.4E1,3.6E1,7E0,7E0,1.4E1,3.6E1,7.68E2,1.43E2,7E0,9.2E1,4.63E2,7E0,2.1E1,1.3E2],"tree_param":{"num_deleted":"0","num_feature":"1","num_nodes":"33","size_leaf_vector":"1"}},{"base_weights":[2.0202575E-3,-9.4032E-3,2.868222E-3,3.0145086E-2,-1.2529931E-4,1.19459545E-2,6.187978E-2,-7.0619546E-3,1.1149755E-2,3.91588E-2,2.7376963E-3,1.2278388E-1,4.275348E-2,-3.3571108E-3,-4.0779512E-2,1.8825432E-2,-1.2708095E-2,-5.2355527E-4,5.3522256E-3,-8.002601E-3,1.9706434E-3,1.4556373E-2,8.465606E-3,-1.8058891E-3,6.6251643E-3,-8.0412964E-4,3.4335123E-3,-8.564921E-3,-1.5301228E-3,1.6061487E-3,1.767811E-2,-8.687315E-3,-1.5588776E-5],"categories":[],"categories_nodes":[],"categories_segments":[],"categories_sizes":[],"default_left":[0,0,0,0,0,0,0,0,0,0,0,0,0,0,0,0,0,0,0,0,0,0,0,0,0,0,0,0,0,0,0,0,0],"id":13,"left_children":[1,-1,3,5,7,9,11,13,15,17,19,21,23,25,27,29,31,-1,-1,-1,-1,-1,-1,-1,-1,-1,-1,-1,-1,-1,-1,-1,-1],"loss_changes":[1.4891396E-1,0E0,1.4779729E-1,1.02641135E-1,1.2771937E-1,2.8709825E-2,7.0467114E-2,1.261555E-1,1.14143066E-1,1.8772252E-2,1.2375943E-1,7.0534647E-4,7.407437E-2,1.6129646E-1,1.1300972E-1,2.027902E-1,1.4148861E-1,0E0,0E0,0E0,0E0,0E0,0E0,0E0,0E0,0E0,0E0,0E0,0E0,0E0,0E0,0E0,0E0],"parents":[2147483647,0,0,2,2,3,3,4,4,5,5,6,6,7,7,8,8,9,9,10,10,11,11,12,12,13,13,14,14,15,15,16,16],"right_children":[2,-1,4,6,8,10,12,14,16,18,20,22,24,26,28,30,32,-1,-1,-1,-1,-1,-1,-1,-1,-1,-1,-1,-1,-1,-1,-1,-1],"split_conditions":[4.3295848E-1,-9.4032E-3,5.5961615E-1,5.424038E-1,6.391735E-1,4.98359E-1,5.488864E-1,6.328198E-1,7.005218E-1,4.5066854E-1,5.076324E-1,5.4553455E-1,5.5079097E-1,6.2712497E-1,6.3448995E-1,6.9912124E-1,7.070284E-1,-5.2355527E-4,5.3522256E-3,-8.002601E-3,1.9706434E-3,1.4556373E-2,8.465606E-3,-1.8058891E-3,6.6251643E-3,-8.0412964E-4,3.4335123E-3,-8.564921E-3,-1.5301228E-3,1.6061487E-3,1.767811E-2,-8.687315E-3,-1.5588776E-5],"split_indices":[0,0,0,0,0,0,0,0,0,0,0,0,0,0,0,0,0,0,0,0,0,0,0,0,0,0,0,0,0,0,0,0,0],"split_type":[0,0,0,0,0,0,0,0,0,0,0,0,0,0,0,0,0,0,0,0,0,0,0,0,0,0,0,0,0,0,0,0,0],"sum_hessian":[1.824E3,1.5E1,1.809E3,1.78E2,1.631E3,1.14E2,6.4E1,1.01E3,6.21E2,2.8E1,8.6E1,1.4E1,5E1,9.11E2,9.9E1,4.7E2,1.51E2,7E0,2.1E1,1.4E1,7.2E1,7E0,7E0,1.4E1,3.6E1,8.11E2,1E2,3.5E1,6.4E1,4.63E2,7E0,2.1E1,1.3E2],"tree_param":{"num_deleted":"0","num_feature":"1","num_nodes":"33","size_leaf_vector":"1"}},{"base_weights":[-1.6672929E-3,-1.1255254E-2,-6.861707E-4,2.0014701E-2,-2.9562502E-3,-4.2117797E-3,4.568192E-2,-8.9146895E-3,6.7333616E-3,1.8748321E-3,-6.9116387E-3,3.4652963E-2,6.5481834E-2,-5.418755E-3,-4.070847E-2,1.4986186E-2,-1.8883834E-2,-1.2511164E-3,4.4293697E-3,5.7000434E-3,-4.5065512E-4,8.960187E-3,5.4245223E-3,-1.0666717E-3,2.2644452E-3,-1.4839718E-2,-3.10072E-3,1.2465514E-3,1.5931195E-2,-8.84463E-3,-7.057436E-4],"categories":[],"categories_nodes":[],"categories_segments":[],"categories_sizes":[],"default_left":[0,0,0,0,0,0,0,0,0,0,0,0,0,0,0,0,0,0,0,0,0,0,0,0,0,0,0,0,0,0,0],"id":14,"left_children":[1,-1,3,5,7,9,11,13,15,17,-1,19,21,23,25,27,29,-1,-1,-1,-1,-1,-1,-1,-1,-1,-1,-1,-1,-1,-1],"loss_changes":[1.9846813E-1,0E0,8.511582E-2,1.11499324E-1,9.428349E-2,3.686915E-2,1.6729265E-2,1.1215103E-1,1.3178265E-1,5.30346E-2,0E0,5.1013596E-2,3.270343E-3,1.34556E-1,9.987037E-2,1.6936295E-1,1.2442214E-1,0E0,0E0,0E0,0E0,0E0,0E0,0E0,0E0,0E0,0E0,0E0,0E0,0E0,0E0],"parents":[2147483647,0,0,2,2,3,3,4,4,5,5,6,6,7,7,8,8,9,9,11,11,12,12,13,13,14,14,15,15,16,16],"right_children":[2,-1,4,6,8,10,12,14,16,18,-1,20,22,24,26,28,30,-1,-1,-1,-1,-1,-1,-1,-1,-1,-1,-1,-1,-1,-1],"split_conditions":[4.3295848E-1,-1.1255254E-2,5.5961615E-1,5.334505E-1,6.391735E-1,5.289828E-1,5.5328655E-1,6.328198E-1,7.005218E-1,5.2066433E-1,-6.9116387E-3,5.488864E-1,5.547484E-1,6.2445605E-1,6.33373E-1,6.9912124E-1,7.070284E-1,-1.2511164E-3,4.4293697E-3,5.7000434E-3,-4.5065512E-4,8.960187E-3,5.4245223E-3,-1.0666717E-3,2.2644452E-3,-1.4839718E-2,-3.10072E-3,1.2465514E-3,1.5931195E-2,-8.84463E-3,-7.057436E-4],"split_indices":[0,0,0,0,0,0,0,0,0,0,0,0,0,0,0,0,0,0,0,0,0,0,0,0,0,0,0,0,0,0,0],"split_type":[0,0,0,0,0,0,0,0,0,0,0,0,0,0,0,0,0,0,0,0,0,0,0,0,0,0,0,0,0,0,0],"sum_hessian":[1.824E3,1.5E1,1.809E3,1.78E2,1.631E3,9.2E1,8.6E1,1.01E3,6.21E2,8.5E1,7E0,5.7E1,2.9E1,9.11E2,9.9E1,4.7E2,1.51E2,6.4E1,2.1E1,3.6E1,2.1E1,7E0,2.2E1,7.68E2,1.43E2,7E0,9.2E1,4.63E2,7E0,2.1E1,1.3E2],"tree_param":{"num_deleted":"0","num_feature":"1","num_nodes":"31","size_leaf_vector":"1"}},{"base_weights":[-1.3749879E-4,-1.01407925E-2,7.5778534E-4,2.585969E-2,-1.9958902E-3,7.027836E-3,5.877974E-2,-8.35043E-3,8.336E-3,-5.9684245E-3,2.3453897E-2,1.1988842E-1,3.9654057E-2,-4.7934307E-3,-4.0706765E-2,1.6234603E-2,-1.6194118E-2,2.606949E-3,-3.0917914E-3,3.5725501E-3,-3.7783093E-3,1.4249191E-2,8.229888E-3,-2.4723657E-3,6.4681396E-3,-9.240359E-4,3.100557E-3,-8.446578E-3,-1.5844742E-3,1.3701044E-3,1.6115172E-2,-8.924662E-3,-3.802138E-4],"categories":[],"categories_nodes":[],"categories_segments":[],"categories_sizes":[],"default_left":[0,0,0,0,0,0,0,0,0,0,0,0,0,0,0,0,0,0,0,0,0,0,0,0,0,0,0,0,0,0,0,0,0],"id":15,"left_children":[1,-1,3,5,7,9,11,13,15,17,19,21,23,25,27,29,31,-1,-1,-1,-1,-1,-1,-1,-1,-1,-1,-1,-1,-1,-1,-1,-1],"loss_changes":[1.6554193E-1,0E0,1.2516333E-1,1.10557154E-1,1.0721761E-1,2.4689877E-2,7.121439E-2,1.1616234E-1,1.2077768E-1,5.276244E-2,3.96751E-2,1.0178834E-3,8.377051E-2,1.4547288E-1,1.0745542E-1,1.7072259E-1,1.3726099E-1,0E0,0E0,0E0,0E0,0E0,0E0,0E0,0E0,0E0,0E0,0E0,0E0,0E0,0E0,0E0,0E0],"parents":[2147483647,0,0,2,2,3,3,4,4,5,5,6,6,7,7,8,8,9,9,10,10,11,11,12,12,13,13,14,14,15,15,16,16],"right_children":[2,-1,4,6,8,10,12,14,16,18,20,22,24,26,28,30,32,-1,-1,-1,-1,-1,-1,-1,-1,-1,-1,-1,-1,-1,-1,-1,-1],"split_conditions":[4.3295848E-1,-1.01407925E-2,5.5961615E-1,5.424038E-1,6.391735E-1,5.2066433E-1,5.488864E-1,6.328198E-1,7.005218E-1,4.98359E-1,5.392303E-1,5.4553455E-1,5.5079097E-1,6.2712497E-1,6.3448995E-1,6.9912124E-1,7.070284E-1,2.606949E-3,-3.0917914E-3,3.5725501E-3,-3.7783093E-3,1.4249191E-2,8.229888E-3,-2.4723657E-3,6.4681396E-3,-9.240359E-4,3.100557E-3,-8.446578E-3,-1.5844742E-3,1.3701044E-3,1.6115172E-2,-8.924662E-3,-3.802138E-4],"split_indices":[0,0,0,0,0,0,0,0,0,0,0,0,0,0,0,0,0,0,0,0,0,0,0,0,0,0,0,0,0,0,0,0,0],"split_type":[0,0,0,0,0,0,0,0,0,0,0,0,0,0,0,0,0,0,0,0,0,0,0,0,0,0,0,0,0,0,0,0,0],"sum_hessian":[1.824E3,1.5E1,1.809E3,1.78E2,1.631E3,1.14E2,6.4E1,1.01E3,6.21E2,6.4E1,5E1,1.4E1,5E1,9.11E2,9.9E1,4.7E2,1.51E2,2.8E1,3.6E1,4.2E1,8E0,7E0,7E0,1.4E1,3.6E1,8.11E2,1E2,3.5E1,6.4E1,4.63E2,7E0,2.1E1,1.3E2],"tree_param":{"num_deleted":"0","num_feature":"1","num_nodes":"33","size_leaf_vector":"1"}},{"base_weights":[-2.123069E-4,-9.449757E-3,6.212712E-4,2.1937475E-2,-1.7171E-3,1.7296708E-4,4.4950828E-2,-2.3618657E-2,1.0993524E-3,7.227933E-3,-7.568954E-3,3.4908734E-2,6.286719E-2,6.594142E-3,-5.325878E-2,1.2873289E-1,-1.5098596E-3,-5.962418E-4,4.5870882E-3,5.8842315E-3,-6.929953E-4,9.0347035E-3,5.057562E-3,-6.3342624E-3,1.9789806E-3,-1.14340065E-2,-3.3006996E-3,9.348834E-3,1.5539524E-2,-1.2927034E-3,5.249981E-4],"categories":[],"categories_nodes":[],"categories_segments":[],"categories_sizes":[],"default_left":[0,0,0,0,0,0,0,0,0,0,0,0,0,0,0,0,0,0,0,0,0,0,0,0,0,0,0,0,0,0,0],"id":16,"left_children":[1,-1,3,5,7,9,11,13,15,17,-1,19,21,23,25,27,29,-1,-1,-1,-1,-1,-1,-1,-1,-1,-1,-1,-1,-1,-1],"loss_changes":[1.43493E-1,0E0,9.025747E-2,8.964874E-2,1.0069537E-1,5.0321367E-2,1.3458237E-2,1.6691624E-1,4.8207855E-1,4.4108912E-2,0E0,5.8486044E-2,5.563751E-3,8.7079704E-2,1.1250448E-1,1.2723744E-2,1.0958384E-1,0E0,0E0,0E0,0E0,0E0,0E0,0E0,0E0,0E0,0E0,0E0,0E0,0E0,0E0],"parents":[2147483647,0,0,2,2,3,3,4,4,5,5,6,6,7,7,8,8,9,9,11,11,12,12,13,13,14,14,15,15,16,16],"right_children":[2,-1,4,6,8,10,12,14,16,18,-1,20,22,24,26,28,30,-1,-1,-1,-1,-1,-1,-1,-1,-1,-1,-1,-1,-1,-1],"split_conditions":[4.3295848E-1,-9.449757E-3,5.5961615E-1,5.334505E-1,5.879593E-1,5.289828E-1,5.5328655E-1,5.760129E-1,5.906027E-1,5.2066433E-1,-7.568954E-3,5.488864E-1,5.547484E-1,5.62405E-1,5.787231E-1,5.8948404E-1,6.224969E-1,-5.962418E-4,4.5870882E-3,5.8842315E-3,-6.929953E-4,9.0347035E-3,5.057562E-3,-6.3342624E-3,1.9789806E-3,-1.14340065E-2,-3.3006996E-3,9.348834E-3,1.5539524E-2,-1.2927034E-3,5.249981E-4],"split_indices":[0,0,0,0,0,0,0,0,0,0,0,0,0,0,0,0,0,0,0,0,0,0,0,0,0,0,0,0,0,0,0],"split_type":[0,0,0,0,0,0,0,0,0,0,0,0,0,0,0,0,0,0,0,0,0,0,0,0,0,0,0,0,0,0,0],"sum_hessian":[1.824E3,1.5E1,1.809E3,1.78E2,1.631E3,9.2E1,8.6E1,1.85E2,1.446E3,8.5E1,7E0,5.7E1,2.9E1,9.2E1,9.3E1,2.8E1,1.418E3,6.4E1,2.1E1,3.6E1,2.1E1,7E0,2.2E1,1.4E1,7.8E1,2.2E1,7.1E1,1.4E1,1.4E1,5.27E2,8.91E2],"tree_param":{"num_deleted":"0","num_feature":"1","num_nodes":"31","size_leaf_vector":"1"}},{"base_weights":[1.8293824E-3,-8.52165E-3,2.597838E-3,2.727939E-2,-1.1086021E-4,1.0740893E-2,5.6120124E-2,-6.310484E-3,1.0151462E-2,3.5409424E-2,2.3945908E-3,1.12040274E-1,3.8572624E-2,4.6261568E-3,-1.5961876E-2,3.0248651E-2,2.3431997E-3,-4.7774316E-4,4.841331E-3,-7.2556906E-3,1.776278E-3,1.3282688E-2,7.7248635E-3,-1.6373383E-3,5.9805526E-3,-2.13039E-3,2.1071087E-3,-3.2734608E-3,2.3598348E-6,8.868955E-4,7.2117904E-3,-3.44367E-3,7.0981024E-4],"categories":[],"categories_nodes":[],"categories_segments":[],"categories_sizes":[],"default_left":[0,0,0,0,0,0,0,0,0,0,0,0,0,0,0,0,0,0,0,0,0,0,0,0,0,0,0,0,0,0,0,0,0],"id":17,"left_children":[1,-1,3,5,7,9,11,13,15,17,19,21,23,25,27,29,31,-1,-1,-1,-1,-1,-1,-1,-1,-1,-1,-1,-1,-1,-1,-1,-1],"loss_changes":[1.22297265E-1,0E0,1.2101035E-1,8.477706E-2,1.0389603E-1,2.3592677E-2,5.9460133E-2,1.07527636E-1,9.6437454E-2,1.5386265E-2,1.015014E-1,5.8731437E-4,6.0479045E-2,2.0427667E-1,1.450537E-1,1.533265E-1,7.7893294E-2,0E0,0E0,0E0,0E0,0E0,0E0,0E0,0E0,0E0,0E0,0E0,0E0,0E0,0E0,0E0,0E0],"parents":[2147483647,0,0,2,2,3,3,4,4,5,5,6,6,7,7,8,8,9,9,10,10,11,11,12,12,13,13,14,14,15,15,16,16],"right_children":[2,-1,4,6,8,10,12,14,16,18,20,22,24,26,28,30,32,-1,-1,-1,-1,-1,-1,-1,-1,-1,-1,-1,-1,-1,-1,-1,-1],"split_conditions":[4.3295848E-1,-8.52165E-3,5.5961615E-1,5.424038E-1,6.395987E-1,4.98359E-1,5.488864E-1,6.090477E-1,6.548789E-1,4.5066854E-1,5.076324E-1,5.4553455E-1,5.5079097E-1,5.879593E-1,6.224969E-1,6.487443E-1,6.6043496E-1,-4.7774316E-4,4.841331E-3,-7.2556906E-3,1.776278E-3,1.3282688E-2,7.7248635E-3,-1.6373383E-3,5.9805526E-3,-2.13039E-3,2.1071087E-3,-3.2734608E-3,2.3598348E-6,8.868955E-4,7.2117904E-3,-3.44367E-3,7.0981024E-4],"split_indices":[0,0,0,0,0,0,0,0,0,0,0,0,0,0,0,0,0,0,0,0,0,0,0,0,0,0,0,0,0,0,0,0,0],"split_type":[0,0,0,0,0,0,0,0,0,0,0,0,0,0,0,0,0,0,0,0,0,0,0,0,0,0,0,0,0,0,0,0,0],"sum_hessian":[1.824E3,1.5E1,1.809E3,1.78E2,1.631E3,1.14E2,6.4E1,1.017E3,6.14E2,2.8E1,8.6E1,1.4E1,5E1,4.77E2,5.4E2,1.71E2,4.43E2,7E0,2.1E1,1.4E1,7.2E1,7E0,7E0,1.4E1,3.6E1,1.85E2,2.92E2,2.63E2,2.77E2,1.14E2,5.7E1,5E1,3.93E2],"tree_param":{"num_deleted":"0","num_feature":"1","num_nodes":"33","size_leaf_vector":"1"}},{"base_weights":[-1.5030042E-3,-1.0200073E-2,-6.137961E-4,1.8102057E-2,-2.6662005E-3,3.9707372E-4,4.9147766E-2,-2.2386778E-2,-1.2943911E-4,-1.9635566E-2,1.2191683E-2,1.0012608E-1,3.319046E-2,5.5670086E-3,-4.9805027E-2,1.3021061E-1,-2.7930979E-3,1.8243659E-3,-9.15597E-3,1.8886434E-3,-3.7513939E-3,1.1962746E-2,6.810894E-3,-1.9352557E-3,5.359465E-3,-6.017648E-3,1.797948E-3,-1.1260166E-2,-2.9053255E-3,9.368312E-3,1.580574E-2,-1.3304354E-3,3.4319426E-4],"categories":[],"categories_nodes":[],"categories_segments":[],"categories_sizes":[],"default_left":[0,0,0,0,0,0,0,0,0,0,0,0,0,0,0,0,0,0,0,0,0,0,0,0,0,0,0,0,0,0,0,0,0],"id":18,"left_children":[1,-1,3,5,7,9,11,13,15,17,19,21,23,25,27,29,31,-1,-1,-1,-1,-1,-1,-1,-1,-1,-1,-1,-1,-1,-1,-1,-1],"loss_changes":[1.6302557E-1,0E0,6.957489E-2,9.83703E-2,8.1640184E-2,2.7411263E-2,4.955274E-2,1.4283583E-1,5.027352E-1,1.1882089E-1,2.500048E-2,1.2179762E-3,5.5714156E-2,7.697359E-2,1.1922383E-1,1.4690697E-2,9.2895076E-2,0E0,0E0,0E0,0E0,0E0,0E0,0E0,0E0,0E0,0E0,0E0,0E0,0E0,0E0,0E0,0E0],"parents":[2147483647,0,0,2,2,3,3,4,4,5,5,6,6,7,7,8,8,9,9,10,10,11,11,12,12,13,13,14,14,15,15,16,16],"right_children":[2,-1,4,6,8,10,12,14,16,18,20,22,24,26,28,30,32,-1,-1,-1,-1,-1,-1,-1,-1,-1,-1,-1,-1,-1,-1,-1,-1],"split_conditions":[4.3295848E-1,-1.0200073E-2,5.5961615E-1,5.424038E-1,5.879593E-1,5.076324E-1,5.488864E-1,5.760129E-1,5.906027E-1,4.98359E-1,5.392303E-1,5.4553455E-1,5.5079097E-1,5.62405E-1,5.787231E-1,5.8948404E-1,6.224969E-1,1.8243659E-3,-9.15597E-3,1.8886434E-3,-3.7513939E-3,1.1962746E-2,6.810894E-3,-1.9352557E-3,5.359465E-3,-6.017648E-3,1.797948E-3,-1.1260166E-2,-2.9053255E-3,9.368312E-3,1.580574E-2,-1.3304354E-3,3.4319426E-4],"split_indices":[0,0,0,0,0,0,0,0,0,0,0,0,0,0,0,0,0,0,0,0,0,0,0,0,0,0,0,0,0,0,0,0,0],"split_type":[0,0,0,0,0,0,0,0,0,0,0,0,0,0,0,0,0,0,0,0,0,0,0,0,0,0,0,0,0,0,0,0,0],"sum_hessian":[1.824E3,1.5E1,1.809E3,1.78E2,1.631E3,1.14E2,6.4E1,1.85E2,1.446E3,4.2E1,7.2E1,1.4E1,5E1,9.2E1,9.3E1,2.8E1,1.418E3,2.8E1,1.4E1,6.4E1,8E0,7E0,7E0,1.4E1,3.6E1,1.4E1,7.8E1,2.2E1,7.1E1,1.4E1,1.4E1,5.27E2,8.91E2],"tree_param":{"num_deleted":"0","num_feature":"1","num_nodes":"33","size_leaf_vector":"1"}},{"base_weights":[-1.1499393E-4,-9.190092E-3,6.9643685E-4,2.341776E-2,-1.7960957E-3,6.31904E-3,5.3309068E-2,-2.3176083E-2,9.533679E-4,-5.379051E-3,2.1104468E-2,1.0939817E-1,3.5766996E-2,5.4885577E-3,-5.128923E-2,1.321326E-1,-1.7282045E-3,2.3552428E-3,-2.7909696E-3,6.2479125E-3,3.760569E-4,1.3002385E-2,7.5097727E-3,-8.0888387E-4,6.6735707E-3,-6.002696E-3,1.7858738E-3,-1.14864325E-2,-3.0268168E-3,9.36534E-3,1.6180297E-2,-1.2950118E-3,4.916301E-4],"categories":[],"categories_nodes":[],"categories_segments":[],"categories_sizes":[],"default_left":[0,0,0,0,0,0,0,0,0,0,0,0,0,0,0,0,0,0,0,0,0,0,0,0,0,0,0,0,0,0,0,0,0],"id":19,"left_children":[1,-1,3,5,7,9,11,13,15,17,19,21,23,25,27,29,31,-1,-1,-1,-1,-1,-1,-1,-1,-1,-1,-1,-1,-1,-1,-1,-1],"loss_changes":[1.359862E-1,0E0,1.0254894E-1,9.11506E-2,9.595677E-2,2.000407E-2,6.004192E-2,1.5017018E-1,5.092347E-1,4.3027252E-2,3.6362536E-2,8.4754825E-4,6.980588E-2,7.644281E-2,1.2214641E-1,1.795566E-2,1.0587008E-1,0E0,0E0,0E0,0E0,0E0,0E0,0E0,0E0,0E0,0E0,0E0,0E0,0E0,0E0,0E0,0E0],"parents":[2147483647,0,0,2,2,3,3,4,4,5,5,6,6,7,7,8,8,9,9,10,10,11,11,12,12,13,13,14,14,15,15,16,16],"right_children":[2,-1,4,6,8,10,12,14,16,18,20,22,24,26,28,30,32,-1,-1,-1,-1,-1,-1,-1,-1,-1,-1,-1,-1,-1,-1,-1,-1],"split_conditions":[4.3295848E-1,-9.190092E-3,5.5961615E-1,5.424038E-1,5.879593E-1,5.2066433E-1,5.488864E-1,5.760129E-1,5.906027E-1,4.98359E-1,5.26026E-1,5.4553455E-1,5.5328655E-1,5.62405E-1,5.787231E-1,5.8948404E-1,6.224969E-1,2.3552428E-3,-2.7909696E-3,6.2479125E-3,3.760569E-4,1.3002385E-2,7.5097727E-3,-8.0888387E-4,6.6735707E-3,-6.002696E-3,1.7858738E-3,-1.14864325E-2,-3.0268168E-3,9.36534E-3,1.6180297E-2,-1.2950118E-3,4.916301E-4],"split_indices":[0,0,0,0,0,0,0,0,0,0,0,0,0,0,0,0,0,0,0,0,0,0,0,0,0,0,0,0,0,0,0,0,0],"split_type":[0,0,0,0,0,0,0,0,0,0,0,0,0,0,0,0,0,0,0,0,0,0,0,0,0,0,0,0,0,0,0,0,0],"sum_hessian":[1.824E3,1.5E1,1.809E3,1.78E2,1.631E3,1.14E2,6.4E1,1.85E2,1.446E3,6.4E1,5E1,1.4E1,5E1,9.2E1,9.3E1,2.8E1,1.418E3,2.8E1,3.6E1,1.4E1,3.6E1,7E0,7E0,2.1E1,2.9E1,1.4E1,7.8E1,2.2E1,7.1E1,1.4E1,1.4E1,5.27E2,8.91E2],"tree_param":{"num_deleted":"0","num_feature":"1","num_nodes":"33","size_leaf_vector":"1"}},{"base_weights":[-1.848913E-4,-8.563842E-3,5.7060114E-4,1.9831471E-2,-1.5423072E-3,4.0694815E-3,4.741297E-2,-6.766645E-3,8.150987E-3,7.583982E-3,-3.8166188E-3,1.0054953E-1,3.0854903E-2,-5.7229176E-3,-1.4343187E-2,3.7425738E-2,-3.728718E-4,1.1720501E-5,5.33724E-3,1.2160331E-2,6.6927047E-3,-2.2265483E-3,5.155628E-3,3.4583273E-4,-1.3318952E-3,1.115537E-3,6.939195E-3,-3.5338884E-3,4.1541317E-4],"categories":[],"categories_nodes":[],"categories_segments":[],"categories_sizes":[],"default_left":[0,0,0,0,0,0,0,0,0,0,0,0,0,0,0,0,0,0,0,0,0,0,0,0,0,0,0,0,0],"id":20,"left_children":[1,-1,3,5,7,9,11,13,15,17,-1,19,21,23,-1,25,27,-1,-1,-1,-1,-1,-1,-1,-1,-1,-1,-1,-1],"loss_changes":[1.1786995E-1,0E0,7.369116E-2,7.762539E-2,8.270134E-2,1.735974E-2,5.4087058E-2,1.5052149E-1,1.4274731E-1,3.657618E-2,0E0,2.4796575E-3,5.723084E-2,7.355313E-2,0E0,1.0755549E-1,7.0428126E-2,0E0,0E0,0E0,0E0,0E0,0E0,0E0,0E0,0E0,0E0,0E0,0E0],"parents":[2147483647,0,0,2,2,3,3,4,4,5,5,6,6,7,7,8,8,9,9,11,11,12,12,13,13,15,15,16,16],"right_children":[2,-1,4,6,8,10,12,14,16,18,-1,20,22,24,-1,26,28,-1,-1,-1,-1,-1,-1,-1,-1,-1,-1,-1,-1],"split_conditions":[4.3295848E-1,-8.563842E-3,5.5961615E-1,5.424038E-1,6.4323676E-1,5.392303E-1,5.488864E-1,6.4272606E-1,6.548789E-1,5.334505E-1,-3.8166188E-3,5.4553455E-1,5.5079097E-1,6.090477E-1,-1.4343187E-2,6.487443E-1,6.6043496E-1,1.1720501E-5,5.33724E-3,1.2160331E-2,6.6927047E-3,-2.2265483E-3,5.155628E-3,3.4583273E-4,-1.3318952E-3,1.115537E-3,6.939195E-3,-3.5338884E-3,4.1541317E-4],"split_indices":[0,0,0,0,0,0,0,0,0,0,0,0,0,0,0,0,0,0,0,0,0,0,0,0,0,0,0,0,0],"split_type":[0,0,0,0,0,0,0,0,0,0,0,0,0,0,0,0,0,0,0,0,0,0,0,0,0,0,0,0,0],"sum_hessian":[1.824E3,1.5E1,1.809E3,1.78E2,1.631E3,1.14E2,6.4E1,1.06E3,5.71E2,1.06E2,8E0,1.4E1,5E1,1.053E3,7E0,1.28E2,4.43E2,9.2E1,1.4E1,7E0,7E0,1.4E1,3.6E1,4.77E2,5.76E2,7.1E1,5.7E1,5E1,3.93E2],"tree_param":{"num_deleted":"0","num_feature":"1","num_nodes":"29","size_leaf_vector":"1"}},{"base_weights":[1.65619E-3,-7.722746E-3,2.352589E-3,2.2688814E-2,-4.7549783E-4,-1.8417189E-3,3.270025E-2,-3.3168707E-2,2.0720593E-3,3.2018952E-2,-2.8331386E-2,2.8987005E-2,9.823607E-3,8.053562E-3,-6.500205E-2,5.821663E-2,-8.0657494E-4,-4.3594168E-4,4.3792045E-3,-6.5784915E-3,-2.673374E-4,3.9466578E-3,-5.294605E-4,-3.252275E-3,6.301882E-3,-1.1037157E-2,-3.922295E-3,-1.1642833E-3,1.0560191E-2,-5.725311E-3,1.3185763E-4],"categories":[],"categories_nodes":[],"categories_segments":[],"categories_sizes":[],"default_left":[0,0,0,0,0,0,0,0,0,0,0,0,0,0,0,0,0,0,0,0,0,0,0,0,0,0,0,0,0,0,0],"id":21,"left_children":[1,-1,3,5,7,9,11,13,15,17,19,21,-1,23,25,27,29,-1,-1,-1,-1,-1,-1,-1,-1,-1,-1,-1,-1,-1,-1],"loss_changes":[1.0043713E-1,0E0,1.0410861E-1,5.4334722E-2,1.3249637E-1,5.9209406E-2,3.5358444E-2,1.5143135E-1,2.385976E-1,1.2611197E-2,3.5380505E-2,5.409746E-2,0E0,1.1579421E-1,7.169396E-2,2.395719E-1,1.6861567E-1,0E0,0E0,0E0,0E0,0E0,0E0,0E0,0E0,0E0,0E0,0E0,0E0,0E0,0E0],"parents":[2147483647,0,0,2,2,3,3,4,4,5,5,6,6,7,7,8,8,9,9,10,10,11,11,13,13,14,14,15,15,16,16],"right_children":[2,-1,4,6,8,10,12,14,16,18,20,22,-1,24,26,28,30,-1,-1,-1,-1,-1,-1,-1,-1,-1,-1,-1,-1,-1,-1],"split_conditions":[4.3295848E-1,-7.722746E-3,5.6768996E-1,5.2066433E-1,5.849835E-1,4.98359E-1,5.6607294E-1,5.760129E-1,5.9118336E-1,4.5066854E-1,5.076324E-1,5.5961615E-1,9.823607E-3,5.734107E-1,5.787231E-1,5.879593E-1,5.9574413E-1,-4.3594168E-4,4.3792045E-3,-6.5784915E-3,-2.673374E-4,3.9466578E-3,-5.294605E-4,-3.252275E-3,6.301882E-3,-1.1037157E-2,-3.922295E-3,-1.1642833E-3,1.0560191E-2,-5.725311E-3,1.3185763E-4],"split_indices":[0,0,0,0,0,0,0,0,0,0,0,0,0,0,0,0,0,0,0,0,0,0,0,0,0,0,0,0,0,0,0],"split_type":[0,0,0,0,0,0,0,0,0,0,0,0,0,0,0,0,0,0,0,0,0,0,0,0,0,0,0,0,0,0,0],"sum_hessian":[1.824E3,1.5E1,1.809E3,2.2E2,1.589E3,6.4E1,1.56E2,1.14E2,1.475E3,2.8E1,3.6E1,1.49E2,7E0,5E1,6.4E1,7.1E1,1.404E3,7E0,2.1E1,1.4E1,2.2E1,1.14E2,3.5E1,2.9E1,2.1E1,2.2E1,4.2E1,2.9E1,4.2E1,5E1,1.354E3],"tree_param":{"num_deleted":"0","num_feature":"1","num_nodes":"31","size_leaf_vector":"1"}},{"base_weights":[-1.3479927E-3,-9.243815E-3,-5.420311E-4,7.1330597E-3,-4.900748E-3,2.361079E-3,5.6293122E-2,-3.1878266E-2,3.0891239E-3,4.7394694E-3,-8.459775E-2,4.3796085E-2,1.1946632E-2,-9.4299175E-2,-2.6095804E-2,3.3502657E-2,-1.4104203E-3,1.0884345E-4,3.068727E-3,-5.043029E-3,-1.0556907E-2,1.1888461E-2,2.8807612E-3,-5.8312025E-3,-1.4998767E-2,-1.3398592E-3,-6.636452E-3,1.4211806E-3,1.5197656E-2,-4.0253787E-3,4.3123294E-4],"categories":[],"categories_nodes":[],"categories_segments":[],"categories_sizes":[],"default_left":[0,0,0,0,0,0,0,0,0,0,0,0,0,0,0,0,0,0,0,0,0,0,0,0,0,0,0,0,0,0,0],"id":22,"left_children":[1,-1,3,5,7,9,11,13,15,17,19,21,-1,23,25,27,29,-1,-1,-1,-1,-1,-1,-1,-1,-1,-1,-1,-1,-1,-1],"loss_changes":[1.3393259E-1,0E0,6.0585875E-2,1.537587E-1,2.4905516E-1,1.24287374E-1,4.0557563E-2,9.282905E-2,1.2211481E-1,5.5292606E-2,6.140709E-3,5.2848324E-2,0E0,3.534344E-2,1.2335685E-1,2.606683E-1,1.731159E-1,0E0,0E0,0E0,0E0,0E0,0E0,0E0,0E0,0E0,0E0,0E0,0E0,0E0,0E0],"parents":[2147483647,0,0,2,2,3,3,4,4,5,5,6,6,7,7,8,8,9,9,10,10,11,11,13,13,14,14,15,15,16,16],"right_children":[2,-1,4,6,8,10,12,14,16,18,20,22,-1,24,26,28,30,-1,-1,-1,-1,-1,-1,-1,-1,-1,-1,-1,-1,-1,-1],"split_conditions":[4.3295848E-1,-9.243815E-3,6.090477E-1,6.0600036E-1,6.224969E-1,6.0522896E-1,6.085157E-1,6.0988045E-1,6.294624E-1,5.997184E-1,6.054953E-1,6.062695E-1,1.1946632E-2,6.094107E-1,6.198494E-1,6.2875587E-1,6.3503367E-1,1.0884345E-4,3.068727E-3,-5.043029E-3,-1.0556907E-2,1.1888461E-2,2.8807612E-3,-5.8312025E-3,-1.4998767E-2,-1.3398592E-3,-6.636452E-3,1.4211806E-3,1.5197656E-2,-4.0253787E-3,4.3123294E-4],"split_indices":[0,0,0,0,0,0,0,0,0,0,0,0,0,0,0,0,0,0,0,0,0,0,0,0,0,0,0,0,0,0,0],"split_type":[0,0,0,0,0,0,0,0,0,0,0,0,0,0,0,0,0,0,0,0,0,0,0,0,0,0,0,0,0,0,0],"sum_hessian":[1.824E3,1.5E1,1.809E3,6.55E2,1.154E3,5.98E2,5.7E1,2.63E2,8.91E2,5.83E2,1.5E1,4.9E1,8E0,2.1E1,2.42E2,1.14E2,7.77E2,5.12E2,7.1E1,7E0,8E0,7E0,4.2E1,1.4E1,7E0,1.85E2,5.7E1,9.9E1,1.5E1,9.9E1,6.78E2],"tree_param":{"num_deleted":"0","num_feature":"1","num_nodes":"31","size_leaf_vector":"1"}},{"base_weights":[-8.739018E-5,-8.328522E-3,6.481084E-4,1.9028073E-2,-1.9069987E-3,8.907063E-4,3.1956345E-2,-3.4371067E-2,6.2367547E-4,7.831864E-3,-7.383808E-3,2.7543196E-2,9.526231E-3,1.081128E-3,-6.165862E-2,5.37667E-2,-2.1001121E-3,-4.8478573E-4,4.4938684E-3,4.278541E-3,-1.005724E-3,-3.7543743E-3,5.3702267E-3,-1.038773E-2,-3.7642617E-3,-1.1525725E-3,9.806917E-3,-5.427183E-3,-1.3490355E-5],"categories":[],"categories_nodes":[],"categories_segments":[],"categories_sizes":[],"default_left":[0,0,0,0,0,0,0,0,0,0,0,0,0,0,0,0,0,0,0,0,0,0,0,0,0,0,0,0,0],"id":23,"left_children":[1,-1,3,5,7,9,11,13,15,17,-1,19,-1,21,23,25,27,-1,-1,-1,-1,-1,-1,-1,-1,-1,-1,-1,-1],"loss_changes":[1.1172916E-1,0E0,8.5038915E-2,5.179266E-2,1.3064946E-1,4.8817784E-2,3.3416018E-2,1.1131807E-1,2.1376437E-1,4.068121E-2,0E0,7.03502E-2,0E0,1.056729E-1,6.199485E-2,2.0939861E-1,1.4404495E-1,0E0,0E0,0E0,0E0,0E0,0E0,0E0,0E0,0E0,0E0,0E0,0E0],"parents":[2147483647,0,0,2,2,3,3,4,4,5,5,6,6,7,7,8,8,9,9,11,11,13,13,14,14,15,15,16,16],"right_children":[2,-1,4,6,8,10,12,14,16,18,-1,20,-1,22,24,26,28,-1,-1,-1,-1,-1,-1,-1,-1,-1,-1,-1,-1],"split_conditions":[4.3295848E-1,-8.328522E-3,5.6768996E-1,5.334505E-1,5.849835E-1,5.289828E-1,5.6607294E-1,5.760129E-1,5.9118336E-1,5.2066433E-1,-7.383808E-3,5.5961615E-1,9.526231E-3,5.734107E-1,5.787231E-1,5.879593E-1,5.9574413E-1,-4.8478573E-4,4.4938684E-3,4.278541E-3,-1.005724E-3,-3.7543743E-3,5.3702267E-3,-1.038773E-2,-3.7642617E-3,-1.1525725E-3,9.806917E-3,-5.427183E-3,-1.3490355E-5],"split_indices":[0,0,0,0,0,0,0,0,0,0,0,0,0,0,0,0,0,0,0,0,0,0,0,0,0,0,0,0,0],"split_type":[0,0,0,0,0,0,0,0,0,0,0,0,0,0,0,0,0,0,0,0,0,0,0,0,0,0,0,0,0],"sum_hessian":[1.824E3,1.5E1,1.809E3,2.2E2,1.589E3,9.2E1,1.28E2,1.14E2,1.475E3,8.5E1,7E0,1.21E2,7E0,5E1,6.4E1,7.1E1,1.404E3,6.4E1,2.1E1,8.6E1,3.5E1,2.9E1,2.1E1,2.2E1,4.2E1,2.9E1,4.2E1,5E1,1.354E3],"tree_param":{"num_deleted":"0","num_feature":"1","num_nodes":"29","size_leaf_vector":"1"}},{"base_weights":[-1.6401206E-4,-7.7609816E-3,5.206823E-4,1.6088758E-2,-1.6435098E-3,1.3176944E-2,9.19687E-3,-3.4119345E-2,8.8790245E-4,-5.3868704E-3,2.1133417E-2,3.4962252E-3,-6.310818E-2,5.105917E-2,-1.6837838E-3,2.4236601E-3,-2.8459674E-3,3.10288E-3,-1.1063877E-3,-3.596209E-3,5.71441E-3,-1.0373398E-2,-3.9910483E-3,-1.5018574E-3,9.59725E-3,-5.606342E-3,3.6422014E-5],"categories":[],"categories_nodes":[],"categories_segments":[],"categories_sizes":[],"default_left":[0,0,0,0,0,0,0,0,0,0,0,0,0,0,0,0,0,0,0,0,0,0,0,0,0,0,0],"id":24,"left_children":[1,-1,3,5,7,9,-1,11,13,15,17,19,21,23,25,-1,-1,-1,-1,-1,-1,-1,-1,-1,-1,-1,-1],"loss_changes":[9.681415E-2,0E0,6.1009515E-2,4.761771E-2,1.3074376E-1,3.1722173E-2,0E0,1.2562029E-1,1.9052652E-1,4.5117043E-2,4.8133984E-2,1.100146E-1,5.711758E-2,2.1512091E-1,1.5649489E-1,0E0,0E0,0E0,0E0,0E0,0E0,0E0,0E0,0E0,0E0,0E0,0E0],"parents":[2147483647,0,0,2,2,3,3,4,4,5,5,7,7,8,8,9,9,10,10,11,11,12,12,13,13,14,14],"right_children":[2,-1,4,6,8,10,-1,12,14,16,18,20,22,24,26,-1,-1,-1,-1,-1,-1,-1,-1,-1,-1,-1,-1],"split_conditions":[4.3295848E-1,-7.7609816E-3,5.6768996E-1,5.6607294E-1,5.849835E-1,5.2066433E-1,9.19687E-3,5.760129E-1,5.9118336E-1,4.98359E-1,5.5961615E-1,5.734107E-1,5.787231E-1,5.879593E-1,5.9574413E-1,2.4236601E-3,-2.8459674E-3,3.10288E-3,-1.1063877E-3,-3.596209E-3,5.71441E-3,-1.0373398E-2,-3.9910483E-3,-1.5018574E-3,9.59725E-3,-5.606342E-3,3.6422014E-5],"split_indices":[0,0,0,0,0,0,0,0,0,0,0,0,0,0,0,0,0,0,0,0,0,0,0,0,0,0,0],"split_type":[0,0,0,0,0,0,0,0,0,0,0,0,0,0,0,0,0,0,0,0,0,0,0,0,0,0,0],"sum_hessian":[1.824E3,1.5E1,1.809E3,2.2E2,1.589E3,2.13E2,7E0,1.14E2,1.475E3,6.4E1,1.49E2,5E1,6.4E1,7.1E1,1.404E3,2.8E1,3.6E1,1.14E2,3.5E1,2.9E1,2.1E1,2.2E1,4.2E1,2.9E1,4.2E1,5E1,1.354E3],"tree_param":{"num_deleted":"0","num_feature":"1","num_nodes":"27","size_leaf_vector":"1"}},{"base_weights":[1.4875708E-3,-6.9987397E-3,2.118572E-3,2.046671E-2,-4.330363E-4,-1.7022046E-3,2.951456E-2,-2.9955402E-2,1.8674415E-3,2.8953025E-2,-2.568327E-2,2.6111085E-2,8.964039E-3,7.307999E-3,-5.8731988E-2,5.2525472E-2,-7.2988635E-4,-3.977962E-4,3.9611883E-3,-5.9644976E-3,-2.4176702E-4,3.5554238E-3,-4.779844E-4,-2.937889E-3,5.700339E-3,-9.981427E-3,-3.5391878E-3,-1.0517356E-3,9.528732E-3,-1.2410478E-2,6.546357E-6],"categories":[],"categories_nodes":[],"categories_segments":[],"categories_sizes":[],"default_left":[0,0,0,0,0,0,0,0,0,0,0,0,0,0,0,0,0,0,0,0,0,0,0,0,0,0,0,0,0,0,0],"id":25,"left_children":[1,-1,3,5,7,9,11,13,15,17,19,21,-1,23,25,27,29,-1,-1,-1,-1,-1,-1,-1,-1,-1,-1,-1,-1,-1,-1],"loss_changes":[8.2457185E-2,0E0,8.4748104E-2,4.437864E-2,1.0804165E-1,4.852804E-2,2.9787377E-2,1.2374527E-1,1.9424379E-1,1.0336768E-2,2.909096E-2,4.3926097E-2,0E0,9.4656326E-2,5.8793604E-2,1.9510174E-1,1.3787545E-1,0E0,0E0,0E0,0E0,0E0,0E0,0E0,0E0,0E0,0E0,0E0,0E0,0E0,0E0],"parents":[2147483647,0,0,2,2,3,3,4,4,5,5,6,6,7,7,8,8,9,9,10,10,11,11,13,13,14,14,15,15,16,16],"right_children":[2,-1,4,6,8,10,12,14,16,18,20,22,-1,24,26,28,30,-1,-1,-1,-1,-1,-1,-1,-1,-1,-1,-1,-1,-1,-1],"split_conditions":[4.3295848E-1,-6.9987397E-3,5.6768996E-1,5.2066433E-1,5.849835E-1,4.98359E-1,5.6607294E-1,5.760129E-1,5.9118336E-1,4.5066854E-1,5.076324E-1,5.5961615E-1,8.964039E-3,5.734107E-1,5.787231E-1,5.879593E-1,5.9257317E-1,-3.977962E-4,3.9611883E-3,-5.9644976E-3,-2.4176702E-4,3.5554238E-3,-4.779844E-4,-2.937889E-3,5.700339E-3,-9.981427E-3,-3.5391878E-3,-1.0517356E-3,9.528732E-3,-1.2410478E-2,6.546357E-6],"split_indices":[0,0,0,0,0,0,0,0,0,0,0,0,0,0,0,0,0,0,0,0,0,0,0,0,0,0,0,0,0,0,0],"split_type":[0,0,0,0,0,0,0,0,0,0,0,0,0,0,0,0,0,0,0,0,0,0,0,0,0,0,0,0,0,0,0],"sum_hessian":[1.824E3,1.5E1,1.809E3,2.2E2,1.589E3,6.4E1,1.56E2,1.14E2,1.475E3,2.8E1,3.6E1,1.49E2,7E0,5E1,6.4E1,7.1E1,1.404E3,7E0,2.1E1,1.4E1,2.2E1,1.14E2,3.5E1,2.9E1,2.1E1,2.2E1,4.2E1,2.9E1,4.2E1,8E0,1.396E3],"tree_param":{"num_deleted":"0","num_feature":"1","num_nodes":"31","size_leaf_vector":"1"}},{"base_weights":[-1.2190761E-3,-8.377208E-3,-4.886523E-4,1.446534E-2,-2.5668559E-3,-1.0839525E-2,2.484974E-2,-3.257739E-2,-2.2689768E-4,1.6377104E-2,-3.1878516E-2,2.1289496E-2,8.849814E-3,3.2305364E-3,-6.0171653E-2,5.3794414E-2,-2.995088E-3,-3.2582579E-3,3.3436213E-3,-8.3115725E-3,2.9230714E-4,3.1429918E-3,-1.1694892E-3,-3.2970104E-3,5.2448204E-3,-1.0193519E-2,-3.6433674E-3,-1.0887822E-3,9.767052E-3,-5.478611E-3,-1.0435475E-4],"categories":[],"categories_nodes":[],"categories_segments":[],"categories_sizes":[],"default_left":[0,0,0,0,0,0,0,0,0,0,0,0,0,0,0,0,0,0,0,0,0,0,0,0,0,0,0,0,0,0,0],"id":26,"left_children":[1,-1,3,5,7,9,11,13,15,17,19,21,-1,23,25,27,29,-1,-1,-1,-1,-1,-1,-1,-1,-1,-1,-1,-1,-1,-1],"loss_changes":[1.1000414E-1,0E0,5.6287304E-2,5.8342822E-2,1.11647815E-1,3.7741758E-2,3.3692718E-2,1.13825105E-1,2.2088404E-1,2.5310483E-2,6.621899E-2,5.0538912E-2,0E0,9.2596486E-2,6.0725972E-2,2.0539977E-1,1.419494E-1,0E0,0E0,0E0,0E0,0E0,0E0,0E0,0E0,0E0,0E0,0E0,0E0,0E0,0E0],"parents":[2147483647,0,0,2,2,3,3,4,4,5,5,6,6,7,7,8,8,9,9,10,10,11,11,13,13,14,14,15,15,16,16],"right_children":[2,-1,4,6,8,10,12,14,16,18,20,22,-1,24,26,28,30,-1,-1,-1,-1,-1,-1,-1,-1,-1,-1,-1,-1,-1,-1],"split_conditions":[4.3295848E-1,-8.377208E-3,5.6768996E-1,5.2066433E-1,5.849835E-1,4.98359E-1,5.6607294E-1,5.760129E-1,5.9118336E-1,4.5066854E-1,5.076324E-1,5.5961615E-1,8.849814E-3,5.734107E-1,5.787231E-1,5.879593E-1,5.9574413E-1,-3.2582579E-3,3.3436213E-3,-8.3115725E-3,2.9230714E-4,3.1429918E-3,-1.1694892E-3,-3.2970104E-3,5.2448204E-3,-1.0193519E-2,-3.6433674E-3,-1.0887822E-3,9.767052E-3,-5.478611E-3,-1.0435475E-4],"split_indices":[0,0,0,0,0,0,0,0,0,0,0,0,0,0,0,0,0,0,0,0,0,0,0,0,0,0,0,0,0,0,0],"split_type":[0,0,0,0,0,0,0,0,0,0,0,0,0,0,0,0,0,0,0,0,0,0,0,0,0,0,0,0,0,0,0],"sum_hessian":[1.824E3,1.5E1,1.809E3,2.2E2,1.589E3,6.4E1,1.56E2,1.14E2,1.475E3,2.8E1,3.6E1,1.49E2,7E0,5E1,6.4E1,7.1E1,1.404E3,7E0,2.1E1,1.4E1,2.2E1,1.14E2,3.5E1,2.9E1,2.1E1,2.2E1,4.2E1,2.9E1,4.2E1,5E1,1.354E3],"tree_param":{"num_deleted":"0","num_feature":"1","num_nodes":"31","size_leaf_vector":"1"}},{"base_weights":[-8.315161E-5,-7.547722E-3,5.833612E-4,1.7167911E-2,-1.7221536E-3,7.653536E-4,2.8859925E-2,-3.104297E-2,5.6349405E-4,7.0953015E-3,-6.7377253E-3,2.48157E-2,8.692686E-3,1.0046986E-3,-5.571048E-2,4.8510224E-2,-1.8939637E-3,-4.3705222E-4,4.0649087E-3,3.8556047E-3,-9.0794655E-4,-3.3914514E-3,4.8576137E-3,-9.394122E-3,-3.3965886E-3,-1.0411569E-3,8.849031E-3,-1.2039832E-2,-1.1291582E-4],"categories":[],"categories_nodes":[],"categories_segments":[],"categories_sizes":[],"default_left":[0,0,0,0,0,0,0,0,0,0,0,0,0,0,0,0,0,0,0,0,0,0,0,0,0,0,0,0,0],"id":27,"left_children":[1,-1,3,5,7,9,11,13,15,17,-1,19,-1,21,23,25,27,-1,-1,-1,-1,-1,-1,-1,-1,-1,-1,-1,-1],"loss_changes":[9.1752306E-2,0E0,6.9236584E-2,4.236106E-2,1.0657462E-1,4.0592607E-2,2.813667E-2,9.096764E-2,1.7400461E-1,3.3263728E-2,0E0,5.716929E-2,0E0,8.6366445E-2,5.0844476E-2,1.7053157E-1,1.2720308E-1,0E0,0E0,0E0,0E0,0E0,0E0,0E0,0E0,0E0,0E0,0E0,0E0],"parents":[2147483647,0,0,2,2,3,3,4,4,5,5,6,6,7,7,8,8,9,9,11,11,13,13,14,14,15,15,16,16],"right_children":[2,-1,4,6,8,10,12,14,16,18,-1,20,-1,22,24,26,28,-1,-1,-1,-1,-1,-1,-1,-1,-1,-1,-1,-1],"split_conditions":[4.3295848E-1,-7.547722E-3,5.6768996E-1,5.334505E-1,5.849835E-1,5.289828E-1,5.6607294E-1,5.760129E-1,5.9118336E-1,5.2066433E-1,-6.7377253E-3,5.5961615E-1,8.692686E-3,5.734107E-1,5.787231E-1,5.879593E-1,5.9257317E-1,-4.3705222E-4,4.0649087E-3,3.8556047E-3,-9.0794655E-4,-3.3914514E-3,4.8576137E-3,-9.394122E-3,-3.3965886E-3,-1.0411569E-3,8.849031E-3,-1.2039832E-2,-1.1291582E-4],"split_indices":[0,0,0,0,0,0,0,0,0,0,0,0,0,0,0,0,0,0,0,0,0,0,0,0,0,0,0,0,0],"split_type":[0,0,0,0,0,0,0,0,0,0,0,0,0,0,0,0,0,0,0,0,0,0,0,0,0,0,0,0,0],"sum_hessian":[1.824E3,1.5E1,1.809E3,2.2E2,1.589E3,9.2E1,1.28E2,1.14E2,1.475E3,8.5E1,7E0,1.21E2,7E0,5E1,6.4E1,7.1E1,1.404E3,6.4E1,2.1E1,8.6E1,3.5E1,2.9E1,2.1E1,2.2E1,4.2E1,2.9E1,4.2E1,8E0,1.396E3],"tree_param":{"num_deleted":"0","num_feature":"1","num_nodes":"29","size_leaf_vector":"1"}},{"base_weights":[-1.5128458E-4,-7.03339E-3,4.6919784E-4,1.4528624E-2,-1.485269E-3,1.186661E-2,8.392143E-3,-3.0813904E-2,8.008274E-4,-1.0680118E-2,1.7434299E-2,3.1881377E-3,-5.701837E-2,4.6065696E-2,-1.5193658E-3,2.18965E-3,-7.2949566E-3,2.4512962E-3,-9.988229E-4,-3.2485747E-3,5.1689427E-3,-9.38116E-3,-3.6012258E-3,-1.3566775E-3,8.659845E-3,-6.7420164E-3,-8.147089E-6],"categories":[],"categories_nodes":[],"categories_segments":[],"categories_sizes":[],"default_left":[0,0,0,0,0,0,0,0,0,0,0,0,0,0,0,0,0,0,0,0,0,0,0,0,0,0,0],"id":28,"left_children":[1,-1,3,5,7,9,-1,11,13,15,17,19,21,23,25,-1,-1,-1,-1,-1,-1,-1,-1,-1,-1,-1,-1],"loss_changes":[7.950642E-2,0E0,4.975799E-2,3.982829E-2,1.06631145E-1,2.7050303E-2,0E0,1.026474E-1,1.550843E-1,8.882405E-2,3.3632584E-2,8.992087E-2,4.6859026E-2,1.7520376E-1,1.331301E-1,0E0,0E0,0E0,0E0,0E0,0E0,0E0,0E0,0E0,0E0,0E0,0E0],"parents":[2147483647,0,0,2,2,3,3,4,4,5,5,7,7,8,8,9,9,10,10,11,11,12,12,13,13,14,14],"right_children":[2,-1,4,6,8,10,-1,12,14,16,18,20,22,24,26,-1,-1,-1,-1,-1,-1,-1,-1,-1,-1,-1,-1],"split_conditions":[4.3295848E-1,-7.03339E-3,5.6768996E-1,5.6607294E-1,5.849835E-1,5.076324E-1,8.392143E-3,5.760129E-1,5.9118336E-1,4.98359E-1,5.5961615E-1,5.734107E-1,5.787231E-1,5.879593E-1,5.9399503E-1,2.18965E-3,-7.2949566E-3,2.4512962E-3,-9.988229E-4,-3.2485747E-3,5.1689427E-3,-9.38116E-3,-3.6012258E-3,-1.3566775E-3,8.659845E-3,-6.7420164E-3,-8.147089E-6],"split_indices":[0,0,0,0,0,0,0,0,0,0,0,0,0,0,0,0,0,0,0,0,0,0,0,0,0,0,0],"split_type":[0,0,0,0,0,0,0,0,0,0,0,0,0,0,0,0,0,0,0,0,0,0,0,0,0,0,0],"sum_hessian":[1.824E3,1.5E1,1.809E3,2.2E2,1.589E3,2.13E2,7E0,1.14E2,1.475E3,4.2E1,1.71E2,5E1,6.4E1,7.1E1,1.404E3,2.8E1,1.4E1,1.36E2,3.5E1,2.9E1,2.1E1,2.2E1,4.2E1,2.9E1,4.2E1,2.9E1,1.375E3],"tree_param":{"num_deleted":"0","num_feature":"1","num_nodes":"27","size_leaf_vector":"1"}},{"base_weights":[1.3320739E-3,-6.342606E-2,1.9037856E-3,-4.5558433E-3,-7.5598895E-3,1.8031703E-2,-5.1405083E-4,-1.5726447E-3,2.5335489E-2,-3.2863982E-2,1.6780272E-3,2.6180608E-2,-2.3282692E-2,5.949704E-2,2.1931952E-2,4.526232E-3,-5.306681E-2,4.739066E-2,-6.6573615E-4,-3.6298856E-4,3.5830762E-3,-5.407812E-3,-2.1864248E-4,7.1799792E-3,3.975716E-3,-3.2415416E-3,2.744083E-3,-6.4761527E-3,5.156215E-3,-9.026683E-3,-3.1935012E-3,-9.500689E-4,8.598019E-3,-4.96987E-3,1.1802764E-4],"categories":[],"categories_nodes":[],"categories_segments":[],"categories_sizes":[],"default_left":[0,0,0,0,0,0,0,0,0,0,0,0,0,0,0,0,0,0,0,0,0,0,0,0,0,0,0,0,0,0,0,0,0,0,0],"id":29,"left_children":[1,3,5,-1,-1,7,9,11,13,15,17,19,21,23,25,27,29,31,33,-1,-1,-1,-1,-1,-1,-1,-1,-1,-1,-1,-1,-1,-1,-1,-1],"loss_changes":[6.768769E-2,3.5829842E-5,7.058962E-2,0E0,0E0,3.383173E-2,1.11744024E-1,3.9773643E-2,1.8693559E-2,7.577898E-2,1.581696E-1,8.472661E-3,2.39195E-2,7.882714E-4,4.819361E-2,1.2066372E-1,4.821405E-2,1.5888642E-1,1.2723291E-1,0E0,0E0,0E0,0E0,0E0,0E0,0E0,0E0,0E0,0E0,0E0,0E0,0E0,0E0,0E0,0E0],"parents":[2147483647,0,0,1,1,2,2,5,5,6,6,7,7,8,8,9,9,10,10,11,11,12,12,13,13,14,14,15,15,16,16,17,17,18,18],"right_children":[2,4,6,-1,-1,8,10,12,14,16,18,20,22,24,26,28,30,32,34,-1,-1,-1,-1,-1,-1,-1,-1,-1,-1,-1,-1,-1,-1,-1,-1],"split_conditions":[4.3295848E-1,3.9248523E-1,5.71185E-1,-4.5558433E-3,-7.5598895E-3,5.2066433E-1,5.849835E-1,4.98359E-1,5.26026E-1,5.760129E-1,5.9118336E-1,4.5066854E-1,5.076324E-1,5.2400774E-1,5.334505E-1,5.734107E-1,5.787231E-1,5.879593E-1,5.9574413E-1,-3.6298856E-4,3.5830762E-3,-5.407812E-3,-2.1864248E-4,7.1799792E-3,3.975716E-3,-3.2415416E-3,2.744083E-3,-6.4761527E-3,5.156215E-3,-9.026683E-3,-3.1935012E-3,-9.500689E-4,8.598019E-3,-4.96987E-3,1.1802764E-4],"split_indices":[0,0,0,0,0,0,0,0,0,0,0,0,0,0,0,0,0,0,0,0,0,0,0,0,0,0,0,0,0,0,0,0,0,0,0],"split_type":[0,0,0,0,0,0,0,0,0,0,0,0,0,0,0,0,0,0,0,0,0,0,0,0,0,0,0,0,0,0,0,0,0,0,0],"sum_hessian":[1.824E3,1.5E1,1.809E3,8E0,7E0,2.35E2,1.574E3,6.4E1,1.71E2,9.9E1,1.475E3,2.8E1,3.6E1,1.4E1,1.57E2,3.5E1,6.4E1,7.1E1,1.404E3,7E0,2.1E1,1.4E1,2.2E1,7E0,7E0,1.4E1,1.43E2,1.4E1,2.1E1,2.2E1,4.2E1,2.9E1,4.2E1,5E1,1.354E3],"tree_param":{"num_deleted":"0","num_feature":"1","num_nodes":"35","size_leaf_vector":"1"}},{"base_weights":[-1.1049835E-3,-7.591846E-3,-4.430385E-4,1.1405301E-3,-1.7723942E-2,-2.9765422E-4,8.1986666E-2,-8.0643296E-2,-7.0220344E-3,-3.4167406E-3,9.536559E-3,2.5615146E-2,1.4927346E-2,-4.3404005E-2,-1.4038657E-2,-4.6377078E-5,-5.3797245E-2,-2.5194572E-4,-1.4117129E-2,3.6992074E-3,-3.8645658E-4,-5.532567E-3,1.4478584E-2,-1.18984645E-2,3.7602135E-3,-1.6371403E-3,6.9708116E-3,-6.911182E-3,-3.6165863E-3],"categories":[],"categories_nodes":[],"categories_segments":[],"categories_sizes":[],"default_left":[0,0,0,0,0,0,0,0,0,0,0,0,0,0,0,0,0,0,0,0,0,0,0,0,0,0,0,0,0],"id":30,"left_children":[1,-1,3,5,7,9,11,13,15,17,19,-1,21,23,-1,25,27,-1,-1,-1,-1,-1,-1,-1,-1,-1,-1,-1,-1],"loss_changes":[9.034476E-2,0E0,4.9551763E-2,1.9291906E-1,1.0178399E-1,5.0061487E-2,3.3487818E-1,4.2852208E-2,4.2741213E-2,1.5279077E-1,1.4474131E-1,0E0,2.0871527E-1,9.63115E-2,0E0,1.3209677E-1,2.0908006E-3,0E0,0E0,0E0,0E0,0E0,0E0,0E0,0E0,0E0,0E0,0E0,0E0],"parents":[2147483647,0,0,2,2,3,3,4,4,5,5,6,6,7,7,8,8,9,9,10,10,12,12,13,13,15,15,16,16],"right_children":[2,-1,4,6,8,10,12,14,16,18,20,-1,22,24,-1,26,28,-1,-1,-1,-1,-1,-1,-1,-1,-1,-1,-1,-1],"split_conditions":[4.3295848E-1,-7.591846E-3,7.005218E-1,6.9413817E-1,7.070284E-1,6.4323676E-1,6.9504184E-1,7.049565E-1,8.0355215E-1,6.4272606E-1,6.548789E-1,2.5615146E-2,6.9912124E-1,7.0268315E-1,-1.4038657E-2,7.6263666E-1,8.5766786E-1,-2.5194572E-4,-1.4117129E-2,3.6992074E-3,-3.8645658E-4,-5.532567E-3,1.4478584E-2,-1.18984645E-2,3.7602135E-3,-1.6371403E-3,6.9708116E-3,-6.911182E-3,-3.6165863E-3],"split_indices":[0,0,0,0,0,0,0,0,0,0,0,0,0,0,0,0,0,0,0,0,0,0,0,0,0,0,0,0,0],"split_type":[0,0,0,0,0,0,0,0,0,0,0,0,0,0,0,0,0,0,0,0,0,0,0,0,0,0,0,0,0],"sum_hessian":[1.824E3,1.5E1,1.809E3,1.658E3,1.51E2,1.63E3,2.8E1,2.1E1,1.3E2,1.238E3,3.92E2,7E0,2.1E1,1.4E1,7E0,1.14E2,1.6E1,1.231E3,7E0,1.28E2,2.64E2,1.4E1,7E0,7E0,7E0,9.3E1,2.1E1,7E0,9E0],"tree_param":{"num_deleted":"0","num_feature":"1","num_nodes":"29","size_leaf_vector":"1"}},{"base_weights":[-8.287995E-5,-6.840122E-2,5.210848E-4,-4.7600144E-3,-8.325227E-3,7.9678465E-3,-3.7088692E-3,3.330662E-3,5.5721395E-2,-3.1604897E-2,4.5515127E-3,5.6819306E-3,-8.2698815E-2,4.3642327E-2,1.1663607E-2,-9.524458E-2,-2.571322E-2,3.651654E-2,-1.7924496E-4,2.169886E-4,3.0626336E-3,-4.6576033E-3,-1.056192E-2,1.1936496E-2,2.8539458E-3,-6.1412207E-3,-1.46774715E-2,-1.2704028E-3,-6.698902E-3,1.7279538E-3,1.5446551E-2,-3.9127464E-3,5.5571337E-4],"categories":[],"categories_nodes":[],"categories_segments":[],"categories_sizes":[],"default_left":[0,0,0,0,0,0,0,0,0,0,0,0,0,0,0,0,0,0,0,0,0,0,0,0,0,0,0,0,0,0,0,0,0],"id":31,"left_children":[1,3,5,-1,-1,7,9,11,13,15,17,19,21,23,-1,25,27,29,31,-1,-1,-1,-1,-1,-1,-1,-1,-1,-1,-1,-1,-1,-1],"loss_changes":[7.533855E-2,9.798706E-4,5.7043575E-2,0E0,0E0,1.4508037E-1,2.6629263E-1,1.2163466E-1,3.758569E-2,9.653631E-2,1.3489369E-1,5.109536E-2,8.327849E-3,5.377484E-2,0E0,2.9340744E-2,1.2963143E-1,2.5826412E-1,1.7403956E-1,0E0,0E0,0E0,0E0,0E0,0E0,0E0,0E0,0E0,0E0,0E0,0E0,0E0,0E0],"parents":[2147483647,0,0,1,1,2,2,5,5,6,6,7,7,8,8,9,9,10,10,11,11,12,12,13,13,15,15,16,16,17,17,18,18],"right_children":[2,4,6,-1,-1,8,10,12,14,16,18,20,22,24,-1,26,28,30,32,-1,-1,-1,-1,-1,-1,-1,-1,-1,-1,-1,-1,-1,-1],"split_conditions":[4.3295848E-1,3.9248523E-1,6.090477E-1,-4.7600144E-3,-8.325227E-3,6.0600036E-1,6.224969E-1,6.0522896E-1,6.085157E-1,6.0988045E-1,6.294624E-1,5.997184E-1,6.054953E-1,6.062695E-1,1.1663607E-2,6.094107E-1,6.198494E-1,6.2875587E-1,6.3503367E-1,2.169886E-4,3.0626336E-3,-4.6576033E-3,-1.056192E-2,1.1936496E-2,2.8539458E-3,-6.1412207E-3,-1.46774715E-2,-1.2704028E-3,-6.698902E-3,1.7279538E-3,1.5446551E-2,-3.9127464E-3,5.5571337E-4],"split_indices":[0,0,0,0,0,0,0,0,0,0,0,0,0,0,0,0,0,0,0,0,0,0,0,0,0,0,0,0,0,0,0,0,0],"split_type":[0,0,0,0,0,0,0,0,0,0,0,0,0,0,0,0,0,0,0,0,0,0,0,0,0,0,0,0,0,0,0,0,0],"sum_hessian":[1.824E3,1.5E1,1.809E3,8E0,7E0,6.55E2,1.154E3,5.98E2,5.7E1,2.63E2,8.91E2,5.83E2,1.5E1,4.9E1,8E0,2.1E1,2.42E2,1.14E2,7.77E2,5.12E2,7.1E1,7E0,8E0,7E0,4.2E1,1.4E1,7E0,1.85E2,5.7E1,9.9E1,1.5E1,9.9E1,6.78E2],"tree_param":{"num_deleted":"0","num_feature":"1","num_nodes":"33","size_leaf_vector":"1"}},{"base_weights":[-1.4318012E-4,-6.3740113E-3,4.1908177E-4,6.94364E-3,-3.287004E-3,2.460393E-3,5.3125042E-2,-3.0463962E-2,4.7600856E-3,4.872719E-3,-8.5743286E-2,4.1402243E-2,1.1234891E-2,-2.0119669E-2,-6.6857144E-2,3.558473E-2,1.9762514E-4,1.1547392E-4,3.129565E-3,-5.342003E-3,-1.0494804E-2,1.1595666E-2,2.6568812E-3,-9.033159E-3,-1.1706863E-3,-9.729589E-3,-4.6951477E-3,1.5933048E-3,1.5618369E-2,-3.654015E-3,5.607905E-4],"categories":[],"categories_nodes":[],"categories_segments":[],"categories_sizes":[],"default_left":[0,0,0,0,0,0,0,0,0,0,0,0,0,0,0,0,0,0,0,0,0,0,0,0,0,0,0,0,0,0,0],"id":32,"left_children":[1,-1,3,5,7,9,11,13,15,17,19,21,-1,23,25,27,29,-1,-1,-1,-1,-1,-1,-1,-1,-1,-1,-1,-1,-1,-1],"loss_changes":[6.5285295E-2,0E0,4.378966E-2,1.3568924E-1,2.527382E-1,1.2787065E-1,3.561613E-2,9.8040745E-2,1.2544046E-1,5.7335973E-2,4.3258294E-3,5.221407E-2,0E0,1.2121313E-1,3.0574203E-2,2.7005833E-1,1.5484148E-1,0E0,0E0,0E0,0E0,0E0,0E0,0E0,0E0,0E0,0E0,0E0,0E0,0E0,0E0],"parents":[2147483647,0,0,2,2,3,3,4,4,5,5,6,6,7,7,8,8,9,9,10,10,11,11,13,13,14,14,15,15,16,16],"right_children":[2,-1,4,6,8,10,12,14,16,18,20,22,-1,24,26,28,30,-1,-1,-1,-1,-1,-1,-1,-1,-1,-1,-1,-1,-1,-1],"split_conditions":[4.3295848E-1,-6.3740113E-3,6.090477E-1,6.0600036E-1,6.224969E-1,6.0522896E-1,6.085157E-1,6.198494E-1,6.294624E-1,5.997184E-1,6.054953E-1,6.062695E-1,1.1234891E-2,6.0988045E-1,6.2082285E-1,6.2875587E-1,6.3503367E-1,1.1547392E-4,3.129565E-3,-5.342003E-3,-1.0494804E-2,1.1595666E-2,2.6568812E-3,-9.033159E-3,-1.1706863E-3,-9.729589E-3,-4.6951477E-3,1.5933048E-3,1.5618369E-2,-3.654015E-3,5.607905E-4],"split_indices":[0,0,0,0,0,0,0,0,0,0,0,0,0,0,0,0,0,0,0,0,0,0,0,0,0,0,0,0,0,0,0],"split_type":[0,0,0,0,0,0,0,0,0,0,0,0,0,0,0,0,0,0,0,0,0,0,0,0,0,0,0,0,0,0,0],"sum_hessian":[1.824E3,1.5E1,1.809E3,6.55E2,1.154E3,5.98E2,5.7E1,2.63E2,8.91E2,5.83E2,1.5E1,4.9E1,8E0,2.06E2,5.7E1,1.14E2,7.77E2,5.12E2,7.1E1,7E0,8E0,7E0,4.2E1,2.1E1,1.85E2,2.1E1,3.6E1,9.9E1,1.5E1,9.9E1,6.78E2],"tree_param":{"num_deleted":"0","num_feature":"1","num_nodes":"31","size_leaf_vector":"1"}},{"base_weights":[1.1908697E-3,-2.5801435E-3,9.456009E-3,-1.6746977E-3,-1.4339397E-2,3.5572242E-2,1.8468873E-3,6.885472E-3,-1.16265165E-2,1.15509685E-2,6.477844E-2,-3.1311955E-2,6.134334E-3,2.7005244E-3,5.1069476E-2,-2.9728996E-2,3.6304302E-3,5.2711893E-2,-3.1074176E-2,9.964595E-3,4.070258E-2,-2.0956155E-2,-5.47688E-3,4.947273E-2,-3.0866786E-4,5.122657E-4,-8.814684E-3,3.9240476E-3,1.11111775E-2,-1.9409828E-3,-6.6045183E-3,3.7521168E-3,-1.5874896E-3,3.4641647E-3,1.1388633E-2,-5.7743555E-3,1.011252E-3,-6.919466E-3,6.961552E-3,-3.5019536E-3,2.0047746E-4,3.5168813E-3,1.2196021E-2,9.2584884E-4,-1.2454408E-3],"categories":[],"categories_nodes":[],"categories_segments":[],"categories_sizes":[],"default_left":[0,0,0,0,0,0,0,0,0,0,0,0,0,0,0,0,0,0,0,0,0,0,0,0,0,0,0,0,0,0,0,0,0,0,0,0,0,0,0,0,0,0,0,0,0],"id":33,"left_children":[1,3,5,7,-1,9,11,13,15,17,19,21,23,25,27,29,31,33,35,-1,37,39,-1,41,43,-1,-1,-1,-1,-1,-1,-1,-1,-1,-1,-1,-1,-1,-1,-1,-1,-1,-1,-1,-1],"loss_changes":[5.690591E-2,1.5964393E-1,1.13603055E-1,1.0631106E-1,0E0,8.975428E-2,6.3314125E-2,1.2393518E-1,1.5946871E-1,1.279613E-1,4.4633135E-2,1.1240885E-2,1.1003165E-1,1.3555875E-1,3.6833897E-2,9.765285E-2,2.0816532E-1,3.6955975E-2,4.0127177E-2,0E0,1.19205326E-1,1.2017813E-2,0E0,4.859043E-2,4.008817E-2,0E0,0E0,0E0,0E0,0E0,0E0,0E0,0E0,0E0,0E0,0E0,0E0,0E0,0E0,0E0,0E0,0E0,0E0,0E0,0E0],"parents":[2147483647,0,0,1,1,2,2,3,3,5,5,6,6,7,7,8,8,9,9,10,10,11,11,12,12,13,13,14,14,15,15,16,16,17,17,18,18,20,20,21,21,23,23,24,24],"right_children":[2,4,6,8,-1,10,12,14,16,18,20,22,24,26,28,30,32,34,36,-1,38,40,-1,42,44,-1,-1,-1,-1,-1,-1,-1,-1,-1,-1,-1,-1,-1,-1,-1,-1,-1,-1,-1,-1],"split_conditions":[6.4323676E-1,6.4272606E-1,6.548789E-1,6.090477E-1,-1.4339397E-2,6.487443E-1,6.6043496E-1,6.0600036E-1,6.224969E-1,6.456592E-1,6.51045E-1,6.586632E-1,6.666611E-1,6.0522896E-1,6.085157E-1,6.198494E-1,6.294624E-1,6.453064E-1,6.475596E-1,9.964595E-3,6.5147096E-1,6.57062E-1,-5.47688E-3,6.659882E-1,7.005218E-1,5.122657E-4,-8.814684E-3,3.9240476E-3,1.11111775E-2,-1.9409828E-3,-6.6045183E-3,3.7521168E-3,-1.5874896E-3,3.4641647E-3,1.1388633E-2,-5.7743555E-3,1.011252E-3,-6.919466E-3,6.961552E-3,-3.5019536E-3,2.0047746E-4,3.5168813E-3,1.2196021E-2,9.2584884E-4,-1.2454408E-3],"split_indices":[0,0,0,0,0,0,0,0,0,0,0,0,0,0,0,0,0,0,0,0,0,0,0,0,0,0,0,0,0,0,0,0,0,0,0,0,0,0,0,0,0,0,0,0,0],"split_type":[0,0,0,0,0,0,0,0,0,0,0,0,0,0,0,0,0,0,0,0,0,0,0,0,0,0,0,0,0,0,0,0,0,0,0,0,0,0,0,0,0,0,0,0,0],"sum_hessian":[1.824E3,1.253E3,5.71E2,1.246E3,7E0,1.28E2,4.43E2,6.7E2,5.76E2,7.1E1,5.7E1,5E1,3.93E2,6.13E2,5.7E1,2.63E2,3.13E2,3.6E1,3.5E1,2.2E1,3.5E1,3.6E1,1.4E1,5E1,3.43E2,5.98E2,1.5E1,4.9E1,8E0,2.06E2,5.7E1,1.14E2,1.99E2,2.9E1,7E0,2.1E1,1.4E1,7E0,2.8E1,2.2E1,1.4E1,4.3E1,7E0,1.92E2,1.51E2],"tree_param":{"num_deleted":"0","num_feature":"1","num_nodes":"45","size_leaf_vector":"1"}},{"base_weights":[-1.0007642E-3,-5.8126383E-2,-2.7148527E-4,-6.8801106E-3,-2.9511147E-3,1.429161E-2,-2.3887407E-3,-1.7420374E-3,2.3768011E-2,-3.4561403E-2,-2.0740255E-4,4.923468E-3,-6.7346147E-3,3.499823E-2,6.5128943E-3,1.7114849E-3,-5.411929E-2,4.8783943E-2,-2.7178435E-3,-6.72124E-4,3.539936E-3,2.594608E-3,5.133244E-3,-5.3334897E-3,2.676753E-3,-6.582645E-3,4.768228E-3,-9.194387E-3,-3.262895E-3,-9.5917983E-4,8.837669E-3,-6.5088123E-3,-1.3560512E-4],"categories":[],"categories_nodes":[],"categories_segments":[],"categories_sizes":[],"default_left":[0,0,0,0,0,0,0,0,0,0,0,0,0,0,0,0,0,0,0,0,0,0,0,0,0,0,0,0,0,0,0,0,0],"id":34,"left_children":[1,3,5,-1,-1,7,9,11,13,15,17,19,-1,21,23,25,27,29,31,-1,-1,-1,-1,-1,-1,-1,-1,-1,-1,-1,-1,-1,-1],"loss_changes":[7.601465E-2,4.9951747E-3,5.5627465E-2,0E0,0E0,3.483597E-2,1.1052548E-1,3.793805E-2,2.7676195E-2,7.103473E-2,1.8166566E-1,2.827367E-2,0E0,1.1531912E-2,7.173496E-2,1.14910565E-1,4.983607E-2,1.6725813E-1,1.19245924E-1,0E0,0E0,0E0,0E0,0E0,0E0,0E0,0E0,0E0,0E0,0E0,0E0,0E0,0E0],"parents":[2147483647,0,0,1,1,2,2,5,5,6,6,7,7,8,8,9,9,10,10,11,11,13,13,14,14,15,15,16,16,17,17,18,18],"right_children":[2,4,6,-1,-1,8,10,12,14,16,18,20,-1,22,24,26,28,30,32,-1,-1,-1,-1,-1,-1,-1,-1,-1,-1,-1,-1,-1,-1],"split_conditions":[4.5066854E-1,4.3295848E-1,5.71185E-1,-6.8801106E-3,-2.9511147E-3,5.334505E-1,5.849835E-1,5.289828E-1,5.5961615E-1,5.760129E-1,5.9118336E-1,5.2066433E-1,-6.7346147E-3,5.5328655E-1,5.62405E-1,5.734107E-1,5.787231E-1,5.879593E-1,5.9399503E-1,-6.72124E-4,3.539936E-3,2.594608E-3,5.133244E-3,-5.3334897E-3,2.676753E-3,-6.582645E-3,4.768228E-3,-9.194387E-3,-3.262895E-3,-9.5917983E-4,8.837669E-3,-6.5088123E-3,-1.3560512E-4],"split_indices":[0,0,0,0,0,0,0,0,0,0,0,0,0,0,0,0,0,0,0,0,0,0,0,0,0,0,0,0,0,0,0,0,0],"split_type":[0,0,0,0,0,0,0,0,0,0,0,0,0,0,0,0,0,0,0,0,0,0,0,0,0,0,0,0,0,0,0,0,0],"sum_hessian":[1.824E3,2.2E1,1.802E3,1.5E1,7E0,2.28E2,1.574E3,8.5E1,1.43E2,9.9E1,1.475E3,7.8E1,7E0,8.6E1,5.7E1,3.5E1,6.4E1,7.1E1,1.404E3,5.7E1,2.1E1,5.7E1,2.9E1,1.4E1,4.3E1,1.4E1,2.1E1,2.2E1,4.2E1,2.9E1,4.2E1,2.9E1,1.375E3],"tree_param":{"num_deleted":"0","num_feature":"1","num_nodes":"33","size_leaf_vector":"1"}},{"base_weights":[-8.20167E-5,-6.237892E-2,4.6871946E-4,-4.336901E-3,-7.59677E-3,1.5273706E-2,-1.5893753E-3,4.4071916E-4,2.5848854E-2,-2.8252248E-2,4.890933E-4,6.213485E-3,-6.16716E-3,4.7949173E-2,1.6778309E-2,-1.8054146E-2,-9.503598E-2,4.3553665E-2,-1.7181225E-3,-4.1538474E-4,3.6561806E-3,1.7115128E-3,9.2031425E-3,-2.9455544E-3,2.5344507E-3,-2.8619883E-3,4.443073E-3,-1.5747545E-2,-2.0717026E-3,-9.614887E-4,7.963513E-3,-4.7182203E-3,-5.660462E-7],"categories":[],"categories_nodes":[],"categories_segments":[],"categories_sizes":[],"default_left":[0,0,0,0,0,0,0,0,0,0,0,0,0,0,0,0,0,0,0,0,0,0,0,0,0,0,0,0,0,0,0,0,0],"id":35,"left_children":[1,3,5,-1,-1,7,9,11,13,15,17,19,-1,21,23,25,27,29,31,-1,-1,-1,-1,-1,-1,-1,-1,-1,-1,-1,-1,-1,-1],"loss_changes":[6.2643446E-2,8.3850324E-4,5.51751E-2,0E0,0E0,3.4654893E-2,8.812836E-2,3.3729263E-2,2.505508E-2,7.660694E-2,1.4037278E-1,2.7210152E-2,0E0,4.8716545E-2,3.7579022E-2,6.7951664E-2,6.634411E-2,1.3889042E-1,1.0938673E-1,0E0,0E0,0E0,0E0,0E0,0E0,0E0,0E0,0E0,0E0,0E0,0E0,0E0,0E0],"parents":[2147483647,0,0,1,1,2,2,5,5,6,6,7,7,8,8,9,9,10,10,11,11,13,13,14,14,15,15,16,16,17,17,18,18],"right_children":[2,4,6,-1,-1,8,10,12,14,16,18,20,-1,22,24,26,28,30,32,-1,-1,-1,-1,-1,-1,-1,-1,-1,-1,-1,-1,-1,-1],"split_conditions":[4.3295848E-1,3.9248523E-1,5.6768996E-1,-4.336901E-3,-7.59677E-3,5.334505E-1,5.849835E-1,5.289828E-1,5.488864E-1,5.8374935E-1,5.9118336E-1,5.2066433E-1,-6.16716E-3,5.424038E-1,5.5079097E-1,5.813754E-1,5.8437407E-1,5.879593E-1,5.9574413E-1,-4.1538474E-4,3.6561806E-3,1.7115128E-3,9.2031425E-3,-2.9455544E-3,2.5344507E-3,-2.8619883E-3,4.443073E-3,-1.5747545E-2,-2.0717026E-3,-9.614887E-4,7.963513E-3,-4.7182203E-3,-5.660462E-7],"split_indices":[0,0,0,0,0,0,0,0,0,0,0,0,0,0,0,0,0,0,0,0,0,0,0,0,0,0,0,0,0,0,0,0,0],"split_type":[0,0,0,0,0,0,0,0,0,0,0,0,0,0,0,0,0,0,0,0,0,0,0,0,0,0,0,0,0,0,0,0,0],"sum_hessian":[1.824E3,1.5E1,1.809E3,8E0,7E0,2.2E2,1.589E3,9.2E1,1.28E2,1.14E2,1.475E3,8.5E1,7E0,3.6E1,9.2E1,1E2,1.4E1,7.1E1,1.404E3,6.4E1,2.1E1,2.2E1,1.4E1,1.4E1,7.8E1,8.6E1,1.4E1,7E0,7E0,2.9E1,4.2E1,5E1,1.354E3],"tree_param":{"num_deleted":"0","num_feature":"1","num_nodes":"33","size_leaf_vector":"1"}},{"base_weights":[-1.3104886E-4,-5.776448E-3,3.7849037E-4,1.8695005E-3,-1.589759E-2,3.8457004E-4,8.531958E-2,-8.11628E-2,-4.8156655E-3,1.4342829E-3,-2.8109096E-2,2.5734926E-2,1.8885165E-2,-4.1558553E-2,-1.4527542E-2,-1.615199E-2,2.335355E-2,8.090056E-5,1.2373119E-2,-1.22961765E-2,-1.2679087E-3,-5.8336896E-3,1.613159E-2,-1.1552001E-2,3.7597723E-3,-7.685614E-4,-1.0620484E-2,9.597518E-3,-2.3008033E-3],"categories":[],"categories_nodes":[],"categories_segments":[],"categories_sizes":[],"default_left":[0,0,0,0,0,0,0,0,0,0,0,0,0,0,0,0,0,0,0,0,0,0,0,0,0,0,0,0,0],"id":36,"left_children":[1,-1,3,5,7,9,11,13,15,17,19,-1,21,23,-1,25,27,-1,-1,-1,-1,-1,-1,-1,-1,-1,-1,-1,-1],"loss_changes":[5.361572E-2,0E0,4.3954447E-2,2.0554642E-1,1.0954532E-1,4.8823796E-2,3.2657197E-1,4.9823463E-2,4.221014E-2,1.20262854E-1,8.332844E-2,0E0,2.513841E-1,9.2160985E-2,0E0,7.085135E-2,1.3014863E-1,0E0,0E0,0E0,0E0,0E0,0E0,0E0,0E0,0E0,0E0,0E0,0E0],"parents":[2147483647,0,0,2,2,3,3,4,4,5,5,6,6,7,7,8,8,9,9,10,10,12,12,13,13,15,15,16,16],"right_children":[2,-1,4,6,8,10,12,14,16,18,20,-1,22,24,-1,26,28,-1,-1,-1,-1,-1,-1,-1,-1,-1,-1,-1,-1],"split_conditions":[4.3295848E-1,-5.776448E-3,7.005218E-1,6.9413817E-1,7.070284E-1,6.8115175E-1,6.9504184E-1,7.049565E-1,7.6263666E-1,6.802552E-1,6.825092E-1,2.5734926E-2,6.9912124E-1,7.0268315E-1,-1.4527542E-2,7.576836E-1,7.8673005E-1,8.090056E-5,1.2373119E-2,-1.22961765E-2,-1.2679087E-3,-5.8336896E-3,1.613159E-2,-1.1552001E-2,3.7597723E-3,-7.685614E-4,-1.0620484E-2,9.597518E-3,-2.3008033E-3],"split_indices":[0,0,0,0,0,0,0,0,0,0,0,0,0,0,0,0,0,0,0,0,0,0,0,0,0,0,0,0,0],"split_type":[0,0,0,0,0,0,0,0,0,0,0,0,0,0,0,0,0,0,0,0,0,0,0,0,0,0,0,0,0],"sum_hessian":[1.824E3,1.5E1,1.809E3,1.658E3,1.51E2,1.63E3,2.8E1,2.1E1,1.3E2,1.573E3,5.7E1,7E0,2.1E1,1.4E1,7E0,9.3E1,3.7E1,1.566E3,7E0,7E0,5E1,1.4E1,7E0,7E0,7E0,8.6E1,7E0,1.4E1,2.3E1],"tree_param":{"num_deleted":"0","num_feature":"1","num_nodes":"29","size_leaf_vector":"1"}},{"base_weights":[1.0787545E-3,-5.8320942E-3,1.6032388E-3,1.57534E-2,-5.180572E-4,-1.9567958E-3,2.2354616E-2,-3.0220138E-2,1.4946298E-3,6.67228E-3,-6.4273E-3,2.9185405E-2,8.425386E-3,-1.9040996E-2,-9.229921E-2,4.2252652E-2,-5.9510133E-4,2.9570607E-3,-7.1232737E-4,1.4440842E-3,4.030521E-3,-5.894839E-3,3.120223E-3,-3.1674732E-3,4.287034E-3,-1.5257637E-2,-2.0484643E-3,-9.0774865E-4,7.7081756E-3,-1.0911092E-2,1.0442439E-5],"categories":[],"categories_nodes":[],"categories_segments":[],"categories_sizes":[],"default_left":[0,0,0,0,0,0,0,0,0,0,0,0,0,0,0,0,0,0,0,0,0,0,0,0,0,0,0,0,0,0,0],"id":37,"left_children":[1,-1,3,5,7,9,11,13,15,17,-1,19,21,23,25,27,29,-1,-1,-1,-1,-1,-1,-1,-1,-1,-1,-1,-1,-1,-1],"loss_changes":[5.6949917E-2,0E0,5.4338347E-2,2.763423E-2,9.420023E-2,3.538138E-2,1.6119495E-2,6.7641586E-2,1.2574095E-1,1.8532556E-2,0E0,1.8272974E-2,9.0843916E-2,6.862466E-2,6.1806202E-2,1.2942007E-1,1.066644E-1,0E0,0E0,0E0,0E0,0E0,0E0,0E0,0E0,0E0,0E0,0E0,0E0,0E0,0E0],"parents":[2147483647,0,0,2,2,3,3,4,4,5,5,6,6,7,7,8,8,9,9,11,11,12,12,13,13,14,14,15,15,16,16],"right_children":[2,-1,4,6,8,10,12,14,16,18,-1,20,22,24,26,28,30,-1,-1,-1,-1,-1,-1,-1,-1,-1,-1,-1,-1,-1,-1],"split_conditions":[4.3295848E-1,-5.8320942E-3,5.71185E-1,5.2066433E-1,5.849835E-1,5.164589E-1,5.5961615E-1,5.8374935E-1,5.9118336E-1,4.8694012E-1,-6.4273E-3,5.424038E-1,5.62405E-1,5.813754E-1,5.8437407E-1,5.879593E-1,5.9257317E-1,2.9570607E-3,-7.1232737E-4,1.4440842E-3,4.030521E-3,-5.894839E-3,3.120223E-3,-3.1674732E-3,4.287034E-3,-1.5257637E-2,-2.0484643E-3,-9.0774865E-4,7.7081756E-3,-1.0911092E-2,1.0442439E-5],"split_indices":[0,0,0,0,0,0,0,0,0,0,0,0,0,0,0,0,0,0,0,0,0,0,0,0,0,0,0,0,0,0,0],"split_type":[0,0,0,0,0,0,0,0,0,0,0,0,0,0,0,0,0,0,0,0,0,0,0,0,0,0,0,0,0,0,0],"sum_hessian":[1.824E3,1.5E1,1.809E3,2.35E2,1.574E3,6.4E1,1.71E2,9.9E1,1.475E3,5.7E1,7E0,1.14E2,5.7E1,8.5E1,1.4E1,7.1E1,1.404E3,2.1E1,3.6E1,5E1,6.4E1,1.4E1,4.3E1,7.1E1,1.4E1,7E0,7E0,2.9E1,4.2E1,8E0,1.396E3],"tree_param":{"num_deleted":"0","num_feature":"1","num_nodes":"31","size_leaf_vector":"1"}},{"base_weights":[-9.125625E-4,-5.2741192E-2,-2.5090357E-4,-6.2351003E-3,-2.692892E-3,6.886776E-3,-4.2613824E-3,2.4936846E-3,5.160787E-2,-2.8309505E-2,2.8607766E-3,4.684038E-3,-7.66518E-2,4.0193945E-2,1.0928436E-2,-8.534651E-2,-2.3029162E-2,3.0784538E-2,-1.2704487E-3,1.3362832E-4,2.814626E-3,-4.55872E-3,-9.5747905E-3,1.0891262E-2,2.6474332E-3,-5.2410443E-3,-1.3643334E-2,-1.1576669E-3,-5.935907E-3,1.3291832E-3,1.3818993E-2,-9.7351E-3,6.176125E-5],"categories":[],"categories_nodes":[],"categories_segments":[],"categories_sizes":[],"default_left":[0,0,0,0,0,0,0,0,0,0,0,0,0,0,0,0,0,0,0,0,0,0,0,0,0,0,0,0,0,0,0,0,0],"id":38,"left_children":[1,3,5,-1,-1,7,9,11,13,15,17,19,21,23,-1,25,27,29,31,-1,-1,-1,-1,-1,-1,-1,-1,-1,-1,-1,-1,-1,-1],"loss_changes":[6.2571265E-2,4.02613E-3,5.164115E-2,0E0,0E0,1.2737635E-1,1.9790311E-1,1.02986135E-1,3.378971E-2,7.754475E-2,1.0293965E-1,4.52833E-2,5.1265284E-3,4.4256292E-2,0E0,2.986665E-2,1.0041733E-1,2.1422644E-1,1.4119397E-1,0E0,0E0,0E0,0E0,0E0,0E0,0E0,0E0,0E0,0E0,0E0,0E0,0E0,0E0],"parents":[2147483647,0,0,1,1,2,2,5,5,6,6,7,7,8,8,9,9,10,10,11,11,12,12,13,13,15,15,16,16,17,17,18,18],"right_children":[2,4,6,-1,-1,8,10,12,14,16,18,20,22,24,-1,26,28,30,32,-1,-1,-1,-1,-1,-1,-1,-1,-1,-1,-1,-1,-1,-1],"split_conditions":[4.5066854E-1,4.3295848E-1,6.090477E-1,-6.2351003E-3,-2.692892E-3,6.0600036E-1,6.224969E-1,6.0522896E-1,6.085157E-1,6.0988045E-1,6.294624E-1,5.997184E-1,6.054953E-1,6.062695E-1,1.0928436E-2,6.094107E-1,6.198494E-1,6.2875587E-1,6.2995434E-1,1.3362832E-4,2.814626E-3,-4.55872E-3,-9.5747905E-3,1.0891262E-2,2.6474332E-3,-5.2410443E-3,-1.3643334E-2,-1.1576669E-3,-5.935907E-3,1.3291832E-3,1.3818993E-2,-9.7351E-3,6.176125E-5],"split_indices":[0,0,0,0,0,0,0,0,0,0,0,0,0,0,0,0,0,0,0,0,0,0,0,0,0,0,0,0,0,0,0,0,0],"split_type":[0,0,0,0,0,0,0,0,0,0,0,0,0,0,0,0,0,0,0,0,0,0,0,0,0,0,0,0,0,0,0,0,0],"sum_hessian":[1.824E3,2.2E1,1.802E3,1.5E1,7E0,6.48E2,1.154E3,5.91E2,5.7E1,2.63E2,8.91E2,5.76E2,1.5E1,4.9E1,8E0,2.1E1,2.42E2,1.14E2,7.77E2,5.05E2,7.1E1,7E0,8E0,7E0,4.2E1,1.4E1,7E0,1.85E2,5.7E1,9.9E1,1.5E1,1.4E1,7.63E2],"tree_param":{"num_deleted":"0","num_feature":"1","num_nodes":"33","size_leaf_vector":"1"}},{"base_weights":[-8.3849154E-5,-5.688689E-2,4.183235E-4,-3.9513996E-3,-6.9320537E-3,1.5763095E-2,-1.2649685E-3,3.390927E-3,3.740981E-2,-5.8746007E-3,7.287627E-3,7.3204455E-3,-4.3703453E-3,8.344184E-2,2.313745E-2,-4.8330883E-3,-1.4235954E-2,3.7902344E-2,-1.6236027E-3,2.1403332E-4,7.1156793E-3,1.0328676E-2,5.3166687E-3,-1.4220241E-3,4.9761846E-3,3.7767037E-4,-1.1957261E-3,1.0803548E-3,7.0888735E-3,-3.7055865E-3,2.9669277E-4],"categories":[],"categories_nodes":[],"categories_segments":[],"categories_sizes":[],"default_left":[0,0,0,0,0,0,0,0,0,0,0,0,0,0,0,0,0,0,0,0,0,0,0,0,0,0,0,0,0,0,0],"id":39,"left_children":[1,3,5,-1,-1,7,9,11,13,15,17,19,-1,21,23,25,-1,27,29,-1,-1,-1,-1,-1,-1,-1,-1,-1,-1,-1,-1],"loss_changes":[5.20818E-2,7.170029E-4,4.6771754E-2,0E0,0E0,4.7812346E-2,6.43833E-2,2.1601625E-2,4.077342E-2,1.5013391E-1,1.5611158E-1,3.5230402E-2,0E0,3.5207123E-3,5.1433533E-2,6.469503E-2,0E0,1.14546165E-1,7.2327815E-2,0E0,0E0,0E0,0E0,0E0,0E0,0E0,0E0,0E0,0E0,0E0,0E0],"parents":[2147483647,0,0,1,1,2,2,5,5,6,6,7,7,8,8,9,9,10,10,11,11,13,13,14,14,15,15,17,17,18,18],"right_children":[2,4,6,-1,-1,8,10,12,14,16,18,20,-1,22,24,26,-1,28,30,-1,-1,-1,-1,-1,-1,-1,-1,-1,-1,-1,-1],"split_conditions":[4.3295848E-1,3.9248523E-1,5.5961615E-1,-3.9513996E-3,-6.9320537E-3,5.424038E-1,6.4323676E-1,5.392303E-1,5.488864E-1,6.4272606E-1,6.548789E-1,5.3614277E-1,-4.3703453E-3,5.4553455E-1,5.5328655E-1,6.090477E-1,-1.4235954E-2,6.487443E-1,6.6043496E-1,2.1403332E-4,7.1156793E-3,1.0328676E-2,5.3166687E-3,-1.4220241E-3,4.9761846E-3,3.7767037E-4,-1.1957261E-3,1.0803548E-3,7.0888735E-3,-3.7055865E-3,2.9669277E-4],"split_indices":[0,0,0,0,0,0,0,0,0,0,0,0,0,0,0,0,0,0,0,0,0,0,0,0,0,0,0,0,0,0,0],"split_type":[0,0,0,0,0,0,0,0,0,0,0,0,0,0,0,0,0,0,0,0,0,0,0,0,0,0,0,0,0,0,0],"sum_hessian":[1.824E3,1.5E1,1.809E3,8E0,7E0,1.78E2,1.631E3,1.14E2,6.4E1,1.06E3,5.71E2,1.06E2,8E0,1.4E1,5E1,1.053E3,7E0,1.28E2,4.43E2,9.9E1,7E0,7E0,7E0,2.1E1,2.9E1,4.77E2,5.76E2,7.1E1,5.7E1,5E1,3.93E2],"tree_param":{"num_deleted":"0","num_feature":"1","num_nodes":"31","size_leaf_vector":"1"}},{"base_weights":[-1.1645659E-4,-5.234906E-3,3.4533243E-4,1.2666852E-2,-1.5011589E-3,-1.5298886E-3,2.1747617E-2,-3.360793E-2,6.7511364E-4,5.239418E-3,-7.41087E-3,4.2760894E-2,1.4347256E-2,-2.270994E-2,-9.384922E-2,4.1366898E-2,-1.4106398E-3,-5.249737E-4,3.5991948E-3,1.2451712E-3,8.638425E-3,-2.5554555E-3,2.0561935E-3,-3.5523803E-3,4.03106E-3,-1.5433404E-2,-2.1633252E-3,-1.2445159E-3,7.7948174E-3,-1.1509378E-2,-6.7724046E-5],"categories":[],"categories_nodes":[],"categories_segments":[],"categories_sizes":[],"default_left":[0,0,0,0,0,0,0,0,0,0,0,0,0,0,0,0,0,0,0,0,0,0,0,0,0,0,0,0,0,0,0],"id":40,"left_children":[1,-1,3,5,7,9,11,13,15,17,-1,19,21,23,25,27,29,-1,-1,-1,-1,-1,-1,-1,-1,-1,-1,-1,-1,-1,-1],"loss_changes":[4.403789E-2,0E0,4.119938E-2,3.0457739E-2,1.1007281E-1,4.6079945E-2,2.1779336E-2,6.351959E-2,1.2533095E-1,2.79298E-2,0E0,4.7845326E-2,2.7306965E-2,7.088013E-2,6.2180787E-2,1.4270303E-1,1.17064126E-1,0E0,0E0,0E0,0E0,0E0,0E0,0E0,0E0,0E0,0E0,0E0,0E0,0E0,0E0],"parents":[2147483647,0,0,2,2,3,3,4,4,5,5,6,6,7,7,8,8,9,9,11,11,12,12,13,13,14,14,15,15,16,16],"right_children":[2,-1,4,6,8,10,12,14,16,18,-1,20,22,24,26,28,30,-1,-1,-1,-1,-1,-1,-1,-1,-1,-1,-1,-1,-1,-1],"split_conditions":[4.3295848E-1,-5.234906E-3,5.71185E-1,5.334505E-1,5.849835E-1,5.289828E-1,5.488864E-1,5.8374935E-1,5.9118336E-1,5.2066433E-1,-7.41087E-3,5.424038E-1,5.5079097E-1,5.813754E-1,5.8437407E-1,5.879593E-1,5.9257317E-1,-5.249737E-4,3.5991948E-3,1.2451712E-3,8.638425E-3,-2.5554555E-3,2.0561935E-3,-3.5523803E-3,4.03106E-3,-1.5433404E-2,-2.1633252E-3,-1.2445159E-3,7.7948174E-3,-1.1509378E-2,-6.7724046E-5],"split_indices":[0,0,0,0,0,0,0,0,0,0,0,0,0,0,0,0,0,0,0,0,0,0,0,0,0,0,0,0,0,0,0],"split_type":[0,0,0,0,0,0,0,0,0,0,0,0,0,0,0,0,0,0,0,0,0,0,0,0,0,0,0,0,0,0,0],"sum_hessian":[1.824E3,1.5E1,1.809E3,2.35E2,1.574E3,9.2E1,1.43E2,9.9E1,1.475E3,8.5E1,7E0,3.6E1,1.07E2,8.5E1,1.4E1,7.1E1,1.404E3,6.4E1,2.1E1,2.2E1,1.4E1,1.4E1,9.3E1,7.1E1,1.4E1,7E0,7E0,2.9E1,4.2E1,8E0,1.396E3],"tree_param":{"num_deleted":"0","num_feature":"1","num_nodes":"31","size_leaf_vector":"1"}},{"base_weights":[9.5576525E-4,-2.7741028E-3,8.298716E-3,5.890384E-3,-1.3515501E-2,1.4677358E-2,-1.1227524E-2,2.071954E-3,4.6211515E-2,-8.942902E-2,-1.0277784E-2,1.2107461E-2,1.5964806E-2,-7.832413E-2,1.2631521E-4,4.257872E-3,-7.989284E-2,1.1082164E-2,3.5170484E-2,-5.363833E-2,-1.4535794E-2,-4.379236E-3,-3.300415E-2,1.4322399E-2,-5.4114226E-2,-3.838324E-2,-1.434228E-2,-1.1605727E-2,2.9144356E-2,-5.2853343E-3,5.815272E-4,-4.515528E-3,-1.0189368E-2,-4.7044675E-3,4.9319365E-3,-9.695658E-3,-3.6152863E-4,-2.1018342E-3,1.9153797E-3,-7.6040546E-3,-1.1027561E-3,9.759759E-4,2.6119603E-2,-2.5683695E-3,-7.5780484E-3,-1.1517613E-2,4.320755E-3,-3.0382068E-4,-1.0332678E-2,1.0226814E-2,-1.7772354E-3],"categories":[],"categories_nodes":[],"categories_segments":[],"categories_sizes":[],"default_left":[0,0,0,0,0,0,0,0,0,0,0,0,0,0,0,0,0,0,0,0,0,0,0,0,0,0,0,0,0,0,0,0,0,0,0,0,0,0,0,0,0,0,0,0,0,0,0,0,0,0,0],"id":41,"left_children":[1,3,5,7,9,11,13,15,17,19,21,23,-1,25,27,29,31,-1,33,35,-1,37,39,41,43,45,-1,47,49,-1,-1,-1,-1,-1,-1,-1,-1,-1,-1,-1,-1,-1,-1,-1,-1,-1,-1,-1,-1,-1,-1],"loss_changes":[5.0006554E-2,1.12785816E-1,7.676359E-2,1.0321369E-1,1.3205138E-1,1.7093481E-1,1.1580411E-1,1.1034951E-1,3.7477374E-2,3.6241412E-2,6.956279E-2,6.7806415E-2,0E0,5.1697135E-2,4.4935998E-2,5.358541E-2,7.627055E-3,0E0,6.1646074E-2,3.2153133E-2,0E0,1.6251197E-1,1.00361325E-1,4.9644405E-1,7.2934255E-3,9.8960355E-2,0E0,7.355334E-2,1.3218519E-1,0E0,0E0,0E0,0E0,0E0,0E0,0E0,0E0,0E0,0E0,0E0,0E0,0E0,0E0,0E0,0E0,0E0,0E0,0E0,0E0,0E0,0E0],"parents":[2147483647,0,0,1,1,2,2,3,3,4,4,5,5,6,6,7,7,8,8,9,9,10,10,11,11,13,13,14,14,15,15,16,16,18,18,19,19,21,21,22,22,23,23,24,24,25,25,27,27,28,28],"right_children":[2,4,6,8,10,12,14,16,18,20,22,24,-1,26,28,30,32,-1,34,36,-1,38,40,42,44,46,-1,48,50,-1,-1,-1,-1,-1,-1,-1,-1,-1,-1,-1,-1,-1,-1,-1,-1,-1,-1,-1,-1,-1,-1],"split_conditions":[6.395987E-1,6.090477E-1,7.005218E-1,6.0600036E-1,6.0988045E-1,6.9912124E-1,7.070284E-1,6.0522896E-1,6.062695E-1,6.094107E-1,6.328198E-1,6.9504184E-1,1.5964806E-2,7.049565E-1,7.6263666E-1,4.3295848E-1,6.054953E-1,1.1082164E-2,6.068685E-1,6.0916054E-1,-1.4535794E-2,6.224969E-1,6.3448995E-1,6.9413817E-1,6.9701993E-1,7.0268315E-1,-1.434228E-2,7.576836E-1,7.8673005E-1,-5.2853343E-3,5.815272E-4,-4.515528E-3,-1.0189368E-2,-4.7044675E-3,4.9319365E-3,-9.695658E-3,-3.6152863E-4,-2.1018342E-3,1.9153797E-3,-7.6040546E-3,-1.1027561E-3,9.759759E-4,2.6119603E-2,-2.5683695E-3,-7.5780484E-3,-1.1517613E-2,4.320755E-3,-3.0382068E-4,-1.0332678E-2,1.0226814E-2,-1.7772354E-3],"split_indices":[0,0,0,0,0,0,0,0,0,0,0,0,0,0,0,0,0,0,0,0,0,0,0,0,0,0,0,0,0,0,0,0,0,0,0,0,0,0,0,0,0,0,0,0,0,0,0,0,0,0,0],"split_type":[0,0,0,0,0,0,0,0,0,0,0,0,0,0,0,0,0,0,0,0,0,0,0,0,0,0,0,0,0,0,0,0,0,0,0,0,0,0,0,0,0,0,0,0,0,0,0,0,0,0,0],"sum_hessian":[1.824E3,1.21E3,6.14E2,6.7E2,5.4E2,4.63E2,1.51E2,6.13E2,5.7E1,2.1E1,5.19E2,4.56E2,7E0,2.1E1,1.3E2,5.98E2,1.5E1,7E0,5E1,1.4E1,7E0,4.13E2,1.06E2,4.42E2,1.4E1,1.4E1,7E0,9.3E1,3.7E1,1.5E1,5.83E2,7E0,8E0,7E0,4.3E1,7E0,7E0,2.42E2,1.71E2,3.5E1,7.1E1,4.35E2,7E0,7E0,7E0,7E0,7E0,8.6E1,7E0,1.4E1,2.3E1],"tree_param":{"num_deleted":"0","num_feature":"1","num_nodes":"51","size_leaf_vector":"1"}},{"base_weights":[-8.301513E-4,-4.7855254E-2,-2.2981437E-4,-5.650561E-3,-2.4572653E-3,1.3351302E-2,-2.0575684E-3,1.0768364E-2,7.851592E-3,-2.6773652E-2,-1.3046335E-4,-6.1920253E-3,1.7254591E-2,2.1179994E-3,-4.9030583E-2,4.3883197E-2,-2.385875E-3,3.09991E-3,-2.8138317E-3,2.561456E-3,-9.930156E-4,-2.7935107E-3,4.300324E-3,-8.327707E-3,-2.957245E-3,-8.79376E-4,7.961403E-3,-1.1006493E-2,-1.690458E-4],"categories":[],"categories_nodes":[],"categories_segments":[],"categories_sizes":[],"default_left":[0,0,0,0,0,0,0,0,0,0,0,0,0,0,0,0,0,0,0,0,0,0,0,0,0,0,0,0,0],"id":42,"left_children":[1,3,5,-1,-1,7,9,11,-1,13,15,17,19,21,23,25,27,-1,-1,-1,-1,-1,-1,-1,-1,-1,-1,-1,-1],"loss_changes":[5.1510412E-2,3.2437667E-3,4.4783235E-2,0E0,0E0,3.517417E-2,7.572898E-2,2.2878697E-2,0E0,7.405339E-2,1.4662564E-1,4.8212275E-2,3.4343895E-2,6.3866444E-2,4.085152E-2,1.3621785E-1,1.05022915E-1,0E0,0E0,0E0,0E0,0E0,0E0,0E0,0E0,0E0,0E0,0E0,0E0],"parents":[2147483647,0,0,1,1,2,2,5,5,6,6,7,7,9,9,10,10,11,11,12,12,13,13,14,14,15,15,16,16],"right_children":[2,4,6,-1,-1,8,10,12,-1,14,16,18,20,22,24,26,28,-1,-1,-1,-1,-1,-1,-1,-1,-1,-1,-1,-1],"split_conditions":[4.5066854E-1,4.3295848E-1,5.6768996E-1,-5.650561E-3,-2.4572653E-3,5.6607294E-1,5.849835E-1,5.2066433E-1,7.851592E-3,5.760129E-1,5.9118336E-1,4.98359E-1,5.5961615E-1,5.734107E-1,5.787231E-1,5.879593E-1,5.9257317E-1,3.09991E-3,-2.8138317E-3,2.561456E-3,-9.930156E-4,-2.7935107E-3,4.300324E-3,-8.327707E-3,-2.957245E-3,-8.79376E-4,7.961403E-3,-1.1006493E-2,-1.690458E-4],"split_indices":[0,0,0,0,0,0,0,0,0,0,0,0,0,0,0,0,0,0,0,0,0,0,0,0,0,0,0,0,0],"split_type":[0,0,0,0,0,0,0,0,0,0,0,0,0,0,0,0,0,0,0,0,0,0,0,0,0,0,0,0,0],"sum_hessian":[1.824E3,2.2E1,1.802E3,1.5E1,7E0,2.13E2,1.589E3,2.06E2,7E0,1.14E2,1.475E3,5.7E1,1.49E2,5E1,6.4E1,7.1E1,1.404E3,2.1E1,3.6E1,1.14E2,3.5E1,2.9E1,2.1E1,2.2E1,4.2E1,2.9E1,4.2E1,8E0,1.396E3],"tree_param":{"num_deleted":"0","num_feature":"1","num_nodes":"29","size_leaf_vector":"1"}},{"base_weights":[-7.4927695E-5,-5.1878415E-2,3.830451E-4,-3.6001639E-3,-6.325499E-3,1.8696467E-3,-1.5844949E-2,4.0515725E-4,8.417009E-2,-8.1889346E-2,-4.63257E-3,1.4076328E-3,-2.6806943E-2,2.5830453E-2,1.7022558E-2,-4.4432793E-2,-1.4188423E-2,-1.4677992E-2,2.0338543E-2,7.988151E-5,1.2048388E-2,-1.2214067E-2,-1.1327007E-3,-5.2892813E-3,1.4598605E-2,-1.2036658E-2,3.705509E-3,-6.2034297E-4,-1.05004115E-2,9.381461E-3,-2.6431438E-3],"categories":[],"categories_nodes":[],"categories_segments":[],"categories_sizes":[],"default_left":[0,0,0,0,0,0,0,0,0,0,0,0,0,0,0,0,0,0,0,0,0,0,0,0,0,0,0,0,0,0,0],"id":43,"left_children":[1,3,5,-1,-1,7,9,11,13,15,17,19,21,-1,23,25,-1,27,29,-1,-1,-1,-1,-1,-1,-1,-1,-1,-1,-1,-1],"loss_changes":[4.3317247E-2,6.1269104E-4,4.3695085E-2,0E0,0E0,1.9992207E-1,1.1217891E-1,4.4530544E-2,3.3469123E-1,4.3134123E-2,3.3159275E-2,1.1401205E-1,8.4210604E-2,0E0,2.0608528E-1,9.727545E-2,0E0,7.13032E-2,1.3306569E-1,0E0,0E0,0E0,0E0,0E0,0E0,0E0,0E0,0E0,0E0,0E0,0E0],"parents":[2147483647,0,0,1,1,2,2,5,5,6,6,7,7,8,8,9,9,10,10,11,11,12,12,14,14,15,15,17,17,18,18],"right_children":[2,4,6,-1,-1,8,10,12,14,16,18,20,22,-1,24,26,-1,28,30,-1,-1,-1,-1,-1,-1,-1,-1,-1,-1,-1,-1],"split_conditions":[4.3295848E-1,3.9248523E-1,7.005218E-1,-3.6001639E-3,-6.325499E-3,6.9413817E-1,7.070284E-1,6.8115175E-1,6.9504184E-1,7.049565E-1,7.6263666E-1,6.802552E-1,6.825092E-1,2.5830453E-2,6.9912124E-1,7.0268315E-1,-1.4188423E-2,7.576836E-1,7.8673005E-1,7.988151E-5,1.2048388E-2,-1.2214067E-2,-1.1327007E-3,-5.2892813E-3,1.4598605E-2,-1.2036658E-2,3.705509E-3,-6.2034297E-4,-1.05004115E-2,9.381461E-3,-2.6431438E-3],"split_indices":[0,0,0,0,0,0,0,0,0,0,0,0,0,0,0,0,0,0,0,0,0,0,0,0,0,0,0,0,0,0,0],"split_type":[0,0,0,0,0,0,0,0,0,0,0,0,0,0,0,0,0,0,0,0,0,0,0,0,0,0,0,0,0,0,0],"sum_hessian":[1.824E3,1.5E1,1.809E3,8E0,7E0,1.658E3,1.51E2,1.63E3,2.8E1,2.1E1,1.3E2,1.573E3,5.7E1,7E0,2.1E1,1.4E1,7E0,9.3E1,3.7E1,1.566E3,7E0,7E0,5E1,1.4E1,7E0,7E0,7E0,8.6E1,7E0,1.4E1,2.3E1],"tree_param":{"num_deleted":"0","num_feature":"1","num_nodes":"31","size_leaf_vector":"1"}},{"base_weights":[-1.1705749E-4,-3.535307E-3,6.6140275E-3,4.683453E-3,-1.3722465E-2,1.3488372E-2,-1.4414326E-2,5.6145736E-4,4.8239008E-2,-8.1721626E-2,-1.0819189E-2,1.1117121E-2,1.4726E-2,-7.399643E-2,-4.298139E-3,2.663561E-3,-7.8171134E-2,3.7534136E-2,1.0235062E-2,-4.3838535E-2,-1.4253721E-2,-5.2181897E-3,-3.238923E-2,1.3257243E-2,-5.2828927E-2,-3.785898E-2,-1.3250458E-2,-1.45909535E-2,2.1276142E-2,-8.232515E-5,2.8196524E-3,-4.875733E-3,-9.563106E-3,1.05798915E-2,2.3960827E-3,-8.9137405E-3,6.94016E-4,-2.0391406E-3,2.3373195E-3,-7.4205236E-3,-1.1031382E-3,9.160172E-4,2.3489043E-2,-2.9320593E-3,-6.9733644E-3,-1.05352765E-2,3.436717E-3,-6.8589457E-4,-9.685268E-3,8.70807E-3,-2.0738211E-3],"categories":[],"categories_nodes":[],"categories_segments":[],"categories_sizes":[],"default_left":[0,0,0,0,0,0,0,0,0,0,0,0,0,0,0,0,0,0,0,0,0,0,0,0,0,0,0,0,0,0,0,0,0,0,0,0,0,0,0,0,0,0,0,0,0,0,0,0,0,0,0],"id":44,"left_children":[1,3,5,7,9,11,13,15,17,19,21,23,-1,25,27,29,31,33,-1,35,-1,37,39,41,43,45,-1,47,49,-1,-1,-1,-1,-1,-1,-1,-1,-1,-1,-1,-1,-1,-1,-1,-1,-1,-1,-1,-1,-1,-1],"loss_changes":[4.2013943E-2,1.01456225E-1,8.909646E-2,1.2044145E-1,1.05920255E-1,1.4554648E-1,9.129899E-2,1.0182772E-1,2.9755294E-2,4.4436797E-2,6.265415E-2,6.324186E-2,0E0,4.1498892E-2,3.4793746E-2,5.3351376E-2,3.554292E-3,4.3793917E-2,0E0,3.51219E-2,0E0,1.8007945E-1,9.4743095E-2,4.0011317E-1,3.916394E-3,7.674291E-2,0E0,5.9124228E-2,1.0686585E-1,0E0,0E0,0E0,0E0,0E0,0E0,0E0,0E0,0E0,0E0,0E0,0E0,0E0,0E0,0E0,0E0,0E0,0E0,0E0,0E0,0E0,0E0],"parents":[2147483647,0,0,1,1,2,2,3,3,4,4,5,5,6,6,7,7,8,8,9,9,10,10,11,11,13,13,14,14,15,15,16,16,17,17,19,19,21,21,22,22,23,23,24,24,25,25,27,27,28,28],"right_children":[2,4,6,8,10,12,14,16,18,20,22,24,-1,26,28,30,32,34,-1,36,-1,38,40,42,44,46,-1,48,50,-1,-1,-1,-1,-1,-1,-1,-1,-1,-1,-1,-1,-1,-1,-1,-1,-1,-1,-1,-1,-1,-1],"split_conditions":[6.395987E-1,6.090477E-1,7.005218E-1,6.0600036E-1,6.0988045E-1,6.9912124E-1,7.070284E-1,6.0522896E-1,6.085157E-1,6.094107E-1,6.328198E-1,6.9504184E-1,1.4726E-2,7.049565E-1,7.6263666E-1,5.997184E-1,6.054953E-1,6.062695E-1,1.0235062E-2,6.0916054E-1,-1.4253721E-2,6.2445605E-1,6.3448995E-1,6.9413817E-1,6.9701993E-1,7.0268315E-1,-1.3250458E-2,7.576836E-1,7.8673005E-1,-8.232515E-5,2.8196524E-3,-4.875733E-3,-9.563106E-3,1.05798915E-2,2.3960827E-3,-8.9137405E-3,6.94016E-4,-2.0391406E-3,2.3373195E-3,-7.4205236E-3,-1.1031382E-3,9.160172E-4,2.3489043E-2,-2.9320593E-3,-6.9733644E-3,-1.05352765E-2,3.436717E-3,-6.8589457E-4,-9.685268E-3,8.70807E-3,-2.0738211E-3],"split_indices":[0,0,0,0,0,0,0,0,0,0,0,0,0,0,0,0,0,0,0,0,0,0,0,0,0,0,0,0,0,0,0,0,0,0,0,0,0,0,0,0,0,0,0,0,0,0,0,0,0,0,0],"split_type":[0,0,0,0,0,0,0,0,0,0,0,0,0,0,0,0,0,0,0,0,0,0,0,0,0,0,0,0,0,0,0,0,0,0,0,0,0,0,0,0,0,0,0,0,0,0,0,0,0,0,0],"sum_hessian":[1.824E3,1.21E3,6.14E2,6.7E2,5.4E2,4.63E2,1.51E2,6.13E2,5.7E1,2.1E1,5.19E2,4.56E2,7E0,2.1E1,1.3E2,5.98E2,1.5E1,4.9E1,8E0,1.4E1,7E0,4.13E2,1.06E2,4.42E2,1.4E1,1.4E1,7E0,9.3E1,3.7E1,5.27E2,7.1E1,7E0,8E0,7E0,4.2E1,7E0,7E0,2.7E2,1.43E2,3.5E1,7.1E1,4.35E2,7E0,7E0,7E0,7E0,7E0,8.6E1,7E0,1.4E1,2.3E1],"tree_param":{"num_deleted":"0","num_feature":"1","num_nodes":"51","size_leaf_vector":"1"}},{"base_weights":[8.4243965E-4,-2.5673572E-3,7.441399E-3,1.1034084E-4,-3.2130245E-2,1.7552488E-2,-3.3998368E-3,-1.2297481E-3,6.3206255E-2,-1.3432801E-2,-2.2993555E-2,1.4765516E-2,1.12836575E-2,-4.9374998E-3,2.2463943E-4,7.849751E-4,-5.984642E-2,4.6666823E-2,8.838433E-3,-1.425601E-2,-6.747839E-2,4.7390606E-2,1.1279487E-2,1.25779E-2,-1.0260856E-2,-1.5912735E-4,1.5415247E-2,-9.768522E-3,-3.1326942E-3,6.3657076E-3,2.6379179E-3,-4.576261E-3,1.1846118E-3,-4.4248365E-3,-8.227361E-3,2.451158E-3,1.0724398E-2,-5.5575785E-3,1.6808035E-3,-7.0190505E-4,8.039563E-3,-7.147077E-3,9.699906E-6],"categories":[],"categories_nodes":[],"categories_segments":[],"categories_sizes":[],"default_left":[0,0,0,0,0,0,0,0,0,0,0,0,0,0,0,0,0,0,0,0,0,0,0,0,0,0,0,0,0,0,0,0,0,0,0,0,0,0,0,0,0,0,0],"id":45,"left_children":[1,3,5,7,9,11,13,15,17,-1,19,21,-1,-1,23,25,27,29,-1,31,33,35,37,39,41,-1,-1,-1,-1,-1,-1,-1,-1,-1,-1,-1,-1,-1,-1,-1,-1,-1,-1],"loss_changes":[4.1083634E-2,9.5312774E-2,6.824127E-2,9.351005E-2,9.0286255E-2,8.384232E-2,5.016849E-2,1.2794533E-1,5.4533035E-3,0E0,3.5186037E-2,3.5177313E-2,0E0,0E0,3.6397476E-2,3.8217765E-1,3.578897E-2,3.8358495E-3,0E0,6.551087E-2,1.5149266E-3,3.8452893E-2,1.0627368E-1,1.7200796E-1,9.6375436E-2,0E0,0E0,0E0,0E0,0E0,0E0,0E0,0E0,0E0,0E0,0E0,0E0,0E0,0E0,0E0,0E0,0E0,0E0],"parents":[2147483647,0,0,1,1,2,2,3,3,4,4,5,5,6,6,7,7,8,8,10,10,11,11,14,14,15,15,16,16,17,17,19,19,20,20,21,21,22,22,23,23,24,24],"right_children":[2,4,6,8,10,12,14,16,18,-1,20,22,-1,-1,24,26,28,30,-1,32,34,36,38,40,42,-1,-1,-1,-1,-1,-1,-1,-1,-1,-1,-1,-1,-1,-1,-1,-1,-1,-1],"split_conditions":[6.391735E-1,6.328198E-1,6.7187417E-1,6.314295E-1,6.33373E-1,6.708367E-1,6.7504287E-1,6.294624E-1,6.323951E-1,-1.3432801E-2,6.3808763E-1,6.4177E-1,1.12836575E-2,-4.9374998E-3,7.005218E-1,6.2875587E-1,6.2995434E-1,6.318051E-1,8.838433E-3,6.3503367E-1,6.387426E-1,6.4077204E-1,6.4323676E-1,6.9413817E-1,7.070284E-1,-1.5912735E-4,1.5415247E-2,-9.768522E-3,-3.1326942E-3,6.3657076E-3,2.6379179E-3,-4.576261E-3,1.1846118E-3,-4.4248365E-3,-8.227361E-3,2.451158E-3,1.0724398E-2,-5.5575785E-3,1.6808035E-3,-7.0190505E-4,8.039563E-3,-7.147077E-3,9.699906E-6],"split_indices":[0,0,0,0,0,0,0,0,0,0,0,0,0,0,0,0,0,0,0,0,0,0,0,0,0,0,0,0,0,0,0,0,0,0,0,0,0,0,0,0,0,0,0],"split_type":[0,0,0,0,0,0,0,0,0,0,0,0,0,0,0,0,0,0,0,0,0,0,0,0,0,0,0,0,0,0,0,0,0,0,0,0,0,0,0,0,0,0,0],"sum_hessian":[1.824E3,1.203E3,6.21E2,1.104E3,9.9E1,3.21E2,3E2,1.082E3,2.2E1,7E0,9.2E1,3.13E2,8E0,2.1E1,2.79E2,1.047E3,3.5E1,1.5E1,7E0,7.8E1,1.4E1,2.9E1,2.84E2,1.28E2,1.51E2,1.032E3,1.5E1,1.4E1,2.1E1,7E0,8E0,3.5E1,4.3E1,7E0,7E0,2.2E1,7E0,2.1E1,2.63E2,1E2,2.8E1,2.1E1,1.3E2],"tree_param":{"num_deleted":"0","num_feature":"1","num_nodes":"43","size_leaf_vector":"1"}},{"base_weights":[-7.5386575E-4,-4.342224E-2,-2.0914778E-4,-5.12082E-3,-2.2422548E-3,1.2338002E-3,-1.5890338E-2,-8.803942E-5,7.5214274E-2,-7.335517E-2,-6.1184554E-3,9.229588E-4,-2.7400903E-2,2.3395075E-2,1.4073091E-2,-3.9379463E-2,-1.2789021E-2,2.4540685E-4,-4.8808202E-2,3.0197958E-5,1.2189853E-2,-1.1782049E-2,-1.2680168E-3,-4.993525E-3,1.32329585E-2,-1.08360965E-2,3.452447E-3,-1.4511385E-3,6.3286E-3,-6.2851994E-3,-3.2692351E-3],"categories":[],"categories_nodes":[],"categories_segments":[],"categories_sizes":[],"default_left":[0,0,0,0,0,0,0,0,0,0,0,0,0,0,0,0,0,0,0,0,0,0,0,0,0,0,0,0,0,0,0],"id":46,"left_children":[1,3,5,-1,-1,7,9,11,13,15,17,19,21,-1,23,25,-1,27,29,-1,-1,-1,-1,-1,-1,-1,-1,-1,-1,-1,-1],"loss_changes":[4.2407986E-2,2.612345E-3,4.0816344E-2,0E0,0E0,1.6155623E-1,8.490519E-2,4.4869218E-2,2.781623E-1,3.5726815E-2,3.5600968E-2,1.1768142E-1,7.57065E-2,0E0,1.7313476E-1,8.021117E-2,0E0,1.079002E-1,1.792796E-3,0E0,0E0,0E0,0E0,0E0,0E0,0E0,0E0,0E0,0E0,0E0,0E0],"parents":[2147483647,0,0,1,1,2,2,5,5,6,6,7,7,8,8,9,9,10,10,11,11,12,12,14,14,15,15,17,17,18,18],"right_children":[2,4,6,-1,-1,8,10,12,14,16,18,20,22,-1,24,26,-1,28,30,-1,-1,-1,-1,-1,-1,-1,-1,-1,-1,-1,-1],"split_conditions":[4.5066854E-1,4.3295848E-1,7.005218E-1,-5.12082E-3,-2.2422548E-3,6.9413817E-1,7.070284E-1,6.8115175E-1,6.9504184E-1,7.049565E-1,8.0355215E-1,